svm_type c_svc
kernel_type rbf
gamma 2
nr_class 2
total_sv 15584
rho 4.67231
label 0 1
nr_sv 7727 7857
SV
2048 1:0.132584 2:0.117117 3:-0.00230947 4:-0.0850575 5:-0.128319 6:-0.0943396 
2048 1:0.204494 2:0.225225 3:0.136259 4:0.0344828 5:0.0221239 6:-0.0607966 
2048 1:0.164045 2:0.0990991 3:0.0484988 4:-0.016092 5:-0.0752212 6:-0.0901468 
2048 1:-0.550562 2:-0.626126 3:-0.727483 4:-0.724138 5:-0.676991 6:-0.698113 
2048 1:-0.532584 2:-0.490991 3:-0.635104 4:-0.733333 5:-0.654867 6:-0.639413 
2048 1:0.119101 2:0.00900901 3:0.0669746 4:0.108046 5:-0.0929204 6:-0.136268 
1224.085493180136 1:-0.703371 2:-0.644144 3:-0.621247 4:-0.747126 5:-0.734513 6:0.144654 
2048 1:0.155056 3:-0.0531178 4:-0.0712644 5:-0.0707965 6:-0.0943396 
2048 1:-0.469663 2:-0.554054 3:-0.672055 4:-0.710345 5:-0.730088 6:-0.765199 
2048 1:0.164045 2:0.671171 3:0.00230947 4:-0.172414 5:-0.274336 6:-0.194969 
2048 1:0.177528 2:0.0810811 3:0.117783 4:-0.0252874 5:-0.110619 6:-0.0230608 
2048 1:0.114607 2:0.13964 3:0.0531178 4:0.0390805 5:-0.0663717 6:-0.081761 
2048 1:-0.45618 2:-0.621622 3:-0.60739 4:-0.682759 5:-0.743363 6:-0.756813 
2048 1:-0.307865 2:-0.0945946 3:-0.187067 4:-0.190805 5:-0.154867 6:-0.274633 
2048 1:0.226966 2:0.13964 3:0.17321 4:0.0390805 5:0.0353982 6:-0.0566038 
2048 1:-0.00224719 2:0.0540541 3:-0.00692841 4:-0.126437 5:-0.0884956 6:-0.190776 
2048 1:0.226966 2:0.837838 3:0.0946882 4:0.0436782 5:-0.0752212 6:-0.0691824 
2048 1:-0.532584 2:-0.531532 3:-0.685912 4:-0.714943 5:-0.668142 6:-0.731656 
2048 1:0.00674157 2:-0.045045 3:-0.0300231 4:-0.250575 5:-0.331858 6:-0.316562 
2048 1:0.878652 2:0.121622 3:0.113164 4:0.0344828 5:0.0309735 6:-0.0859539 
2048 1:-0.52809 2:-0.527027 3:-0.602771 4:-0.586207 5:-0.721239 6:-0.69392 
2048 1:0.119101 2:0.783784 3:0.0300231 4:-0.0252874 5:-0.0663717 6:-0.174004 
536.8689703079411 1:-0.442697 2:0.148649 3:-0.621247 4:-0.655172 5:-0.721239 6:-0.790356 
2048 1:-0.159551 2:-0.121622 3:-0.145497 4:-0.264368 5:-0.207965 6:-0.266247 
2048 1:-0.532584 2:-0.594595 3:-0.60739 4:-0.724138 5:-0.716814 6:-0.744235 
2048 1:0.159551 2:0.0900901 3:0.0115473 4:-0.0528736 5:-0.110619 6:-0.115304 
2048 1:-0.0202247 2:-0.13964 3:-0.0161663 4:-0.273563 5:-0.185841 6:-0.232704 
2048 1:-0.550562 2:-0.666667 3:-0.65358 4:-0.756322 5:-0.716814 6:-0.740042 
2048 1:0.0337079 2:-0.0315315 3:-0.034642 4:-0.172414 5:-0.137168 6:-0.18239 
2048 1:-0.532584 2:-0.599099 3:-0.588915 4:-0.737931 5:-0.70354 6:-0.714885 
1564.04101541613 1:-0.141573 2:-0.0630631 3:-0.108545 4:-0.131034 5:-0.252212 6:0.786164 
244.2620818299036 1:-0.119101 2:-0.0225225 3:-0.228637 4:-0.172414 5:-0.265487 6:-0.262055 
2048 1:-0.532584 2:-0.463964 3:-0.750577 4:-0.76092 5:-0.761062 6:-0.714885 
2048 1:0.667416 2:-0.0585586 3:-0.0854503 4:-0.0942529 5:-0.19469 6:-0.257862 
2048 1:0.689888 2:-0.0540541 3:-0.145497 4:-0.0482759 5:-0.159292 6:-0.320755 
2048 1:-0.047191 2:-0.0990991 3:-0.108545 4:-0.177011 5:-0.0840708 6:-0.249476 
2048 1:0.047191 2:0.0045045 3:0.0669746 4:-0.00689655 5:-0.106195 6:-0.136268 
2048 1:0.159551 2:0.0630631 3:0.034642 4:0.016092 5:-0.0619469 6:-0.119497 
1492.530104054113 1:0.622472 2:-0.18018 3:-0.205543 4:-0.241379 5:-0.230088 6:-0.324948 
679.1481624810863 1:0.164045 2:-0.495495 3:-0.65358 4:-0.636782 5:-0.707965 6:-0.798742 
2048 1:-0.523596 2:-0.545045 3:-0.524249 4:-0.636782 5:-0.721239 6:-0.72327 
2048 1:0.137079 2:-0.00900901 3:0.0161663 4:-0.0482759 5:-0.265487 6:-0.29979 
2048 1:0.011236 2:0.621622 3:-0.113164 4:-0.163218 5:-0.190265 6:-0.333333 
2048 1:-0.101124 2:-0.162162 3:-0.159353 4:-0.245977 5:-0.230088 6:-0.345912 
2048 1:-0.586517 2:-0.59009 3:-0.579677 4:-0.728736 5:-0.672566 6:-0.781971 
2048 1:-0.510112 2:-0.599099 3:-0.542725 4:-0.664368 5:-0.690265 6:-0.672956 
2048 1:-0.0247191 2:-0.265766 3:-0.117783 4:-0.131034 5:-0.234513 6:-0.266247 
2048 1:-0.478652 2:-0.653153 3:-0.524249 4:-0.774713 5:-0.69469 6:-0.714885 
2048 1:0.011236 2:0.0405405 3:-0.0669746 4:-0.255172 5:-0.265487 6:-0.392034 
2048 1:-0.496629 2:-0.518018 3:-0.685912 4:-0.747126 5:-0.712389 6:-0.756813 
2048 1:0.155056 2:0.788288 3:-0.0254042 4:-0.00229885 5:-0.190265 6:-0.15304 
2048 1:-0.0426966 2:-0.162162 3:-0.0993072 4:-0.204598 5:-0.216814 6:-0.278826 
2048 1:0.0606742 2:0.135135 3:0.00230947 4:-0.0252874 5:-0.106195 6:-0.0985325 
2048 1:-0.0516854 2:-0.121622 3:-0.237875 4:-0.218391 5:-0.19469 6:-0.312369 
2048 1:0.173034 2:-0.045045 3:0.0577367 4:-0.250575 5:-0.243363 6:-0.291405 
2048 1:-0.640449 2:-0.563063 3:-0.796767 4:-0.696552 5:-0.734513 6:-0.777778 
2048 1:-0.649438 2:-0.509009 3:-0.741339 4:-0.797701 5:-0.69469 6:-0.710692 
2048 1:0.267416 2:0.882883 3:0.0438799 4:0.0666667 5:-0.0575221 6:-0.048218 
2048 1:-0.460674 2:-0.59009 3:-0.612009 4:-0.705747 5:-0.761062 6:-0.735849 
2048 1:-0.0337079 2:0.0810811 3:-0.034642 4:-0.236782 5:-0.29646 6:-0.387841 
2048 1:-0.451685 2:-0.54955 3:-0.584296 4:-0.622989 5:-0.725664 6:-0.735849 
2048 1:0.81573 2:0.126126 3:0.0438799 4:0.0528736 5:-0.0442478 6:-0.115304 
2048 1:0.222472 2:0.027027 3:-0.00230947 4:-0.00689655 5:-0.0353982 6:-0.0901468 
2048 1:-0.505618 2:-0.693694 3:-0.672055 4:-0.705747 5:-0.707965 6:-0.756813 
2048 1:-0.0426966 2:-0.189189 3:-0.034642 4:-0.135632 5:-0.19469 6:-0.245283 
2048 1:0.950562 2:0.243243 3:0.117783 4:0.0804598 5:0.0663717 6:0.0356394 
2048 1:-0.582022 2:-0.63964 3:-0.658199 4:-0.705747 5:-0.716814 6:-0.781971 
2048 1:0.123596 2:0.126126 3:0.0946882 4:0.0114943 5:-0.00884956 6:-0.178197 
2048 1:-0.114607 2:-0.0540541 3:0.0254042 4:-0.158621 5:-0.393805 6:-0.303983 
2048 1:-0.451685 2:-0.675676 3:-0.584296 4:-0.701149 5:-0.699115 6:-0.752621 
2048 1:-0.541573 2:-0.63964 3:-0.65358 4:-0.751724 5:-0.685841 6:-0.681342 
1357.67413677768 1:-0.505618 2:-0.716216 3:-0.648961 4:-0.724138 5:-0.792035 6:-0.727463 
2048 1:-0.0247191 2:-0.0945946 3:-0.13164 4:-0.186207 5:-0.212389 6:-0.24109 
1450.257527698156 1:-0.119101 2:-0.117117 3:-0.307159 4:-0.268966 5:-0.353982 6:-0.358491 
2048 1:0.689888 2:-0.0990991 3:-0.0438799 4:-0.0988506 5:-0.154867 6:-0.266247 
2048 1:-0.0337079 2:-0.0720721 3:-0.039261 4:-0.0988506 5:-0.110619 6:-0.291405 
2048 1:-0.617978 2:-0.644144 3:-0.598152 4:-0.687356 5:-0.716814 6:-0.740042 
2048 1:0.0337079 2:-0.018018 3:0.00692841 4:-0.158621 5:-0.0973451 6:-0.157233 
1053.943464798554 1:-0.105618 2:-0.0585586 3:-0.13164 4:-0.213793 5:-0.300885 6:-0.412998 
2048 1:-0.496629 2:-0.504505 3:-0.528868 4:-0.673563 5:-0.699115 6:-0.714885 
2048 1:0.186517 2:0.0135135 3:-0.150115 4:-0.149425 5:-0.411504 6:-0.199161 
2048 1:-0.469663 2:-0.558559 3:-0.593533 4:-0.664368 5:-0.743363 6:-0.731656 
2048 1:0.0786517 2:0.0855856 3:0.0300231 4:-0.0988506 5:-0.0619469 6:-0.0943396 
2048 1:0.303371 2:0.207207 3:0.200924 4:0.131034 5:-0.00442478 6:0.00209644 
2048 1:-0.119101 2:-0.0720721 3:-0.0715935 4:-0.163218 5:-0.256637 6:-0.203354 
2048 1:-0.78427 2:-0.522523 3:-0.584296 4:-0.577011 5:-0.672566 6:-0.802935 
2048 1:0.739326 2:0.045045 3:-0.168591 4:-0.0666667 5:-0.132743 6:-0.266247 
2048 1:0.213483 2:-0.0630631 3:0.0623557 4:-0.0390805 5:-0.10177 6:-0.274633 
2048 1:0.159551 2:0.0045045 3:0.145497 4:0.0712644 5:-0.00884956 6:-0.148847 
2048 1:-0.6 2:-0.617117 3:-0.662818 4:-0.678161 5:-0.747788 6:-0.765199 
2048 1:0.105618 2:0.144144 3:-0.0577367 4:-0.0896552 5:-0.0353982 6:-0.115304 
2048 1:0.182022 2:-0.0900901 3:0.0484988 4:-0.0298851 5:-0.0132743 6:-0.115304 
2048 1:-0.0966292 2:-0.0990991 3:-0.039261 4:-0.222989 5:-0.181416 6:-0.262055 
2048 1:0.0921348 2:0.0675676 3:0.117783 4:0.0114943 5:-0.0221239 6:-0.0859539 
2048 1:-0.442697 2:-0.671171 3:-0.69515 4:-0.678161 5:-0.756637 6:-0.794549 
2048 1:0.047191 2:0.0990991 3:0.0623557 4:-0.00689655 5:0.00442478 6:-0.207547 
2048 1:0.2 2:-0.0045045 3:-0.0900693 4:-0.0344828 5:-0.176991 6:-0.324948 
2048 1:-0.469663 2:-0.54955 3:-0.852194 4:-0.724138 5:-0.774336 6:-0.761006 
2048 1:-0.460674 2:-0.599099 3:-0.510393 4:-0.687356 5:-0.659292 6:-0.727463 
2048 1:-0.0921348 2:-0.103604 3:-0.0854503 4:-0.154023 5:-0.212389 6:-0.308176 
2048 1:0.802247 2:0.0540541 3:0.00230947 4:-0.0850575 5:-0.146018 6:-0.115304 
2048 1:-0.564045 2:-0.657658 3:-0.658199 4:-0.806897 5:-0.641593 6:-0.781971 
231.691163822044 1:-0.716854 2:-0.364865 3:-0.482679 4:-0.696552 5:-0.924779 6:-0.794549 
2048 1:0.137079 2:0.135135 3:-0.0254042 4:0.00229885 5:-0.0884956 6:-0.106918 
2048 1:-0.510112 2:-0.554054 3:-0.704388 4:-0.737931 5:-0.823009 6:-0.920335 
1605.782380958105 1:0.12809 2:0.0585586 3:0.0577367 4:-0.112644 5:-0.340708 6:-0.257862 
2048 1:0.0921348 2:0.144144 3:0.0993072 4:0.00229885 5:0.00442478 6:-0.081761 
907.852784004556 1:0.047191 2:0.130631 3:-0.0207852 4:-0.163218 5:-0.336283 6:-0.32914 
56.84149992623057 1:0.824719 2:0.810811 3:0.833718 4:-0.0298851 5:-0.0929204 6:-0.136268 
2048 1:0.0966292 2:0.0405405 3:0.0300231 4:-0.0666667 5:-0.110619 6:-0.111111 
2048 1:-0.0921348 2:0.0630631 3:-0.0300231 4:-0.0896552 5:-0.0840708 6:-0.174004 
2048 1:0.00674157 3:-0.0715935 4:-0.172414 5:-0.176991 6:-0.169811 
2048 1:-0.586517 2:-0.608108 3:-0.584296 4:-0.650575 5:-0.778761 6:-0.710692 
2048 1:-0.0651685 2:-0.0585586 3:-0.13164 4:-0.209195 5:-0.20354 6:-0.287212 
2048 1:0.833708 2:0.0990991 3:0.0669746 4:-0.0896552 5:-0.0707965 6:-0.132075 
2048 1:0.766292 2:0.036036 3:0.0577367 4:-0.062069 5:-0.207965 6:-0.140461 
2048 1:0.0786517 2:-0.0045045 3:-0.0993072 4:-0.144828 5:-0.261062 6:-0.375262 
1135.511479901259 1:0.123596 2:-0.117117 3:-0.177829 4:-0.273563 5:-0.172566 6:0.786164 
2048 1:-0.48764 2:-0.612613 3:-0.65358 4:-0.733333 5:-0.668142 6:-0.769392 
2048 1:-0.559551 2:-0.617117 3:-0.672055 4:-0.627586 5:-0.699115 6:-0.761006 
2048 1:-0.568539 2:-0.738739 3:-0.681293 4:-0.691954 5:-0.734513 6:-0.740042 
2048 1:-0.0292135 2:-0.171171 3:-0.0808314 4:-0.213793 5:-0.19469 6:-0.324948 
2048 1:-0.235955 2:-0.135135 3:-0.330254 4:-0.282759 5:-0.384956 6:-0.371069 
2048 1:-0.141573 2:0.527027 3:-0.140878 4:-0.213793 5:-0.119469 6:-0.132075 
2048 1:0.550562 2:-0.130631 3:-0.0993072 4:-0.135632 5:-0.079646 6:-0.140461 
2048 1:-0.474157 2:-0.608108 3:-0.547344 4:-0.742529 5:-0.544248 6:-0.651992 
2048 1:0.582022 2:-0.175676 3:-0.0993072 4:-0.112644 5:-0.0663717 6:-0.106918 
2048 1:0.0741573 2:0.0720721 3:-0.0808314 4:-0.0712644 5:-0.0884956 6:-0.0901468 
2048 1:-0.496629 2:-0.608108 3:-0.630485 4:-0.632184 5:-0.557522 6:-0.60587 
2048 1:0.0337079 2:0.702703 3:0.0623557 4:0.701149 5:0.132743 6:0.0440252 
2048 1:0.622472 2:-0.225225 3:-0.0900693 4:-0.0988506 5:-0.00442478 6:-0.111111 
2048 1:-0.451685 2:-0.68018 3:-0.598152 4:-0.613793 5:-0.561947 6:-0.807128 
1101.553825113618 1:0.0292135 2:-0.0675676 3:0.56582 4:-0.213793 5:-0.181416 6:-0.308176 
2048 1:-0.0606742 2:-0.175676 3:-0.284065 4:-0.177011 5:-0.230088 6:-0.245283 
2048 1:-0.474157 2:-0.72973 3:-0.612009 4:-0.641379 5:-0.668142 6:-0.698113 
2048 1:-0.582022 2:-0.626126 3:-0.644342 4:-0.622989 5:-0.668142 6:-0.744235 
1600.162362205868 1:-0.658427 2:-0.684685 3:-0.579677 4:-0.71954 5:-0.681416 6:-0.815514 
2048 1:0.0247191 2:-0.0810811 3:0.00692841 4:-0.0988506 5:-0.110619 6:-0.0943396 
2048 1:0.00224719 2:0.0900901 3:0.0254042 4:-0.062069 5:-0.137168 6:-0.081761 
2048 1:-0.617978 2:-0.612613 3:-0.755196 4:-0.71954 5:-0.716814 6:-0.719078 
2048 1:0.0651685 2:-0.0765766 3:-0.0531178 4:-0.062069 5:-0.150442 6:-0.140461 
2048 1:-0.0921348 2:-0.225225 3:-0.0669746 4:-0.0436782 5:-0.0707965 6:-0.165618 
2048 1:-0.258427 2:-0.0855856 3:0.00692841 4:-0.172414 5:-0.0973451 6:-0.148847 
2048 1:-0.766292 2:-0.630631 3:-0.676674 4:-0.678161 5:-0.699115 6:-0.819706 
2048 1:-0.532584 2:-0.743243 3:-0.690531 4:-0.714943 5:-0.721239 6:-0.740042 
2048 1:0.00224719 2:-0.0135135 3:-0.0254042 4:-0.121839 5:-0.106195 6:-0.165618 
2048 1:-0.676404 2:-0.648649 3:-0.584296 4:-0.618391 5:-0.628319 6:-0.727463 
2048 1:0.213483 2:0.193694 3:0.0993072 4:-0.0114943 5:-0.0221239 6:-0.0566038 
2048 1:-0.465169 2:-0.617117 3:-0.612009 4:-0.733333 5:-0.712389 6:-0.719078 
2048 1:-0.182022 2:-0.198198 3:-0.214781 4:-0.195402 5:-0.234513 6:-0.287212 
2048 1:0.0337079 2:-0.00900901 3:-0.0300231 4:-0.0896552 5:-0.150442 6:-0.165618 
2048 1:0.235955 2:0.0990991 3:0.0531178 4:-0.0666667 5:0.00442478 6:-0.111111 
2048 1:-0.483146 2:-0.509009 3:-0.575058 4:-0.645977 5:-0.69469 6:-0.727463 
2048 1:-0.0876404 2:-0.018018 3:-0.0900693 4:-0.14023 5:-0.199115 6:-0.215933 
2048 1:0.280899 2:0.027027 3:0.00692841 4:-0.0804598 5:-0.159292 6:-0.18239 
2048 1:0.617978 2:-0.00900901 3:-0.0161663 4:-0.195402 5:-0.216814 6:-0.24109 
2048 1:-0.150562 2:-0.144144 3:-0.17321 4:-0.232184 5:-0.185841 6:-0.257862 
2048 1:-0.249438 2:-0.130631 3:-0.0808314 4:-0.227586 5:-0.176991 6:-0.224319 
2048 1:-0.658427 2:-0.666667 3:-0.727483 4:-0.76092 5:-0.707965 6:-0.756813 
2048 1:-0.546067 2:-0.707207 3:-0.713626 4:-0.678161 5:-0.668142 6:-0.798742 
2048 1:0.0426966 2:-0.108108 3:-0.0115473 4:-0.121839 5:-0.0929204 6:-0.136268 
2048 1:0.0337079 2:0.0720721 3:-0.00230947 4:-0.149425 5:-0.039823 6:-0.0985325 
2048 1:0.12809 2:-0.0855856 3:-0.0577367 4:-0.0850575 5:-0.0442478 6:-0.194969 
2048 1:-0.047191 2:-0.0495495 3:-0.0577367 4:-0.0712644 5:-0.0840708 6:-0.169811 
2048 1:-0.591011 2:-0.540541 3:-0.616628 4:-0.678161 5:-0.668142 6:-0.765199 
2048 1:-0.177528 2:0.166667 3:0.034642 4:-0.0298851 5:-0.115044 6:-0.0901468 
2048 1:0.110112 2:0.0135135 3:-0.0254042 4:-0.177011 5:-0.0575221 6:-0.127883 
2048 1:-0.110112 2:-0.171171 3:-0.113164 4:-0.218391 5:-0.274336 6:-0.278826 
2048 1:0.12809 2:-0.0765766 3:0.00230947 4:-0.062069 5:-0.0663717 6:-0.127883 
2048 1:0.321348 2:0.315315 3:0.284065 4:0.278161 5:0.185841 6:0.119497 
2048 1:-0.047191 2:-0.112613 3:-0.127021 4:-0.2 5:-0.19469 6:-0.262055 
2048 1:0.191011 2:0.0855856 3:0.154734 4:0.0482759 5:-0.00442478 6:-0.111111 
2048 1:-0.505618 2:-0.603604 3:-0.602771 4:-0.710345 5:-0.676991 6:-0.769392 
2048 1:-0.514607 2:-0.608108 3:-0.681293 4:-0.710345 5:-0.716814 6:-0.756813 
2048 1:-0.0696629 2:-0.0720721 3:-0.117783 4:-0.144828 5:-0.185841 6:-0.291405 
2048 1:-0.537079 2:-0.599099 3:-0.538106 4:-0.641379 5:-0.659292 6:-0.706499 
2048 1:-0.469663 2:-0.545045 3:-0.672055 4:-0.714943 5:-0.712389 6:-0.777778 
2048 1:-0.577528 2:-0.472973 3:-0.616628 4:-0.770115 5:-0.641593 6:-0.777778 
2048 1:0.213483 2:0.144144 3:-0.0300231 4:0.016092 5:0.0265487 6:-0.0524109 
2048 1:0.137079 2:0.162162 3:0.0115473 4:-0.0206897 5:-0.106195 6:-0.0649895 
2048 1:-0.0292135 2:-0.202703 3:-0.103926 4:-0.112644 5:-0.230088 6:-0.287212 
2048 1:0.123596 2:-0.0540541 3:-0.117783 4:-0.0850575 5:-0.176991 6:-0.0859539 
2048 1:-0.667416 2:-0.662162 3:-0.667436 4:-0.710345 5:-0.69469 6:-0.765199 
2048 1:0.141573 2:0.0900901 3:-0.0531178 4:-0.0206897 5:-0.0442478 6:-0.165618 
2048 1:-0.505618 2:-0.518018 3:-0.621247 4:-0.71954 5:-0.663717 6:-0.69392 
2048 1:0.2 2:0.153153 3:-0.0623557 4:-0.0712644 5:-0.106195 6:-0.106918 
2048 1:-0.119101 2:-0.0540541 3:-0.196305 4:-0.227586 5:-0.225664 6:-0.262055 
2048 1:0.0157303 2:0.0765766 3:0.039261 4:-0.103448 5:-0.0530973 6:-0.174004 
2048 1:-0.748315 2:-0.698198 3:-0.644342 4:-0.691954 5:-0.654867 6:-0.756813 
873.0910558347955 1:-0.492135 2:-0.558559 3:-0.621247 4:-0.733333 5:-0.823009 6:-0.69392 
2048 1:0.0337079 2:0.108108 3:-0.0254042 4:-0.0252874 5:-0.132743 6:-0.106918 
2048 1:0.716854 2:0.0585586 3:-0.0900693 4:-0.0804598 5:-0.146018 6:-0.174004 
2048 1:-0.496629 2:-0.707207 3:-0.612009 4:-0.632184 5:-0.712389 6:-0.798742 
2048 1:-0.483146 2:-0.608108 3:-0.56582 4:-0.710345 5:-0.721239 6:-0.698113 
2048 1:-0.577528 2:-0.662162 3:-0.510393 4:-0.664368 5:-0.69469 6:-0.731656 
2048 1:-0.0337079 2:-0.0405405 3:-0.154734 4:-0.149425 5:-0.168142 6:-0.278826 
2048 1:-0.501124 2:-0.495495 3:-0.635104 4:-0.682759 5:-0.840708 6:-0.706499 
427.1186091761917 1:-0.442697 2:0.148649 3:-0.598152 4:-0.705747 5:-0.646018 6:-0.794549 
2048 1:-0.483146 2:-0.472973 3:-0.551963 4:-0.645977 5:-0.672566 6:-0.735849 
2048 1:0.011236 2:0.0720721 3:-0.0623557 4:-0.0574713 5:-0.0752212 6:-0.127883 
2048 1:0.00224719 2:0.0900901 3:-0.0207852 4:-0.112644 5:-0.0486726 6:-0.140461 
2048 1:0.164045 2:-0.527027 3:-0.561201 4:-0.632184 5:-0.654867 6:-0.719078 
2048 1:-0.474157 2:-0.540541 3:-0.376443 4:-0.393103 5:-0.460177 6:-0.589099 
2048 1:-0.653933 2:-0.522523 3:-0.510393 4:-0.544828 5:-0.522124 6:-0.660377 
2048 1:-0.483146 2:-0.581081 3:-0.635104 4:-0.650575 5:-0.579646 6:-0.559748 
2048 1:-0.101124 2:-0.220721 3:0.538106 4:-0.213793 5:-0.0973451 6:-0.224319 
2048 1:-0.0651685 2:-0.0495495 3:-0.0946882 4:-0.213793 5:-0.110619 6:-0.157233 
2048 1:-0.159551 2:-0.211712 3:-0.163972 4:-0.126437 5:-0.106195 6:-0.148847 
74.06511588457747 1:-0.00674157 2:0.603604 3:0.621247 4:0.6 5:0.637168 6:0.568134 
2048 1:-0.496629 2:-0.518018 3:-0.515012 4:-0.6 5:-0.5 6:-0.542977 
2048 1:0.0337079 2:0.788288 3:0.103926 4:0.0666667 5:0.0486726 6:0.127883 
2048 1:0.208989 2:0.815315 3:0.145497 4:0.0758621 5:-0.0353982 6:-0.119497 
406.3529747425967 1:-0.370787 2:0.148649 3:0.154734 4:-0.586207 5:-0.429204 6:-0.51782 
2048 1:-0.537079 2:-0.666667 3:-0.741339 4:-0.733333 5:-0.70354 6:-0.714885 
2048 1:-0.595506 2:-0.554054 3:-0.690531 4:-0.77931 5:-0.668142 6:-0.710692 
2048 1:0.12809 2:0.0585586 3:0.0115473 4:-0.0758621 5:-0.00442478 6:-0.106918 
2048 1:-0.00224719 2:0.00900901 3:-0.0762125 4:-0.0758621 5:-0.0176991 6:-0.119497 
2048 1:-0.667416 2:-0.662162 3:-0.612009 4:-0.618391 5:-0.548673 6:-0.593291 
2048 1:-0.101124 2:-0.202703 3:-0.117783 4:-0.177011 5:-0.269912 6:-0.224319 
2048 1:-0.52809 2:-0.662162 3:-0.727483 4:-0.724138 5:-0.641593 6:-0.660377 
2048 1:-0.469663 2:-0.608108 3:-0.722864 4:-0.747126 5:-0.659292 6:-0.727463 
2048 1:-0.519101 2:-0.738739 3:-0.672055 4:-0.756322 5:-0.721239 6:-0.698113 
2048 1:0.123596 2:0.0135135 3:0.0993072 4:-0.016092 5:-0.0353982 6:-0.0733753 
2048 1:0.141573 2:0.0135135 3:0.0438799 4:0.016092 5:-0.0132743 6:-0.0104822 
2048 1:0.0382022 2:0.0045045 3:-0.0254042 4:0.0482759 5:0.0265487 6:-0.12369 
2048 1:-0.0876404 2:-0.0945946 3:-0.039261 4:-0.121839 5:-0.0530973 6:-0.169811 
2048 1:0.0292135 2:0.0540541 3:0.0531178 4:-0.0712644 5:-0.00442478 6:-0.148847 
2048 1:-0.519101 2:-0.536036 3:-0.709007 4:-0.696552 5:-0.787611 6:-0.710692 
2048 1:0.685393 2:0.0405405 3:-0.0254042 4:-0.149425 5:-0.106195 6:-0.169811 
2048 1:0.119101 2:0.117117 3:0.163972 4:0.112644 5:0.0929204 6:0.144654 
2048 1:-0.550562 2:-0.698198 3:-0.593533 4:-0.632184 5:-0.716814 6:-0.752621 
2048 1:-0.0247191 2:-0.135135 3:-0.0254042 4:-0.0344828 5:-0.0309735 6:-0.0733753 
2048 1:0.0292135 2:0.0315315 3:0.0623557 4:0.149425 5:0.0353982 6:0.0104822 
2048 1:0.011236 2:-0.0405405 3:0.0300231 4:-0.0114943 5:0.0309735 6:-0.081761 
2048 1:-0.555056 2:-0.779279 3:-0.482679 4:-0.609195 5:-0.566372 6:-0.584906 
2048 1:0.0876404 2:0.0855856 3:0.13164 4:0.0850575 5:0.0486726 6:0.0566038 
2048 1:-0.649438 2:-0.581081 3:-0.644342 4:-0.710345 5:-0.650442 6:-0.57652 
2048 1:0.0651685 2:-0.0045045 3:0.0577367 4:-0.0252874 5:0.0663717 6:-0.0943396 
2048 1:0.0651685 2:-0.045045 3:0.0715935 4:-0.112644 5:-0.0265487 6:-0.186583 
2048 1:-0.550562 2:-0.693694 3:-0.699769 4:-0.691954 5:-0.743363 6:-0.69392 
2048 1:-0.0157303 2:0.0495495 3:0.00692841 4:-0.0896552 5:-0.185841 6:-0.111111 
2048 1:0.0696629 2:-0.0765766 3:-0.122402 4:-0.144828 5:-0.119469 6:-0.24109 
2048 1:-0.101124 2:-0.0225225 3:-0.0762125 4:-0.0298851 5:-0.0486726 6:-0.144654 
2048 1:0.0606742 2:0.0990991 3:0.0946882 4:0.00229885 5:-0.0663717 6:-0.0901468 
2048 1:0.235955 2:0.0585586 3:0.13164 4:0.0436782 5:-0.00442478 6:-0.111111 
2048 1:0.204494 2:0.175676 3:0.0762125 4:0.0666667 5:0.0176991 6:-0.0901468 
2048 1:-0.74382 2:-0.684685 3:-0.764434 4:-0.678161 5:-0.707965 6:-0.685535 
2048 1:0.110112 2:0.0630631 3:0.0762125 4:0.0758621 5:0.0176991 6:-0.119497 
2048 1:-0.047191 2:-0.018018 3:-0.0531178 4:-0.0206897 5:-0.0132743 6:-0.119497 
2048 1:-0.186517 2:0.0315315 3:-0.0207852 4:-0.00229885 5:-0.0663717 6:-0.140461 
2048 1:-0.0202247 2:-0.0045045 3:-0.00692841 4:-0.131034 5:-0.123894 6:-0.199161 
2048 1:0.105618 2:0.0135135 3:0.0531178 4:0.00689655 5:-0.0353982 6:-0.0272537 
2048 1:-0.492135 2:-0.567568 3:-0.676674 4:-0.696552 5:-0.738938 6:-0.685535 
2048 1:0.0247191 2:-0.0675676 3:-0.150115 4:-0.103448 5:-0.10177 6:-0.165618 
2048 1:0.0516854 2:0.0135135 3:0.0161663 4:0.00689655 5:-0.00442478 6:-0.224319 
2048 1:-0.244944 2:-0.108108 3:-0.196305 4:-0.218391 5:-0.181416 6:-0.278826 
1396.6794885648 1:-0.555056 2:0.148649 3:-0.736721 4:-0.747126 5:-0.69469 6:-0.677149 
2048 1:0.2 2:-0.0540541 3:0.034642 4:-0.0252874 5:-0.0309735 6:-0.253669 
2048 1:-0.622472 2:-0.626126 3:-0.727483 4:-0.774713 5:-0.712389 6:-0.719078 
2048 1:0.177528 2:0.144144 3:0.0531178 4:-0.0206897 5:-0.0442478 6:-0.0566038 
2048 1:0.119101 2:0.045045 3:0.2194 4:-0.00229885 5:-0.0619469 6:-0.0440252 
2048 1:0.0966292 2:0.112613 3:0.0900693 4:-0.0666667 5:-0.0176991 6:-0.0691824 
2048 1:0.0651685 2:-0.117117 3:0.00230947 4:-0.108046 5:-0.150442 6:-0.190776 
2048 1:0.235955 2:0.112613 3:0.163972 4:-0.0436782 5:-0.0132743 6:-0.0985325 
2048 1:0.119101 2:0.0675676 3:0.136259 4:0.0114943 5:0.0353982 6:-0.111111 
2048 1:-0.483146 2:-0.509009 3:-0.685912 4:-0.728736 5:-0.707965 6:-0.744235 
369.8013999060136 1:0.105618 2:0.0945946 3:0.644342 4:-0.324138 5:-0.20354 6:-0.236897 
2048 1:0.0202247 2:0.0585586 3:0.0808314 4:-0.0758621 5:-0.176991 6:-0.383648 
2048 1:0.164045 2:-0.608108 3:-0.639723 4:-0.687356 5:-0.730088 6:-0.689727 
2048 1:0.217978 2:0.036036 3:0.039261 4:-0.0298851 6:-0.0607966 
2048 1:0.141573 2:0.0315315 3:0.0715935 4:-0.0344828 5:-0.0929204 6:-0.119497 
2048 1:-0.591011 2:-0.617117 3:-0.635104 4:-0.65977 5:-0.712389 6:-0.811321 
2048 1:-0.011236 2:-0.036036 3:-0.0531178 4:0.016092 5:-0.0707965 6:-0.132075 
2048 1:0.0426966 2:0.112613 3:0.0484988 4:-0.0298851 5:-0.0752212 6:-0.136268 
2048 1:0.110112 2:0.144144 3:0.0623557 4:0.00229885 5:-0.0221239 6:-0.081761 
2048 1:-0.635955 2:-0.684685 3:-0.639723 4:-0.751724 5:-0.681416 6:-0.802935 
2048 1:0.105618 2:-0.0675676 3:0.0715935 4:0.00689655 5:-0.0132743 6:-0.0314465 
2048 1:-0.582022 2:-0.59009 3:-0.699769 4:-0.742529 5:-0.681416 6:-0.811321 
2048 1:0.164045 2:-0.635135 3:-0.801386 4:-0.71954 5:-0.743363 6:-0.781971 
2048 1:-0.734831 2:-0.581081 3:-0.639723 4:-0.724138 5:-0.685841 6:-0.802935 
2048 1:0.164045 2:0.13964 3:0.0623557 4:0.0298851 5:0.00442478 6:-0.111111 
2048 1:0.105618 2:0.0540541 3:-0.0300231 4:-0.016092 5:-0.154867 6:-0.0901468 
2048 1:-0.0202247 2:-0.0585586 3:-0.00230947 4:-0.126437 5:-0.115044 6:-0.207547 
2048 1:-0.573034 2:-0.657658 3:-0.538106 4:-0.71954 5:-0.712389 6:-0.744235 
2048 1:-0.658427 2:-0.693694 3:-0.69515 4:-0.618391 5:-0.699115 6:-0.790356 
2048 1:0.348315 2:0.211712 3:0.103926 4:0.062069 5:0.0265487 6:0.0230608 
2048 1:-0.573034 2:-0.531532 3:-0.796767 4:-0.797701 5:-0.610619 6:-0.752621 
2048 1:-0.00224719 2:-0.027027 3:-0.0854503 4:-0.0896552 5:-0.106195 6:-0.102725 
2048 1:0.0786517 2:0.0135135 3:0.0254042 4:-0.0574713 5:-0.0752212 6:-0.0943396 
2048 1:0.0337079 2:-0.0675676 3:0.0254042 4:-0.2 5:-0.146018 6:-0.174004 
2048 1:-0.478652 2:-0.657658 3:-0.551963 4:-0.751724 5:-0.738938 6:-0.69392 
2048 1:0.105618 2:0.0540541 3:-0.0207852 4:0.00229885 5:-0.079646 6:-0.132075 
2048 1:-0.0202247 2:0.0225225 3:-0.039261 4:-0.0850575 5:-0.0707965 6:-0.174004 
2048 1:0.123596 2:0.135135 3:0.127021 4:0.062069 5:-0.0840708 6:-0.0607966 
2048 1:-0.0202247 2:0.0720721 3:0.0254042 4:-0.0482759 5:-0.0575221 6:-0.157233 
2048 1:-0.505618 2:-0.59009 3:-0.672055 4:-0.728736 5:-0.707965 6:-0.72327 
2048 1:0.240449 2:0.0990991 3:-0.039261 4:-0.0574713 5:-0.0929204 6:-0.119497 
2048 1:-0.496629 2:-0.576577 3:-0.538106 4:-0.622989 5:-0.721239 6:-0.727463 
2048 1:0.0921348 2:0.130631 3:-0.0438799 4:-0.00229885 5:-0.0575221 6:-0.0146751 
2048 1:-0.48764 2:-0.531532 3:-0.662818 4:-0.742529 5:-0.738938 6:-0.710692 
2048 1:0.0157303 2:-0.0900901 3:0.127021 4:-0.0206897 5:-0.0486726 6:-0.161426 
2048 1:-0.492135 2:-0.558559 3:-0.630485 4:-0.77931 5:-0.707965 6:-0.731656 
2048 1:-0.730337 2:-0.626126 3:-0.556582 4:-0.673563 5:-0.840708 6:-0.698113 
2048 1:0.81573 2:0.0045045 3:0.0623557 4:-0.016092 5:-0.110619 6:-0.111111 
2048 1:-0.0337079 2:0.036036 3:-0.0115473 4:-0.0528736 5:-0.0929204 6:-0.186583 
2048 1:-0.48764 2:-0.585586 3:-0.584296 4:-0.71954 5:-0.734513 6:-0.698113 
2048 1:0.0786517 2:0.783784 3:0.163972 4:0.0436782 5:-0.0752212 6:-0.132075 
1368.113188435364 1:-0.191011 2:0.815315 3:0.136259 4:0.016092 5:-0.137168 6:-0.0901468 
2048 1:-0.510112 2:-0.5 3:-0.588915 4:-0.747126 5:-0.676991 6:-0.727463 
2048 1:-0.451685 2:-0.378378 3:-0.533487 4:-0.682759 5:-0.69469 6:-0.702306 
2048 1:0.0741573 2:0.117117 3:0.0623557 4:-0.0850575 5:-0.0353982 6:-0.0901468 
2048 1:0.694382 2:-0.144144 3:-0.034642 4:-0.108046 5:-0.238938 6:-0.12369 
2048 1:-0.447191 2:-0.477477 3:-0.556582 4:-0.577011 5:-0.553097 6:-0.681342 
2048 1:0.2 2:0.824324 3:0.00692841 4:-0.00689655 5:0.0840708 6:0.00209644 
2048 1:0.253933 2:0.225225 3:0.00692841 4:0.0114943 5:-0.0353982 6:-0.0440252 
2048 1:-0.501124 2:-0.378378 3:-0.593533 4:-0.664368 5:-0.610619 6:-0.735849 
224.7576506762464 1:0.164045 2:-0.518018 3:-0.575058 4:-0.622989 5:-0.579646 6:-0.815514 
2048 1:-0.577528 2:-0.54955 3:-0.685912 4:-0.811494 5:-0.659292 6:-0.706499 
2048 1:-0.586517 2:-0.63964 3:-0.570439 4:-0.710345 5:-0.734513 6:-0.714885 
2048 1:0.748315 2:0.0945946 3:0.034642 4:-0.163218 5:-0.0663717 6:-0.203354 
855.1754814371468 1:0.164045 2:-0.5 3:-0.551963 4:-0.622989 5:-0.699115 6:-0.710692 
2048 1:0.105618 2:0.617117 3:-0.0254042 4:-0.222989 5:-0.20354 6:-0.245283 
2048 1:-0.653933 2:-0.536036 3:-0.699769 4:-0.783908 5:-0.716814 6:-0.731656 
2048 1:-0.608989 2:-0.504505 3:-0.658199 4:-0.696552 5:-0.747788 6:-0.731656 
1206.621815448902 1:-0.667416 2:-0.617117 3:-0.898383 4:-0.82069 5:-0.915929 6:-0.844864 
2048 1:-0.865169 2:-0.527027 3:-0.667436 4:-0.774713 5:-0.743363 6:-0.69392 
2048 1:-0.0247191 2:-0.0720721 3:-0.0669746 4:-0.108046 5:-0.123894 6:-0.148847 
2048 1:0.173034 2:-0.00900901 3:-0.0715935 4:0.0712644 5:0.0309735 6:-0.106918 
2048 1:0.626966 2:-0.301802 3:-0.159353 4:-0.296552 5:-0.261062 6:-0.249476 
2048 1:-0.469663 2:-0.522523 3:-0.658199 4:-0.655172 5:-0.730088 6:-0.727463 
2048 1:0.114607 2:0.157658 3:0.13164 4:0.108046 5:0.0132743 6:-0.0440252 
2048 1:-0.595506 2:-0.563063 3:-0.625866 4:-0.71954 5:-0.734513 6:-0.731656 
2048 1:0.114607 2:-0.0945946 3:-0.0854503 4:-0.121839 5:-0.0840708 6:-0.148847 
2048 1:-0.613483 2:-0.621622 3:-0.612009 4:-0.728736 5:-0.70354 6:-0.769392 
2048 1:-0.123596 2:-0.0585586 3:-0.0900693 4:-0.2 5:-0.19469 6:-0.203354 
2048 1:-0.114607 2:-0.0540541 3:-0.311778 4:-0.213793 5:-0.362832 6:-0.371069 
2048 1:-0.478652 2:-0.554054 3:-0.681293 4:-0.701149 5:-0.743363 6:-0.756813 
2048 1:-0.622472 2:-0.518018 3:-0.630485 4:-0.701149 5:-0.738938 6:-0.710692 
2048 1:-0.0561798 2:-0.036036 3:-0.00692841 4:-0.190805 5:-0.115044 6:-0.224319 
2048 1:0.119101 2:0.148649 3:0.0623557 4:-0.0344828 5:-0.10177 6:-0.106918 
2048 1:0.0292135 2:-0.018018 3:-0.0531178 4:-0.103448 5:-0.0265487 6:-0.207547 
2048 1:0.182022 2:0.130631 3:0.034642 4:0.00689655 5:0.00884956 6:-0.0272537 
2048 1:-0.011236 2:0.0630631 3:0.0254042 4:-0.0436782 5:-0.0840708 6:-0.127883 
2048 1:-0.0516854 2:-0.0810811 3:-0.0808314 4:-0.190805 5:-0.181416 6:-0.165618 
2048 1:-0.568539 2:-0.563063 3:-0.588915 4:-0.645977 5:-0.792035 6:-0.698113 
2048 1:-0.0292135 2:-0.0810811 3:-0.0808314 4:-0.117241 5:-0.207965 6:-0.236897 
2048 1:-0.0202247 2:0.0630631 3:-0.0531178 4:-0.158621 5:-0.123894 6:-0.136268 
2048 1:0.0157303 2:0.617117 3:-0.0207852 4:-0.135632 5:-0.0707965 6:-0.161426 
2048 1:0.52809 2:-0.162162 3:-0.279446 4:-0.278161 5:-0.367257 6:-0.412998 
2048 1:-0.595506 2:-0.522523 3:-0.621247 4:-0.696552 5:-0.738938 6:-0.731656 
2048 1:-0.123596 2:-0.355856 3:-0.154734 4:-0.388506 5:-0.327434 6:-0.442348 
2048 1:-0.45618 2:-0.522523 3:-0.65358 4:-0.691954 5:-0.716814 6:-0.677149 
2048 1:-0.469663 2:0.148649 3:-0.662818 4:-0.687356 5:-0.69469 6:-0.744235 
2048 1:-0.469663 2:-0.554054 3:-0.65358 4:-0.710345 5:-0.641593 6:-0.769392 
2048 1:0.213483 2:-0.0855856 3:0.0993072 4:-0.0206897 5:0.0353982 6:-0.0943396 
2048 1:-0.564045 2:-0.59009 3:-0.575058 4:-0.714943 5:-0.650442 6:-0.740042 
2048 1:-0.0157303 2:-0.018018 3:-0.0993072 4:-0.172414 5:-0.172566 6:-0.194969 
967.5593103079475 1:-0.0876404 2:-0.0990991 3:-0.0715935 4:-0.144828 5:-0.20354 6:-0.417191 
2048 1:-0.653933 2:-0.576577 3:-0.648961 4:-0.65977 5:-0.730088 6:-0.727463 
2048 1:0.159551 2:0.0675676 3:-0.0438799 4:-0.172414 5:-0.261062 6:-0.262055 
2048 1:0.164045 2:-0.468468 3:-0.699769 4:-0.756322 5:-0.628319 6:-0.685535 
2048 1:0.757303 2:0.0135135 3:-0.0161663 4:-0.14023 5:-0.079646 6:-0.215933 
2048 1:-0.573034 2:-0.621622 3:-0.842956 4:-0.733333 5:-0.743363 6:-0.765199 
2048 1:-0.586517 2:-0.576577 3:-0.745958 4:-0.655172 5:-0.783186 6:-0.727463 
2048 1:-0.0561798 2:-0.0765766 3:-0.113164 4:-0.154023 5:-0.20354 6:-0.262055 
2048 1:-0.168539 2:-0.027027 3:-0.0946882 4:-0.190805 5:-0.154867 6:-0.232704 
2048 1:0.0876404 2:0.112613 3:-0.00230947 4:-0.0666667 5:-0.0353982 6:-0.115304 
2048 1:-0.0966292 2:-0.13964 3:-0.136259 4:-0.195402 5:-0.261062 6:-0.396226 
2048 1:-0.48764 2:-0.486486 3:-0.690531 4:-0.632184 5:-0.823009 6:-0.731656 
2048 1:-0.011236 2:-0.0990991 3:-0.136259 4:-0.2 5:-0.225664 6:-0.257862 
2048 1:-0.626966 2:-0.554054 3:-0.616628 4:-0.765517 5:-0.699115 6:-0.727463 
2048 1:-0.0741573 2:-0.0990991 3:-0.224018 4:-0.181609 5:-0.243363 6:-0.194969 
2048 1:-0.0292135 2:-0.0765766 3:-0.0531178 4:-0.135632 5:-0.185841 6:-0.232704 
2048 1:-0.132584 2:-0.243243 3:-0.17321 4:-0.167816 5:-0.176991 6:-0.24109 
2048 1:-0.00674157 2:-0.0900901 3:-0.182448 4:-0.172414 5:-0.190265 6:-0.207547 
2048 1:-0.123596 2:-0.153153 3:-0.0762125 4:-0.255172 5:-0.221239 6:-0.29979 
2048 1:-0.204494 2:-0.103604 3:-0.228637 4:-0.218391 5:-0.216814 6:-0.283019 
2048 1:0.123596 2:0.621622 3:-0.210162 4:-0.154023 5:-0.269912 6:-0.291405 
2048 1:-0.0202247 2:0.72973 3:-0.0438799 4:-0.126437 5:-0.0486726 6:-0.278826 
2048 1:-0.492135 2:-0.522523 3:-0.727483 4:-0.664368 5:-0.778761 6:-0.727463 
186.4912836798234 1:0.685393 2:-0.0945946 3:-0.145497 4:-0.245977 5:-0.252212 6:-0.178197 
2048 1:0.793258 2:0.036036 3:0.0531178 4:-0.0528736 5:-0.0619469 6:-0.15304 
2048 1:-0.105618 2:-0.243243 3:-0.182448 4:-0.273563 5:-0.345133 6:-0.220126 
1997.396240672111 1:-0.0561798 2:0.612613 3:-0.13164 4:-0.232184 5:-0.243363 6:-0.291405 
536.5527597952378 1:-0.105618 2:-0.373874 3:-0.17321 4:-0.383908 5:-0.358407 6:-0.412998 
2048 1:-0.231461 2:-0.31982 3:-0.237875 4:-0.227586 5:-0.265487 6:-0.295597 
1752.390710663631 1:-0.0696629 2:-0.121622 3:-0.265589 4:-0.268966 5:-0.469027 6:-0.354298 
2048 1:0.011236 2:-0.211712 3:-0.13164 4:-0.2 5:-0.154867 6:-0.278826 
2048 1:-0.123596 2:-0.112613 3:-0.108545 4:-0.236782 5:-0.190265 6:-0.266247 
2048 1:-0.164045 2:-0.148649 3:-0.0762125 4:-0.108046 5:-0.141593 6:-0.161426 
2048 1:-0.577528 2:-0.734234 3:-0.699769 4:-0.737931 5:-0.681416 6:-0.802935 
2048 1:0.851685 3:-0.00692841 4:-0.0666667 5:-0.0840708 6:-0.132075 
2048 1:0.2 2:0.117117 3:0.0900693 4:-0.0758621 5:-0.0132743 6:0.00209644 
2048 1:-0.0247191 2:-0.0225225 3:-0.00692841 4:-0.0298851 5:-0.0884956 6:-0.21174 
2048 1:-0.626966 2:-0.59009 3:-0.676674 4:-0.627586 5:-0.641593 6:-0.660377 
2048 1:-0.047191 2:-0.0135135 3:-0.0577367 4:-0.0988506 5:-0.0752212 6:-0.257862 
2048 1:0.00674157 2:-0.018018 3:-0.0115473 4:-0.016092 5:-0.0619469 6:-0.106918 
2048 1:0.123596 2:0.00900901 3:0.0946882 4:-0.0482759 6:-0.157233 
2048 1:-0.608989 2:-0.608108 3:-0.60739 4:-0.668966 5:-0.650442 6:-0.698113 
2048 1:-0.483146 2:-0.630631 3:-0.773672 4:-0.806897 5:-0.712389 6:-0.731656 
2048 1:-0.474157 2:-0.581081 3:-0.644342 4:-0.682759 5:-0.690265 6:-0.685535 
2048 1:-0.595506 2:-0.594595 3:-0.630485 4:-0.765517 5:-0.597345 6:-0.761006 
2048 1:-0.137079 2:-0.157658 3:-0.224018 4:-0.14023 5:-0.110619 6:-0.190776 
2048 1:-0.0831461 2:-0.0765766 3:-0.196305 4:-0.144828 5:-0.190265 6:-0.136268 
2048 1:-0.644944 2:-0.833333 3:-0.736721 4:-0.714943 5:-0.721239 6:-0.710692 
2048 1:-0.0292135 3:-0.0993072 4:-0.117241 5:-0.110619 6:-0.194969 
2048 1:-0.555056 2:-0.698198 3:-0.662818 4:-0.696552 5:-0.699115 6:-0.748428 
2048 1:-0.550562 2:-0.630631 3:-0.658199 4:-0.668966 5:-0.743363 6:-0.765199 
2048 1:-0.0382022 2:0.0225225 3:0.00692841 4:-0.213793 5:-0.0663717 6:-0.174004 
2048 1:-0.0696629 2:0.117117 3:0.0808314 4:-0.0758621 5:-0.0575221 6:-0.127883 
390.7501836001456 1:0.680899 2:0.666667 3:0.0161663 4:-0.0390805 5:-0.176991 6:-0.236897 
2048 1:0.168539 2:0.0540541 3:-0.034642 4:-0.121839 5:-0.10177 6:-0.0775681 
2048 1:-0.604494 2:-0.603604 3:-0.533487 4:-0.636782 5:-0.712389 6:-0.672956 
2048 1:-0.6 2:-0.518018 3:-0.718245 4:-0.691954 5:-0.615044 6:-0.706499 
2048 1:0.155056 2:-0.036036 3:0.0531178 4:-0.0574713 5:-0.0752212 6:-0.165618 
2048 1:0.0651685 2:0.0720721 3:0.113164 4:-0.016092 5:-0.0309735 6:-0.132075 
2048 1:-0.644944 2:-0.657658 3:-0.625866 4:-0.751724 5:-0.743363 6:-0.706499 
2048 1:-0.640449 2:-0.662162 3:-0.690531 4:-0.737931 5:-0.699115 6:-0.756813 
2048 1:-0.0337079 2:-0.126126 3:-0.145497 4:-0.241379 5:-0.216814 6:-0.283019 
2048 1:-0.110112 2:0.018018 3:-0.187067 4:-0.0942529 5:-0.150442 6:-0.190776 
2048 1:0.011236 2:0.0585586 3:0.0531178 4:-0.0482759 5:-0.106195 6:-0.0943396 
2048 1:0.119101 2:0.018018 3:-0.0161663 4:-0.0850575 5:-0.119469 6:-0.115304 
2048 1:-0.761798 2:-0.653153 3:-0.745958 4:-0.788506 5:-0.70354 6:-0.731656 
2048 1:0.155056 2:0.0720721 3:0.0300231 4:0.0206897 5:-0.0752212 6:-0.0859539 
2048 1:0.0651685 2:0.0585586 3:-0.00230947 4:-0.0942529 5:-0.0575221 6:-0.157233 
2048 1:-0.114607 2:-0.0810811 3:-0.0762125 4:-0.126437 5:-0.172566 6:-0.274633 
2048 1:-0.0696629 2:-0.00900901 3:-0.0161663 4:-0.0114943 5:-0.0132743 6:-0.0775681 
2048 1:0.0876404 2:0.126126 3:0.0207852 4:0.0758621 5:-0.110619 6:-0.0691824 
2048 1:0.0606742 2:0.0675676 3:-0.00692841 4:0.0252874 5:0.00884956 6:-0.081761 
2048 1:0.0157303 2:-0.027027 3:-0.13164 4:-0.186207 5:-0.172566 6:-0.228512 
2048 1:0.658427 3:-0.122402 4:-0.144828 5:-0.190265 6:-0.257862 
2048 1:0.649438 2:-0.0045045 3:0.00692841 4:-0.213793 5:-0.137168 6:-0.194969 
2048 1:0.74382 2:0.0855856 3:-0.0531178 4:-0.126437 5:-0.0176991 6:-0.081761 
2048 1:-0.617978 2:-0.657658 3:-0.65358 4:-0.678161 5:-0.628319 6:-0.63522 
2048 1:0.00674157 2:-0.0135135 3:-0.136259 4:0.0252874 5:-0.0752212 6:-0.081761 
2048 1:0.626966 2:-0.0405405 3:0.00230947 4:-0.0436782 5:-0.0309735 6:-0.0733753 
2048 1:0.222472 2:0.711712 3:0.0946882 4:0.710345 5:0.039823 6:0.0272537 
2048 1:0.0921348 2:0.0135135 3:-0.00692841 4:0.00689655 5:0.0929204 6:0.0272537 
2048 1:0.0426966 2:-0.045045 3:-0.150115 4:-0.131034 5:-0.0132743 6:-0.111111 
2048 1:-0.689888 2:-0.815315 3:-0.672055 4:-0.590805 5:-0.579646 6:-0.597484 
2048 1:-0.0202247 2:-0.045045 3:-0.0300231 4:0.0666667 5:-0.039823 6:-0.0398323 
657.5309732730827 1:0.191011 2:0.148649 3:0.177829 4:0.181609 5:0.69469 6:0.127883 
2048 1:-0.388764 2:-0.536036 3:-0.561201 4:-0.558621 5:-0.433628 6:-0.522013 
2048 1:0.011236 2:-0.0540541 3:-0.0854503 4:-0.117241 5:-0.0221239 6:-0.12369 
1041.199003666947 1:0.662921 2:-0.045045 3:-0.177829 4:-0.016092 5:0.0663717 6:0.610063 
2048 1:0.173034 2:0.126126 3:0.182448 4:0.177011 5:0.150442 6:0.127883 
2048 1:0.0786517 2:0.045045 3:-0.0115473 4:-0.00229885 5:0.0619469 6:0.0356394 
2048 1:0.0157303 2:-0.234234 3:-0.108545 4:-0.0804598 5:-0.123894 6:-0.127883 
2048 1:-0.0786517 2:-0.157658 3:-0.122402 4:-0.00689655 5:0.0929204 6:-0.0230608 
2048 1:-0.779775 2:-0.54955 3:-0.815242 4:-0.595402 5:-0.526549 6:-0.60587 
2048 1:0.164045 2:-0.630631 3:-0.759815 4:-0.581609 5:-0.60177 6:-0.656184 
2048 1:0.114607 2:0.018018 3:0.0207852 4:-0.0712644 5:-0.0353982 6:-0.12369 
2048 1:0.123596 2:0.0630631 3:-0.00692841 4:-0.0436782 5:-0.079646 6:-0.12369 
2048 1:-0.0247191 2:-0.0765766 3:-0.0254042 4:-0.144828 5:-0.0929204 6:-0.24109 
2048 1:0.0292135 2:0.0315315 3:0.0207852 4:-0.112644 5:-0.0884956 6:-0.048218 
2048 1:-0.267416 2:-0.0810811 3:-0.17321 4:-0.250575 5:-0.199115 6:-0.253669 
2048 1:0.0741573 2:-0.0810811 3:-0.108545 4:-0.167816 5:-0.0619469 6:-0.24109 
2048 1:-0.0382022 2:0.0135135 3:0.0438799 4:-0.016092 5:-0.0309735 6:-0.169811 
2048 1:-0.0696629 2:-0.027027 3:0.0115473 4:-0.126437 5:-0.00884956 6:-0.236897 
2048 1:0.0696629 2:0.743243 3:-0.0207852 4:-0.00229885 5:0.0176991 6:0.00209644 
2048 1:-0.231461 2:-0.0630631 3:-0.0715935 4:-0.108046 5:-0.123894 6:0.0104822 
2048 1:0.0876404 3:0.0438799 4:-0.0298851 5:0.0840708 6:-0.00628931 
2048 1:0.164045 2:-0.117117 3:-0.00692841 4:-0.0344828 5:0.0752212 6:0.0566038 
2048 1:-0.0966292 2:0.567568 3:-0.168591 4:-0.121839 5:-0.163717 6:-0.127883 
2048 1:0.0202247 2:0.662162 3:-0.108545 4:-0.0298851 5:-0.0530973 6:-0.115304 
2048 1:-0.635955 2:-0.554054 3:-0.593533 4:-0.577011 5:-0.597345 6:-0.57652 
2048 1:-0.537079 2:-0.522523 3:-0.515012 4:-0.590805 5:-0.610619 6:-0.57652 
2048 1:0.0157303 2:-0.0540541 3:-0.0900693 4:-0.163218 5:-0.19469 6:-0.220126 
2048 1:-0.110112 2:-0.0135135 3:0.0300231 4:-0.0758621 5:-0.0486726 6:-0.106918 
2048 1:-0.694382 2:-0.621622 3:-0.612009 4:-0.710345 5:-0.743363 6:-0.702306 
2048 1:-0.591011 2:-0.54955 3:-0.709007 4:-0.691954 5:-0.756637 6:-0.740042 
2048 1:0.222472 2:0.144144 3:-0.0207852 4:0.016092 5:-0.0353982 6:-0.0607966 
2048 1:0.0921348 2:0.157658 3:-0.0669746 4:-0.00229885 5:-0.0132743 6:-0.0398323 
2048 1:-0.217978 2:-0.0135135 3:-0.0438799 4:-0.126437 5:-0.115044 6:-0.148847 
2048 1:0.0337079 2:-0.027027 3:-0.0300231 4:-0.0666667 5:-0.0929204 6:-0.157233 
2048 1:-0.0337079 2:0.0045045 3:0.0762125 4:-0.0758621 5:-0.0530973 6:-0.0985325 
2048 1:0.0382022 2:-0.121622 3:-0.0946882 4:-0.108046 5:-0.115044 6:-0.215933 
2048 1:0.119101 2:-0.0315315 3:0.0207852 4:-0.126437 5:-0.119469 6:-0.132075 
2048 1:0.011236 2:0.135135 3:0.00692841 4:-0.0574713 5:-0.0575221 6:-0.0566038 
2048 1:0.186517 2:-0.0315315 3:-0.0207852 4:-0.016092 5:0.039823 6:-0.048218 
2048 1:0.231461 2:0.148649 3:0.0161663 4:-0.0758621 5:-0.039823 6:-0.00628931 
2048 1:-0.114607 2:-0.0900901 3:-0.034642 4:-0.062069 5:-0.159292 6:-0.262055 
2048 1:-0.469663 2:-0.662162 3:-0.65358 4:-0.705747 5:-0.681416 6:-0.727463 
2048 1:-0.573034 2:-0.653153 3:-0.639723 4:-0.710345 5:-0.690265 6:-0.714885 
2048 1:0.186517 2:0.0945946 3:0.0715935 4:-0.0114943 5:-0.00442478 6:-0.0649895 
2048 1:0.0382022 2:-0.0720721 3:-0.108545 4:-0.144828 5:-0.168142 6:-0.186583 
2048 1:-0.00224719 2:0.0315315 3:0.0161663 4:-0.135632 5:-0.123894 6:-0.115304 
2048 1:0.0786517 2:0.130631 3:0.0300231 4:-0.0712644 5:-0.0442478 6:-0.0943396 
2048 1:0.12809 2:0.0855856 3:-0.034642 4:-0.0482759 5:-0.0176991 6:-0.127883 
2048 1:0.0516854 2:0.0405405 3:-0.0993072 4:-0.0528736 5:-0.0619469 6:-0.207547 
2048 1:0.186517 2:0.157658 3:0.140878 4:0.0298851 5:0.039823 6:-0.081761 
2048 1:-0.577528 2:-0.585586 3:-0.575058 4:-0.77931 5:-0.663717 6:-0.752621 
2048 1:-0.532584 2:-0.5 3:-0.542725 4:-0.673563 5:-0.654867 6:-0.756813 
2048 1:0.348315 2:0.0855856 3:0.214781 4:0.0988506 6:-0.00628931 
2048 1:0.123596 2:0.797297 3:-0.0115473 4:-0.0574713 5:-0.0530973 6:-0.178197 
2048 1:-0.0202247 2:0.171171 3:0.0993072 4:-0.0206897 5:-0.0265487 6:-0.106918 
2048 1:-0.0741573 2:-0.148649 3:-0.191686 4:-0.204598 5:-0.234513 6:-0.32914 
2048 1:0.0606742 2:0.0945946 3:-0.0577367 4:-0.0252874 5:-0.0309735 6:-0.12369 
2048 1:-0.0157303 2:0.0630631 3:0.00230947 4:-0.108046 5:-0.0884956 6:-0.169811 
2048 1:0.141573 2:0.018018 3:0.0484988 4:-0.0804598 5:0.039823 6:-0.115304 
2048 1:0.0247191 2:0.103604 3:0.0715935 4:-0.0528736 5:-0.0530973 6:-0.144654 
2048 1:0.833708 2:0.0630631 3:0.0254042 4:-0.0206897 5:-0.0752212 6:-0.190776 
2048 1:0.0382022 2:0.018018 3:-0.00692841 4:-0.0528736 5:-0.079646 6:-0.190776 
2048 1:0.217978 2:0.211712 3:0.154734 4:0.0344828 5:-0.0265487 6:-0.0985325 
2048 1:0.208989 2:0.171171 3:0.122402 4:0.0390805 5:0.0176991 6:-0.165618 
2048 1:0.2 2:0.891892 3:0.26097 4:-0.00689655 5:0.0309735 6:-0.00209644 
2048 1:-0.577528 2:-0.734234 3:-0.699769 4:-0.857471 5:-0.831858 6:-0.744235 
2048 1:0.155056 2:-0.0675676 3:0.0808314 4:-0.0712644 6:-0.140461 
2048 1:-0.182022 2:-0.0810811 3:-0.0531178 4:-0.0528736 5:-0.0707965 6:-0.0901468 
2048 1:-0.514607 2:-0.720721 3:-0.819861 4:-0.747126 5:-0.712389 6:-0.920335 
2048 1:0.0426966 2:0.0540541 3:-0.039261 4:-0.0850575 5:-0.0353982 6:-0.136268 
2048 1:-0.734831 2:-0.594595 3:-0.681293 4:-0.714943 5:-0.721239 6:-0.740042 
2048 1:0.00224719 2:0.0225225 3:-0.0254042 4:-0.0206897 5:-0.0929204 6:-0.15304 
2048 1:0.150562 2:-0.0900901 3:-0.0993072 4:-0.213793 5:-0.176991 6:-0.199161 
2048 1:-0.613483 2:-0.666667 3:-0.575058 4:-0.705747 5:-0.734513 6:0.144654 
2048 1:0.0876404 2:0.13964 3:0.039261 4:-0.0528736 5:-0.00884956 6:-0.0859539 
2048 1:0.267416 2:0.292793 3:0.177829 4:0.0896552 5:0.079646 6:-0.0398323 
2048 1:-0.348315 2:-0.518018 3:-0.56582 4:-0.682759 5:-0.672566 6:-0.811321 
2048 1:-0.685393 2:-0.599099 3:-0.722864 4:-0.816092 5:-0.663717 6:-0.761006 
2048 1:-0.110112 2:-0.148649 3:0.0577367 4:-0.00229885 5:-0.0973451 6:-0.249476 
909.0601293933503 1:-0.451685 2:-0.558559 3:-0.672055 4:-0.645977 5:-0.765487 6:-0.761006 
2048 1:-0.00224719 2:0.0630631 3:-0.0254042 4:-0.108046 5:-0.0707965 6:-0.161426 
2048 1:0.191011 2:0.0630631 3:-0.0900693 4:-0.112644 5:-0.230088 6:-0.312369 
2048 1:-0.0426966 2:-0.0990991 3:-0.191686 4:-0.273563 5:-0.292035 6:-0.190776 
2048 1:0.0921348 2:0.851351 3:0.191686 4:0.0206897 5:0.0176991 6:-0.081761 
2048 1:-0.555056 2:-0.779279 3:-0.672055 4:-0.816092 5:-0.668142 6:-0.761006 
35.46172526741049 1:-0.348315 2:-0.761261 3:-0.533487 4:-0.710345 5:-0.90708 6:-0.765199 
1189.055968328967 1:-0.0786517 2:-0.144144 3:-0.210162 4:-0.177011 5:-0.39823 6:-0.358491 
2048 1:0.0382022 2:-0.247748 3:-0.279446 4:-0.163218 5:-0.300885 6:-0.438155 
2048 1:0.0247191 2:0.0855856 3:0.0577367 4:-0.135632 5:-0.0442478 6:-0.0943396 
2048 1:-0.52809 2:-0.720721 3:-0.82448 4:-0.733333 5:-0.716814 6:-0.781971 
2048 1:0.213483 2:0.202703 3:0.103926 4:-0.0482759 5:0.0265487 6:-0.0733753 
2048 1:-0.0157303 2:-0.252252 3:0.00692841 4:-0.126437 5:-0.163717 6:-0.186583 
2048 1:0.110112 2:0.0675676 3:-0.0715935 4:-0.0942529 5:-0.10177 6:-0.132075 
1135.178251824687 1:0.285393 2:0.283784 3:0.154734 4:0.0896552 5:0.0575221 6:-0.178197 
2048 1:0.00674157 2:0.13964 3:0.0484988 4:-0.0942529 5:-0.274336 6:-0.32914 
2048 1:0.249438 2:0.216216 3:-0.034642 4:-0.0344828 5:-0.10177 6:-0.0356394 
2048 1:-0.0876404 2:-0.018018 3:-0.0438799 4:-0.144828 5:-0.0884956 6:-0.136268 
1803.670130328415 1:-0.559551 2:-0.518018 3:-0.510393 4:-0.765517 5:-0.672566 6:-0.714885 
2048 1:-0.0921348 2:-0.00900901 3:-0.247113 4:-0.25977 5:-0.221239 6:-0.253669 
2048 1:-0.474157 2:-0.594595 3:-0.621247 4:-0.71954 5:-0.69469 6:-0.710692 
2048 1:0.173034 2:0.0495495 3:0.113164 4:0.0528736 5:-0.0619469 6:-0.0943396 
2048 1:0.0337079 2:-0.027027 3:-0.0254042 4:-0.0252874 5:-0.079646 6:-0.199161 
2048 1:0.0157303 2:-0.121622 3:-0.00692841 4:-0.0850575 5:-0.0707965 6:0.672956 
2048 1:0.0202247 2:-0.0225225 3:-0.0300231 4:-0.255172 5:-0.278761 6:-0.375262 
2048 1:-0.123596 2:-0.103604 3:-0.17321 4:-0.209195 5:-0.309735 6:-0.257862 
2048 1:0.119101 2:0.130631 3:0.0115473 4:-0.0942529 5:-0.159292 6:-0.0985325 
2048 1:-0.101124 2:-0.0495495 3:-0.113164 4:-0.264368 5:-0.265487 6:-0.18239 
2048 1:-0.119101 2:0.0045045 3:-0.108545 4:-0.144828 5:-0.256637 6:-0.157233 
1714.970980993256 1:0.123596 2:0.135135 3:0.150115 4:-0.218391 5:-0.216814 6:-0.354298 
2048 1:-0.114607 2:0.0810811 3:-0.122402 4:-0.0482759 5:-0.123894 6:-0.178197 
2048 1:0.0516854 2:0.0990991 3:0.0300231 4:-0.0482759 5:-0.283186 6:-0.262055 
2048 1:0.0606742 2:-0.027027 3:-0.214781 4:-0.213793 5:-0.323009 6:-0.371069 
2048 1:-0.0921348 2:-0.108108 3:-0.274827 4:-0.31954 5:-0.283186 6:-0.215933 
2048 1:-0.465169 2:-0.644144 3:-0.672055 4:-0.71954 5:-0.672566 6:-0.769392 
794.0285381335286 1:0.0696629 2:0.576577 3:0.0715935 4:-0.121839 5:-0.0265487 6:0.542977 
2048 1:-0.110112 2:-0.0405405 3:-0.122402 4:-0.016092 5:0.641593 6:-0.0104822 
2048 1:0.114607 2:0.027027 3:0.0300231 4:0.0206897 5:0.0663717 6:0.0272537 
2048 1:0.12809 2:0.045045 3:0.0484988 4:-0.0390805 5:-0.00884956 6:-0.00209644 
2048 1:0.0786517 2:-0.036036 3:-0.0115473 4:-0.0896552 5:-0.0265487 6:-0.0943396 
2048 1:0.0292135 2:0.0315315 3:-0.0484988 4:-0.0206897 5:0.0442478 6:-0.0398323 
2048 1:0.613483 2:0.599099 3:0.616628 4:-0.103448 5:-0.00884956 6:-0.0649895 
2048 1:0.52809 2:-0.0990991 3:-0.154734 4:-0.167816 5:-0.0884956 6:-0.148847 
2048 1:-0.541573 2:-0.59009 3:-0.524249 4:-0.521839 5:-0.486726 6:-0.51782 
2048 1:0.164045 2:0.0855856 3:0.0300231 4:-0.0114943 5:-0.0265487 6:-0.106918 
2048 1:-0.0786517 2:-0.0045045 3:-0.122402 4:-0.0390805 5:-0.0486726 6:-0.224319 
2048 1:-0.573034 2:-0.662162 3:-0.709007 4:-0.701149 5:-0.59292 6:-0.643606 
2048 1:-0.0741573 2:-0.0765766 3:-0.00692841 4:-0.195402 5:-0.150442 6:-0.165618 
2048 1:0.0337079 2:-0.0855856 3:-0.034642 4:-0.0850575 5:-0.154867 6:-0.136268 
2048 1:0.119101 2:0.027027 3:0.0669746 4:-0.00229885 5:-0.123894 6:-0.0649895 
2048 1:0.047191 2:-0.018018 3:-0.0438799 4:-0.0942529 5:-0.039823 6:-0.0398323 
2048 1:0.0921348 2:0.594595 3:0.612009 4:-0.0482759 5:-0.119469 6:-0.161426 
2048 1:-0.123596 2:-0.13964 3:-0.242494 4:-0.25977 5:-0.207965 6:-0.316562 
2048 1:0.730337 2:0.716216 3:0.00692841 4:-0.0436782 5:-0.0221239 6:-0.144654 
2048 1:-0.011236 2:-0.045045 3:-0.127021 4:-0.117241 5:-0.110619 6:-0.236897 
2048 1:-0.451685 2:-0.545045 3:-0.542725 4:0.135632 5:-0.429204 6:-0.496855 
2048 1:0.608989 2:-0.0495495 3:-0.136259 4:-0.227586 5:-0.168142 6:-0.253669 
2048 1:0.0247191 2:-0.0855856 3:0.039261 4:-0.218391 5:-0.128319 6:-0.165618 
2048 1:-0.631461 2:-0.630631 3:-0.709007 4:-0.737931 5:-0.685841 6:-0.798742 
2048 1:-0.0561798 2:0.0540541 3:0.0623557 4:-0.0804598 5:-0.0442478 6:-0.144654 
2048 1:-0.67191 2:-0.693694 3:-0.773672 4:-0.696552 5:-0.761062 6:-0.69392 
2048 1:0.047191 2:-0.0045045 3:-0.0531178 4:-0.0666667 5:-0.0752212 6:-0.144654 
2048 1:0.101124 2:0.130631 3:0.0484988 4:-0.0298851 5:-0.0752212 6:-0.0733753 
2048 1:-0.469663 2:-0.63964 3:-0.732102 4:-0.747126 5:-0.707965 6:-0.752621 
2048 1:-0.802247 2:-0.671171 3:-0.792148 4:-0.747126 5:-0.783186 6:-0.735849 
2048 1:0.011236 2:0.0540541 3:0.0762125 4:0.0482759 5:-0.0265487 6:-0.119497 
2048 1:0.0516854 3:0.0715935 4:-0.0988506 5:-0.10177 6:-0.115304 
2048 1:-0.564045 2:-0.608108 3:-0.690531 4:-0.747126 5:-0.668142 6:-0.811321 
2048 1:-0.622472 2:-0.693694 3:-0.662818 4:-0.747126 5:-0.654867 6:-0.895178 
2048 1:-0.289888 2:-0.0720721 3:-0.0762125 4:-0.149425 5:-0.10177 6:-0.203354 
2048 1:-0.141573 2:-0.0675676 3:-0.113164 4:-0.218391 5:-0.137168 6:-0.283019 
2048 1:0.0561798 2:-0.0045045 3:-0.0161663 4:-0.163218 5:-0.10177 6:-0.190776 
2048 1:-0.613483 2:-0.617117 3:-0.722864 4:-0.806897 5:-0.663717 6:-0.786164 
2048 1:0.0292135 2:0.18018 3:-0.00230947 4:-0.0666667 5:-0.039823 6:-0.15304 
2048 1:-0.0157303 2:-0.0495495 3:-0.0715935 4:-0.163218 5:-0.185841 6:-0.178197 
2048 1:0.0921348 2:0.0405405 3:-0.0115473 4:-0.0436782 5:-0.123894 6:-0.12369 
2048 1:-0.451685 2:-0.585586 3:-0.658199 4:-0.751724 5:-0.690265 6:-0.773585 
2048 1:-0.451685 2:-0.621622 3:-0.621247 4:-0.701149 5:-0.699115 6:-0.761006 
2048 1:-0.6 2:-0.540541 3:-0.681293 4:-0.71954 5:-0.707965 6:-0.756813 
2048 1:-0.0426966 2:-0.121622 3:-0.145497 4:-0.255172 5:-0.300885 6:0.580713 
637.3544700921351 1:-0.644944 2:-0.563063 3:-0.796767 4:-0.678161 5:-0.774336 6:-0.761006 
1918.938954725682 1:0.00674157 2:0.0135135 3:0.136259 4:-0.0896552 5:-0.154867 6:0.744235 
356.8385641909072 1:0.132584 2:0.761261 3:0.0438799 4:-0.0482759 5:-0.119469 6:-0.228512 
2048 1:0.81573 2:0.801802 3:0.0762125 4:0.0206897 5:-0.154867 6:-0.140461 
2048 1:0.829213 2:0.184685 3:0.0946882 4:-0.0712644 5:-0.0486726 6:-0.178197 
2048 1:-0.465169 2:-0.576577 3:-0.662818 4:-0.852874 5:-0.681416 6:-0.72327 
2048 1:-0.0741573 2:-0.144144 3:-0.196305 4:-0.172414 5:-0.225664 6:-0.295597 
1611.493814667233 1:-0.119101 2:-0.279279 3:-0.297921 4:-0.356322 5:-0.393805 6:-0.526205 
2048 1:-0.00674157 2:0.0225225 3:0.00230947 4:-0.062069 5:-0.216814 6:-0.127883 
2048 1:0.694382 2:0.0495495 3:-0.0669746 4:-0.135632 5:-0.146018 6:-0.245283 
62.46194759552394 1:-0.492135 2:-0.752252 3:-0.635104 4:-0.862069 5:-0.911504 6:-0.861635 
1970.469535470291 1:-0.0157303 2:0.175676 3:-0.0438799 4:-0.0942529 5:-0.243363 6:-0.249476 
2048 1:-0.510112 2:-0.801802 3:-0.713626 4:-0.816092 5:-0.734513 6:-0.727463 
2048 1:-0.649438 2:-0.693694 3:-0.672055 4:-0.816092 5:-0.929204 6:-0.790356 
2048 1:0.011236 2:-0.0630631 3:-0.145497 4:-0.117241 5:-0.137168 6:-0.253669 
730.5446392698256 1:0.0292135 2:-0.0135135 3:-0.136259 4:-0.167816 5:-0.230088 6:-0.186583 
1043.415823465868 1:-0.622472 2:-0.540541 3:-0.806005 4:-0.742529 5:-0.783186 6:-0.916143 
2048 1:-0.662921 2:-0.527027 3:-0.593533 4:-0.678161 5:-0.730088 6:-0.698113 
2048 1:0.132584 2:0.797297 3:0.00230947 4:-0.0528736 5:-0.0840708 6:-0.106918 
10.22931665400463 1:0.694382 2:-0.0315315 3:-0.265589 4:-0.144828 5:-0.163717 6:-0.375262 
2048 1:-0.662921 2:-0.603604 3:-0.644342 4:-0.834483 5:-0.730088 6:-0.727463 
2048 1:-0.604494 2:-0.657658 3:-0.732102 4:-0.811494 5:-0.685841 6:-0.752621 
2048 1:-0.0606742 2:-0.135135 3:-0.0207852 4:-0.149425 5:-0.0929204 6:-0.312369 
2048 1:0.182022 2:0.103604 3:0.103926 4:-0.00229885 5:-0.132743 6:-0.0985325 
2048 1:-0.00224719 2:0.0585586 3:-0.182448 4:-0.0528736 5:-0.0929204 6:-0.0901468 
2048 1:-0.0831461 2:0.117117 3:0.0623557 4:-0.0390805 5:0.00442478 6:-0.178197 
2048 1:0.0651685 2:-0.0765766 3:-0.0993072 4:-0.236782 5:-0.29646 6:-0.350105 
2048 1:-0.546067 2:-0.774775 3:-0.672055 4:-0.668966 5:-0.69469 6:-0.698113 
2048 1:0.0157303 2:-0.130631 3:-0.163972 4:-0.172414 5:-0.154867 6:-0.174004 
2048 1:-0.631461 2:-0.675676 3:-0.745958 4:-0.77931 5:-0.738938 6:-0.761006 
2048 1:-0.689888 2:-0.644144 3:-0.861432 4:-0.797701 5:-0.787611 6:-0.744235 
2048 1:-0.577528 2:-0.603604 3:-0.741339 4:-0.793103 5:-0.707965 6:-0.727463 
2048 1:-0.0516854 2:-0.0630631 3:0.0531178 4:-0.0712644 5:-0.0884956 6:-0.161426 
2048 1:0.0966292 2:0.0630631 3:-0.0484988 4:-0.0942529 5:-0.199115 6:-0.0733753 
2048 1:0.0786517 2:-0.0315315 3:-0.039261 4:-0.186207 5:-0.247788 6:-0.379455 
2048 1:0.137079 2:-0.103604 3:-0.0762125 4:-0.264368 5:-0.256637 6:-0.354298 
2048 1:0.0426966 2:-0.117117 3:-0.0669746 4:-0.195402 5:-0.172566 6:-0.224319 
2048 1:-0.186517 2:-0.0810811 3:-0.159353 4:-0.135632 5:-0.19469 6:-0.215933 
2048 1:-0.555056 2:-0.693694 3:-0.65358 4:-0.765517 5:-0.747788 6:-0.727463 
2048 1:0.824719 2:0.13964 3:-0.0161663 4:-0.112644 5:-0.0707965 6:-0.161426 
66.9200706084893 1:-0.514607 2:-0.720721 3:-0.69515 4:-0.875862 5:-0.880531 6:-0.781971 
2048 1:0.0831461 2:0.0495495 3:0.0115473 4:-0.135632 5:-0.0221239 6:-0.178197 
2048 1:0.150562 2:0.189189 3:-0.00230947 4:-0.103448 5:-0.0442478 6:-0.106918 
2048 1:0.150562 2:0.824324 3:-0.0531178 4:-0.0758621 5:-0.0973451 6:-0.12369 
2048 1:0.0516854 2:0.0045045 3:-0.039261 4:-0.117241 5:-0.269912 6:-0.337526 
2048 1:-0.662921 2:-0.720721 3:-0.662818 4:-0.765517 5:-0.668142 6:-0.819706 
2048 1:-0.0337079 2:-0.0315315 3:-0.0207852 4:-0.126437 5:-0.0884956 6:-0.207547 
2048 1:0.0921348 2:-0.0810811 3:-0.196305 4:-0.126437 5:-0.172566 6:-0.165618 
2048 1:-0.505618 2:-0.513514 3:-0.65358 4:-0.774713 5:-0.69469 6:-0.727463 
2048 1:-0.465169 2:-0.54955 3:-0.561201 4:-0.673563 5:-0.685841 6:-0.761006 
2048 1:-0.546067 2:-0.599099 3:-0.690531 4:-0.696552 5:-0.712389 6:-0.786164 
2048 1:-0.604494 2:-0.612613 3:-0.648961 4:-0.724138 5:-0.769912 6:-0.681342 
125.0060775527341 1:0.191011 2:0.337838 3:0.819861 4:-0.112644 5:-0.0752212 6:0.748428 
199.1460360099676 1:0.676404 2:0.036036 3:0.681293 4:0.65977 5:-0.0575221 6:-0.207547 
2048 1:0.164045 2:-0.689189 3:-0.658199 4:-0.714943 5:-0.623894 6:-0.769392 
86.34544728349469 1:0.725843 2:0.184685 3:-0.0808314 4:-0.181609 5:-0.172566 6:0.668763 
2048 1:0.132584 2:0.0585586 3:0.034642 4:-0.00229885 5:-0.0176991 6:-0.0524109 
2048 1:-0.707865 2:-0.792793 3:-0.778291 4:-0.770115 5:-0.792035 6:-0.756813 
172.5326982791581 1:0.779775 2:0.765766 3:0.154734 4:-0.112644 5:-0.119469 6:-0.203354 
2048 1:-0.307865 2:-0.22973 3:-0.228637 4:-0.301149 5:-0.269912 6:-0.379455 
1699.549307529554 1:0.0831461 2:-0.0720721 3:-0.034642 4:-0.190805 5:-0.252212 6:-0.383648 
2048 1:0.716854 2:0.702703 3:-0.0623557 4:-0.0988506 5:-0.106195 6:-0.253669 
2048 1:0.164045 2:-0.626126 3:-0.681293 4:-0.65977 5:-0.69469 6:-0.706499 
2048 1:0.00224719 2:-0.148649 3:-0.159353 4:-0.236782 5:-0.154867 6:-0.337526 
2048 1:0.231461 2:0.837838 3:0.127021 4:-0.0298851 5:-0.0132743 6:-0.0566038 
2048 1:-0.186517 2:-0.0810811 3:-0.127021 4:-0.172414 5:-0.176991 6:-0.308176 
1371.891350329693 1:-0.81573 2:-0.653153 3:-0.778291 4:-0.862069 5:-0.721239 6:-0.781971 
2048 1:-0.34382 2:-0.527027 3:-0.676674 4:-0.71954 5:-0.818584 6:-0.752621 
2048 1:-0.474157 2:-0.558559 3:-0.672055 4:-0.724138 5:-0.659292 6:-0.786164 
2048 1:-0.447191 2:-0.675676 3:-0.667436 4:-0.742529 5:-0.756637 6:-0.740042 
2048 1:-0.146067 2:-0.207207 3:-0.13164 4:-0.245977 5:-0.190265 6:-0.266247 
2048 1:-0.0202247 2:-0.130631 3:-0.0854503 4:-0.0344828 5:-0.199115 6:-0.127883 
2048 1:0.00674157 2:-0.135135 3:-0.103926 4:-0.14023 5:-0.163717 6:-0.236897 
2048 1:-0.146067 2:-0.283784 3:-0.247113 4:-0.342529 5:-0.318584 6:-0.362683 
2048 1:0.240449 2:0.126126 3:0.034642 4:-0.154023 5:-0.212389 6:-0.29979 
2047.099634961907 1:-0.703371 2:-0.612613 3:-0.639723 4:-0.728736 5:-0.831858 6:-0.698113 
2048 1:0.0292135 2:0.112613 3:0.034642 4:-0.0206897 5:-0.336283 6:-0.232704 
2048 1:0.0382022 2:0.0765766 3:0.0808314 4:-0.0344828 5:-0.0884956 6:-0.0607966 
2048 1:0.0606742 2:0.234234 3:0.0808314 4:0.121839 5:-0.0309735 6:-0.0356394 
2048 1:-0.119101 2:-0.175676 3:0.0623557 4:-0.0482759 5:-0.212389 6:-0.18239 
1820.916425430356 1:-0.523596 2:-0.522523 3:-0.672055 4:-0.82069 5:-0.840708 6:-0.903564 
2048 1:0.0337079 2:-0.036036 3:-0.0762125 4:-0.131034 5:-0.256637 6:-0.341719 
30.65220866622658 1:-0.501124 2:-0.806306 3:-0.588915 4:-0.632184 5:-0.765487 6:-0.773585 
1481.403251181267 1:-0.595506 2:0.148649 3:0.154734 4:-0.485057 5:-0.504425 6:-0.597484 
2048 1:0.191011 2:0.148649 3:0.0577367 4:0.0528736 5:0.0929204 6:-0.0398323 
2048 1:0.0651685 2:-0.157658 3:-0.034642 4:-0.0114943 5:-0.0575221 6:-0.148847 
2048 1:0.2 2:0.171171 3:0.177829 4:0.687356 5:0.0973451 6:0.0272537 
2048 1:-0.047191 2:-0.0900901 3:0.0300231 4:-0.0850575 5:0.0132743 6:-0.0230608 
2048 1:0.047191 2:0.0675676 3:0.0762125 4:0.062069 5:0.628319 6:-0.0440252 
2048 1:0.146067 2:0.0630631 3:-0.0161663 4:-0.0712644 5:0.0176991 6:-0.0104822 
2048 1:-0.240449 2:-0.220721 3:-0.362587 4:-0.172414 5:-0.0707965 6:-0.140461 
1307.04823061152 1:0.45618 2:-0.0675676 3:-0.168591 4:0.43908 5:-0.0176991 6:0.417191 
61.56446503230894 1:0.631461 2:-0.0945946 3:0.635104 4:-0.0206897 5:0.650442 6:-0.0607966 
1396.989590908442 1:0.613483 2:-0.00900901 3:-0.0669746 4:-0.0390805 5:0.632743 6:0.563941 
1618.541275544878 1:-0.00224719 2:-0.036036 3:0.51963 4:0.498851 5:0.0707965 6:0.475891 
2048 1:0.011236 2:-0.045045 3:-0.113164 4:0.471264 5:-0.0132743 6:0.450734 
2048 1:0.047191 2:-0.036036 3:-0.140878 4:0.489655 5:0.0132743 6:-0.144654 
2048 1:0.0651685 2:0.396396 3:-0.0207852 4:-0.103448 5:-0.0707965 6:-0.190776 
2048 1:-0.451685 2:0.148649 3:-0.644342 4:-0.613793 5:-0.561947 6:-0.597484 
2048 1:-0.532584 2:-0.5 3:-0.510393 4:-0.6 5:-0.446903 6:-0.48847 
2048 1:0.0561798 2:0.0810811 3:-0.0854503 4:0.0482759 5:-0.0176991 6:-0.111111 
2048 1:-0.644944 2:-0.666667 3:-0.625866 4:-0.724138 5:-0.610619 6:-0.72327 
2048 1:0.182022 2:0.0675676 3:0.0484988 4:0.00229885 5:0.747788 6:0.0188679 
2048 1:0.0516854 2:0.0045045 3:0.0715935 4:0.0390805 5:0.0884956 6:-0.00209644 
2048 1:0.164045 2:-0.630631 3:-0.588915 4:-0.701149 5:-0.681416 6:-0.72327 
2048 1:-0.159551 2:-0.184685 3:-0.177829 4:-0.227586 5:-0.252212 6:-0.215933 
2048 1:-0.48764 2:-0.653153 3:-0.709007 4:-0.682759 5:-0.699115 6:-0.731656 
2048 1:0.186517 2:-0.027027 3:-0.0115473 4:-0.0528736 5:0.0176991 6:-0.0733753 
2048 1:0.0426966 2:0.0225225 3:-0.0669746 4:-0.0298851 5:-0.0442478 6:-0.215933 
2048 1:-0.510112 2:-0.576577 3:-0.662818 4:-0.521839 5:-0.606195 6:-0.538784 
2048 1:-0.644944 2:-0.558559 3:-0.667436 4:-0.728736 5:-0.765487 6:-0.72327 
2048 1:0.101124 2:-0.00900901 3:0.034642 4:-0.0206897 5:0.0663717 6:-0.0188679 
2048 1:0.721348 2:-0.0540541 3:-0.113164 4:-0.0988506 5:-0.0442478 6:-0.0607966 
2048 1:-0.573034 2:-0.617117 3:-0.676674 4:-0.645977 5:-0.557522 6:-0.601677 
2048 1:-0.114607 2:-0.13964 3:0.00692841 4:-0.00229885 5:-0.0707965 6:-0.102725 
2048 1:0.155056 2:0.0765766 3:-0.0207852 4:-0.0758621 5:-0.00884956 6:-0.12369 
2048 1:-0.0561798 2:-0.0675676 3:-0.214781 4:-0.103448 5:-0.0884956 6:-0.178197 
2048 1:0.0966292 2:0.036036 3:-0.034642 4:0.00689655 5:-0.039823 6:-0.081761 
2048 1:0.114607 2:0.0225225 3:-0.0854503 4:-0.121839 5:-0.0929204 6:-0.140461 
2048 1:-0.0337079 2:-0.027027 3:-0.0762125 4:-0.117241 5:-0.0752212 6:-0.165618 
2048 1:0.0876404 2:0.00900901 3:0.034642 4:-0.0528736 5:-0.079646 6:-0.165618 
2048 1:-0.0876404 2:-0.027027 3:0.0254042 4:-0.0574713 5:-0.079646 6:-0.18239 
2048 1:-0.0157303 2:-0.018018 3:0.0993072 4:-0.0482759 5:-0.0309735 6:-0.174004 
2048 1:0.101124 2:-0.00900901 3:0.0669746 4:-0.131034 5:-0.207965 6:-0.0440252 
2048 1:0.119101 2:0.135135 3:0.0623557 4:-0.0252874 5:-0.039823 6:-0.0649895 
2048 1:0.0292135 2:0.0585586 3:0.0762125 4:-0.016092 5:-0.0707965 6:-0.165618 
2048 1:0.123596 2:0.103604 3:-0.127021 4:-0.0436782 5:-0.0884956 6:-0.106918 
2048 1:0.12809 2:0.166667 3:0.0438799 4:0.00689655 5:-0.039823 6:-0.0775681 
2048 1:-0.0696629 2:0.657658 3:-0.108545 4:-0.131034 5:-0.243363 6:-0.194969 
2048 1:-0.617978 2:-0.752252 3:-0.639723 4:-0.687356 5:-0.681416 6:-0.811321 
2048 1:0.775281 2:0.112613 3:0.0715935 4:-0.0482759 5:-0.0663717 6:-0.18239 
2048 1:0.0966292 2:-0.0225225 3:0.0254042 4:-0.117241 5:-0.0530973 6:-0.0985325 
2048 1:-0.00224719 2:-0.175676 3:-0.103926 4:-0.213793 5:-0.207965 6:-0.190776 
2048 1:-0.0876404 2:-0.0900901 3:-0.150115 4:-0.245977 5:-0.216814 6:-0.312369 
2048 1:0.0876404 2:-0.0495495 3:-0.0484988 4:-0.108046 5:-0.110619 6:-0.165618 
2048 1:-0.00674157 2:0.0315315 3:-0.0484988 4:-0.0712644 5:-0.0442478 6:-0.15304 
2048 1:0.150562 2:0.0720721 3:-0.0669746 4:-0.0436782 5:-0.0884956 6:-0.048218 
2048 1:-0.164045 2:0.027027 3:-0.0900693 4:-0.190805 5:-0.0663717 6:-0.295597 
2048 1:0.00224719 2:0.027027 3:0.00230947 4:-0.0482759 5:-0.0840708 6:-0.127883 
2048 1:-0.492135 2:-0.5 3:-0.639723 4:-0.687356 5:-0.712389 6:-0.748428 
2048 1:0.00224719 2:0.121622 3:0.039261 4:-0.0298851 5:-0.0707965 6:-0.0985325 
2048 1:0.0921348 2:0.774775 3:0.0115473 4:-0.0436782 5:-0.168142 6:-0.119497 
2048 1:0.114607 2:-0.157658 3:-0.117783 4:-0.282759 5:-0.287611 6:-0.362683 
2048 1:0.119101 2:-0.0405405 3:-0.0900693 4:-0.0988506 5:-0.110619 6:-0.194969 
2048 1:0.27191 2:0.189189 3:0.321016 4:0.0666667 5:0.181416 6:-0.0943396 
2048 1:0.186517 2:-0.00900901 3:0.039261 4:-0.0206897 5:-0.079646 6:-0.119497 
2048 1:-0.0157303 2:0.0720721 3:0.0900693 4:-0.0252874 5:-0.039823 6:-0.169811 
2048 1:-0.34382 2:-0.509009 3:-0.722864 4:-0.636782 5:-0.814159 6:-0.920335 
2048 1:0.186517 2:0.135135 3:0.0484988 4:0.0482759 5:-0.0265487 6:-0.111111 
2048 1:-0.0157303 2:-0.0720721 3:-0.159353 4:-0.158621 5:-0.181416 6:-0.291405 
2048 1:0.0337079 2:0.121622 3:0.0854503 4:-0.0114943 5:-0.0309735 6:-0.0691824 
2048 1:0.110112 2:0.752252 3:0.0669746 4:-0.0528736 5:-0.0884956 6:-0.21174 
2048 1:0.137079 2:0.756757 3:0.13164 4:-0.016092 5:-0.10177 6:-0.174004 
1520.67156475833 1:-0.577528 2:-0.495495 3:-0.764434 4:-0.765517 5:-0.756637 6:-0.756813 
2048 1:-0.685393 2:-0.666667 3:-0.662818 4:-0.751724 5:-0.818584 6:-0.916143 
2048 1:-0.0157303 2:-0.0495495 3:-0.0115473 4:-0.163218 5:-0.115044 6:-0.18239 
2048 1:0.88764 2:0.234234 3:0.0115473 4:-0.0528736 5:-0.0132743 6:-0.169811 
2048 1:0.177528 2:0.121622 3:0.0254042 4:0.0206897 5:-0.0442478 6:-0.12369 
2048 1:-0.0831461 2:-0.0630631 3:-0.117783 4:-0.103448 5:-0.181416 6:-0.295597 
2048 1:0.119101 2:-0.0945946 3:-0.0207852 4:-0.0344828 5:-0.0840708 6:-0.174004 
2048 1:0.011236 2:0.108108 3:-0.0623557 4:0.0344828 5:-0.079646 6:-0.0943396 
996.4292946665831 1:-0.613483 2:-0.617117 3:-0.685912 4:-0.857471 5:-0.756637 6:-0.727463 
2048 1:-0.537079 2:-0.540541 3:-0.690531 4:-0.724138 5:-0.716814 6:-0.731656 
2048 1:-0.0337079 2:0.0585586 3:0.0808314 4:-0.0390805 5:-0.0663717 6:-0.165618 
2048 1:0.0876404 2:0.0135135 3:-0.0577367 4:-0.121839 5:-0.0575221 6:-0.186583 
2048 1:-0.483146 2:-0.603604 3:-0.759815 4:-0.710345 5:-0.721239 6:-0.781971 
2048 1:-0.483146 2:-0.608108 3:-0.847575 4:-0.747126 5:-0.778761 6:-0.761006 
2048 1:-0.0606742 2:-0.0045045 3:-0.0484988 4:0.0528736 5:-0.0353982 6:-0.132075 
2048 1:0.0157303 2:-0.0225225 3:0.0946882 4:-0.0252874 5:-0.0309735 6:-0.21174 
2048 1:-0.52809 2:-0.635135 3:-0.727483 4:-0.673563 5:-0.756637 6:-0.731656 
2048 1:-0.0561798 2:-0.121622 3:-0.17321 4:-0.154023 5:-0.216814 6:-0.316562 
2048 1:0.204494 2:-0.0045045 3:-0.0762125 4:0.0436782 5:0.0752212 6:-0.24109 
2048 1:0.217978 2:-0.220721 3:0.0577367 4:-0.0896552 5:-0.225664 6:-0.174004 
848.7666697308005 1:-0.946067 2:-0.612613 3:-0.676674 4:-0.728736 5:-0.738938 6:-0.761006 
2048 1:0.182022 2:0.148649 3:0.0762125 4:0.0206897 6:-0.140461 
2048 1:-0.74382 2:-0.689189 3:-0.667436 4:-0.793103 5:-0.787611 6:-0.920335 
2048 1:0.797753 2:-0.027027 3:0.0254042 4:-0.0850575 5:-0.115044 6:-0.148847 
2048 1:-0.478652 2:-0.522523 3:-0.575058 4:-0.691954 5:-0.659292 6:-0.781971 
2048 1:-0.0157303 2:0.018018 3:-0.0808314 4:-0.186207 5:-0.0929204 6:-0.215933 
2048 1:0.0831461 2:0.13964 3:0.113164 4:-0.0528736 5:-0.0309735 6:-0.115304 
2048 1:-0.0741573 2:0.045045 3:0.0623557 4:-0.0850575 5:-0.137168 6:-0.136268 
2048 1:-0.182022 2:-0.0720721 3:-0.228637 4:-0.241379 5:-0.238938 6:-0.278826 
2048 1:-0.734831 2:-0.558559 3:-0.732102 4:-0.71954 5:-0.743363 6:-0.748428 
2048 1:-0.591011 2:-0.59009 3:-0.732102 4:-0.696552 5:-0.707965 6:-0.777778 
2048 1:0.00224719 2:-0.103604 3:-0.0993072 4:-0.154023 5:-0.20354 6:-0.24109 
2048 1:0.235955 2:0.211712 3:0.288684 4:0.0850575 5:0.159292 6:0.0398323 
2048 1:0.0786517 2:0.112613 3:-0.0484988 4:-0.135632 5:-0.0929204 6:-0.106918 
2048 1:-0.505618 2:-0.612613 3:-0.690531 4:-0.714943 5:-0.831858 6:-0.681342 
2048 1:-0.0157303 2:-0.117117 3:-0.103926 4:-0.172414 5:-0.221239 6:-0.266247 
2048 1:-0.0382022 2:-0.112613 3:-0.256351 4:-0.181609 5:-0.168142 6:-0.283019 
2048 1:0.0247191 2:0.225225 3:0.108545 4:0.0712644 5:-0.0707965 6:-0.0566038 
2048 1:0.132584 2:0.0225225 3:0.0900693 4:-0.0758621 5:-0.079646 6:-0.0943396 
2048 1:-0.577528 2:-0.635135 3:-0.750577 4:-0.77931 5:-0.721239 6:-0.72327 
2048 1:-0.523596 2:-0.585586 3:-0.602771 4:-0.714943 5:-0.70354 6:-0.744235 
2048 1:-0.294382 2:-0.481982 3:-0.658199 4:-0.756322 5:-0.752212 6:-0.773585 
2048 1:0.0606742 2:-0.0630631 3:-0.00692841 4:-0.195402 5:-0.300885 6:-0.312369 
2048 1:-0.370787 2:-0.675676 3:-0.533487 4:-0.737931 5:-0.685841 6:-0.668763 
2048 1:-0.011236 2:0.0225225 3:-0.00230947 4:-0.0482759 5:-0.0840708 6:-0.119497 
2048 1:0.757303 2:0.743243 3:-0.127021 4:-0.126437 5:-0.123894 6:-0.194969 
2048 1:-0.0696629 2:-0.112613 3:-0.0623557 4:-0.112644 5:-0.123894 6:-0.186583 
2048 1:0.119101 2:0.0810811 3:-0.0484988 4:-0.186207 5:-0.314159 6:-0.203354 
2048 1:-0.510112 2:-0.567568 3:-0.704388 4:-0.728736 5:-0.712389 6:-0.727463 
2048 1:-0.761798 2:-0.630631 3:-0.727483 4:-0.774713 5:-0.716814 6:-0.731656 
212.7345660517102 1:0.71236 2:0.036036 3:-0.0993072 4:-0.135632 5:-0.163717 6:0.656184 
2048 1:0.150562 2:0.18018 3:0.0854503 4:0.062069 5:0.0221239 6:-0.0607966 
2048 1:-0.568539 2:-0.54955 3:-0.588915 4:-0.687356 5:-0.721239 6:-0.689727 
2048 1:0.0561798 2:0.148649 3:-0.136259 4:-0.190805 5:-0.110619 6:-0.136268 
1046.906476496009 1:-0.0247191 2:-0.117117 3:-0.159353 4:-0.236782 5:-0.243363 6:-0.29979 
2048 1:-0.047191 2:-0.0810811 3:-0.17321 4:-0.163218 5:-0.221239 6:-0.274633 
2048 1:-0.613483 2:-0.54955 3:-0.745958 4:-0.691954 5:-0.712389 6:-0.786164 
2048 1:-0.0516854 2:-0.0630631 3:-0.0623557 4:-0.135632 5:-0.0619469 6:-0.21174 
2048 1:0.0337079 2:-0.0990991 3:-0.136259 4:-0.172414 5:-0.19469 6:-0.27044 
2048 1:0.0696629 2:0.018018 3:-0.0715935 4:-0.00229885 5:-0.110619 6:-0.127883 
206.4884220355298 1:0.0157303 2:-0.0495495 3:-0.0993072 4:-0.296552 5:-0.331858 6:-0.350105 
281.1068007364262 1:-0.550562 2:-0.603604 3:-0.588915 4:-0.747126 5:-0.778761 6:-0.698113 
2048 1:0.0696629 2:-0.00900901 3:-0.0808314 4:-0.131034 5:-0.261062 6:-0.379455 
2048 1:-0.119101 2:0.0315315 3:-0.0207852 4:-0.144828 5:-0.146018 6:-0.165618 
2048 1:-0.537079 2:-0.761261 3:-0.833718 4:-0.756322 5:-0.752212 6:-0.819706 
2048 1:-0.582022 2:-0.572072 3:-0.672055 4:-0.701149 5:-0.884956 6:-0.685535 
2048 1:-0.195506 2:-0.153153 3:-0.367206 4:-0.324138 5:-0.362832 6:-0.379455 
2048 1:0.0337079 2:0.036036 3:-0.0854503 4:-0.25977 5:-0.309735 6:-0.371069 
2048 1:-0.631461 2:-0.657658 3:-0.538106 4:-0.71954 5:-0.725664 6:-0.719078 
2048 1:0.775281 2:0.0585586 3:-0.0254042 4:-0.0436782 5:-0.0619469 6:-0.161426 
2048 1:0.0831461 2:-0.175676 3:-0.145497 4:-0.103448 5:-0.20354 6:-0.144654 
2048 1:0.757303 2:0.743243 3:0.0207852 4:-0.177011 5:-0.141593 6:-0.144654 
2048 1:0.132584 2:0.0585586 3:0.0623557 4:-0.0942529 5:-0.00884956 6:-0.048218 
2048 1:0.0741573 2:-0.0675676 3:0.0669746 4:-0.0390805 5:-0.0486726 6:-0.0859539 
2048 1:0.0202247 2:0.662162 3:-0.136259 4:-0.149425 5:-0.154867 6:-0.257862 
2048 1:0.217978 2:0.0540541 3:-0.0715935 4:0.0114943 5:-0.115044 6:-0.12369 
2048 1:-0.802247 2:-0.653153 3:-0.672055 4:-0.816092 5:-0.734513 6:-0.735849 
2048 1:0.00674157 2:-0.036036 3:-0.0900693 4:-0.126437 5:-0.199115 6:-0.186583 
2048 1:-0.0516854 2:-0.216216 3:-0.17321 4:-0.241379 5:-0.247788 6:-0.29979 
2048 1:0.0247191 3:-0.140878 4:-0.131034 5:-0.0973451 6:-0.203354 
2048 1:-0.00674157 2:0.0315315 3:0.0623557 4:-0.0298851 5:-0.00442478 6:-0.136268 
2048 1:0.0606742 2:0.148649 3:-0.122402 4:-0.213793 5:-0.29646 6:-0.18239 
2048 1:0.0292135 2:0.689189 3:-0.0438799 4:-0.0114943 5:-0.123894 6:-0.190776 
2048 1:0.0831461 2:0.00900901 3:-0.0484988 4:-0.209195 5:-0.358407 6:-0.27044 
2048 1:-0.195506 2:-0.225225 3:-0.344111 4:-0.42069 5:-0.380531 6:-0.408805 
2048 1:0.00224719 2:0.112613 3:-0.0207852 4:-0.0896552 5:-0.0884956 6:-0.169811 
2048 1:-0.159551 2:-0.153153 3:-0.163972 4:-0.213793 5:-0.252212 6:-0.295597 
2048 1:-0.604494 2:-0.608108 3:-0.575058 4:-0.705747 5:-0.681416 6:-0.69392 
2048 1:0.00224719 2:-0.166667 3:-0.210162 4:-0.121839 5:-0.358407 6:-0.333333 
2048 1:-0.0921348 2:-0.18018 3:-0.140878 4:-0.190805 5:-0.247788 6:-0.274633 
2048 1:-0.00224719 2:0.117117 3:-0.0946882 4:-0.14023 5:-0.0929204 6:-0.161426 
2048 1:-0.667416 2:-0.675676 3:-0.672055 4:-0.742529 5:-0.761062 6:-0.735849 
265.7549977694686 1:-0.635955 2:-0.684685 3:-0.685912 4:-0.816092 5:-0.769912 6:0.144654 
2048 1:0.101124 2:0.0540541 3:0.0762125 4:-0.144828 5:-0.314159 6:-0.169811 
2048 1:-0.0651685 2:-0.0540541 3:-0.154734 4:-0.218391 5:-0.252212 6:-0.232704 
2048 1:-0.132584 2:-0.0225225 3:0.0531178 4:-0.0436782 5:-0.079646 6:-0.203354 
2048 1:0.0786517 2:-0.0495495 3:-0.0623557 4:-0.103448 5:-0.0973451 6:-0.144654 
2048 1:-0.0292135 2:-0.0495495 3:-0.0623557 4:-0.158621 5:-0.154867 6:-0.249476 
2048 1:0.132584 2:0.0045045 3:-0.0254042 4:-0.126437 5:-0.243363 6:-0.345912 
2048 1:0.244944 2:0.112613 3:0.122402 4:0.0298851 5:0.0353982 6:0.0104822 
2048 1:-0.474157 2:-0.481982 3:-0.593533 4:-0.747126 5:-0.70354 6:-0.727463 
2048 1:-0.0516854 2:-0.0720721 3:-0.177829 4:-0.213793 5:-0.212389 6:-0.29979 
2048 1:-0.608989 2:-0.635135 3:-0.65358 4:-0.77931 5:-0.823009 6:-0.907757 
2048 1:0.105618 2:0.0990991 3:-0.0115473 4:-0.0574713 5:-0.0575221 6:-0.157233 
2048 1:-0.132584 2:-0.0315315 3:-0.187067 4:-0.172414 5:-0.274336 6:-0.203354 
2048 1:-0.501124 2:-0.536036 3:-0.621247 4:-0.724138 5:-0.641593 6:-0.807128 
2048 1:-0.496629 2:-0.644144 3:-0.699769 4:-0.788506 5:-0.876106 6:-0.895178 
2048 1:0.222472 2:0.112613 3:0.0254042 4:0.0252874 5:-0.0884956 6:-0.0901468 
2048 1:0.0157303 2:0.018018 3:-0.233256 4:-0.227586 5:-0.314159 6:-0.387841 
2048 1:-0.0157303 2:-0.018018 3:-0.0715935 4:-0.14023 5:-0.141593 6:-0.207547 
2048 1:-0.159551 2:-0.0630631 3:-0.256351 4:-0.186207 5:-0.181416 6:-0.283019 
2048 1:-0.510112 2:-0.662162 3:-0.755196 4:-0.751724 5:-0.707965 6:-0.765199 
2048 1:0.0157303 2:0.0765766 3:0.0808314 4:-0.0666667 5:-0.0530973 6:-0.102725 
2048 1:-0.52809 2:-0.630631 3:-0.787529 4:-0.793103 5:-0.699115 6:-0.744235 
2048 1:-0.159551 2:-0.238739 3:-0.228637 4:-0.245977 5:-0.176991 6:-0.287212 
392.0102374858894 1:-0.280899 2:0.689189 3:-0.0161663 4:-0.209195 5:-0.176991 6:-0.178197 
2048 1:-0.182022 2:-0.121622 3:-0.117783 4:-0.236782 5:-0.292035 6:-0.215933 
2048 1:-0.0516854 2:-0.0675676 3:-0.136259 4:-0.167816 5:-0.176991 6:-0.283019 
2048 1:-0.0202247 2:0.0720721 3:0.0207852 4:-0.0528736 5:-0.0309735 6:-0.15304 
2048 1:0.640449 2:-0.0135135 3:-0.127021 4:-0.181609 5:-0.216814 6:-0.274633 
2048 1:0.0696629 2:-0.0135135 3:-0.039261 4:-0.149425 5:-0.256637 6:-0.345912 
2048 1:-0.213483 2:-0.13964 3:-0.242494 4:-0.370115 5:-0.433628 6:-0.480084 
1102.183044392611 1:-0.725843 2:-0.936937 3:-0.598152 4:-0.774713 5:-0.800885 6:-0.781971 
2048 1:-0.0157303 2:-0.0675676 3:-0.233256 4:-0.167816 5:-0.212389 6:-0.24109 
2048 1:-0.0831461 2:-0.0945946 3:-0.0531178 4:-0.131034 5:-0.238938 6:-0.224319 
2048 1:-0.523596 2:-0.675676 3:-0.65358 4:-0.829885 5:-0.800885 6:-0.924528 
2048 1:-0.0651685 2:-0.144144 3:-0.140878 4:-0.190805 5:-0.176991 6:-0.249476 
2048 1:0.0337079 2:-0.279279 3:-0.2194 4:-0.204598 5:-0.256637 6:-0.236897 
2048 1:-0.0876404 2:-0.243243 3:-0.228637 4:-0.273563 5:-0.287611 6:-0.32914 
2048 1:-0.41573 2:-0.387387 3:-0.662818 4:-0.770115 5:-0.712389 6:-0.899371 
2048 1:0.141573 2:0.0990991 3:0.0300231 4:-0.0206897 5:-0.0176991 6:-0.161426 
2048 1:-0.451685 2:-0.585586 3:-0.491917 4:-0.613793 5:-0.641593 6:-0.740042 
2048 1:-0.132584 3:-0.0669746 4:-0.14023 5:-0.207965 6:-0.178197 
2048 1:-0.505618 2:-0.477477 3:-0.690531 4:-0.733333 5:-0.769912 6:-0.698113 
2048 1:-0.0966292 2:-0.036036 3:-0.13164 4:-0.172414 5:-0.19469 6:-0.236897 
2048 1:0.0921348 2:0.0990991 3:-0.0993072 4:-0.0114943 5:-0.0619469 6:-0.157233 
2048 1:0.105618 2:-0.0135135 3:-0.0254042 4:-0.0390805 5:-0.0265487 6:-0.157233 
1693.538428470069 1:-0.150562 2:-0.0945946 3:-0.122402 4:-0.154023 5:-0.283186 6:-0.253669 
2048 1:-0.267416 2:-0.22973 3:-0.297921 4:-0.305747 5:-0.300885 6:-0.358491 
2048 1:-0.00674157 2:-0.0540541 3:-0.0762125 4:-0.186207 5:-0.309735 6:-0.345912 
2048 1:0.721348 2:0.175676 3:0.177829 4:0.0298851 5:0.0884956 6:0.0314465 
2048 1:0.0292135 2:0.0045045 3:0.69515 4:0.00689655 5:0.0530973 6:-0.081761 
2048 1:0.0921348 2:0.0135135 3:-0.0854503 4:-0.0758621 5:0.0309735 6:-0.0943396 
2048 1:-0.0382022 2:-0.121622 3:0.0254042 4:0.0298851 5:0.00442478 6:-0.0733753 
2048 1:0.0696629 2:0.0630631 3:0.140878 4:0.112644 5:0.132743 6:0.0188679 
2048 1:-0.375281 2:-0.355856 3:-0.593533 4:-0.494253 5:-0.451327 6:-0.425577 
2048 1:0.752809 2:0.738739 3:0.759815 4:0.0850575 5:0.132743 6:0.0566038 
2048 1:-0.6 2:-0.585586 3:-0.528868 4:-0.641379 5:-0.464602 6:-0.492662 
2048 1:0.0157303 2:-0.036036 3:0.103926 4:0.508046 5:0.039823 6:0.0607966 
1575.060374321832 1:-0.204494 2:0.581081 3:-0.0207852 4:0.577011 5:0.615044 6:-0.0566038 
2048 1:-0.123596 2:-0.166667 3:-0.0993072 4:-0.117241 5:-0.00884956 6:-0.157233 
2048 1:-0.0382022 2:0.657658 3:0.0531178 4:-0.0436782 5:0.0176991 6:0.0440252 
2048 1:0.164045 2:-0.536036 3:-0.598152 4:-0.549425 5:-0.504425 6:-0.60587 
2048 1:0.0426966 2:0.0630631 3:0.0762125 4:-0.00229885 5:0.0752212 6:-0.0104822 
1921.014093090754 1:0.559551 2:-0.0720721 3:0.561201 4:-0.0528736 5:0.579646 6:-0.111111 
2048 1:0.0741573 2:0.027027 3:0.0669746 4:-0.0114943 5:0.00442478 6:-0.0398323 
2048 1:0.0876404 2:-0.0540541 3:0.0854503 4:-0.0528736 5:0.0752212 6:-0.0607966 
2048 1:0.0876404 2:-0.0630631 3:-0.127021 4:-0.0804598 5:-0.00884956 6:-0.0440252 
2048 1:-0.011236 2:-0.0855856 3:-0.0484988 4:-0.0206897 5:-0.00884956 6:-0.0943396 
2048 1:0.622472 2:0.608108 3:-0.0115473 4:0.0712644 5:-0.0221239 6:-0.0524109 
2048 1:0.164045 2:-0.0495495 3:-0.113164 4:-0.131034 5:0.584071 6:-0.12369 
2048 1:-0.0876404 2:-0.112613 3:-0.0254042 4:-0.117241 6:-0.0398323 
2048 1:0.0202247 2:-0.0045045 3:-0.0161663 4:0.108046 5:0.154867 6:-0.00628931 
2048 1:-0.537079 2:-0.554054 3:-0.542725 4:-0.627586 5:-0.5 6:-0.51782 
2048 1:-0.0426966 2:-0.0495495 3:-0.103926 4:-0.177011 5:-0.137168 6:-0.190776 
2048 1:0.0157303 2:-0.162162 3:-0.0577367 4:-0.0942529 5:-0.150442 6:-0.245283 
2048 1:0.150562 2:-0.108108 3:0.0438799 4:-0.0712644 5:-0.0132743 6:-0.081761 
2048 1:0.0202247 2:-0.0630631 3:0.65358 4:-0.0850575 5:-0.0176991 6:-0.0398323 
2048 1:0.164045 2:-0.662162 3:-0.616628 4:-0.701149 5:-0.650442 6:-0.643606 
2048 1:-0.011236 2:-0.00900901 3:-0.13164 4:-0.250575 5:-0.0973451 6:-0.157233 
2048 1:0.698876 2:-0.18018 3:-0.13164 4:-0.154023 5:-0.0619469 6:-0.132075 
2048 1:0.047191 2:-0.0315315 3:-0.0300231 4:-0.0528736 5:-0.00442478 6:0.0272537 
2048 1:0.173034 2:0.0720721 3:0.0577367 4:0.0804598 5:0.0973451 6:0.0901468 
2048 1:-0.339326 2:-0.54955 3:-0.491917 4:-0.402299 5:-0.442478 6:-0.526205 
2048 1:-0.591011 2:-0.644144 3:-0.630485 4:-0.609195 5:-0.707965 6:-0.685535 
2048 1:-0.0966292 2:-0.0765766 3:-0.0669746 4:0.434483 5:-0.199115 6:-0.15304 
2048 1:0.703371 2:0.689189 3:0.0300231 4:0.687356 5:0.0530973 6:-0.0188679 
2048 1:0.523596 2:0.509009 3:-0.168591 4:-0.154023 5:-0.0752212 6:-0.161426 
398.5662428135795 1:0.0876404 2:0.18018 3:0.704388 4:0.112644 5:0.716814 6:0.0188679 
2048 1:0.0831461 2:0.0765766 3:0.0254042 4:0.0850575 5:0.659292 6:-0.0104822 
2048 1:0.0966292 2:-0.0990991 3:0.0715935 4:-0.0436782 5:-0.0486726 6:-0.119497 
2048 1:-0.0876404 2:0.518018 3:0.533487 4:0.512644 5:-0.0619469 6:-0.106918 
2048 1:0.0202247 2:-0.045045 3:-0.103926 4:-0.135632 5:-0.0486726 6:-0.174004 
2048 1:-0.0426966 2:0.13964 3:-0.0623557 4:-0.0298851 5:0.039823 6:-0.0943396 
2048 1:0.793258 2:0.779279 3:0.145497 4:0.103448 5:0.146018 6:0.00628931 
640.4205294640683 1:-0.730337 2:-0.472973 3:-0.570439 4:0.135632 5:-0.442478 6:-0.48847 
2048 1:0.0516854 2:0.0990991 3:0.113164 4:0.108046 5:0.00884956 6:-0.0985325 
2048 1:-0.45618 2:-0.576577 3:-0.621247 4:-0.710345 5:-0.730088 6:-0.643606 
2048 1:0.132584 2:0.027027 3:0.0808314 4:-0.0482759 5:0.0132743 6:-0.0859539 
2048 1:0.0337079 2:-0.144144 3:0.0115473 4:-0.0666667 5:-0.0619469 6:-0.115304 
2048 1:0.258427 2:0.0810811 3:0.0207852 4:0.0666667 5:0.0221239 6:-0.0440252 
2048 1:0.348315 2:0.193694 3:0.140878 4:0.121839 5:0.0707965 6:0.0230608 
2048 1:0.047191 3:-0.0438799 4:-0.117241 5:-0.132743 6:-0.12369 
2048 1:-0.595506 2:-0.648649 3:-0.672055 4:-0.751724 5:-0.756637 6:-0.672956 
2048 1:0.0247191 3:0.00230947 4:-0.121839 5:-0.0575221 6:-0.136268 
2048 1:0.164045 3:-0.00230947 4:0.0298851 5:-0.0309735 6:-0.132075 
2048 1:0.0876404 2:0.0135135 3:-0.0115473 4:-0.0804598 5:-0.110619 6:-0.0901468 
2048 1:0.011236 2:-0.0630631 3:0.0669746 4:-0.0114943 5:0.0132743 6:-0.12369 
2048 1:0.2 2:0.0225225 3:-0.034642 4:-0.0528736 5:-0.0575221 6:-0.12369 
2048 1:0.716854 2:0.702703 3:0.00692841 4:-0.0252874 5:-0.0929204 6:-0.119497 
2048 1:0.0292135 2:0.0135135 3:-0.0207852 4:-0.186207 5:-0.0486726 6:-0.0943396 
2048 1:0.0426966 2:0.0945946 3:-0.039261 4:-0.062069 5:0.039823 6:-0.00209644 
2048 1:-0.52809 2:-0.635135 3:-0.690531 4:-0.586207 5:-0.5 6:-0.534591 
2048 1:0.101124 2:0.752252 3:-0.039261 4:-0.0252874 5:0.0663717 6:0.0356394 
2048 1:-0.514607 2:-0.567568 3:-0.667436 4:-0.668966 5:-0.50885 6:-0.63522 
2048 1:0.141573 2:0.00900901 3:0.191686 4:0.158621 5:0.159292 6:0.081761 
2048 1:-0.226966 2:-0.0135135 3:-0.0115473 4:-0.0528736 5:0.00442478 6:-0.00628931 
2048 1:-0.474157 2:-0.653153 3:-0.528868 4:-0.531034 5:-0.632743 6:-0.555556 
2048 1:0.0606742 3:-0.117783 4:-0.117241 5:-0.0884956 6:-0.0943396 
2048 1:0.730337 2:0.716216 3:0.034642 4:0.0114943 5:0.0929204 6:0.0985325 
2048 1:0.0651685 2:0.657658 3:-0.0762125 4:-0.0574713 5:-0.0353982 6:-0.0566038 
2048 1:0.591011 2:-0.121622 3:-0.154734 4:-0.227586 5:-0.185841 6:-0.174004 
2048 1:0.00224719 3:-0.0946882 4:-0.195402 5:-0.119469 6:-0.232704 
2048 1:0.0157303 2:-0.0225225 3:0.0900693 4:0.0114943 5:-0.0619469 6:-0.081761 
2048 1:-0.631461 2:-0.684685 3:-0.56582 4:-0.714943 5:-0.668142 6:-0.748428 
2048 1:0.164045 2:0.0405405 3:0.0438799 4:-0.0528736 5:-0.10177 6:-0.0607966 
2048 1:-0.662921 2:-0.657658 3:-0.685912 4:-0.71954 5:-0.734513 6:-0.710692 
2048 1:-0.505618 2:-0.725225 3:-0.745958 4:-0.733333 5:-0.730088 6:-0.714885 
2048 1:0.155056 2:-0.171171 3:-0.0531178 4:-0.0758621 5:-0.00884956 6:-0.199161 
2048 1:0.159551 2:0.036036 3:-0.039261 4:-0.0482759 5:-0.00884956 6:-0.0272537 
2048 1:-0.501124 2:-0.513514 3:-0.685912 4:-0.710345 5:-0.588496 6:-0.710692 
2048 1:-0.608989 2:-0.662162 3:-0.690531 4:-0.696552 5:-0.69469 6:-0.69392 
2048 1:-0.582022 2:-0.671171 3:-0.676674 4:-0.696552 5:-0.792035 6:-0.660377 
2048 1:0.235955 2:0.130631 3:-0.0762125 4:-0.0666667 5:0.0265487 6:-0.0607966 
2048 1:0.860674 2:0.112613 3:0.0900693 4:-0.0436782 5:-0.0929204 6:-0.0566038 
2048 1:0.0651685 2:0.0810811 3:0.136259 4:0.0712644 5:0.0309735 6:-0.0775681 
2048 1:0.0561798 2:0.0225225 3:-0.159353 4:-0.144828 5:-0.079646 6:-0.236897 
2048 1:-0.523596 2:-0.707207 3:-0.764434 4:-0.696552 5:-0.761062 6:-0.593291 
2048 1:0.0157303 2:-0.135135 3:-0.0438799 4:-0.131034 5:-0.132743 6:-0.048218 
2048 1:0.168539 2:0.144144 3:0.0715935 4:0.0252874 5:-0.119469 6:0.0188679 
2048 1:0.114607 2:0.0495495 3:0.0669746 4:0.0758621 5:0.00442478 6:-0.106918 
2048 1:0.0831461 2:0.166667 3:0.0993072 4:0.0758621 5:-0.0176991 6:-0.0859539 
2048 1:0.0741573 2:0.108108 3:0.0808314 4:-0.016092 5:-0.0663717 6:-0.0943396 
2048 1:0.0786517 2:0.0630631 3:0.0300231 4:-0.00229885 5:-0.0663717 6:-0.106918 
2048 1:0.2 2:0.0405405 3:0.0808314 4:0.0758621 5:-0.0309735 6:-0.0440252 
2048 1:-0.00674157 2:-0.00900901 3:-0.0715935 4:-0.0758621 5:-0.0707965 6:-0.15304 
2048 1:0.132584 2:0.157658 3:0.0300231 4:-0.0114943 5:-0.0309735 6:-0.0440252 
2048 1:0.0921348 2:0.0315315 3:0.0300231 4:-0.0666667 5:-0.0353982 6:-0.148847 
2048 1:0.0247191 2:0.0225225 3:-0.0161663 4:0.0252874 5:-0.0176991 6:-0.0440252 
2048 1:0.0426966 3:-0.0808314 4:-0.0344828 5:-0.0663717 6:-0.0901468 
2048 1:-0.253933 2:-0.0720721 3:0.0254042 4:-0.0574713 5:-0.0575221 6:-0.140461 
2048 1:-0.00224719 2:0.112613 3:0.0808314 4:0.016092 5:-0.0176991 6:-0.0188679 
2048 1:0.0966292 2:-0.0135135 3:0.034642 4:-0.0390805 6:-0.127883 
2048 1:0.0561798 2:0.103604 3:0.0115473 4:-0.0298851 5:-0.119469 6:-0.081761 
2048 1:-0.0157303 2:0.018018 3:0.122402 4:-0.0528736 5:-0.0752212 6:-0.144654 
2048 1:-0.00224719 2:0.121622 3:0.0484988 4:-0.00689655 5:-0.079646 6:-0.0314465 
2048 1:0.0966292 2:-0.0990991 3:-0.0484988 4:-0.0758621 5:-0.123894 6:-0.111111 
2048 1:0.137079 2:-0.00900901 3:0.0993072 4:0.00689655 5:-0.0575221 6:-0.0566038 
2048 1:0.132584 2:0.0855856 3:0.0577367 4:0.0482759 5:-0.00442478 6:-0.106918 
2048 1:0.123596 2:0.0855856 3:0.103926 4:0.0942529 5:0.0663717 6:-0.048218 
2048 1:-0.0292135 2:0.189189 3:0.0531178 4:-0.0298851 5:-0.0707965 6:-0.127883 
2048 1:0.155056 2:0.157658 3:0.0808314 4:0.0850575 5:-0.146018 6:-0.111111 
2048 1:-0.011236 2:-0.0045045 3:-0.0623557 4:-0.131034 5:-0.168142 6:-0.140461 
2048 1:0.114607 2:0.045045 3:-0.0161663 4:-0.0344828 5:-0.079646 6:-0.140461 
2048 1:0.137079 2:0.157658 3:0.0531178 4:-0.0298851 5:-0.0619469 6:-0.111111 
2048 1:0.0921348 2:0.22973 3:0.200924 4:0.062069 5:0.159292 6:-0.0104822 
2048 1:0.155056 2:0.135135 3:0.145497 4:0.0574713 5:-0.00884956 6:-0.0524109 
2048 1:0.119101 2:0.13964 3:0.0254042 4:0.0344828 5:-0.0442478 6:-0.102725 
2048 1:0.0696629 2:0.0540541 3:-0.00230947 4:0.0114943 5:-0.079646 6:0.00628931 
2048 1:0.0202247 2:0.0990991 3:0.205543 4:-0.0804598 5:0.0442478 6:-0.0649895 
2048 1:0.838202 2:0.824324 3:0.177829 4:0.0712644 5:0.154867 6:0.0272537 
2048 1:-0.155056 2:0.0315315 3:-0.0900693 4:0.0298851 5:-0.00442478 6:0.00628931 
2048 1:0.00674157 2:0.148649 3:-0.0946882 4:0.00229885 5:-0.0176991 6:0.0272537 
2048 1:0.101124 2:0.0630631 3:-0.13164 4:-0.0528736 5:0.0663717 6:-0.0188679 
2048 1:0.298876 2:0.382883 3:0.200924 4:0.273563 5:0.243363 6:0.287212 
2048 1:0.226966 2:0.171171 3:0.214781 4:0.154023 5:0.920354 6:0.220126 
2048 1:0.182022 2:0.112613 3:0.0669746 4:0.788506 5:0.146018 6:0.0901468 
2048 1:0.0741573 2:0.711712 3:-0.034642 4:0.710345 5:0.0929204 6:0.0566038 
2048 1:-0.613483 2:-0.599099 3:-0.722864 4:-0.613793 5:-0.584071 6:-0.526205 
2048 1:0.0382022 2:0.234234 3:0.154734 4:0.177011 5:0.278761 6:0.0146751 
2048 1:0.0921348 2:0.86036 3:0.108545 4:-0.00229885 5:0.0929204 6:0.00628931 
2048 1:-0.411236 2:-0.594595 3:-0.616628 4:-0.701149 5:-0.734513 6:-0.677149 
2048 1:0.213483 2:-0.234234 3:-0.200924 4:-0.314943 5:-0.207965 6:-0.29979 
2048 1:0.802247 2:0.0675676 3:0.0161663 4:-0.062069 5:-0.0929204 6:-0.136268 
2048 1:0.689888 2:-0.121622 3:-0.224018 4:-0.204598 5:-0.159292 6:-0.228512 
2048 1:-0.496629 2:-0.576577 3:-0.681293 4:-0.71954 5:-0.725664 6:-0.761006 
2048 1:0.101124 2:-0.126126 3:-0.108545 4:-0.0390805 5:-0.199115 6:-0.12369 
2048 1:-0.0426966 2:-0.045045 3:-0.039261 4:-0.0712644 5:-0.154867 6:-0.115304 
2048 1:0.253933 2:0.0900901 3:0.0762125 4:0.0850575 5:0.079646 6:-0.0398323 
2048 1:0.0426966 2:0.108108 3:-0.117783 4:-0.0482759 5:-0.128319 6:-0.136268 
2048 1:0.146067 2:0.0495495 3:0.122402 4:-0.0206897 5:-0.0353982 6:-0.132075 
2048 1:0.011236 2:0.027027 3:0.0531178 4:0.0528736 5:-0.128319 6:-0.115304 
266.0424197486212 1:-0.00224719 2:-0.153153 3:0.122402 4:-0.0436782 5:-0.0663717 6:-0.232704 
2048 1:0.0876404 2:0.027027 3:-0.0531178 4:-0.0850575 5:-0.0265487 6:-0.157233 
2048 1:0.186517 2:0.0720721 3:0.113164 4:0.0804598 5:-0.0265487 6:-0.0649895 
2048 1:0.213483 2:0.144144 3:0.0577367 4:0.0298851 5:0.115044 6:0.0104822 
2048 1:0.146067 2:0.0945946 3:0.0623557 4:0.0942529 5:0.110619 6:-0.0859539 
2048 1:0.0966292 2:-0.0810811 3:-0.00230947 4:-0.0528736 5:-0.039823 6:-0.0607966 
2048 1:-0.0157303 2:0.108108 3:-0.0161663 4:0.0252874 5:-0.185841 6:-0.119497 
2048 1:0.0606742 2:0.0045045 3:-0.205543 4:-0.062069 5:-0.0752212 6:-0.203354 
2048 1:0.12809 2:0.103604 3:0.00230947 4:-0.0344828 5:-0.0840708 6:-0.0566038 
2048 1:-0.182022 2:0.0675676 3:0.0438799 4:0.00229885 5:-0.039823 6:-0.0901468 
2048 1:-0.0247191 2:-0.117117 3:-0.0531178 4:-0.0988506 5:-0.0929204 6:-0.190776 
2048 1:0.0516854 2:0.0900901 3:0.0623557 4:0.0666667 5:0.00442478 6:-0.127883 
2048 1:0.146067 2:0.0315315 3:0.0207852 4:-0.0390805 5:-0.0929204 6:-0.12369 
2048 1:0.0741573 2:0.0135135 3:0.0300231 4:0.0252874 5:0.0663717 6:-0.0146751 
2048 1:0.186517 2:-0.0045045 3:-0.0715935 4:0.0482759 5:-0.00442478 6:-0.0398323 
2048 1:0.0292135 2:0.0135135 3:0.0808314 4:0.00689655 5:-0.0486726 6:-0.127883 
2048 1:-0.0157303 2:0.0810811 3:0.039261 4:-0.0942529 5:-0.0442478 6:-0.111111 
2048 1:0.0651685 2:0.0045045 3:0.0623557 4:-0.0206897 5:-0.0752212 6:-0.169811 
2048 1:-0.0786517 2:-0.0045045 3:-0.0577367 4:-0.0712644 5:-0.168142 6:-0.174004 
2048 1:0.231461 2:0.135135 3:0.0531178 4:-0.016092 5:0.039823 6:-0.0566038 
2048 1:0.164045 2:0.252252 3:0.150115 4:0.0528736 5:0.0265487 6:0.0356394 
2048 1:-0.258427 2:0.0225225 3:-0.039261 4:-0.0528736 5:-0.0973451 6:-0.136268 
2048 1:0.105618 2:-0.036036 3:-0.200924 4:-0.016092 5:-0.141593 6:-0.0943396 
2048 1:0.12809 2:0.0225225 3:-0.168591 4:0.016092 5:0.0221239 6:-0.111111 
2048 1:0.150562 2:0.0945946 3:0.0808314 4:0.0206897 5:-0.0353982 6:-0.140461 
2048 1:-0.0157303 2:0.0045045 3:-0.0161663 4:-0.0666667 5:-0.110619 6:-0.119497 
2048 1:0.34382 2:0.234234 3:0.034642 4:0.172414 5:0.039823 6:0.0188679 
2048 1:0.240449 2:0.126126 3:0.0300231 4:0.0206897 5:-0.00442478 6:-0.0943396 
2048 1:-0.568539 2:-0.657658 3:-0.861432 4:-0.737931 5:-0.756637 6:-0.756813 
2048 1:-0.0157303 2:0.0045045 3:-0.00230947 4:-0.204598 5:-0.146018 6:-0.165618 
2048 1:0.88764 2:0.045045 3:0.108545 4:0.0252874 5:0.0221239 6:-0.0356394 
2048 1:0.119101 2:0.0405405 3:-0.0531178 4:-0.0896552 5:-0.0575221 6:-0.157233 
2048 1:-0.0337079 2:0.036036 3:-0.0115473 4:-0.0942529 5:-0.0575221 6:-0.15304 
2048 1:0.0247191 2:0.0630631 3:-0.0577367 4:-0.0574713 5:-0.0929204 6:-0.157233 
2048 1:0.0966292 2:-0.0225225 3:-0.0808314 4:-0.0482759 5:0.00884956 6:-0.102725 
2048 1:0.0157303 2:-0.0720721 3:0.0207852 4:-0.0390805 5:-0.199115 6:-0.144654 
2048 1:0.164045 2:0.162162 3:0.113164 4:-0.00229885 5:-0.0132743 6:-0.119497 
2048 1:0.159551 2:-0.103604 3:0.0577367 4:0.0114943 5:-0.119469 6:-0.0943396 
2048 1:0.0606742 2:0.117117 3:0.00230947 4:0.0206897 5:0.0176991 6:-0.132075 
821.9386544264355 1:0.168539 2:-0.0630631 3:0.117783 4:-0.0758621 5:-0.115044 6:-0.148847 
2048 1:0.0426966 2:-0.364865 3:-0.214781 4:-0.227586 5:-0.247788 6:-0.27044 
2048 1:0.208989 2:0.157658 3:0.13164 4:0.062069 5:0.00884956 6:-0.0440252 
2048 1:0.155056 2:0.0675676 3:0.0577367 4:0.0574713 5:-0.0884956 6:-0.081761 
2048 1:0.0292135 2:0.135135 3:0.0531178 4:-0.0298851 5:-0.190265 6:-0.081761 
2048 1:0.047191 2:0.0630631 3:0.00230947 4:0.0298851 5:-0.110619 6:-0.132075 
2048 1:0.119101 2:-0.0045045 3:-0.108545 4:-0.00229885 5:-0.110619 6:-0.111111 
2048 1:0.150562 2:0.126126 3:-0.0254042 4:0.0114943 5:-0.0530973 6:-0.144654 
2048 1:-0.047191 2:-0.0495495 3:-0.0762125 4:-0.121839 5:-0.150442 6:-0.232704 
2048 1:0.110112 2:-0.0855856 3:-0.0531178 4:-0.0252874 5:-0.106195 6:-0.127883 
2048 1:-0.0606742 2:-0.0900901 3:-0.159353 4:-0.250575 5:-0.278761 6:-0.220126 
1866.865346271071 1:0.186517 2:0.202703 3:0.163972 4:-0.062069 5:-0.0221239 6:-0.0314465 
2048 1:0.182022 2:0.135135 3:0.0577367 4:0.0482759 5:0.00442478 6:-0.0607966 
2048 1:-0.6 2:-0.653153 3:-0.741339 4:-0.65977 5:-0.752212 6:-0.769392 
2048 1:-0.244944 2:-0.0630631 3:-0.0438799 4:-0.135632 5:-0.106195 6:-0.161426 
2048 1:-0.0516854 2:0.0540541 3:-0.0715935 4:-0.0712644 5:-0.0884956 6:-0.190776 
2048 1:-0.011236 2:0.0900901 3:-0.0207852 4:-0.0666667 5:-0.00442478 6:-0.18239 
2048 1:0.0202247 2:-0.166667 3:-0.039261 4:-0.108046 5:-0.119469 6:-0.174004 
2048 1:0.146067 2:-0.00900901 3:0.0900693 4:-0.0390805 5:-0.00442478 6:-0.106918 
2048 1:0.208989 2:0.0855856 3:0.0577367 4:-0.0114943 5:-0.0309735 6:-0.119497 
2048 1:0.155056 2:0.153153 3:0.0900693 4:-0.0298851 5:0.0221239 6:-0.0314465 
2048 1:0.0382022 2:0.108108 3:0.0808314 4:0.00689655 5:0.00884956 6:-0.0440252 
2048 1:-0.00674157 2:-0.0495495 3:-0.0438799 4:-0.163218 5:-0.0707965 6:-0.295597 
2048 1:0.316854 2:0.189189 3:0.0854503 4:0.186207 5:0.0442478 6:0.0901468 
2048 1:-0.0157303 2:0.0585586 3:-0.0207852 4:-0.0206897 5:-0.0353982 6:-0.102725 
2048 1:-0.604494 2:-0.698198 3:-0.727483 4:-0.71954 5:-0.752212 6:-0.752621 
2048 1:-0.532584 2:-0.752252 3:-0.593533 4:-0.696552 5:-0.685841 6:-0.790356 
2048 1:0.168539 2:0.130631 3:0.17321 4:0.0988506 5:0.0707965 6:0.0188679 
2048 1:-0.0292135 2:0.0720721 3:-0.0531178 4:-0.135632 5:-0.159292 6:-0.12369 
2048 1:-0.617978 2:-0.653153 3:-0.750577 4:-0.770115 5:-0.716814 6:-0.731656 
2048 1:0.298876 2:0.310811 3:0.224018 4:0.126437 5:0.0530973 6:0.081761 
2048 1:-0.00224719 2:-0.018018 3:-0.0161663 4:-0.0390805 5:-0.128319 6:-0.178197 
2048 1:-0.00224719 2:-0.0045045 3:0.0577367 4:-0.126437 5:-0.132743 6:-0.127883 
2048 1:-0.00224719 2:0.0720721 3:-0.0438799 4:-0.062069 5:-0.0265487 6:-0.106918 
2048 1:-0.595506 2:-0.779279 3:-0.69515 4:-0.797701 5:-0.761062 6:-0.698113 
2048 1:0.101124 2:-0.018018 3:-0.00230947 4:-0.172414 5:-0.123894 6:-0.140461 
2048 1:0.186517 2:0.0045045 3:-0.0531178 4:-0.0758621 5:-0.079646 6:-0.140461 
2048 1:0.222472 2:0.243243 3:0.140878 4:0.121839 5:0.0353982 6:-0.0649895 
2048 1:0.0337079 2:0.103604 3:0.145497 4:0.016092 5:0.0442478 6:-0.0649895 
2048 1:0.011236 2:0.018018 3:-0.0115473 4:-0.0804598 5:-0.0486726 6:-0.199161 
2048 1:0.00674157 2:-0.126126 3:-0.0808314 4:-0.167816 5:-0.159292 6:-0.295597 
2048 1:0.204494 2:-0.0630631 3:-0.0669746 4:0.016092 5:-0.0929204 6:-0.127883 
2048 1:-0.00224719 2:-0.036036 3:-0.0762125 4:-0.172414 5:-0.0619469 6:-0.119497 
2048 1:0.0516854 2:0.0135135 3:0.0762125 4:-0.00229885 5:-0.150442 6:-0.0524109 
1477.025421170242 1:0.0247191 2:-0.0135135 3:-0.0669746 4:-0.0804598 5:-0.146018 6:-0.199161 
2048 1:0.0741573 2:0.0945946 3:0.0715935 4:-0.0252874 5:0.00884956 6:-0.0859539 
2048 1:0.0292135 2:-0.0630631 3:0.0161663 4:-0.0436782 5:-0.132743 6:-0.119497 
2048 1:-0.132584 2:-0.0315315 3:-0.237875 4:-0.213793 5:-0.163717 6:-0.228512 
2048 1:-0.173034 2:-0.117117 3:-0.168591 4:-0.222989 5:-0.172566 6:-0.303983 
2048 1:0.235955 2:0.121622 3:0.0115473 4:0.0988506 5:0.0442478 6:-0.0314465 
2048 1:0.132584 2:-0.027027 3:0.0577367 4:0.0298851 5:-0.0752212 6:-0.0733753 
2048 1:0.173034 2:0.148649 3:0.0808314 4:0.0804598 6:0.0440252 
2048 1:-0.0337079 2:0.108108 3:0.034642 4:-0.135632 5:-0.0575221 6:-0.0775681 
2048 1:0.0426966 3:0.0254042 4:-0.0942529 5:-0.0663717 6:-0.18239 
2048 1:-0.658427 2:-0.720721 3:-0.736721 4:-0.664368 5:-0.716814 6:-0.802935 
2048 1:0.0696629 2:0.0630631 3:0.00230947 4:-0.0344828 5:0.039823 6:-0.262055 
2048 1:-0.0157303 2:0.0630631 3:-0.0623557 4:-0.0850575 5:-0.0752212 6:-0.081761 
2048 1:0.195506 2:0.247748 3:0.200924 4:0.149425 5:0.119469 6:0.0272537 
2048 1:0.0426966 2:0.144144 3:0.163972 4:0.0390805 5:0.0884956 6:0.0230608 
2048 1:-0.047191 2:0.0990991 3:-0.034642 4:-0.0436782 5:-0.115044 6:-0.0859539 
2048 1:-0.0337079 2:-0.0900901 3:-0.251732 4:-0.195402 5:-0.185841 6:-0.291405 
2048 1:0.307865 2:0.0495495 3:0.168591 4:0.0850575 5:0.039823 6:0.0440252 
2048 1:0.204494 2:0.148649 3:0.0577367 4:-0.00229885 5:-0.20354 6:-0.115304 
2048 1:0.105618 2:0.135135 3:0.0715935 4:-0.00229885 5:0.0221239 6:-0.081761 
2048 1:0.191011 2:0.0135135 3:0.0762125 4:-0.0252874 5:-0.00884956 6:-0.140461 
2048 1:0.146067 2:0.0405405 3:0.0254042 4:-0.131034 5:-0.0132743 6:-0.119497 
2048 1:0.0606742 2:-0.0855856 3:-0.0715935 4:-0.14023 5:-0.115044 6:-0.178197 
2048 1:0.119101 2:0.171171 3:0.154734 4:-0.00689655 5:0.0221239 6:-0.0314465 
2048 1:0.0696629 2:0.036036 3:-0.034642 4:-0.103448 5:-0.0619469 6:-0.0607966 
2048 1:-0.640449 2:-0.648649 3:-0.515012 4:-0.737931 5:-0.716814 6:-0.719078 
2048 1:0.0337079 2:-0.0765766 3:0.0115473 4:0.0114943 5:-0.0575221 6:-0.18239 
2048 1:-0.011236 2:0.157658 3:0.0115473 4:-0.00229885 5:-0.106195 6:-0.0775681 
2048 1:0.173034 2:0.815315 3:-0.039261 4:-0.0850575 5:-0.106195 6:-0.136268 
2048 1:0.0741573 2:0.036036 3:-0.0254042 4:-0.062069 5:-0.0929204 6:-0.161426 
2048 1:0.258427 2:0.126126 3:0.177829 4:0.0942529 5:-0.0442478 6:-0.0775681 
2048 1:-0.00224719 2:0.0585586 3:0.0438799 4:0.0712644 5:0.0221239 6:-0.194969 
2048 1:0.204494 2:0.175676 3:0.145497 4:0.00689655 5:-0.0486726 6:-0.0398323 
2048 1:-0.0157303 2:-0.0405405 3:0.103926 4:-0.0206897 5:-0.221239 6:-0.102725 
2048 1:0.0247191 2:-0.148649 3:-0.039261 4:-0.108046 5:-0.207965 6:-0.203354 
2048 1:-0.217978 2:-0.00900901 3:0.113164 4:-0.103448 5:-0.0973451 6:-0.132075 
2048 1:0.011236 2:-0.153153 3:-0.103926 4:-0.117241 5:-0.212389 6:-0.345912 
2048 1:0.0157303 2:-0.0990991 3:-0.00230947 4:-0.131034 5:-0.154867 6:-0.136268 
2048 1:-0.608989 2:-0.630631 3:-0.704388 4:-0.747126 5:-0.721239 6:-0.744235 
2048 1:0.213483 2:-0.027027 3:0.117783 4:0.135632 5:-0.00442478 6:-0.0607966 
2048 1:0.0966292 2:0.135135 3:0.0623557 4:-0.0666667 5:-0.0353982 6:-0.0859539 
2048 1:0.132584 2:0.0675676 3:0.150115 4:0.0390805 5:0.00442478 6:-0.0901468 
2048 1:0.0606742 2:-0.0225225 3:-0.0900693 4:0.0436782 5:-0.159292 6:-0.0943396 
2048 1:0.0876404 2:0.0045045 3:0.0254042 4:0.00229885 5:-0.0486726 6:-0.0859539 
1605.951282836809 1:-0.577528 2:-0.698198 3:-0.639723 4:-0.783908 5:0.190265 6:-0.828092 
2048 1:0.0696629 2:-0.018018 3:0.00230947 4:-0.117241 5:-0.0752212 6:-0.140461 
2048 1:-0.0202247 2:-0.0810811 3:-0.0669746 4:-0.103448 5:-0.168142 6:-0.232704 
2048 1:0.168539 2:0.0720721 3:0.0438799 4:-0.0298851 5:-0.0619469 6:-0.144654 
2048 1:-0.45618 2:-0.540541 3:-0.672055 4:-0.682759 5:-0.712389 6:-0.761006 
2048 1:-0.608989 2:-0.626126 3:-0.662818 4:-0.664368 5:-0.615044 6:-0.672956 
2048 1:0.105618 2:-0.0630631 3:-0.2194 4:-0.255172 5:-0.283186 6:-0.354298 
2048 1:0.0292135 2:-0.0045045 3:-0.00230947 4:-0.0482759 5:-0.132743 6:-0.140461 
2048 1:0.141573 2:-0.0720721 3:0.0438799 4:0.00229885 5:-0.0973451 6:-0.119497 
2048 1:0.802247 2:0.117117 3:0.122402 4:-0.0712644 5:-0.0663717 6:-0.161426 
2048 1:0.119101 2:0.121622 3:0.0715935 4:0.126437 5:-0.110619 6:-0.111111 
2048 1:0.0292135 2:0.0810811 3:0.0808314 4:-0.00689655 5:-0.0752212 6:-0.132075 
2048 1:0.047191 2:-0.0315315 3:0.00692841 4:-0.0988506 5:-0.0619469 6:0.731656 
2048 1:-0.505618 2:-0.68018 3:-0.78291 4:-0.673563 5:-0.787611 6:-0.773585 
2048 1:0.141573 2:0.0315315 3:0.163972 4:0.016092 5:-0.0132743 6:-0.0607966 
2048 1:0.011236 2:0.0405405 3:0.0808314 4:-0.00689655 5:-0.0265487 6:-0.106918 
2048 1:0.208989 2:0.00900901 3:-0.00230947 4:0.0666667 5:-0.0132743 6:-0.0733753 
2048 1:0.101124 2:-0.0720721 3:-0.00692841 4:-0.0666667 5:0.00442478 6:-0.0104822 
2048 1:-0.00224719 2:0.702703 3:0.0900693 4:0.0528736 5:0.0973451 6:-0.0188679 
2048 1:0.0247191 2:-0.0540541 3:-0.0438799 4:-0.149425 5:-0.0752212 6:0.559748 
2048 1:0.164045 2:-0.513514 3:-0.672055 4:-0.508046 5:-0.544248 6:-0.572327 
2048 1:-0.626966 2:-0.635135 3:-0.570439 4:-0.498851 5:-0.460177 6:-0.534591 
2048 1:0.12809 2:0.0675676 3:0.108545 4:0.112644 5:0.800885 6:0.0901468 
2048 1:0.105618 2:0.0630631 3:0.0669746 4:0.112644 5:0.176991 6:0.081761 
2048 1:-0.626966 2:-0.743243 3:-0.588915 4:-0.590805 5:-0.50885 6:-0.551363 
2048 1:0.71236 2:0.0630631 3:-0.0623557 4:0.00229885 5:0.0884956 6:-0.0146751 
2048 1:-0.0741573 2:-0.121622 3:-0.039261 4:-0.149425 5:-0.00884956 6:-0.0691824 
2048 1:-0.0292135 2:-0.0225225 3:-0.117783 4:-0.0482759 5:-0.0530973 6:-0.106918 
2048 1:0.31236 2:0.824324 3:-0.0300231 4:0.0712644 5:0.0752212 6:-0.0440252 
2048 1:0.411236 2:0.117117 3:0.205543 4:0.144828 5:0.163717 6:-0.0524109 
2048 1:0.0741573 2:-0.0225225 3:-0.0669746 4:-0.204598 5:-0.0973451 6:-0.224319 
2048 1:0.213483 2:0.202703 3:0.0207852 4:0.108046 5:0.0221239 6:-0.0649895 
2048 1:-0.0831461 2:-0.00900901 3:-0.034642 4:-0.0942529 5:-0.141593 6:-0.203354 
2048 1:0.0337079 2:-0.0045045 3:0.0254042 4:-0.0390805 5:-0.0663717 6:-0.144654 
2048 1:0.110112 2:-0.0315315 3:0.0207852 4:-0.0758621 5:-0.115044 6:-0.15304 
2048 1:0.119101 2:-0.0315315 3:-0.0161663 4:-0.121839 5:-0.261062 6:-0.291405 
2048 1:0.0696629 2:0.171171 3:0.103926 4:0.0850575 5:-0.0176991 6:-0.0440252 
2048 1:-0.564045 2:-0.54955 3:-0.778291 4:-0.733333 5:-0.70354 6:-0.798742 
2048 1:0.186517 2:0.126126 3:0.196305 4:0.0298851 5:0.119469 6:-0.0649895 
2048 1:0.0247191 2:-0.0045045 3:-0.108545 4:-0.0114943 5:-0.0221239 6:-0.119497 
2048 1:-0.101124 2:-0.0855856 3:-0.0623557 4:-0.0436782 5:-0.10177 6:-0.190776 
2048 1:0.195506 2:0.0315315 3:-0.00230947 4:-0.0574713 5:-0.0973451 6:-0.132075 
2048 1:-0.208989 2:-0.243243 3:-0.200924 4:-0.213793 5:-0.309735 6:-0.324948 
2048 1:0.0561798 2:0.0135135 3:0.0300231 4:0.0528736 5:-0.0973451 6:-0.102725 
2048 1:0.0831461 2:0.018018 3:-0.122402 4:-0.0758621 5:-0.128319 6:-0.161426 
2048 1:0.0247191 2:0.0045045 3:-0.034642 4:0.00229885 5:-0.0575221 6:-0.140461 
2048 1:-0.168539 2:-0.027027 3:-0.0808314 4:-0.103448 5:-0.181416 6:-0.157233 
2048 1:0.114607 2:-0.0405405 3:0.0946882 4:-0.108046 5:-0.0265487 6:-0.161426 
1819.005718858177 1:-0.532584 2:-0.617117 3:-0.699769 4:-0.742529 5:-0.938053 6:-0.836478 
2048 1:-0.0651685 2:0.157658 3:-0.0762125 4:-0.112644 5:-0.0132743 6:-0.119497 
2048 1:0.110112 2:-0.0045045 3:0.0715935 4:0.00229885 5:-0.0265487 6:-0.224319 
2048 1:0.182022 2:0.153153 3:0.103926 4:0.062069 5:-0.0132743 6:-0.0146751 
2048 1:0.119101 2:0.027027 3:0.0438799 4:-0.0896552 5:-0.0619469 6:-0.0566038 
2048 1:0.182022 2:-0.0855856 3:0.00230947 4:-0.0206897 5:-0.0884956 6:-0.0398323 
2048 1:-0.635955 2:-0.581081 3:-0.658199 4:-0.682759 5:-0.730088 6:-0.714885 
2048 1:-0.0651685 2:-0.0765766 3:0.0115473 4:-0.0712644 5:-0.0752212 6:-0.12369 
2048 1:0.0292135 2:-0.027027 3:-0.0300231 4:-0.0712644 5:-0.106195 6:-0.0859539 
2048 1:0.0966292 2:0.130631 3:0.0946882 4:-0.062069 5:0.0221239 6:-0.048218 
2048 1:-0.478652 2:-0.657658 3:-0.69515 4:-0.77931 5:-0.756637 6:-0.714885 
2048 1:0.137079 2:-0.0135135 3:-0.108545 4:-0.121839 5:-0.110619 6:-0.174004 
2048 1:0.173034 2:0.0495495 3:-0.0854503 4:-0.0712644 5:-0.00442478 6:-0.18239 
2048 1:0.101124 2:0.00900901 3:-0.00692841 4:-0.126437 5:-0.0840708 6:-0.0985325 
2048 1:-0.12809 2:0.0990991 3:0.0300231 4:-0.131034 5:0.0309735 6:-0.119497 
2048 1:0.0831461 2:0.126126 3:-0.0438799 4:-0.0114943 5:-0.0442478 6:-0.0901468 
2048 1:0.132584 2:-0.027027 3:0.127021 4:0.0206897 5:-0.119469 6:-0.127883 
2048 1:0.0292135 2:0.126126 3:0.00692841 4:0.00689655 5:0.00442478 6:-0.115304 
2048 1:0.0606742 2:0.0810811 3:0.0300231 4:0.00689655 5:-0.0663717 6:-0.111111 
2048 1:0.208989 2:0.0855856 3:-0.039261 4:0.0758621 5:-0.00884956 6:-0.144654 
2048 1:0.132584 2:0.0675676 3:0.117783 4:0.0896552 5:-0.00884956 6:-0.0607966 
2048 1:0.164045 2:0.166667 3:0.0531178 4:0.0390805 5:-0.0176991 6:-0.102725 
2048 1:-0.0247191 2:-0.0990991 3:-0.0854503 4:-0.0482759 5:-0.0973451 6:-0.249476 
2048 1:0.217978 2:0.126126 3:0.103926 4:0.0712644 5:0.00442478 6:-0.106918 
2048 1:-0.0966292 2:-0.126126 3:0.0300231 4:-0.117241 5:-0.0929204 6:-0.18239 
2048 1:-0.0696629 2:-0.0990991 3:-0.0531178 4:-0.0482759 5:-0.123894 6:-0.140461 
2048 1:0.294382 2:0.274775 3:0.293303 4:0.2 5:0.123894 6:-0.0104822 
2048 1:0.240449 2:0.252252 3:0.163972 4:0.0344828 5:0.0619469 6:-0.00209644 
2048 1:-0.123596 2:0.0855856 3:0.00230947 4:-0.0574713 5:-0.039823 6:-0.144654 
2048 1:-0.213483 2:-0.0135135 3:-0.127021 4:-0.112644 5:-0.132743 6:-0.15304 
2048 1:-0.0292135 2:0.0585586 3:0.0207852 4:-0.0666667 5:-0.0265487 6:-0.220126 
2048 1:0.12809 2:-0.0630631 3:-0.00692841 4:-0.0482759 5:-0.190265 6:-0.119497 
2048 1:0.0606742 2:-0.036036 3:0.039261 4:-0.0528736 5:-0.0752212 6:-0.0649895 
2048 1:0.0876404 2:0.036036 3:-0.039261 4:-0.0666667 5:-0.0973451 6:-0.115304 
2048 1:0.047191 2:0.00900901 3:0.127021 4:-0.0344828 5:-0.0442478 6:-0.0901468 
2048 1:0.0382022 3:-0.0115473 4:-0.062069 5:-0.154867 6:-0.132075 
2048 1:0.132584 2:-0.0315315 3:0.0531178 4:-0.0252874 5:-0.0575221 6:-0.0985325 
2048 1:-0.0426966 2:-0.0405405 3:-0.0993072 4:-0.0666667 5:-0.154867 6:-0.111111 
2048 1:0.132584 3:0.0438799 4:-0.112644 5:-0.10177 6:-0.0943396 
