svm_type c_svc
kernel_type rbf
gamma 0.1
nr_class 2
total_sv 15172
rho 0.4288123249903484
label 1 0
nr_sv 4747 10425
SV
1.0 1:104.0 2:114.0 3:88.0 4:104.0 5:98.0 6:94.0 7:75.0 8:62.0 9:49.0 10:91.0 
1.0 1:104.0 2:114.0 3:88.0 4:101.0 5:98.0 6:91.0 7:75.0 8:62.0 9:45.0 10:94.0 
1.0 1:104.0 2:117.0 3:85.0 4:101.0 5:101.0 6:94.0 7:71.0 8:65.0 9:45.0 10:94.0 
1.0 1:104.0 2:114.0 3:85.0 4:104.0 5:101.0 6:91.0 7:71.0 8:62.0 9:45.0 10:94.0 
0.8075403755957574 1:101.0 2:114.0 3:81.0 4:104.0 5:98.0 6:88.0 7:71.0 8:65.0 9:45.0 10:94.0 
0.9949473281079695 1:101.0 2:114.0 3:81.0 4:104.0 5:101.0 6:88.0 7:71.0 8:65.0 9:45.0 10:94.0 
1.0 1:101.0 2:117.0 3:81.0 4:104.0 5:101.0 6:88.0 7:75.0 8:62.0 9:49.0 10:94.0 
1.0 1:104.0 2:114.0 3:81.0 4:104.0 5:98.0 6:88.0 7:71.0 8:62.0 9:49.0 10:94.0 
0.9615638609005268 1:101.0 2:117.0 3:81.0 4:104.0 5:98.0 6:88.0 7:71.0 8:62.0 9:49.0 10:94.0 
1.0 1:101.0 2:120.0 3:81.0 4:104.0 5:98.0 6:88.0 7:71.0 8:62.0 9:45.0 10:94.0 
0.9090932136876451 1:101.0 2:117.0 3:81.0 4:104.0 5:98.0 6:91.0 7:71.0 8:62.0 9:45.0 10:94.0 
1.0 1:101.0 2:120.0 3:78.0 4:107.0 5:98.0 6:91.0 7:71.0 8:62.0 9:45.0 10:94.0 
0.936529319053411 1:98.0 2:117.0 3:81.0 4:107.0 5:98.0 6:88.0 7:71.0 8:65.0 9:45.0 10:94.0 
1.0 1:98.0 2:117.0 3:81.0 4:107.0 5:98.0 6:88.0 7:75.0 8:62.0 9:42.0 10:94.0 
0.9304391720229306 1:94.0 2:117.0 3:81.0 4:107.0 5:98.0 6:91.0 7:71.0 8:62.0 9:45.0 10:94.0 
1.0 1:98.0 2:120.0 3:81.0 4:107.0 5:98.0 6:91.0 7:71.0 8:65.0 9:45.0 10:94.0 
1.0 1:98.0 2:117.0 3:81.0 4:107.0 5:98.0 6:91.0 7:68.0 8:62.0 9:42.0 10:94.0 
1.0 1:94.0 2:120.0 3:85.0 4:107.0 5:98.0 6:91.0 7:68.0 8:62.0 9:42.0 10:94.0 
1.0 1:98.0 2:117.0 3:85.0 4:107.0 5:98.0 6:91.0 7:68.0 8:58.0 9:42.0 10:94.0 
0.905924741125379 1:94.0 2:117.0 3:81.0 4:107.0 5:98.0 6:88.0 7:71.0 8:62.0 9:45.0 10:94.0 
1.0 1:94.0 2:120.0 3:81.0 4:107.0 5:94.0 6:88.0 7:68.0 8:62.0 9:42.0 10:94.0 
1.0 1:101.0 2:120.0 3:88.0 4:111.0 5:98.0 6:88.0 7:68.0 8:62.0 9:42.0 10:94.0 
1.0 1:101.0 2:120.0 3:91.0 4:111.0 5:98.0 6:88.0 7:65.0 8:58.0 9:42.0 10:98.0 
1.0 1:98.0 2:120.0 3:88.0 4:114.0 5:94.0 6:85.0 7:68.0 8:58.0 9:39.0 10:98.0 
1.0 1:101.0 2:120.0 3:91.0 4:114.0 5:94.0 6:85.0 7:68.0 8:58.0 9:35.0 10:98.0 
1.0 1:101.0 2:117.0 3:88.0 4:111.0 5:94.0 6:85.0 7:65.0 8:55.0 9:35.0 10:98.0 
1.0 1:98.0 2:117.0 3:85.0 4:111.0 5:91.0 6:85.0 7:68.0 8:62.0 9:32.0 10:98.0 
1.0 1:101.0 2:117.0 3:85.0 4:111.0 5:94.0 6:85.0 7:68.0 8:58.0 9:32.0 10:98.0 
1.0 1:98.0 2:117.0 3:88.0 4:111.0 5:91.0 6:85.0 7:68.0 8:55.0 9:32.0 10:98.0 
1.0 1:98.0 2:114.0 3:91.0 4:111.0 5:94.0 6:88.0 7:68.0 8:55.0 9:32.0 10:98.0 
1.0 1:101.0 2:117.0 3:91.0 4:111.0 5:94.0 6:88.0 7:65.0 8:55.0 9:32.0 10:98.0 
1.0 1:98.0 2:114.0 3:85.0 4:111.0 5:94.0 6:88.0 7:65.0 8:55.0 9:32.0 10:98.0 
1.0 1:98.0 2:117.0 3:85.0 4:107.0 5:91.0 6:88.0 7:65.0 8:55.0 9:32.0 10:101.0 
0.8370349389737151 1:98.0 2:114.0 3:78.0 4:111.0 5:91.0 6:88.0 7:65.0 8:55.0 9:32.0 10:101.0 
1.0 1:98.0 2:114.0 3:75.0 4:117.0 5:91.0 6:91.0 7:65.0 8:55.0 9:32.0 10:101.0 
0.9092458673127414 1:98.0 2:114.0 3:78.0 4:114.0 5:91.0 6:88.0 7:65.0 8:55.0 9:32.0 10:101.0 
1.0 1:98.0 2:111.0 3:85.0 4:114.0 5:91.0 6:91.0 7:65.0 8:55.0 9:35.0 10:101.0 
1.0 1:101.0 2:111.0 3:78.0 4:114.0 5:88.0 6:88.0 7:65.0 8:55.0 9:35.0 10:101.0 
0.2955964732819186 1:101.0 2:114.0 3:78.0 4:111.0 5:88.0 6:85.0 7:65.0 8:55.0 9:35.0 10:101.0 
1.0 1:101.0 2:114.0 3:78.0 4:111.0 5:88.0 6:85.0 7:65.0 8:55.0 9:35.0 10:101.0 
0.5524662187665785 1:101.0 2:114.0 3:85.0 4:111.0 5:88.0 6:88.0 7:65.0 8:55.0 9:35.0 10:101.0 
0.6415282316976012 1:101.0 2:114.0 3:85.0 4:111.0 5:91.0 6:88.0 7:65.0 8:55.0 9:35.0 10:101.0 
1.0 1:101.0 2:114.0 3:85.0 4:111.0 5:88.0 6:88.0 7:65.0 8:52.0 9:35.0 10:101.0 
1.0 1:98.0 2:114.0 3:81.0 4:111.0 5:91.0 6:88.0 7:65.0 8:55.0 9:35.0 10:101.0 
1.0 1:101.0 2:111.0 3:81.0 4:111.0 5:88.0 6:91.0 7:65.0 8:55.0 9:35.0 10:104.0 
1.0 1:98.0 2:111.0 3:88.0 4:111.0 5:88.0 6:91.0 7:65.0 8:55.0 9:35.0 10:101.0 
1.0 1:98.0 2:114.0 3:88.0 4:111.0 5:91.0 6:91.0 7:65.0 8:55.0 9:35.0 10:101.0 
1.0 1:104.0 2:114.0 3:85.0 4:111.0 5:91.0 6:91.0 7:65.0 8:55.0 9:32.0 10:101.0 
1.0 1:104.0 2:114.0 3:85.0 4:111.0 5:88.0 6:91.0 7:62.0 8:55.0 9:32.0 10:101.0 
0.9488048126020586 1:101.0 2:114.0 3:85.0 4:111.0 5:91.0 6:91.0 7:62.0 8:55.0 9:32.0 10:101.0 
1.0 1:104.0 2:111.0 3:88.0 4:114.0 5:91.0 6:91.0 7:62.0 8:52.0 9:32.0 10:101.0 
1.0 1:101.0 2:111.0 3:85.0 4:114.0 5:88.0 6:94.0 7:68.0 8:52.0 9:35.0 10:101.0 
0.9529310684417657 1:101.0 2:114.0 3:81.0 4:114.0 5:91.0 6:94.0 7:68.0 8:55.0 9:35.0 10:107.0 
1.0 1:101.0 2:111.0 3:85.0 4:114.0 5:91.0 6:98.0 7:68.0 8:55.0 9:35.0 10:107.0 
1.0 1:101.0 2:111.0 3:85.0 4:111.0 5:94.0 6:94.0 7:68.0 8:55.0 9:35.0 10:107.0 
1.0 1:101.0 2:114.0 3:85.0 4:111.0 5:94.0 6:98.0 7:68.0 8:55.0 9:35.0 10:107.0 
1.0 1:101.0 2:114.0 3:81.0 4:111.0 5:94.0 6:98.0 7:65.0 8:55.0 9:35.0 10:107.0 
1.0 1:101.0 2:114.0 3:81.0 4:111.0 5:91.0 6:98.0 7:68.0 8:52.0 9:35.0 10:107.0 
1.0 1:101.0 2:117.0 3:81.0 4:111.0 5:91.0 6:94.0 7:71.0 8:55.0 9:35.0 10:107.0 
1.0 1:101.0 2:114.0 3:81.0 4:111.0 5:91.0 6:98.0 7:71.0 8:55.0 9:35.0 10:111.0 
0.9091072829019412 1:101.0 2:114.0 3:81.0 4:114.0 5:94.0 6:94.0 7:68.0 8:55.0 9:35.0 10:111.0 
1.0 1:101.0 2:114.0 3:85.0 4:114.0 5:94.0 6:94.0 7:71.0 8:55.0 9:35.0 10:107.0 
1.0 1:101.0 2:114.0 3:85.0 4:114.0 5:94.0 6:91.0 7:71.0 8:55.0 9:39.0 10:107.0 
1.0 1:101.0 2:114.0 3:81.0 4:114.0 5:94.0 6:88.0 7:68.0 8:55.0 9:35.0 10:107.0 
0.555304055830129 1:101.0 2:114.0 3:81.0 4:114.0 5:94.0 6:91.0 7:68.0 8:55.0 9:35.0 10:107.0 
0.8310121911798735 1:101.0 2:114.0 3:81.0 4:114.0 5:91.0 6:91.0 7:68.0 8:55.0 9:35.0 10:111.0 
0.9554207619400081 1:98.0 2:114.0 3:81.0 4:114.0 5:94.0 6:91.0 7:68.0 8:55.0 9:35.0 10:111.0 
0.8545187743897521 1:98.0 2:117.0 3:81.0 4:114.0 5:91.0 6:91.0 7:71.0 8:55.0 9:35.0 10:111.0 
0.9322669506567045 1:98.0 2:117.0 3:81.0 4:114.0 5:91.0 6:94.0 7:71.0 8:55.0 9:35.0 10:111.0 
1.0 1:101.0 2:120.0 3:81.0 4:117.0 5:91.0 6:91.0 7:68.0 8:52.0 9:35.0 10:111.0 
1.0 1:101.0 2:117.0 3:81.0 4:114.0 5:91.0 6:88.0 7:68.0 8:52.0 9:39.0 10:111.0 
0.9939224726541851 1:101.0 2:120.0 3:81.0 4:114.0 5:91.0 6:91.0 7:68.0 8:52.0 9:35.0 10:114.0 
1.0 1:101.0 2:120.0 3:81.0 4:114.0 5:91.0 6:88.0 7:68.0 8:52.0 9:35.0 10:117.0 
1.0 1:101.0 2:120.0 3:81.0 4:117.0 5:88.0 6:88.0 7:68.0 8:52.0 9:35.0 10:114.0 
1.0 1:101.0 2:117.0 3:81.0 4:117.0 5:91.0 6:88.0 7:71.0 8:55.0 9:39.0 10:114.0 
1.0 1:101.0 2:117.0 3:81.0 4:117.0 5:88.0 6:85.0 7:75.0 8:55.0 9:35.0 10:114.0 
1.0 1:104.0 2:117.0 3:81.0 4:117.0 5:91.0 6:88.0 7:71.0 8:55.0 9:35.0 10:111.0 
1.0 1:104.0 2:114.0 3:81.0 4:117.0 5:88.0 6:85.0 7:71.0 8:55.0 9:35.0 10:111.0 
1.0 1:104.0 2:107.0 3:81.0 4:114.0 5:88.0 6:81.0 7:68.0 8:55.0 9:32.0 10:111.0 
1.0 1:104.0 2:114.0 3:78.0 4:114.0 5:88.0 6:81.0 7:71.0 8:55.0 9:32.0 10:114.0 
0.8076533909591782 1:104.0 2:117.0 3:78.0 4:117.0 5:88.0 6:81.0 7:71.0 8:55.0 9:32.0 10:114.0 
0.9693340491185118 1:104.0 2:114.0 3:78.0 4:117.0 5:88.0 6:81.0 7:68.0 8:55.0 9:32.0 10:114.0 
1.0 1:104.0 2:117.0 3:81.0 4:114.0 5:85.0 6:81.0 7:71.0 8:55.0 9:32.0 10:114.0 
0.954750864741693 1:104.0 2:117.0 3:81.0 4:120.0 5:88.0 6:81.0 7:71.0 8:55.0 9:32.0 10:117.0 
0.6461724692605701 1:104.0 2:117.0 3:81.0 4:120.0 5:88.0 6:81.0 7:68.0 8:55.0 9:32.0 10:117.0 
0.13203970352860406 1:104.0 2:117.0 3:81.0 4:117.0 5:88.0 6:81.0 7:68.0 8:55.0 9:32.0 10:117.0 
0.6138314639849429 1:104.0 2:117.0 3:81.0 4:117.0 5:88.0 6:81.0 7:68.0 8:55.0 9:32.0 10:114.0 
1.0 1:104.0 2:120.0 3:81.0 4:117.0 5:88.0 6:81.0 7:68.0 8:55.0 9:32.0 10:117.0 
1.0 1:104.0 2:120.0 3:85.0 4:117.0 5:85.0 6:85.0 7:68.0 8:55.0 9:32.0 10:117.0 
1.0 1:107.0 2:120.0 3:85.0 4:114.0 5:88.0 6:85.0 7:68.0 8:52.0 9:32.0 10:117.0 
1.0 1:107.0 2:117.0 3:85.0 4:117.0 5:88.0 6:81.0 7:68.0 8:52.0 9:32.0 10:117.0 
0.8033432316755438 1:107.0 2:117.0 3:85.0 4:114.0 5:88.0 6:85.0 7:68.0 8:55.0 9:32.0 10:117.0 
1.0 1:107.0 2:114.0 3:85.0 4:117.0 5:88.0 6:85.0 7:68.0 8:55.0 9:32.0 10:117.0 
1.0 1:107.0 2:117.0 3:85.0 4:117.0 5:91.0 6:85.0 7:68.0 8:55.0 9:32.0 10:114.0 
0.7718402437652234 1:107.0 2:117.0 3:85.0 4:117.0 5:88.0 6:85.0 7:65.0 8:55.0 9:32.0 10:117.0 
0.9831256407463317 1:107.0 2:120.0 3:88.0 4:117.0 5:88.0 6:85.0 7:65.0 8:55.0 9:32.0 10:117.0 
1.0 1:107.0 2:120.0 3:88.0 4:117.0 5:85.0 6:85.0 7:65.0 8:52.0 9:32.0 10:117.0 
1.0 1:104.0 2:117.0 3:88.0 4:114.0 5:85.0 6:85.0 7:62.0 8:52.0 9:32.0 10:114.0 
1.0 1:104.0 2:120.0 3:88.0 4:114.0 5:88.0 6:85.0 7:62.0 8:52.0 9:35.0 10:117.0 
1.0 1:104.0 2:120.0 3:88.0 4:114.0 5:88.0 6:88.0 7:62.0 8:52.0 9:32.0 10:117.0 
1.0 1:104.0 2:120.0 3:88.0 4:120.0 5:88.0 6:88.0 7:65.0 8:49.0 9:32.0 10:114.0 
1.0 1:104.0 2:120.0 3:91.0 4:117.0 5:88.0 6:85.0 7:62.0 8:52.0 9:32.0 10:117.0 
1.0 1:104.0 2:124.0 3:88.0 4:117.0 5:88.0 6:88.0 7:65.0 8:49.0 9:32.0 10:117.0 
1.0 1:104.0 2:120.0 3:88.0 4:117.0 5:85.0 6:88.0 7:65.0 8:49.0 9:32.0 10:117.0 
1.0 1:114.0 2:120.0 3:88.0 4:117.0 5:88.0 6:85.0 7:62.0 8:49.0 9:32.0 10:117.0 
1.0 1:114.0 2:117.0 3:91.0 4:117.0 5:85.0 6:85.0 7:62.0 8:45.0 9:32.0 10:114.0 
1.0 1:114.0 2:117.0 3:88.0 4:117.0 5:81.0 6:85.0 7:62.0 8:49.0 9:32.0 10:114.0 
1.0 1:114.0 2:117.0 3:91.0 4:117.0 5:81.0 6:88.0 7:58.0 8:45.0 9:32.0 10:114.0 
1.0 1:117.0 2:114.0 3:91.0 4:117.0 5:81.0 6:88.0 7:58.0 8:42.0 9:32.0 10:114.0 
1.0 1:117.0 2:114.0 3:88.0 4:120.0 5:81.0 6:88.0 7:58.0 8:45.0 9:32.0 10:114.0 
1.0 1:117.0 2:114.0 3:88.0 4:120.0 5:85.0 6:85.0 7:62.0 8:45.0 9:32.0 10:117.0 
1.0 1:117.0 2:114.0 3:88.0 4:120.0 5:85.0 6:85.0 7:58.0 8:42.0 9:32.0 10:114.0 
1.0 1:117.0 2:114.0 3:88.0 4:117.0 5:88.0 6:88.0 7:58.0 8:42.0 9:32.0 10:114.0 
1.0 1:114.0 2:120.0 3:88.0 4:117.0 5:88.0 6:91.0 7:58.0 8:42.0 9:32.0 10:114.0 
1.0 1:114.0 2:120.0 3:88.0 4:117.0 5:85.0 6:88.0 7:55.0 8:42.0 9:32.0 10:114.0 
0.8517449882538773 1:114.0 2:117.0 3:88.0 4:117.0 5:88.0 6:88.0 7:58.0 8:42.0 9:32.0 10:117.0 
0.8155078346668797 1:114.0 2:117.0 3:88.0 4:120.0 5:88.0 6:85.0 7:58.0 8:42.0 9:32.0 10:117.0 
0.6011061248524687 1:114.0 2:117.0 3:88.0 4:120.0 5:88.0 6:88.0 7:58.0 8:42.0 9:32.0 10:117.0 
1.0 1:117.0 2:117.0 3:91.0 4:120.0 5:88.0 6:85.0 7:58.0 8:42.0 9:32.0 10:117.0 
1.0 1:117.0 2:114.0 3:91.0 4:124.0 5:91.0 6:85.0 7:58.0 8:42.0 9:32.0 10:117.0 
1.0 1:120.0 2:114.0 3:91.0 4:120.0 5:88.0 6:81.0 7:58.0 8:42.0 9:32.0 10:117.0 
0.9180839514125588 1:117.0 2:114.0 3:94.0 4:124.0 5:88.0 6:81.0 7:58.0 8:42.0 9:32.0 10:117.0 
0.834111428614916 1:117.0 2:117.0 3:94.0 4:124.0 5:88.0 6:81.0 7:58.0 8:42.0 9:32.0 10:117.0 
1.0 1:117.0 2:117.0 3:91.0 4:124.0 5:88.0 6:81.0 7:58.0 8:45.0 9:32.0 10:117.0 
1.0 1:117.0 2:114.0 3:91.0 4:124.0 5:85.0 6:78.0 7:58.0 8:45.0 9:35.0 10:117.0 
1.0 1:120.0 2:114.0 3:91.0 4:124.0 5:85.0 6:78.0 7:55.0 8:42.0 9:35.0 10:117.0 
1.0 1:120.0 2:111.0 3:91.0 4:124.0 5:91.0 6:78.0 7:55.0 8:42.0 9:35.0 10:120.0 
1.0 1:120.0 2:111.0 3:91.0 4:120.0 5:91.0 6:78.0 7:55.0 8:42.0 9:35.0 10:117.0 
1.0 1:117.0 2:114.0 3:91.0 4:120.0 5:88.0 6:78.0 7:58.0 8:42.0 9:35.0 10:117.0 
1.0 1:107.0 2:114.0 3:91.0 4:117.0 5:91.0 6:78.0 7:55.0 8:42.0 9:35.0 10:117.0 
1.0 1:104.0 2:111.0 3:91.0 4:117.0 5:88.0 6:75.0 7:58.0 8:42.0 9:35.0 10:117.0 
1.0 1:104.0 2:111.0 3:91.0 4:117.0 5:85.0 6:75.0 7:58.0 8:39.0 9:32.0 10:117.0 
1.0 1:117.0 2:111.0 3:91.0 4:114.0 5:88.0 6:75.0 7:55.0 8:39.0 9:32.0 10:120.0 
1.0 1:117.0 2:111.0 3:94.0 4:114.0 5:88.0 6:75.0 7:55.0 8:35.0 9:32.0 10:120.0 
1.0 1:117.0 2:114.0 3:94.0 4:120.0 5:85.0 6:71.0 7:55.0 8:35.0 9:32.0 10:124.0 
0.9304466154361285 1:117.0 2:117.0 3:94.0 4:120.0 5:85.0 6:71.0 7:55.0 8:35.0 9:32.0 10:120.0 
0.980965837846072 1:117.0 2:117.0 3:94.0 4:117.0 5:85.0 6:71.0 7:55.0 8:35.0 9:32.0 10:120.0 
1.0 1:114.0 2:117.0 3:98.0 4:120.0 5:81.0 6:71.0 7:55.0 8:35.0 9:32.0 10:124.0 
1.0 1:114.0 2:114.0 3:98.0 4:120.0 5:88.0 6:68.0 7:52.0 8:35.0 9:32.0 10:124.0 
1.0 1:117.0 2:114.0 3:94.0 4:117.0 5:85.0 6:75.0 7:52.0 8:35.0 9:32.0 10:120.0 
1.0 1:107.0 2:114.0 3:94.0 4:117.0 5:85.0 6:71.0 7:52.0 8:35.0 9:32.0 10:124.0 
1.0 1:104.0 2:111.0 3:94.0 4:117.0 5:85.0 6:68.0 7:55.0 8:35.0 9:32.0 10:124.0 
1.0 1:107.0 2:107.0 3:94.0 4:117.0 5:88.0 6:71.0 7:55.0 8:35.0 9:35.0 10:120.0 
1.0 1:107.0 2:107.0 3:94.0 4:117.0 5:88.0 6:71.0 7:55.0 8:39.0 9:39.0 10:120.0 
1.0 1:107.0 2:111.0 3:94.0 4:117.0 5:85.0 6:71.0 7:58.0 8:39.0 9:39.0 10:120.0 
1.0 1:111.0 2:111.0 3:94.0 4:117.0 5:88.0 6:71.0 7:55.0 8:35.0 9:39.0 10:124.0 
1.0 1:107.0 2:111.0 3:98.0 4:117.0 5:85.0 6:71.0 7:55.0 8:35.0 9:39.0 10:124.0 
1.0 1:107.0 2:111.0 3:98.0 4:117.0 5:85.0 6:71.0 7:58.0 8:35.0 9:35.0 10:124.0 
1.0 1:107.0 2:111.0 3:98.0 4:124.0 5:81.0 6:71.0 7:58.0 8:39.0 9:35.0 10:120.0 
1.0 1:111.0 2:107.0 3:98.0 4:120.0 5:81.0 6:68.0 7:58.0 8:39.0 9:35.0 10:120.0 
1.0 1:117.0 2:107.0 3:98.0 4:124.0 5:81.0 6:71.0 7:58.0 8:39.0 9:35.0 10:120.0 
0.7488777253770497 1:117.0 2:107.0 3:98.0 4:124.0 5:81.0 6:71.0 7:58.0 8:39.0 9:35.0 10:117.0 
1.0 1:117.0 2:107.0 3:98.0 4:124.0 5:81.0 6:75.0 7:58.0 8:39.0 9:39.0 10:117.0 
0.9817397583549305 1:117.0 2:107.0 3:98.0 4:124.0 5:81.0 6:71.0 7:58.0 8:39.0 9:39.0 10:117.0 
1.0 1:117.0 2:107.0 3:94.0 4:120.0 5:81.0 6:75.0 7:58.0 8:39.0 9:39.0 10:117.0 
1.0 1:107.0 2:107.0 3:94.0 4:124.0 5:78.0 6:71.0 7:58.0 8:39.0 9:35.0 10:117.0 
0.4030488925985518 1:104.0 2:107.0 3:94.0 4:120.0 5:81.0 6:71.0 7:58.0 8:39.0 9:35.0 10:117.0 
0.9882625153744733 1:104.0 2:107.0 3:94.0 4:120.0 5:81.0 6:71.0 7:58.0 8:39.0 9:35.0 10:117.0 
1.0 1:107.0 2:111.0 3:98.0 4:117.0 5:85.0 6:75.0 7:58.0 8:39.0 9:39.0 10:117.0 
1.0 1:107.0 2:111.0 3:98.0 4:117.0 5:85.0 6:71.0 7:58.0 8:39.0 9:35.0 10:114.0 
1.0 1:104.0 2:111.0 3:98.0 4:117.0 5:81.0 6:75.0 7:58.0 8:39.0 9:39.0 10:117.0 
0.9768546164645601 1:114.0 2:111.0 3:98.0 4:120.0 5:81.0 6:71.0 7:58.0 8:39.0 9:35.0 10:117.0 
0.8933053693031905 1:114.0 2:111.0 3:98.0 4:120.0 5:81.0 6:71.0 7:58.0 8:39.0 9:32.0 10:117.0 
1.0 1:114.0 2:107.0 3:98.0 4:117.0 5:81.0 6:71.0 7:58.0 8:39.0 9:32.0 10:117.0 
1.0 1:114.0 2:107.0 3:94.0 4:124.0 5:81.0 6:75.0 7:62.0 8:39.0 9:32.0 10:117.0 
1.0 1:114.0 2:111.0 3:94.0 4:124.0 5:81.0 6:71.0 7:58.0 8:39.0 9:32.0 10:117.0 
1.0 1:114.0 2:114.0 3:94.0 4:124.0 5:81.0 6:71.0 7:62.0 8:42.0 9:32.0 10:120.0 
1.0 1:114.0 2:111.0 3:94.0 4:124.0 5:85.0 6:71.0 7:62.0 8:42.0 9:32.0 10:117.0 
1.0 1:114.0 2:111.0 3:94.0 4:124.0 5:85.0 6:68.0 7:62.0 8:42.0 9:32.0 10:120.0 
1.0 1:117.0 2:107.0 3:94.0 4:120.0 5:81.0 6:68.0 7:65.0 8:42.0 9:32.0 10:124.0 
1.0 1:117.0 2:107.0 3:94.0 4:120.0 5:81.0 6:65.0 7:62.0 8:42.0 9:32.0 10:124.0 
1.0 1:117.0 2:104.0 3:94.0 4:117.0 5:81.0 6:71.0 7:62.0 8:42.0 9:32.0 10:120.0 
0.3023702825442378 1:117.0 2:104.0 3:94.0 4:120.0 5:85.0 6:71.0 7:58.0 8:42.0 9:32.0 10:127.0 
1.0 1:117.0 2:104.0 3:94.0 4:120.0 5:81.0 6:75.0 7:58.0 8:42.0 9:32.0 10:130.0 
1.0 1:117.0 2:104.0 3:94.0 4:120.0 5:85.0 6:71.0 7:58.0 8:42.0 9:32.0 10:127.0 
1.0 1:117.0 2:104.0 3:94.0 4:117.0 5:81.0 6:71.0 7:58.0 8:42.0 9:32.0 10:127.0 
1.0 1:114.0 2:104.0 3:94.0 4:124.0 5:81.0 6:71.0 7:58.0 8:42.0 9:32.0 10:127.0 
1.0 1:117.0 2:104.0 3:98.0 4:120.0 5:78.0 6:75.0 7:58.0 8:42.0 9:32.0 10:127.0 
1.0 1:114.0 2:104.0 3:98.0 4:124.0 5:78.0 6:71.0 7:58.0 8:42.0 9:32.0 10:130.0 
1.0 1:114.0 2:104.0 3:98.0 4:120.0 5:81.0 6:75.0 7:62.0 8:42.0 9:32.0 10:127.0 
1.0 1:114.0 2:104.0 3:94.0 4:120.0 5:78.0 6:78.0 7:58.0 8:42.0 9:32.0 10:127.0 
0.12519298013686006 1:114.0 2:107.0 3:94.0 4:120.0 5:81.0 6:75.0 7:58.0 8:42.0 9:32.0 10:127.0 
0.9969402939668098 1:114.0 2:107.0 3:94.0 4:120.0 5:81.0 6:75.0 7:58.0 8:42.0 9:32.0 10:127.0 
0.18765023494411787 1:114.0 2:107.0 3:94.0 4:120.0 5:78.0 6:71.0 7:58.0 8:42.0 9:32.0 10:127.0 
0.9807194672694565 1:114.0 2:107.0 3:94.0 4:120.0 5:78.0 6:71.0 7:58.0 8:42.0 9:32.0 10:127.0 
1.0 1:117.0 2:107.0 3:98.0 4:120.0 5:78.0 6:71.0 7:58.0 8:42.0 9:32.0 10:127.0 
1.0 1:104.0 2:107.0 3:98.0 4:120.0 5:78.0 6:71.0 7:55.0 8:42.0 9:32.0 10:127.0 
1.0 1:107.0 2:104.0 3:101.0 4:117.0 5:85.0 6:75.0 7:55.0 8:42.0 9:32.0 10:127.0 
1.0 1:107.0 2:104.0 3:98.0 4:117.0 5:81.0 6:75.0 7:55.0 8:42.0 9:32.0 10:127.0 
1.0 1:107.0 2:104.0 3:98.0 4:120.0 5:81.0 6:75.0 7:52.0 8:42.0 9:32.0 10:127.0 
1.0 1:107.0 2:104.0 3:98.0 4:124.0 5:78.0 6:75.0 7:55.0 8:42.0 9:32.0 10:127.0 
0.9794226745859826 1:107.0 2:104.0 3:101.0 4:120.0 5:78.0 6:71.0 7:55.0 8:42.0 9:32.0 10:130.0 
0.8650602325622065 1:107.0 2:104.0 3:101.0 4:120.0 5:81.0 6:71.0 7:55.0 8:42.0 9:32.0 10:130.0 
1.0 1:111.0 2:104.0 3:101.0 4:120.0 5:81.0 6:68.0 7:55.0 8:42.0 9:32.0 10:130.0 
1.0 1:107.0 2:107.0 3:101.0 4:117.0 5:78.0 6:68.0 7:52.0 8:42.0 9:32.0 10:134.0 
1.0 1:107.0 2:104.0 3:101.0 4:120.0 5:81.0 6:68.0 7:52.0 8:42.0 9:32.0 10:134.0 
1.0 1:117.0 2:104.0 3:101.0 4:124.0 5:78.0 6:65.0 7:52.0 8:42.0 9:32.0 10:134.0 
1.0 1:117.0 2:107.0 3:104.0 4:124.0 5:75.0 6:68.0 7:52.0 8:42.0 9:32.0 10:130.0 
1.0 1:114.0 2:107.0 3:104.0 4:124.0 5:78.0 6:65.0 7:52.0 8:45.0 9:32.0 10:130.0 
1.0 1:117.0 2:104.0 3:104.0 4:124.0 5:81.0 6:62.0 7:58.0 8:45.0 9:32.0 10:130.0 
0.960360788334961 1:117.0 2:107.0 3:104.0 4:120.0 5:81.0 6:62.0 7:58.0 8:45.0 9:32.0 10:130.0 
1.0 1:117.0 2:111.0 3:104.0 4:120.0 5:81.0 6:62.0 7:58.0 8:45.0 9:32.0 10:130.0 
1.0 1:117.0 2:107.0 3:101.0 4:120.0 5:81.0 6:62.0 7:55.0 8:45.0 9:32.0 10:130.0 
1.0 1:114.0 2:107.0 3:101.0 4:120.0 5:81.0 6:62.0 7:55.0 8:45.0 9:32.0 10:134.0 
1.0 1:114.0 2:107.0 3:101.0 4:117.0 5:78.0 6:65.0 7:55.0 8:45.0 9:32.0 10:134.0 
1.0 1:114.0 2:104.0 3:101.0 4:124.0 5:78.0 6:65.0 7:58.0 8:45.0 9:32.0 10:130.0 
0.8665644103582311 1:114.0 2:104.0 3:101.0 4:124.0 5:78.0 6:65.0 7:55.0 8:45.0 9:32.0 10:130.0 
1.0 1:114.0 2:107.0 3:101.0 4:124.0 5:81.0 6:65.0 7:55.0 8:45.0 9:32.0 10:134.0 
1.0 1:114.0 2:107.0 3:101.0 4:124.0 5:81.0 6:68.0 7:58.0 8:45.0 9:32.0 10:134.0 
1.0 1:114.0 2:107.0 3:101.0 4:127.0 5:81.0 6:68.0 7:55.0 8:49.0 9:32.0 10:130.0 
0.015122306670932395 1:114.0 2:111.0 3:104.0 4:124.0 5:78.0 6:68.0 7:58.0 8:49.0 9:32.0 10:130.0 
1.0 1:111.0 2:111.0 3:104.0 4:124.0 5:78.0 6:68.0 7:58.0 8:49.0 9:32.0 10:130.0 
0.9985562319051104 1:114.0 2:111.0 3:104.0 4:124.0 5:78.0 6:68.0 7:58.0 8:49.0 9:32.0 10:130.0 
1.0 1:114.0 2:120.0 3:104.0 4:124.0 5:78.0 6:68.0 7:58.0 8:49.0 9:32.0 10:130.0 
1.0 1:114.0 2:120.0 3:104.0 4:127.0 5:81.0 6:65.0 7:58.0 8:49.0 9:32.0 10:127.0 
1.0 1:114.0 2:120.0 3:104.0 4:124.0 5:81.0 6:65.0 7:62.0 8:49.0 9:32.0 10:127.0 
1.0 1:117.0 2:120.0 3:104.0 4:124.0 5:81.0 6:65.0 7:62.0 8:52.0 9:32.0 10:127.0 
1.0 1:114.0 2:117.0 3:104.0 4:120.0 5:81.0 6:65.0 7:62.0 8:52.0 9:32.0 10:130.0 
1.0 1:117.0 2:120.0 3:101.0 4:124.0 5:78.0 6:65.0 7:58.0 8:52.0 9:32.0 10:127.0 
1.0 1:117.0 2:117.0 3:101.0 4:124.0 5:81.0 6:65.0 7:62.0 8:52.0 9:32.0 10:130.0 
0.7565571724068421 1:114.0 2:120.0 3:101.0 4:124.0 5:81.0 6:68.0 7:58.0 8:52.0 9:32.0 10:127.0 
1.0 1:117.0 2:120.0 3:101.0 4:120.0 5:85.0 6:68.0 7:55.0 8:52.0 9:32.0 10:127.0 
1.0 1:114.0 2:120.0 3:101.0 4:124.0 5:81.0 6:68.0 7:55.0 8:52.0 9:32.0 10:127.0 
1.0 1:114.0 2:124.0 3:104.0 4:120.0 5:85.0 6:68.0 7:55.0 8:52.0 9:32.0 10:130.0 
0.9757335928227338 1:111.0 2:124.0 3:104.0 4:120.0 5:81.0 6:68.0 7:55.0 8:52.0 9:32.0 10:127.0 
1.0 1:111.0 2:124.0 3:104.0 4:120.0 5:78.0 6:68.0 7:55.0 8:52.0 9:32.0 10:127.0 
1.0 1:107.0 2:124.0 3:101.0 4:117.0 5:78.0 6:71.0 7:55.0 8:52.0 9:32.0 10:130.0 
1.0 1:107.0 2:120.0 3:101.0 4:117.0 5:78.0 6:71.0 7:55.0 8:52.0 9:32.0 10:130.0 
1.0 1:111.0 2:120.0 3:101.0 4:117.0 5:78.0 6:71.0 7:58.0 8:52.0 9:32.0 10:134.0 
1.0 1:111.0 2:124.0 3:101.0 4:114.0 5:81.0 6:68.0 7:58.0 8:52.0 9:32.0 10:134.0 
1.0 1:111.0 2:127.0 3:101.0 4:114.0 5:81.0 6:71.0 7:58.0 8:52.0 9:29.0 10:130.0 
1.0 1:114.0 2:117.0 3:104.0 4:117.0 5:81.0 6:68.0 7:58.0 8:52.0 9:29.0 10:130.0 
1.0 1:114.0 2:120.0 3:104.0 4:117.0 5:78.0 6:71.0 7:58.0 8:52.0 9:29.0 10:134.0 
1.0 1:111.0 2:117.0 3:101.0 4:117.0 5:81.0 6:68.0 7:58.0 8:52.0 9:29.0 10:134.0 
0.7700822450008881 1:114.0 2:120.0 3:101.0 4:117.0 5:81.0 6:65.0 7:58.0 8:52.0 9:29.0 10:134.0 
0.5240457729149699 1:114.0 2:120.0 3:101.0 4:120.0 5:81.0 6:65.0 7:58.0 8:52.0 9:29.0 10:134.0 
1.0 1:120.0 2:120.0 3:101.0 4:117.0 5:78.0 6:65.0 7:58.0 8:52.0 9:29.0 10:130.0 
0.19271266071592563 1:114.0 2:117.0 3:101.0 4:120.0 5:81.0 6:65.0 7:58.0 8:52.0 9:29.0 10:130.0 
0.9921085414743911 1:114.0 2:117.0 3:101.0 4:120.0 5:81.0 6:65.0 7:58.0 8:52.0 9:29.0 10:130.0 
1.0 1:114.0 2:120.0 3:98.0 4:120.0 5:78.0 6:65.0 7:58.0 8:52.0 9:29.0 10:134.0 
1.0 1:114.0 2:124.0 3:98.0 4:120.0 5:78.0 6:65.0 7:58.0 8:52.0 9:29.0 10:130.0 
1.0 1:114.0 2:124.0 3:98.0 4:117.0 5:81.0 6:65.0 7:58.0 8:52.0 9:29.0 10:130.0 
0.856781571961278 1:117.0 2:120.0 3:98.0 4:117.0 5:81.0 6:65.0 7:58.0 8:52.0 9:29.0 10:134.0 
0.728791742682539 1:117.0 2:120.0 3:98.0 4:120.0 5:81.0 6:65.0 7:58.0 8:52.0 9:29.0 10:134.0 
1.0 1:117.0 2:127.0 3:98.0 4:120.0 5:81.0 6:65.0 7:58.0 8:52.0 9:29.0 10:134.0 
1.0 1:117.0 2:127.0 3:101.0 4:124.0 5:81.0 6:65.0 7:62.0 8:52.0 9:29.0 10:134.0 
1.0 1:111.0 2:124.0 3:101.0 4:127.0 5:81.0 6:65.0 7:62.0 8:52.0 9:29.0 10:134.0 
1.0 1:114.0 2:124.0 3:101.0 4:127.0 5:81.0 6:68.0 7:62.0 8:52.0 9:32.0 10:134.0 
0.03205329707974661 1:114.0 2:120.0 3:101.0 4:124.0 5:81.0 6:68.0 7:62.0 8:52.0 9:32.0 10:130.0 
0.9993363780937813 1:114.0 2:120.0 3:101.0 4:124.0 5:81.0 6:68.0 7:62.0 8:52.0 9:32.0 10:130.0 
1.0 1:111.0 2:120.0 3:104.0 4:124.0 5:81.0 6:68.0 7:62.0 8:55.0 9:32.0 10:130.0 
1.0 1:114.0 2:120.0 3:101.0 4:124.0 5:81.0 6:68.0 7:62.0 8:55.0 9:32.0 10:134.0 
1.0 1:114.0 2:120.0 3:104.0 4:120.0 5:81.0 6:68.0 7:62.0 8:55.0 9:32.0 10:137.0 
1.0 1:111.0 2:120.0 3:101.0 4:120.0 5:81.0 6:68.0 7:58.0 8:55.0 9:32.0 10:137.0 
1.0 1:111.0 2:120.0 3:101.0 4:124.0 5:81.0 6:65.0 7:58.0 8:55.0 9:32.0 10:134.0 
0.9519704883201748 1:111.0 2:120.0 3:101.0 4:120.0 5:81.0 6:65.0 7:58.0 8:55.0 9:32.0 10:134.0 
1.0 1:114.0 2:120.0 3:98.0 4:120.0 5:85.0 6:65.0 7:58.0 8:58.0 9:32.0 10:130.0 
1.0 1:114.0 2:117.0 3:94.0 4:117.0 5:85.0 6:65.0 7:58.0 8:58.0 9:32.0 10:130.0 
1.0 1:117.0 2:117.0 3:98.0 4:117.0 5:81.0 6:65.0 7:65.0 8:58.0 9:32.0 10:130.0 
1.0 1:114.0 2:117.0 3:94.0 4:117.0 5:85.0 6:65.0 7:65.0 8:58.0 9:32.0 10:130.0 
0.22447176612213754 1:114.0 2:117.0 3:94.0 4:120.0 5:85.0 6:68.0 7:65.0 8:58.0 9:32.0 10:130.0 
0.998015369079256 1:114.0 2:117.0 3:94.0 4:120.0 5:85.0 6:68.0 7:65.0 8:58.0 9:32.0 10:130.0 
1.0 1:111.0 2:117.0 3:94.0 4:117.0 5:85.0 6:68.0 7:65.0 8:58.0 9:32.0 10:134.0 
1.0 1:114.0 2:117.0 3:98.0 4:117.0 5:85.0 6:68.0 7:65.0 8:62.0 9:32.0 10:134.0 
1.0 1:104.0 2:117.0 3:98.0 4:120.0 5:85.0 6:68.0 7:65.0 8:62.0 9:32.0 10:130.0 
0.9858311425232275 1:104.0 2:117.0 3:98.0 4:120.0 5:85.0 6:68.0 7:65.0 8:62.0 9:35.0 10:130.0 
1.0 1:104.0 2:117.0 3:98.0 4:117.0 5:81.0 6:68.0 7:68.0 8:62.0 9:35.0 10:130.0 
0.8146416323759116 1:104.0 2:120.0 3:98.0 4:120.0 5:85.0 6:78.0 7:68.0 8:62.0 9:35.0 10:127.0 
1.0 1:101.0 2:120.0 3:98.0 4:120.0 5:85.0 6:78.0 7:68.0 8:62.0 9:35.0 10:130.0 
1.0 1:104.0 2:117.0 3:98.0 4:120.0 5:88.0 6:78.0 7:65.0 8:62.0 9:35.0 10:130.0 
1.0 1:104.0 2:120.0 3:101.0 4:120.0 5:85.0 6:75.0 7:65.0 8:62.0 9:35.0 10:130.0 
1.0 1:107.0 2:120.0 3:98.0 4:124.0 5:88.0 6:75.0 7:65.0 8:62.0 9:35.0 10:130.0 
0.7585296797368715 1:104.0 2:120.0 3:98.0 4:120.0 5:88.0 6:75.0 7:65.0 8:62.0 9:35.0 10:130.0 
1.0 1:101.0 2:120.0 3:101.0 4:124.0 5:85.0 6:75.0 7:65.0 8:62.0 9:35.0 10:127.0 
1.0 1:101.0 2:120.0 3:98.0 4:120.0 5:88.0 6:75.0 7:65.0 8:62.0 9:35.0 10:127.0 
1.0 1:101.0 2:120.0 3:98.0 4:120.0 5:85.0 6:78.0 7:68.0 8:62.0 9:35.0 10:124.0 
1.0 1:104.0 2:120.0 3:98.0 4:120.0 5:88.0 6:78.0 7:68.0 8:65.0 9:35.0 10:127.0 
1.0 1:107.0 2:124.0 3:98.0 4:120.0 5:88.0 6:81.0 7:65.0 8:65.0 9:35.0 10:134.0 
1.0 1:104.0 2:124.0 3:94.0 4:120.0 5:88.0 6:78.0 7:65.0 8:65.0 9:35.0 10:130.0 
1.0 1:104.0 2:124.0 3:98.0 4:117.0 5:88.0 6:81.0 7:68.0 8:65.0 9:35.0 10:130.0 
1.0 1:101.0 2:124.0 3:94.0 4:117.0 5:91.0 6:81.0 7:71.0 8:65.0 9:35.0 10:130.0 
1.0 1:107.0 2:124.0 3:98.0 4:114.0 5:91.0 6:81.0 7:71.0 8:65.0 9:35.0 10:130.0 
1.0 1:107.0 2:120.0 3:94.0 4:117.0 5:91.0 6:81.0 7:71.0 8:65.0 9:35.0 10:130.0 
1.0 1:104.0 2:120.0 3:98.0 4:117.0 5:88.0 6:81.0 7:71.0 8:65.0 9:35.0 10:130.0 
1.0 1:104.0 2:124.0 3:101.0 4:114.0 5:88.0 6:81.0 7:68.0 8:65.0 9:35.0 10:134.0 
1.0 1:104.0 2:124.0 3:98.0 4:114.0 5:94.0 6:81.0 7:68.0 8:65.0 9:35.0 10:134.0 
1.0 1:101.0 2:120.0 3:98.0 4:114.0 5:94.0 6:81.0 7:68.0 8:68.0 9:39.0 10:134.0 
1.0 1:104.0 2:120.0 3:94.0 4:111.0 5:91.0 6:81.0 7:68.0 8:68.0 9:39.0 10:134.0 
1.0 1:101.0 2:117.0 3:94.0 4:117.0 5:94.0 6:81.0 7:65.0 8:68.0 9:39.0 10:130.0 
1.0 1:101.0 2:117.0 3:94.0 4:114.0 5:98.0 6:81.0 7:65.0 8:68.0 9:42.0 10:130.0 
1.0 1:101.0 2:114.0 3:98.0 4:114.0 5:94.0 6:81.0 7:68.0 8:68.0 9:42.0 10:130.0 
0.9812577885233821 1:101.0 2:117.0 3:94.0 4:114.0 5:94.0 6:81.0 7:68.0 8:68.0 9:42.0 10:130.0 
0.8775382541060651 1:101.0 2:117.0 3:98.0 4:117.0 5:91.0 6:81.0 7:68.0 8:71.0 9:42.0 10:130.0 
1.0 1:98.0 2:117.0 3:98.0 4:117.0 5:91.0 6:81.0 7:68.0 8:71.0 9:42.0 10:130.0 
1.0 1:101.0 2:117.0 3:94.0 4:117.0 5:91.0 6:81.0 7:68.0 8:71.0 9:39.0 10:130.0 
0.9578365161474856 1:101.0 2:117.0 3:94.0 4:114.0 5:94.0 6:81.0 7:68.0 8:71.0 9:39.0 10:130.0 
1.0 1:104.0 2:117.0 3:98.0 4:114.0 5:98.0 6:81.0 7:68.0 8:71.0 9:39.0 10:127.0 
1.0 1:104.0 2:117.0 3:98.0 4:117.0 5:98.0 6:85.0 7:68.0 8:71.0 9:39.0 10:127.0 
1.0 1:104.0 2:114.0 3:94.0 4:117.0 5:98.0 6:85.0 7:68.0 8:71.0 9:39.0 10:127.0 
0.7715257914871954 1:101.0 2:114.0 3:94.0 4:114.0 5:98.0 6:85.0 7:68.0 8:71.0 9:39.0 10:134.0 
1.0 1:101.0 2:114.0 3:94.0 4:117.0 5:98.0 6:85.0 7:68.0 8:71.0 9:39.0 10:130.0 
1.0 1:98.0 2:117.0 3:98.0 4:114.0 5:98.0 6:85.0 7:68.0 8:71.0 9:39.0 10:137.0 
0.8681745348739887 1:101.0 2:117.0 3:94.0 4:111.0 5:98.0 6:85.0 7:68.0 8:71.0 9:39.0 10:134.0 
0.8709164120025934 1:101.0 2:117.0 3:94.0 4:111.0 5:98.0 6:85.0 7:65.0 8:71.0 9:39.0 10:134.0 
0.46033910456736465 1:101.0 2:114.0 3:94.0 4:114.0 5:98.0 6:85.0 7:65.0 8:71.0 9:39.0 10:134.0 
0.959965156365915 1:101.0 2:114.0 3:94.0 4:114.0 5:98.0 6:85.0 7:65.0 8:71.0 9:42.0 10:134.0 
1.0 1:101.0 2:114.0 3:101.0 4:114.0 5:98.0 6:85.0 7:65.0 8:71.0 9:42.0 10:134.0 
1.0 1:101.0 2:114.0 3:98.0 4:117.0 5:98.0 6:85.0 7:65.0 8:71.0 9:42.0 10:137.0 
1.0 1:101.0 2:114.0 3:98.0 4:117.0 5:94.0 6:81.0 7:65.0 8:71.0 9:42.0 10:137.0 
1.0 1:98.0 2:114.0 3:98.0 4:117.0 5:98.0 6:81.0 7:65.0 8:71.0 9:45.0 10:137.0 
1.0 1:104.0 2:114.0 3:98.0 4:114.0 5:98.0 6:81.0 7:65.0 8:71.0 9:45.0 10:137.0 
0.0010420019300560746 1:104.0 2:114.0 3:98.0 4:114.0 5:98.0 6:91.0 7:68.0 8:71.0 9:45.0 10:134.0 
0.6091517147013287 1:104.0 2:114.0 3:98.0 4:117.0 5:98.0 6:91.0 7:68.0 8:71.0 9:45.0 10:134.0 
0.9976065032804879 1:101.0 2:114.0 3:98.0 4:117.0 5:98.0 6:91.0 7:68.0 8:71.0 9:45.0 10:134.0 
1.0 1:104.0 2:114.0 3:98.0 4:114.0 5:98.0 6:91.0 7:68.0 8:71.0 9:45.0 10:134.0 
1.0 1:101.0 2:114.0 3:98.0 4:114.0 5:101.0 6:91.0 7:65.0 8:71.0 9:45.0 10:130.0 
0.3126275761417723 1:98.0 2:117.0 3:98.0 4:114.0 5:101.0 6:88.0 7:65.0 8:71.0 9:45.0 10:130.0 
1.0 1:98.0 2:117.0 3:98.0 4:114.0 5:101.0 6:88.0 7:65.0 8:71.0 9:45.0 10:130.0 
1.0 1:98.0 2:117.0 3:94.0 4:111.0 5:101.0 6:88.0 7:68.0 8:71.0 9:49.0 10:130.0 
0.9750499741850727 1:98.0 2:117.0 3:98.0 4:111.0 5:101.0 6:91.0 7:68.0 8:71.0 9:49.0 10:130.0 
0.7452556085526528 1:98.0 2:117.0 3:98.0 4:111.0 5:101.0 6:88.0 7:68.0 8:71.0 9:49.0 10:130.0 
1.0 1:98.0 2:117.0 3:98.0 4:107.0 5:104.0 6:91.0 7:68.0 8:71.0 9:49.0 10:127.0 
1.0 1:98.0 2:117.0 3:94.0 4:107.0 5:104.0 6:91.0 7:68.0 8:71.0 9:49.0 10:127.0 
1.0 1:94.0 2:117.0 3:94.0 4:107.0 5:101.0 6:88.0 7:71.0 8:71.0 9:49.0 10:127.0 
0.9868458823049536 1:98.0 2:117.0 3:94.0 4:107.0 5:101.0 6:88.0 7:71.0 8:71.0 9:49.0 10:127.0 
1.0 1:98.0 2:117.0 3:94.0 4:111.0 5:101.0 6:85.0 7:71.0 8:71.0 9:49.0 10:127.0 
1.0 1:101.0 2:117.0 3:94.0 4:114.0 5:101.0 6:88.0 7:71.0 8:71.0 9:45.0 10:127.0 
1.0 1:101.0 2:117.0 3:94.0 4:111.0 5:104.0 6:88.0 7:71.0 8:75.0 9:45.0 10:127.0 
1.0 1:101.0 2:120.0 3:94.0 4:111.0 5:104.0 6:91.0 7:71.0 8:75.0 9:45.0 10:130.0 
1.0 1:101.0 2:117.0 3:91.0 4:107.0 5:101.0 6:88.0 7:71.0 8:75.0 9:49.0 10:127.0 
1.0 1:104.0 2:117.0 3:94.0 4:111.0 5:101.0 6:91.0 7:71.0 8:75.0 9:49.0 10:127.0 
1.0 1:104.0 2:117.0 3:94.0 4:111.0 5:101.0 6:88.0 7:68.0 8:75.0 9:49.0 10:124.0 
1.0 1:104.0 2:117.0 3:91.0 4:114.0 5:101.0 6:88.0 7:68.0 8:75.0 9:49.0 10:124.0 
1.0 1:104.0 2:117.0 3:98.0 4:111.0 5:107.0 6:88.0 7:71.0 8:75.0 9:49.0 10:124.0 
0.9192504783495495 1:104.0 2:117.0 3:94.0 4:111.0 5:107.0 6:88.0 7:71.0 8:75.0 9:49.0 10:124.0 
1.0 1:104.0 2:120.0 3:94.0 4:107.0 5:107.0 6:88.0 7:71.0 8:75.0 9:49.0 10:124.0 
0.9416754545612596 1:104.0 2:120.0 3:91.0 4:111.0 5:107.0 6:88.0 7:71.0 8:75.0 9:49.0 10:124.0 
1.0 1:101.0 2:120.0 3:91.0 4:111.0 5:107.0 6:91.0 7:71.0 8:75.0 9:49.0 10:124.0 
1.0 1:101.0 2:117.0 3:88.0 4:107.0 5:107.0 6:88.0 7:71.0 8:75.0 9:49.0 10:124.0 
0.368494430493615 1:98.0 2:117.0 3:88.0 4:111.0 5:111.0 6:88.0 7:75.0 8:75.0 9:49.0 10:120.0 
1.0 1:98.0 2:117.0 3:88.0 4:111.0 5:111.0 6:88.0 7:75.0 8:75.0 9:49.0 10:120.0 
1.0 1:98.0 2:120.0 3:88.0 4:107.0 5:107.0 6:88.0 7:75.0 8:75.0 9:49.0 10:120.0 
0.9765689441007177 1:101.0 2:120.0 3:91.0 4:111.0 5:107.0 6:88.0 7:75.0 8:75.0 9:49.0 10:120.0 
0.8846096636377799 1:101.0 2:120.0 3:88.0 4:111.0 5:107.0 6:88.0 7:75.0 8:75.0 9:49.0 10:120.0 
1.0 1:107.0 2:120.0 3:91.0 4:111.0 5:107.0 6:88.0 7:71.0 8:75.0 9:52.0 10:120.0 
1.0 1:107.0 2:124.0 3:88.0 4:111.0 5:107.0 6:85.0 7:71.0 8:75.0 9:52.0 10:120.0 
1.0 1:104.0 2:124.0 3:85.0 4:107.0 5:104.0 6:88.0 7:71.0 8:75.0 9:52.0 10:117.0 
1.0 1:104.0 2:124.0 3:88.0 4:111.0 5:104.0 6:88.0 7:71.0 8:75.0 9:52.0 10:117.0 
1.0 1:104.0 2:124.0 3:88.0 4:111.0 5:104.0 6:85.0 7:71.0 8:75.0 9:52.0 10:124.0 
1.0 1:104.0 2:124.0 3:88.0 4:107.0 5:107.0 6:85.0 7:71.0 8:75.0 9:52.0 10:120.0 
1.0 1:104.0 2:124.0 3:88.0 4:107.0 5:104.0 6:85.0 7:71.0 8:75.0 9:52.0 10:124.0 
0.3182719750636836 1:104.0 2:124.0 3:88.0 4:104.0 5:101.0 6:88.0 7:71.0 8:78.0 9:52.0 10:124.0 
1.0 1:104.0 2:124.0 3:88.0 4:104.0 5:101.0 6:88.0 7:71.0 8:78.0 9:52.0 10:124.0 
1.0 1:104.0 2:124.0 3:88.0 4:107.0 5:101.0 6:85.0 7:68.0 8:78.0 9:52.0 10:124.0 
1.0 1:104.0 2:127.0 3:88.0 4:107.0 5:101.0 6:88.0 7:68.0 8:78.0 9:52.0 10:120.0 
1.0 1:107.0 2:124.0 3:91.0 4:107.0 5:104.0 6:85.0 7:68.0 8:78.0 9:49.0 10:120.0 
1.0 1:107.0 2:127.0 3:91.0 4:107.0 5:101.0 6:88.0 7:68.0 8:78.0 9:49.0 10:120.0 
1.0 1:107.0 2:127.0 3:91.0 4:107.0 5:98.0 6:85.0 7:68.0 8:78.0 9:49.0 10:117.0 
0.08201199133665088 1:111.0 2:127.0 3:91.0 4:104.0 5:98.0 6:81.0 7:68.0 8:78.0 9:49.0 10:117.0 
0.9989502829432132 1:111.0 2:127.0 3:91.0 4:104.0 5:98.0 6:81.0 7:68.0 8:78.0 9:49.0 10:117.0 
1.0 1:111.0 2:124.0 3:91.0 4:104.0 5:98.0 6:81.0 7:68.0 8:78.0 9:49.0 10:114.0 
1.0 1:111.0 2:124.0 3:88.0 4:104.0 5:98.0 6:81.0 7:68.0 8:78.0 9:49.0 10:117.0 
1.0 1:107.0 2:120.0 3:88.0 4:104.0 5:98.0 6:81.0 7:68.0 8:78.0 9:49.0 10:117.0 
0.607333856330354 1:107.0 2:120.0 3:91.0 4:107.0 5:98.0 6:85.0 7:71.0 8:78.0 9:49.0 10:114.0 
0.9986075803928867 1:107.0 2:120.0 3:91.0 4:104.0 5:98.0 6:85.0 7:71.0 8:78.0 9:49.0 10:114.0 
0.959782707908067 1:107.0 2:120.0 3:88.0 4:107.0 5:98.0 6:85.0 7:71.0 8:78.0 9:49.0 10:114.0 
1.0 1:107.0 2:120.0 3:88.0 4:107.0 5:98.0 6:88.0 7:75.0 8:75.0 9:49.0 10:114.0 
1.0 1:111.0 2:120.0 3:88.0 4:111.0 5:98.0 6:88.0 7:75.0 8:75.0 9:49.0 10:114.0 
0.9842393897822078 1:111.0 2:120.0 3:88.0 4:107.0 5:98.0 6:88.0 7:75.0 8:75.0 9:49.0 10:114.0 
1.0 1:107.0 2:120.0 3:91.0 4:114.0 5:94.0 6:85.0 7:75.0 8:75.0 9:49.0 10:111.0 
1.0 1:107.0 2:124.0 3:88.0 4:114.0 5:94.0 6:85.0 7:75.0 8:75.0 9:49.0 10:111.0 
1.0 1:107.0 2:124.0 3:88.0 4:111.0 5:98.0 6:85.0 7:75.0 8:75.0 9:45.0 10:111.0 
1.0 1:111.0 2:124.0 3:88.0 4:107.0 5:98.0 6:88.0 7:75.0 8:75.0 9:45.0 10:111.0 
1.0 1:114.0 2:120.0 3:91.0 4:107.0 5:101.0 6:88.0 7:75.0 8:75.0 9:45.0 10:114.0 
1.0 1:114.0 2:124.0 3:88.0 4:104.0 5:101.0 6:91.0 7:75.0 8:75.0 9:45.0 10:114.0 
1.0 1:117.0 2:130.0 3:94.0 4:104.0 5:101.0 6:91.0 7:75.0 8:75.0 9:45.0 10:111.0 
1.0 1:114.0 2:130.0 3:94.0 4:107.0 5:104.0 6:91.0 7:75.0 8:75.0 9:45.0 10:111.0 
1.0 1:114.0 2:127.0 3:94.0 4:107.0 5:101.0 6:88.0 7:75.0 8:78.0 9:45.0 10:111.0 
0.7838497857721662 1:114.0 2:130.0 3:94.0 4:107.0 5:101.0 6:91.0 7:75.0 8:78.0 9:45.0 10:111.0 
0.4314530710584329 1:114.0 2:127.0 3:94.0 4:107.0 5:101.0 6:91.0 7:75.0 8:78.0 9:45.0 10:111.0 
1.0 1:114.0 2:127.0 3:94.0 4:107.0 5:104.0 6:94.0 7:75.0 8:78.0 9:45.0 10:111.0 
1.0 1:117.0 2:127.0 3:94.0 4:104.0 5:104.0 6:94.0 7:78.0 8:78.0 9:45.0 10:111.0 
0.9866238565257756 1:117.0 2:130.0 3:94.0 4:104.0 5:107.0 6:98.0 7:78.0 8:78.0 9:45.0 10:111.0 
1.0 1:117.0 2:130.0 3:94.0 4:107.0 5:107.0 6:98.0 7:78.0 8:78.0 9:45.0 10:111.0 
1.0 1:117.0 2:134.0 3:91.0 4:111.0 5:104.0 6:94.0 7:75.0 8:78.0 9:45.0 10:107.0 
1.0 1:114.0 2:130.0 3:94.0 4:117.0 5:104.0 6:94.0 7:75.0 8:78.0 9:45.0 10:111.0 
1.0 1:114.0 2:134.0 3:94.0 4:117.0 5:101.0 6:94.0 7:75.0 8:78.0 9:45.0 10:111.0 
1.0 1:117.0 2:130.0 3:98.0 4:120.0 5:101.0 6:94.0 7:75.0 8:78.0 9:45.0 10:111.0 
0.9966190201165575 1:117.0 2:127.0 3:98.0 4:117.0 5:101.0 6:94.0 7:75.0 8:78.0 9:45.0 10:111.0 
1.0 1:120.0 2:127.0 3:98.0 4:117.0 5:104.0 6:94.0 7:75.0 8:78.0 9:45.0 10:111.0 
1.0 1:120.0 2:127.0 3:94.0 4:117.0 5:101.0 6:94.0 7:75.0 8:78.0 9:45.0 10:111.0 
1.0 1:120.0 2:124.0 3:91.0 4:117.0 5:104.0 6:91.0 7:75.0 8:78.0 9:45.0 10:111.0 
1.0 1:120.0 2:124.0 3:91.0 4:114.0 5:104.0 6:91.0 7:78.0 8:78.0 9:45.0 10:111.0 
1.0 1:120.0 2:124.0 3:94.0 4:114.0 5:101.0 6:91.0 7:78.0 8:78.0 9:45.0 10:111.0 
1.0 1:120.0 2:127.0 3:98.0 4:114.0 5:104.0 6:91.0 7:78.0 8:78.0 9:49.0 10:114.0 
1.0 1:120.0 2:127.0 3:94.0 4:117.0 5:104.0 6:98.0 7:78.0 8:81.0 9:49.0 10:114.0 
1.0 1:120.0 2:127.0 3:91.0 4:117.0 5:104.0 6:98.0 7:78.0 8:81.0 9:49.0 10:111.0 
1.0 1:120.0 2:127.0 3:94.0 4:120.0 5:104.0 6:98.0 7:78.0 8:81.0 9:49.0 10:111.0 
1.0 1:120.0 2:134.0 3:94.0 4:117.0 5:104.0 6:98.0 7:78.0 8:78.0 9:49.0 10:107.0 
1.0 1:120.0 2:130.0 3:94.0 4:114.0 5:101.0 6:94.0 7:78.0 8:78.0 9:49.0 10:111.0 
1.0 1:120.0 2:130.0 3:94.0 4:117.0 5:104.0 6:98.0 7:75.0 8:78.0 9:49.0 10:111.0 
0.9248119274655884 1:117.0 2:130.0 3:91.0 4:117.0 5:101.0 6:98.0 7:75.0 8:78.0 9:49.0 10:111.0 
1.0 1:117.0 2:134.0 3:91.0 4:114.0 5:101.0 6:101.0 7:75.0 8:78.0 9:49.0 10:107.0 
0.981349000405024 1:117.0 2:130.0 3:91.0 4:114.0 5:101.0 6:98.0 7:75.0 8:78.0 9:49.0 10:111.0 
1.0 1:117.0 2:134.0 3:94.0 4:114.0 5:101.0 6:101.0 7:78.0 8:78.0 9:49.0 10:107.0 
1.0 1:117.0 2:130.0 3:91.0 4:114.0 5:101.0 6:98.0 7:78.0 8:81.0 9:49.0 10:104.0 
1.0 1:117.0 2:130.0 3:94.0 4:117.0 5:101.0 6:98.0 7:78.0 8:81.0 9:49.0 10:104.0 
1.0 1:117.0 2:127.0 3:88.0 4:114.0 5:101.0 6:101.0 7:78.0 8:85.0 9:49.0 10:107.0 
0.9449702336744589 1:120.0 2:127.0 3:91.0 4:114.0 5:101.0 6:101.0 7:75.0 8:85.0 9:49.0 10:107.0 
0.999244913266524 1:117.0 2:127.0 3:94.0 4:114.0 5:101.0 6:101.0 7:75.0 8:85.0 9:49.0 10:107.0 
0.7776115291597658 1:117.0 2:124.0 3:91.0 4:114.0 5:101.0 6:98.0 7:78.0 8:85.0 9:49.0 10:107.0 
0.6641488473088368 1:117.0 2:124.0 3:91.0 4:114.0 5:101.0 6:101.0 7:78.0 8:85.0 9:49.0 10:107.0 
0.7761819949485523 1:117.0 2:127.0 3:91.0 4:114.0 5:101.0 6:98.0 7:75.0 8:85.0 9:49.0 10:107.0 
1.0 1:114.0 2:127.0 3:91.0 4:114.0 5:104.0 6:101.0 7:81.0 8:85.0 9:49.0 10:104.0 
1.0 1:117.0 2:127.0 3:94.0 4:114.0 5:104.0 6:98.0 7:78.0 8:81.0 9:49.0 10:104.0 
1.0 1:120.0 2:127.0 3:94.0 4:117.0 5:104.0 6:98.0 7:75.0 8:85.0 9:49.0 10:104.0 
0.7988009926828344 1:120.0 2:127.0 3:91.0 4:117.0 5:101.0 6:98.0 7:78.0 8:88.0 9:49.0 10:107.0 
0.8750102468907092 1:117.0 2:124.0 3:94.0 4:120.0 5:101.0 6:98.0 7:78.0 8:88.0 9:49.0 10:107.0 
0.7525331503352086 1:120.0 2:124.0 3:91.0 4:117.0 5:101.0 6:98.0 7:78.0 8:88.0 9:49.0 10:107.0 
1.0 1:117.0 2:127.0 3:94.0 4:120.0 5:101.0 6:98.0 7:78.0 8:88.0 9:49.0 10:111.0 
0.7894370019361139 1:117.0 2:127.0 3:94.0 4:117.0 5:101.0 6:98.0 7:78.0 8:88.0 9:49.0 10:107.0 
1.0 1:117.0 2:124.0 3:94.0 4:117.0 5:104.0 6:101.0 7:78.0 8:88.0 9:49.0 10:111.0 
1.0 1:120.0 2:124.0 3:94.0 4:117.0 5:104.0 6:101.0 7:78.0 8:88.0 9:49.0 10:107.0 
1.0 1:117.0 2:124.0 3:98.0 4:120.0 5:101.0 6:101.0 7:78.0 8:88.0 9:49.0 10:107.0 
1.0 1:120.0 2:124.0 3:94.0 4:120.0 5:101.0 6:101.0 7:81.0 8:88.0 9:49.0 10:107.0 
1.0 1:117.0 2:124.0 3:94.0 4:117.0 5:101.0 6:101.0 7:78.0 8:88.0 9:49.0 10:104.0 
1.0 1:120.0 2:124.0 3:98.0 4:117.0 5:104.0 6:104.0 7:81.0 8:94.0 9:49.0 10:107.0 
1.0 1:124.0 2:120.0 3:98.0 4:117.0 5:104.0 6:101.0 7:81.0 8:94.0 9:49.0 10:107.0 
1.0 1:120.0 2:120.0 3:98.0 4:120.0 5:104.0 6:101.0 7:81.0 8:91.0 9:49.0 10:104.0 
1.0 1:120.0 2:120.0 3:91.0 4:120.0 5:101.0 6:101.0 7:81.0 8:91.0 9:49.0 10:107.0 
1.0 1:111.0 2:124.0 3:91.0 4:124.0 5:104.0 6:101.0 7:81.0 8:91.0 9:49.0 10:111.0 
1.0 1:107.0 2:124.0 3:91.0 4:124.0 5:101.0 6:101.0 7:85.0 8:91.0 9:49.0 10:107.0 
1.0 1:111.0 2:127.0 3:94.0 4:120.0 5:104.0 6:101.0 7:85.0 8:91.0 9:49.0 10:107.0 
1.0 1:111.0 2:124.0 3:91.0 4:120.0 5:104.0 6:101.0 7:81.0 8:91.0 9:49.0 10:107.0 
1.0 1:111.0 2:127.0 3:91.0 4:117.0 5:104.0 6:101.0 7:81.0 8:88.0 9:45.0 10:107.0 
1.0 1:107.0 2:124.0 3:94.0 4:120.0 5:104.0 6:101.0 7:85.0 8:88.0 9:45.0 10:111.0 
1.0 1:111.0 2:120.0 3:91.0 4:117.0 5:101.0 6:101.0 7:88.0 8:88.0 9:45.0 10:111.0 
1.0 1:111.0 2:124.0 3:94.0 4:117.0 5:101.0 6:101.0 7:85.0 8:88.0 9:45.0 10:111.0 
1.0 1:107.0 2:124.0 3:94.0 4:117.0 5:104.0 6:101.0 7:88.0 8:88.0 9:45.0 10:111.0 
1.0 1:111.0 2:124.0 3:94.0 4:117.0 5:107.0 6:101.0 7:88.0 8:91.0 9:45.0 10:111.0 
1.0 1:111.0 2:124.0 3:91.0 4:120.0 5:104.0 6:101.0 7:85.0 8:91.0 9:45.0 10:111.0 
1.0 1:107.0 2:124.0 3:91.0 4:120.0 5:104.0 6:104.0 7:85.0 8:91.0 9:45.0 10:114.0 
1.0 1:111.0 2:124.0 3:94.0 4:120.0 5:104.0 6:101.0 7:85.0 8:91.0 9:45.0 10:114.0 
1.0 1:111.0 2:127.0 3:91.0 4:120.0 5:101.0 6:101.0 7:88.0 8:91.0 9:45.0 10:114.0 
1.0 1:111.0 2:124.0 3:88.0 4:117.0 5:101.0 6:101.0 7:88.0 8:91.0 9:45.0 10:114.0 
1.0 1:111.0 2:124.0 3:94.0 4:117.0 5:101.0 6:101.0 7:88.0 8:91.0 9:49.0 10:114.0 
1.0 1:107.0 2:127.0 3:94.0 4:114.0 5:104.0 6:101.0 7:88.0 8:91.0 9:49.0 10:114.0 
1.0 1:107.0 2:130.0 3:94.0 4:111.0 5:104.0 6:104.0 7:88.0 8:91.0 9:49.0 10:114.0 
0.8493574617819458 1:107.0 2:127.0 3:91.0 4:111.0 5:104.0 6:104.0 7:88.0 8:91.0 9:49.0 10:114.0 
1.0 1:107.0 2:130.0 3:91.0 4:111.0 5:104.0 6:101.0 7:88.0 8:91.0 9:49.0 10:117.0 
1.0 1:107.0 2:120.0 3:91.0 4:111.0 5:104.0 6:104.0 7:88.0 8:91.0 9:49.0 10:114.0 
1.0 1:107.0 2:120.0 3:88.0 4:111.0 5:104.0 6:104.0 7:88.0 8:91.0 9:49.0 10:114.0 
0.7073551164611073 1:107.0 2:127.0 3:88.0 4:111.0 5:107.0 6:104.0 7:88.0 8:91.0 9:49.0 10:114.0 
0.8243589306393602 1:107.0 2:127.0 3:88.0 4:114.0 5:104.0 6:101.0 7:88.0 8:91.0 9:49.0 10:114.0 
1.0 1:104.0 2:127.0 3:88.0 4:114.0 5:104.0 6:101.0 7:88.0 8:91.0 9:49.0 10:114.0 
1.0 1:107.0 2:124.0 3:85.0 4:111.0 5:107.0 6:101.0 7:88.0 8:91.0 9:49.0 10:114.0 
1.0 1:107.0 2:127.0 3:88.0 4:111.0 5:107.0 6:107.0 7:88.0 8:91.0 9:49.0 10:114.0 
1.0 1:107.0 2:124.0 3:88.0 4:111.0 5:107.0 6:111.0 7:88.0 8:91.0 9:49.0 10:117.0 
1.0 1:104.0 2:127.0 3:88.0 4:111.0 5:107.0 6:111.0 7:88.0 8:91.0 9:49.0 10:117.0 
1.0 1:107.0 2:127.0 3:85.0 4:114.0 5:107.0 6:111.0 7:88.0 8:91.0 9:49.0 10:124.0 
1.0 1:107.0 2:124.0 3:88.0 4:114.0 5:107.0 6:111.0 7:85.0 8:91.0 9:49.0 10:124.0 
1.0 1:111.0 2:127.0 3:91.0 4:111.0 5:107.0 6:111.0 7:85.0 8:91.0 9:49.0 10:124.0 
0.24353436484561225 1:111.0 2:127.0 3:91.0 4:111.0 5:107.0 6:111.0 7:88.0 8:91.0 9:52.0 10:124.0 
1.0 1:111.0 2:127.0 3:91.0 4:111.0 5:107.0 6:111.0 7:88.0 8:91.0 9:52.0 10:124.0 
1.0 1:107.0 2:127.0 3:94.0 4:111.0 5:111.0 6:111.0 7:88.0 8:91.0 9:52.0 10:124.0 
1.0 1:111.0 2:117.0 3:94.0 4:107.0 5:107.0 6:114.0 7:88.0 8:91.0 9:52.0 10:124.0 
1.0 1:114.0 2:117.0 3:91.0 4:104.0 5:111.0 6:117.0 7:88.0 8:88.0 9:49.0 10:120.0 
1.0 1:114.0 2:117.0 3:91.0 4:104.0 5:111.0 6:117.0 7:88.0 8:91.0 9:49.0 10:120.0 
1.0 1:111.0 2:120.0 3:91.0 4:107.0 5:107.0 6:117.0 7:88.0 8:91.0 9:49.0 10:120.0 
1.0 1:114.0 2:117.0 3:91.0 4:107.0 5:114.0 6:117.0 7:94.0 8:91.0 9:49.0 10:120.0 
1.0 1:111.0 2:117.0 3:91.0 4:107.0 5:111.0 6:117.0 7:94.0 8:94.0 9:52.0 10:120.0 
1.0 1:111.0 2:117.0 3:91.0 4:111.0 5:114.0 6:117.0 7:94.0 8:94.0 9:52.0 10:120.0 
1.0 1:111.0 2:114.0 3:91.0 4:107.0 5:114.0 6:117.0 7:94.0 8:94.0 9:52.0 10:124.0 
1.0 1:107.0 2:114.0 3:91.0 4:107.0 5:114.0 6:120.0 7:94.0 8:94.0 9:52.0 10:124.0 
1.0 1:107.0 2:111.0 3:91.0 4:107.0 5:114.0 6:120.0 7:94.0 8:94.0 9:52.0 10:120.0 
1.0 1:107.0 2:114.0 3:94.0 4:104.0 5:114.0 6:117.0 7:94.0 8:94.0 9:52.0 10:120.0 
1.0 1:107.0 2:117.0 3:94.0 4:104.0 5:111.0 6:117.0 7:91.0 8:94.0 9:52.0 10:120.0 
1.0 1:111.0 2:120.0 3:98.0 4:107.0 5:114.0 6:117.0 7:91.0 8:94.0 9:55.0 10:124.0 
1.0 1:111.0 2:120.0 3:94.0 4:107.0 5:114.0 6:117.0 7:91.0 8:94.0 9:55.0 10:120.0 
0.9676584334552792 1:111.0 2:120.0 3:98.0 4:107.0 5:114.0 6:117.0 7:91.0 8:94.0 9:55.0 10:120.0 
1.0 1:114.0 2:120.0 3:98.0 4:107.0 5:117.0 6:117.0 7:94.0 8:94.0 9:58.0 10:120.0 
1.0 1:111.0 2:120.0 3:98.0 4:104.0 5:117.0 6:117.0 7:94.0 8:94.0 9:58.0 10:117.0 
1.0 1:111.0 2:120.0 3:101.0 4:104.0 5:117.0 6:120.0 7:94.0 8:91.0 9:55.0 10:117.0 
1.0 1:114.0 2:117.0 3:101.0 4:104.0 5:117.0 6:120.0 7:94.0 8:91.0 9:55.0 10:120.0 
1.0 1:117.0 2:117.0 3:101.0 4:104.0 5:114.0 6:120.0 7:91.0 8:91.0 9:55.0 10:120.0 
1.0 1:114.0 2:124.0 3:98.0 4:104.0 5:114.0 6:120.0 7:94.0 8:91.0 9:55.0 10:120.0 
1.0 1:114.0 2:127.0 3:98.0 4:107.0 5:117.0 6:120.0 7:98.0 8:91.0 9:55.0 10:120.0 
1.0 1:114.0 2:124.0 3:98.0 4:104.0 5:117.0 6:120.0 7:98.0 8:91.0 9:58.0 10:117.0 
1.0 1:114.0 2:124.0 3:98.0 4:107.0 5:114.0 6:120.0 7:94.0 8:94.0 9:58.0 10:117.0 
1.0 1:111.0 2:120.0 3:94.0 4:107.0 5:114.0 6:120.0 7:98.0 8:94.0 9:62.0 10:120.0 
1.0 1:111.0 2:120.0 3:94.0 4:107.0 5:114.0 6:120.0 7:94.0 8:91.0 9:58.0 10:120.0 
1.0 1:107.0 2:120.0 3:94.0 4:111.0 5:114.0 6:117.0 7:91.0 8:91.0 9:58.0 10:120.0 
1.0 1:107.0 2:120.0 3:94.0 4:111.0 5:111.0 6:117.0 7:94.0 8:91.0 9:62.0 10:124.0 
1.0 1:107.0 2:117.0 3:94.0 4:111.0 5:111.0 6:120.0 7:94.0 8:98.0 9:62.0 10:124.0 
1.0 1:104.0 2:117.0 3:98.0 4:107.0 5:114.0 6:120.0 7:91.0 8:94.0 9:58.0 10:120.0 
1.0 1:104.0 2:117.0 3:94.0 4:107.0 5:114.0 6:120.0 7:91.0 8:94.0 9:62.0 10:124.0 
1.0 1:107.0 2:117.0 3:98.0 4:107.0 5:114.0 6:120.0 7:91.0 8:94.0 9:58.0 10:124.0 
1.0 1:104.0 2:117.0 3:94.0 4:107.0 5:111.0 6:124.0 7:88.0 8:94.0 9:58.0 10:124.0 
1.0 1:104.0 2:120.0 3:91.0 4:111.0 5:111.0 6:124.0 7:91.0 8:94.0 9:58.0 10:124.0 
1.0 1:104.0 2:120.0 3:91.0 4:114.0 5:114.0 6:120.0 7:88.0 8:91.0 9:58.0 10:127.0 
1.0 1:104.0 2:124.0 3:91.0 4:114.0 5:114.0 6:120.0 7:88.0 8:94.0 9:58.0 10:127.0 
1.0 1:104.0 2:124.0 3:91.0 4:114.0 5:114.0 6:124.0 7:91.0 8:94.0 9:62.0 10:127.0 
1.0 1:104.0 2:124.0 3:88.0 4:111.0 5:117.0 6:127.0 7:88.0 8:94.0 9:62.0 10:127.0 
1.0 1:101.0 2:124.0 3:91.0 4:114.0 5:117.0 6:124.0 7:88.0 8:91.0 9:62.0 10:124.0 
1.0 1:104.0 2:124.0 3:91.0 4:114.0 5:117.0 6:127.0 7:88.0 8:91.0 9:62.0 10:124.0 
1.0 1:101.0 2:124.0 3:94.0 4:114.0 5:114.0 6:124.0 7:88.0 8:94.0 9:62.0 10:124.0 
1.0 1:104.0 2:120.0 3:91.0 4:114.0 5:114.0 6:124.0 7:85.0 8:91.0 9:62.0 10:124.0 
1.0 1:104.0 2:120.0 3:91.0 4:117.0 5:114.0 6:120.0 7:88.0 8:91.0 9:62.0 10:130.0 
1.0 1:101.0 2:120.0 3:94.0 4:114.0 5:114.0 6:120.0 7:88.0 8:91.0 9:62.0 10:130.0 
1.0 1:101.0 2:120.0 3:94.0 4:111.0 5:111.0 6:120.0 7:88.0 8:91.0 9:62.0 10:130.0 
1.0 1:101.0 2:120.0 3:98.0 4:111.0 5:111.0 6:120.0 7:85.0 8:91.0 9:62.0 10:130.0 
1.0 1:101.0 2:120.0 3:98.0 4:111.0 5:111.0 6:120.0 7:88.0 8:98.0 9:65.0 10:127.0 
1.0 1:101.0 2:120.0 3:98.0 4:111.0 5:114.0 6:117.0 7:85.0 8:94.0 9:65.0 10:127.0 
1.0 1:101.0 2:120.0 3:98.0 4:111.0 5:111.0 6:124.0 7:88.0 8:94.0 9:65.0 10:127.0 
1.0 1:104.0 2:120.0 3:98.0 4:114.0 5:114.0 6:120.0 7:88.0 8:91.0 9:65.0 10:127.0 
0.982190750252601 1:101.0 2:120.0 3:98.0 4:114.0 5:114.0 6:120.0 7:85.0 8:91.0 9:65.0 10:124.0 
0.8163695306460262 1:104.0 2:120.0 3:98.0 4:114.0 5:114.0 6:120.0 7:85.0 8:91.0 9:65.0 10:124.0 
1.0 1:104.0 2:120.0 3:94.0 4:114.0 5:111.0 6:120.0 7:88.0 8:98.0 9:65.0 10:124.0 
1.0 1:104.0 2:120.0 3:94.0 4:114.0 5:111.0 6:120.0 7:85.0 8:94.0 9:65.0 10:124.0 
1.0 1:101.0 2:124.0 3:94.0 4:111.0 5:107.0 6:120.0 7:91.0 8:94.0 9:65.0 10:124.0 
1.0 1:104.0 2:124.0 3:94.0 4:117.0 5:107.0 6:120.0 7:88.0 8:98.0 9:65.0 10:124.0 
1.0 1:101.0 2:127.0 3:94.0 4:114.0 5:107.0 6:120.0 7:88.0 8:98.0 9:68.0 10:124.0 
1.0 1:104.0 2:124.0 3:98.0 4:114.0 5:107.0 6:124.0 7:88.0 8:98.0 9:68.0 10:120.0 
1.0 1:104.0 2:124.0 3:98.0 4:114.0 5:104.0 6:120.0 7:91.0 8:98.0 9:68.0 10:124.0 
1.0 1:104.0 2:124.0 3:98.0 4:114.0 5:107.0 6:124.0 7:91.0 8:94.0 9:68.0 10:120.0 
1.0 1:104.0 2:124.0 3:94.0 4:117.0 5:111.0 6:124.0 7:91.0 8:94.0 9:68.0 10:117.0 
1.0 1:104.0 2:124.0 3:94.0 4:114.0 5:111.0 6:120.0 7:91.0 8:98.0 9:68.0 10:120.0 
1.0 1:101.0 2:124.0 3:98.0 4:114.0 5:111.0 6:120.0 7:91.0 8:98.0 9:68.0 10:120.0 
1.0 1:101.0 2:127.0 3:98.0 4:114.0 5:111.0 6:120.0 7:91.0 8:94.0 9:68.0 10:117.0 
1.0 1:104.0 2:127.0 3:94.0 4:114.0 5:114.0 6:120.0 7:91.0 8:94.0 9:68.0 10:124.0 
1.0 1:104.0 2:124.0 3:98.0 4:114.0 5:114.0 6:120.0 7:91.0 8:91.0 9:68.0 10:120.0 
1.0 1:107.0 2:124.0 3:94.0 4:117.0 5:111.0 6:117.0 7:94.0 8:94.0 9:68.0 10:120.0 
1.0 1:107.0 2:127.0 3:91.0 4:117.0 5:111.0 6:120.0 7:91.0 8:91.0 9:68.0 10:120.0 
1.0 1:107.0 2:127.0 3:98.0 4:114.0 5:107.0 6:120.0 7:91.0 8:91.0 9:68.0 10:124.0 
1.0 1:107.0 2:124.0 3:98.0 4:114.0 5:107.0 6:120.0 7:91.0 8:94.0 9:68.0 10:120.0 
1.0 1:104.0 2:124.0 3:98.0 4:111.0 5:107.0 6:124.0 7:94.0 8:98.0 9:68.0 10:120.0 
0.9179313354015352 1:104.0 2:124.0 3:98.0 4:111.0 5:111.0 6:124.0 7:94.0 8:98.0 9:68.0 10:117.0 
1.0 1:104.0 2:124.0 3:101.0 4:111.0 5:111.0 6:124.0 7:94.0 8:98.0 9:68.0 10:117.0 
1.0 1:104.0 2:120.0 3:98.0 4:111.0 5:107.0 6:120.0 7:94.0 8:98.0 9:68.0 10:117.0 
1.0 1:101.0 2:120.0 3:98.0 4:114.0 5:107.0 6:120.0 7:94.0 8:101.0 9:65.0 10:114.0 
1.0 1:104.0 2:120.0 3:98.0 4:114.0 5:104.0 6:120.0 7:91.0 8:98.0 9:68.0 10:114.0 
1.0 1:104.0 2:124.0 3:94.0 4:117.0 5:107.0 6:120.0 7:91.0 8:98.0 9:68.0 10:111.0 
1.0 1:101.0 2:130.0 3:98.0 4:117.0 5:107.0 6:120.0 7:91.0 8:98.0 9:68.0 10:111.0 
0.9177739063518342 1:104.0 2:127.0 3:98.0 4:114.0 5:107.0 6:117.0 7:91.0 8:98.0 9:68.0 10:111.0 
0.7151543964987979 1:104.0 2:127.0 3:98.0 4:114.0 5:107.0 6:120.0 7:91.0 8:98.0 9:68.0 10:111.0 
1.0 1:107.0 2:124.0 3:98.0 4:114.0 5:107.0 6:120.0 7:91.0 8:98.0 9:68.0 10:111.0 
1.0 1:104.0 2:124.0 3:101.0 4:114.0 5:104.0 6:117.0 7:91.0 8:98.0 9:68.0 10:111.0 
1.0 1:104.0 2:120.0 3:101.0 4:114.0 5:104.0 6:117.0 7:88.0 8:94.0 9:68.0 10:111.0 
1.0 1:104.0 2:124.0 3:101.0 4:117.0 5:104.0 6:117.0 7:88.0 8:101.0 9:71.0 10:114.0 
1.0 1:107.0 2:124.0 3:101.0 4:114.0 5:104.0 6:120.0 7:91.0 8:98.0 9:71.0 10:114.0 
1.0 1:107.0 2:127.0 3:101.0 4:114.0 5:104.0 6:117.0 7:94.0 8:98.0 9:71.0 10:114.0 
1.0 1:107.0 2:124.0 3:101.0 4:114.0 5:104.0 6:117.0 7:91.0 8:101.0 9:71.0 10:111.0 
1.0 1:107.0 2:127.0 3:101.0 4:111.0 5:107.0 6:114.0 7:94.0 8:98.0 9:71.0 10:111.0 
0.8748895797287823 1:107.0 2:127.0 3:101.0 4:111.0 5:107.0 6:117.0 7:94.0 8:98.0 9:71.0 10:111.0 
1.0 1:107.0 2:124.0 3:98.0 4:111.0 5:104.0 6:120.0 7:91.0 8:98.0 9:71.0 10:111.0 
1.0 1:107.0 2:127.0 3:98.0 4:111.0 5:104.0 6:120.0 7:91.0 8:94.0 9:71.0 10:111.0 
1.0 1:104.0 2:127.0 3:98.0 4:117.0 5:104.0 6:117.0 7:94.0 8:94.0 9:71.0 10:111.0 
1.0 1:104.0 2:130.0 3:98.0 4:117.0 5:104.0 6:120.0 7:94.0 8:94.0 9:71.0 10:111.0 
1.0 1:107.0 2:130.0 3:98.0 4:114.0 5:104.0 6:120.0 7:94.0 8:98.0 9:71.0 10:111.0 
1.0 1:107.0 2:130.0 3:98.0 4:114.0 5:101.0 6:117.0 7:94.0 8:94.0 9:71.0 10:114.0 
0.7908585364434858 1:107.0 2:127.0 3:101.0 4:114.0 5:104.0 6:117.0 7:91.0 8:98.0 9:75.0 10:114.0 
1.0 1:107.0 2:127.0 3:101.0 4:117.0 5:107.0 6:117.0 7:94.0 8:98.0 9:75.0 10:114.0 
1.0 1:107.0 2:130.0 3:98.0 4:117.0 5:104.0 6:114.0 7:94.0 8:98.0 9:75.0 10:114.0 
1.0 1:107.0 2:130.0 3:101.0 4:117.0 5:104.0 6:114.0 7:91.0 8:98.0 9:75.0 10:114.0 
1.0 1:107.0 2:130.0 3:101.0 4:114.0 5:104.0 6:114.0 7:94.0 8:101.0 9:75.0 10:114.0 
0.9279877830926083 1:107.0 2:130.0 3:101.0 4:114.0 5:107.0 6:117.0 7:91.0 8:98.0 9:75.0 10:114.0 
1.0 1:107.0 2:130.0 3:101.0 4:114.0 5:104.0 6:120.0 7:91.0 8:98.0 9:75.0 10:114.0 
1.0 1:117.0 2:124.0 3:101.0 4:117.0 5:107.0 6:120.0 7:91.0 8:98.0 9:75.0 10:111.0 
1.0 1:120.0 2:124.0 3:101.0 4:114.0 5:104.0 6:120.0 7:91.0 8:101.0 9:75.0 10:114.0 
1.0 1:120.0 2:124.0 3:98.0 4:114.0 5:107.0 6:120.0 7:91.0 8:98.0 9:75.0 10:114.0 
1.0 1:124.0 2:124.0 3:101.0 4:114.0 5:104.0 6:117.0 7:88.0 8:94.0 9:75.0 10:117.0 
1.0 1:120.0 2:124.0 3:101.0 4:114.0 5:104.0 6:120.0 7:88.0 8:94.0 9:71.0 10:117.0 
1.0 1:120.0 2:127.0 3:101.0 4:114.0 5:104.0 6:117.0 7:88.0 8:94.0 9:71.0 10:117.0 
1.0 1:117.0 2:124.0 3:101.0 4:111.0 5:104.0 6:114.0 7:88.0 8:94.0 9:71.0 10:117.0 
1.0 1:120.0 2:124.0 3:101.0 4:114.0 5:107.0 6:114.0 7:85.0 8:94.0 9:71.0 10:114.0 
1.0 1:120.0 2:124.0 3:101.0 4:114.0 5:111.0 6:114.0 7:88.0 8:94.0 9:75.0 10:114.0 
1.0 1:117.0 2:124.0 3:101.0 4:114.0 5:114.0 6:114.0 7:88.0 8:94.0 9:75.0 10:114.0 
0.8383640227758196 1:120.0 2:124.0 3:101.0 4:117.0 5:114.0 6:117.0 7:88.0 8:94.0 9:75.0 10:111.0 
0.6740253258191392 1:120.0 2:124.0 3:101.0 4:117.0 5:111.0 6:117.0 7:88.0 8:94.0 9:75.0 10:111.0 
0.6623258244415792 1:120.0 2:124.0 3:101.0 4:117.0 5:111.0 6:117.0 7:88.0 8:94.0 9:75.0 10:114.0 
0.9136684816325774 1:117.0 2:124.0 3:101.0 4:117.0 5:114.0 6:117.0 7:88.0 8:94.0 9:75.0 10:114.0 
1.0 1:117.0 2:120.0 3:101.0 4:114.0 5:114.0 6:117.0 7:85.0 8:94.0 9:75.0 10:117.0 
1.0 1:117.0 2:124.0 3:101.0 4:117.0 5:114.0 6:117.0 7:85.0 8:98.0 9:78.0 10:117.0 
1.0 1:114.0 2:120.0 3:94.0 4:114.0 5:114.0 6:117.0 7:88.0 8:98.0 9:78.0 10:114.0 
1.0 1:111.0 2:124.0 3:94.0 4:114.0 5:114.0 6:114.0 7:88.0 8:94.0 9:78.0 10:117.0 
1.0 1:111.0 2:120.0 3:98.0 4:117.0 5:111.0 6:114.0 7:88.0 8:94.0 9:81.0 10:114.0 
1.0 1:107.0 2:120.0 3:107.0 4:117.0 5:111.0 6:114.0 7:88.0 8:94.0 9:81.0 10:117.0 
1.0 1:114.0 2:127.0 3:104.0 4:117.0 5:111.0 6:114.0 7:88.0 8:94.0 9:78.0 10:117.0 
1.0 1:104.0 2:127.0 3:107.0 4:117.0 5:114.0 6:117.0 7:85.0 8:94.0 9:78.0 10:117.0 
1.0 1:107.0 2:124.0 3:107.0 4:117.0 5:111.0 6:117.0 7:85.0 8:94.0 9:78.0 10:117.0 
1.0 1:104.0 2:124.0 3:104.0 4:114.0 5:111.0 6:117.0 7:88.0 8:94.0 9:78.0 10:117.0 
1.0 1:104.0 2:124.0 3:104.0 4:117.0 5:111.0 6:117.0 7:88.0 8:94.0 9:78.0 10:114.0 
1.0 1:104.0 2:124.0 3:104.0 4:114.0 5:114.0 6:117.0 7:88.0 8:91.0 9:78.0 10:114.0 
1.0 1:107.0 2:124.0 3:101.0 4:114.0 5:111.0 6:117.0 7:91.0 8:91.0 9:78.0 10:114.0 
1.0 1:107.0 2:124.0 3:104.0 4:117.0 5:114.0 6:117.0 7:91.0 8:94.0 9:81.0 10:117.0 
1.0 1:107.0 2:127.0 3:104.0 4:117.0 5:117.0 6:117.0 7:88.0 8:98.0 9:78.0 10:117.0 
1.0 1:107.0 2:127.0 3:104.0 4:114.0 5:114.0 6:117.0 7:91.0 8:94.0 9:78.0 10:117.0 
1.0 1:107.0 2:127.0 3:104.0 4:117.0 5:114.0 6:117.0 7:88.0 8:94.0 9:81.0 10:114.0 
1.0 1:107.0 2:127.0 3:104.0 4:114.0 5:114.0 6:124.0 7:91.0 8:98.0 9:81.0 10:114.0 
1.0 1:107.0 2:127.0 3:104.0 4:111.0 5:114.0 6:120.0 7:91.0 8:94.0 9:78.0 10:117.0 
1.0 1:107.0 2:130.0 3:107.0 4:111.0 5:111.0 6:124.0 7:91.0 8:98.0 9:81.0 10:117.0 
1.0 1:107.0 2:130.0 3:104.0 4:111.0 5:111.0 6:124.0 7:91.0 8:94.0 9:81.0 10:117.0 
1.0 1:107.0 2:130.0 3:107.0 4:111.0 5:111.0 6:120.0 7:91.0 8:101.0 9:78.0 10:120.0 
1.0 1:107.0 2:130.0 3:104.0 4:111.0 5:111.0 6:124.0 7:91.0 8:98.0 9:78.0 10:120.0 
1.0 1:107.0 2:130.0 3:104.0 4:114.0 5:111.0 6:120.0 7:91.0 8:98.0 9:78.0 10:117.0 
1.0 1:107.0 2:130.0 3:104.0 4:111.0 5:114.0 6:120.0 7:88.0 8:98.0 9:75.0 10:120.0 
1.0 1:111.0 2:130.0 3:104.0 4:111.0 5:114.0 6:120.0 7:88.0 8:98.0 9:75.0 10:120.0 
1.0 1:111.0 2:127.0 3:101.0 4:111.0 5:114.0 6:120.0 7:88.0 8:94.0 9:75.0 10:117.0 
1.0 1:111.0 2:130.0 3:101.0 4:111.0 5:111.0 6:117.0 7:88.0 8:94.0 9:75.0 10:117.0 
1.0 1:111.0 2:134.0 3:101.0 4:111.0 5:114.0 6:120.0 7:91.0 8:91.0 9:75.0 10:117.0 
1.0 1:111.0 2:134.0 3:101.0 4:111.0 5:111.0 6:117.0 7:91.0 8:94.0 9:75.0 10:117.0 
1.0 1:111.0 2:130.0 3:98.0 4:111.0 5:111.0 6:114.0 7:88.0 8:91.0 9:75.0 10:117.0 
1.0 1:107.0 2:130.0 3:98.0 4:111.0 5:107.0 6:117.0 7:91.0 8:91.0 9:78.0 10:114.0 
1.0 1:107.0 2:130.0 3:101.0 4:111.0 5:114.0 6:117.0 7:88.0 8:91.0 9:75.0 10:114.0 
1.0 1:107.0 2:130.0 3:101.0 4:111.0 5:117.0 6:120.0 7:88.0 8:91.0 9:78.0 10:114.0 
1.0 1:111.0 2:127.0 3:98.0 4:111.0 5:114.0 6:120.0 7:88.0 8:91.0 9:81.0 10:114.0 
1.0 1:111.0 2:127.0 3:98.0 4:111.0 5:114.0 6:117.0 7:88.0 8:91.0 9:81.0 10:111.0 
1.0 1:111.0 2:124.0 3:98.0 4:111.0 5:111.0 6:120.0 7:88.0 8:91.0 9:81.0 10:111.0 
1.0 1:111.0 2:124.0 3:101.0 4:111.0 5:114.0 6:120.0 7:88.0 8:88.0 9:85.0 10:107.0 
1.0 1:111.0 2:127.0 3:101.0 4:107.0 5:114.0 6:124.0 7:88.0 8:88.0 9:85.0 10:111.0 
1.0 1:111.0 2:127.0 3:101.0 4:111.0 5:114.0 6:124.0 7:88.0 8:88.0 9:81.0 10:111.0 
1.0 1:111.0 2:127.0 3:101.0 4:107.0 5:111.0 6:120.0 7:85.0 8:91.0 9:81.0 10:114.0 
1.0 1:111.0 2:127.0 3:111.0 4:107.0 5:114.0 6:120.0 7:85.0 8:91.0 9:85.0 10:114.0 
1.0 1:111.0 2:130.0 3:111.0 4:107.0 5:111.0 6:127.0 7:81.0 8:91.0 9:81.0 10:111.0 
1.0 1:114.0 2:130.0 3:114.0 4:107.0 5:107.0 6:124.0 7:85.0 8:94.0 9:81.0 10:111.0 
1.0 1:114.0 2:127.0 3:101.0 4:104.0 5:111.0 6:124.0 7:85.0 8:94.0 9:81.0 10:107.0 
1.0 1:114.0 2:127.0 3:111.0 4:107.0 5:111.0 6:124.0 7:81.0 8:91.0 9:81.0 10:107.0 
1.0 1:114.0 2:127.0 3:104.0 4:107.0 5:114.0 6:124.0 7:81.0 8:94.0 9:81.0 10:104.0 
1.0 1:114.0 2:127.0 3:104.0 4:104.0 5:114.0 6:124.0 7:81.0 8:91.0 9:81.0 10:104.0 
1.0 1:114.0 2:127.0 3:107.0 4:107.0 5:114.0 6:120.0 7:81.0 8:91.0 9:81.0 10:104.0 
1.0 1:114.0 2:127.0 3:107.0 4:104.0 5:114.0 6:124.0 7:81.0 8:91.0 9:81.0 10:101.0 
1.0 1:111.0 2:130.0 3:104.0 4:107.0 5:114.0 6:124.0 7:81.0 8:88.0 9:78.0 10:104.0 
1.0 1:111.0 2:130.0 3:107.0 4:107.0 5:114.0 6:124.0 7:81.0 8:88.0 9:81.0 10:104.0 
1.0 1:111.0 2:127.0 3:104.0 4:104.0 5:117.0 6:120.0 7:81.0 8:88.0 9:81.0 10:101.0 
1.0 1:111.0 2:127.0 3:114.0 4:104.0 5:117.0 6:120.0 7:81.0 8:91.0 9:81.0 10:101.0 
1.0 1:111.0 2:127.0 3:117.0 4:111.0 5:117.0 6:120.0 7:81.0 8:88.0 9:81.0 10:104.0 
1.0 1:114.0 2:127.0 3:117.0 4:107.0 5:117.0 6:120.0 7:78.0 8:88.0 9:85.0 10:101.0 
1.0 1:114.0 2:127.0 3:117.0 4:111.0 5:117.0 6:117.0 7:78.0 8:88.0 9:85.0 10:101.0 
1.0 1:117.0 2:124.0 3:114.0 4:111.0 5:114.0 6:117.0 7:78.0 8:88.0 9:81.0 10:104.0 
1.0 1:114.0 2:127.0 3:114.0 4:107.0 5:114.0 6:117.0 7:78.0 8:85.0 9:81.0 10:104.0 
1.0 1:117.0 2:127.0 3:114.0 4:107.0 5:114.0 6:114.0 7:78.0 8:85.0 9:81.0 10:104.0 
1.0 1:117.0 2:127.0 3:107.0 4:104.0 5:111.0 6:117.0 7:78.0 8:81.0 9:78.0 10:104.0 
1.0 1:117.0 2:127.0 3:104.0 4:107.0 5:114.0 6:114.0 7:78.0 8:81.0 9:81.0 10:107.0 
0.893798478468094 1:117.0 2:127.0 3:104.0 4:111.0 5:111.0 6:114.0 7:78.0 8:81.0 9:81.0 10:107.0 
1.0 1:120.0 2:127.0 3:104.0 4:111.0 5:111.0 6:114.0 7:78.0 8:78.0 9:78.0 10:107.0 
1.0 1:117.0 2:130.0 3:107.0 4:111.0 5:111.0 6:114.0 7:78.0 8:81.0 9:78.0 10:104.0 
1.0 1:117.0 2:130.0 3:107.0 4:111.0 5:107.0 6:111.0 7:78.0 8:78.0 9:78.0 10:104.0 
1.0 1:114.0 2:130.0 3:107.0 4:111.0 5:107.0 6:114.0 7:78.0 8:75.0 9:75.0 10:104.0 
1.0 1:114.0 2:130.0 3:107.0 4:107.0 5:111.0 6:114.0 7:78.0 8:81.0 9:75.0 10:104.0 
1.0 1:114.0 2:134.0 3:107.0 4:107.0 5:111.0 6:114.0 7:81.0 8:81.0 9:78.0 10:104.0 
1.0 1:114.0 2:130.0 3:104.0 4:111.0 5:111.0 6:114.0 7:81.0 8:81.0 9:78.0 10:104.0 
1.0 1:114.0 2:134.0 3:104.0 4:111.0 5:111.0 6:117.0 7:81.0 8:78.0 9:75.0 10:107.0 
1.0 1:117.0 2:130.0 3:104.0 4:111.0 5:107.0 6:117.0 7:78.0 8:81.0 9:78.0 10:107.0 
1.0 1:114.0 2:130.0 3:104.0 4:111.0 5:111.0 6:114.0 7:78.0 8:81.0 9:81.0 10:107.0 
1.0 1:117.0 2:127.0 3:104.0 4:114.0 5:111.0 6:114.0 7:78.0 8:81.0 9:78.0 10:107.0 
1.0 1:114.0 2:130.0 3:104.0 4:114.0 5:107.0 6:114.0 7:81.0 8:81.0 9:78.0 10:107.0 
1.0 1:114.0 2:117.0 3:104.0 4:111.0 5:107.0 6:114.0 7:81.0 8:85.0 9:78.0 10:107.0 
0.9535470424422352 1:114.0 2:114.0 3:107.0 4:114.0 5:107.0 6:117.0 7:81.0 8:81.0 9:78.0 10:104.0 
1.0 1:114.0 2:117.0 3:107.0 4:114.0 5:107.0 6:120.0 7:81.0 8:85.0 9:78.0 10:107.0 
1.0 1:114.0 2:117.0 3:107.0 4:111.0 5:107.0 6:117.0 7:85.0 8:81.0 9:78.0 10:107.0 
1.0 1:114.0 2:114.0 3:107.0 4:114.0 5:107.0 6:117.0 7:81.0 8:78.0 9:78.0 10:107.0 
1.0 1:114.0 2:117.0 3:111.0 4:114.0 5:107.0 6:117.0 7:81.0 8:78.0 9:75.0 10:104.0 
1.0 1:111.0 2:114.0 3:107.0 4:114.0 5:111.0 6:117.0 7:81.0 8:78.0 9:78.0 10:104.0 
1.0 1:117.0 2:114.0 3:107.0 4:114.0 5:107.0 6:117.0 7:81.0 8:78.0 9:78.0 10:104.0 
1.0 1:114.0 2:117.0 3:107.0 4:117.0 5:111.0 6:120.0 7:78.0 8:78.0 9:75.0 10:104.0 
1.0 1:111.0 2:117.0 3:107.0 4:114.0 5:107.0 6:117.0 7:81.0 8:81.0 9:75.0 10:104.0 
1.0 1:111.0 2:117.0 3:107.0 4:114.0 5:107.0 6:120.0 7:85.0 8:81.0 9:71.0 10:107.0 
1.0 1:114.0 2:120.0 3:107.0 4:114.0 5:107.0 6:117.0 7:81.0 8:81.0 9:71.0 10:107.0 
1.0 1:114.0 2:117.0 3:107.0 4:114.0 5:111.0 6:117.0 7:81.0 8:78.0 9:71.0 10:107.0 
1.0 1:114.0 2:120.0 3:107.0 4:120.0 5:111.0 6:120.0 7:85.0 8:78.0 9:75.0 10:107.0 
1.0 1:114.0 2:117.0 3:107.0 4:120.0 5:114.0 6:120.0 7:81.0 8:78.0 9:75.0 10:104.0 
1.0 1:117.0 2:120.0 3:101.0 4:117.0 5:114.0 6:124.0 7:81.0 8:81.0 9:75.0 10:107.0 
1.0 1:114.0 2:117.0 3:107.0 4:117.0 5:111.0 6:124.0 7:85.0 8:81.0 9:75.0 10:107.0 
1.0 1:114.0 2:117.0 3:98.0 4:117.0 5:117.0 6:124.0 7:81.0 8:81.0 9:71.0 10:107.0 
1.0 1:114.0 2:114.0 3:101.0 4:120.0 5:114.0 6:120.0 7:81.0 8:81.0 9:71.0 10:107.0 
1.0 1:117.0 2:114.0 3:101.0 4:117.0 5:114.0 6:120.0 7:81.0 8:78.0 9:71.0 10:107.0 
1.0 1:114.0 2:111.0 3:101.0 4:117.0 5:111.0 6:120.0 7:81.0 8:78.0 9:71.0 10:107.0 
1.0 1:114.0 2:124.0 3:101.0 4:117.0 5:111.0 6:120.0 7:81.0 8:81.0 9:71.0 10:107.0 
0.6039897742268685 1:111.0 2:124.0 3:101.0 4:117.0 5:114.0 6:117.0 7:78.0 8:81.0 9:75.0 10:107.0 
0.9989788570191652 1:111.0 2:124.0 3:101.0 4:117.0 5:114.0 6:117.0 7:78.0 8:78.0 9:75.0 10:107.0 
1.0 1:111.0 2:124.0 3:101.0 4:117.0 5:111.0 6:117.0 7:78.0 8:81.0 9:75.0 10:107.0 
1.0 1:111.0 2:127.0 3:101.0 4:117.0 5:114.0 6:117.0 7:78.0 8:78.0 9:71.0 10:111.0 
1.0 1:107.0 2:124.0 3:98.0 4:117.0 5:111.0 6:117.0 7:81.0 8:75.0 9:71.0 10:111.0 
1.0 1:107.0 2:124.0 3:98.0 4:117.0 5:111.0 6:120.0 7:85.0 8:78.0 9:75.0 10:111.0 
1.0 1:107.0 2:120.0 3:98.0 4:117.0 5:111.0 6:120.0 7:85.0 8:78.0 9:75.0 10:111.0 
1.0 1:107.0 2:120.0 3:94.0 4:117.0 5:111.0 6:120.0 7:85.0 8:78.0 9:75.0 10:111.0 
1.0 1:104.0 2:117.0 3:94.0 4:117.0 5:111.0 6:117.0 7:81.0 8:78.0 9:75.0 10:107.0 
0.9912463176990975 1:104.0 2:117.0 3:94.0 4:114.0 5:111.0 6:117.0 7:81.0 8:78.0 9:75.0 10:107.0 
1.0 1:104.0 2:114.0 3:94.0 4:114.0 5:114.0 6:117.0 7:81.0 8:75.0 9:78.0 10:107.0 
1.0 1:104.0 2:117.0 3:91.0 4:117.0 5:111.0 6:124.0 7:85.0 8:75.0 9:75.0 10:107.0 
1.0 1:107.0 2:114.0 3:91.0 4:117.0 5:111.0 6:120.0 7:85.0 8:78.0 9:75.0 10:107.0 
1.0 1:107.0 2:111.0 3:94.0 4:120.0 5:111.0 6:120.0 7:85.0 8:81.0 9:75.0 10:107.0 
1.0 1:111.0 2:111.0 3:94.0 4:120.0 5:111.0 6:120.0 7:81.0 8:81.0 9:75.0 10:111.0 
1.0 1:114.0 2:114.0 3:91.0 4:120.0 5:107.0 6:117.0 7:81.0 8:81.0 9:75.0 10:111.0 
1.0 1:114.0 2:111.0 3:94.0 4:120.0 5:114.0 6:117.0 7:81.0 8:81.0 9:75.0 10:107.0 
1.0 1:114.0 2:114.0 3:98.0 4:117.0 5:111.0 6:120.0 7:78.0 8:78.0 9:75.0 10:107.0 
1.0 1:114.0 2:114.0 3:94.0 4:117.0 5:114.0 6:120.0 7:81.0 8:78.0 9:71.0 10:107.0 
1.0 1:114.0 2:117.0 3:98.0 4:120.0 5:111.0 6:120.0 7:81.0 8:78.0 9:75.0 10:111.0 
1.0 1:114.0 2:117.0 3:94.0 4:124.0 5:111.0 6:120.0 7:81.0 8:81.0 9:71.0 10:111.0 
1.0 1:114.0 2:117.0 3:91.0 4:120.0 5:111.0 6:120.0 7:81.0 8:81.0 9:75.0 10:114.0 
1.0 1:111.0 2:114.0 3:94.0 4:130.0 5:111.0 6:117.0 7:81.0 8:85.0 9:71.0 10:114.0 
1.0 1:114.0 2:114.0 3:94.0 4:130.0 5:111.0 6:117.0 7:78.0 8:81.0 9:68.0 10:114.0 
0.988919982354808 1:114.0 2:114.0 3:94.0 4:127.0 5:107.0 6:117.0 7:78.0 8:85.0 9:68.0 10:114.0 
1.0 1:114.0 2:114.0 3:94.0 4:127.0 5:107.0 6:117.0 7:78.0 8:85.0 9:68.0 10:117.0 
1.0 1:111.0 2:114.0 3:88.0 4:127.0 5:107.0 6:117.0 7:78.0 8:85.0 9:68.0 10:114.0 
1.0 1:107.0 2:114.0 3:88.0 4:124.0 5:107.0 6:117.0 7:75.0 8:81.0 9:68.0 10:114.0 
1.0 1:107.0 2:111.0 3:88.0 4:127.0 5:107.0 6:117.0 7:78.0 8:85.0 9:68.0 10:117.0 
1.0 1:107.0 2:111.0 3:88.0 4:124.0 5:107.0 6:117.0 7:78.0 8:85.0 9:68.0 10:120.0 
1.0 1:107.0 2:111.0 3:88.0 4:127.0 5:111.0 6:117.0 7:78.0 8:81.0 9:68.0 10:117.0 
1.0 1:104.0 2:111.0 3:88.0 4:127.0 5:114.0 6:117.0 7:81.0 8:81.0 9:68.0 10:120.0 
1.0 1:107.0 2:111.0 3:88.0 4:127.0 5:117.0 6:120.0 7:81.0 8:81.0 9:68.0 10:117.0 
1.0 1:107.0 2:107.0 3:88.0 4:124.0 5:114.0 6:124.0 7:81.0 8:81.0 9:68.0 10:117.0 
1.0 1:107.0 2:111.0 3:85.0 4:127.0 5:117.0 6:120.0 7:85.0 8:81.0 9:68.0 10:117.0 
1.0 1:104.0 2:111.0 3:85.0 4:124.0 5:114.0 6:120.0 7:81.0 8:78.0 9:68.0 10:117.0 
1.0 1:111.0 2:107.0 3:85.0 4:124.0 5:114.0 6:124.0 7:85.0 8:78.0 9:65.0 10:117.0 
1.0 1:111.0 2:111.0 3:88.0 4:120.0 5:111.0 6:124.0 7:88.0 8:78.0 9:65.0 10:120.0 
1.0 1:107.0 2:107.0 3:85.0 4:120.0 5:111.0 6:124.0 7:88.0 8:78.0 9:68.0 10:117.0 
1.0 1:107.0 2:107.0 3:88.0 4:124.0 5:111.0 6:124.0 7:88.0 8:78.0 9:68.0 10:117.0 
1.0 1:104.0 2:104.0 3:88.0 4:124.0 5:111.0 6:124.0 7:91.0 8:78.0 9:68.0 10:117.0 
1.0 1:104.0 2:111.0 3:88.0 4:124.0 5:111.0 6:120.0 7:91.0 8:78.0 9:68.0 10:117.0 
1.0 1:111.0 2:107.0 3:88.0 4:124.0 5:111.0 6:120.0 7:88.0 8:75.0 9:68.0 10:120.0 
1.0 1:111.0 2:107.0 3:85.0 4:124.0 5:111.0 6:124.0 7:88.0 8:75.0 9:71.0 10:120.0 
0.3130741363034173 1:111.0 2:111.0 3:88.0 4:120.0 5:111.0 6:120.0 7:88.0 8:78.0 9:68.0 10:120.0 
1.0 1:111.0 2:111.0 3:88.0 4:120.0 5:111.0 6:120.0 7:88.0 8:78.0 9:68.0 10:120.0 
1.0 1:111.0 2:107.0 3:91.0 4:117.0 5:111.0 6:120.0 7:88.0 8:78.0 9:68.0 10:117.0 
1.0 1:111.0 2:107.0 3:94.0 4:120.0 5:111.0 6:124.0 7:91.0 8:78.0 9:71.0 10:120.0 
1.0 1:107.0 2:104.0 3:85.0 4:120.0 5:111.0 6:124.0 7:88.0 8:78.0 9:68.0 10:120.0 
1.0 1:107.0 2:111.0 3:88.0 4:117.0 5:114.0 6:127.0 7:88.0 8:78.0 9:71.0 10:120.0 
1.0 1:111.0 2:107.0 3:81.0 4:117.0 5:114.0 6:127.0 7:88.0 8:75.0 9:68.0 10:120.0 
1.0 1:114.0 2:111.0 3:81.0 4:117.0 5:114.0 6:127.0 7:88.0 8:78.0 9:65.0 10:120.0 
1.0 1:111.0 2:111.0 3:81.0 4:117.0 5:114.0 6:124.0 7:85.0 8:78.0 9:65.0 10:120.0 
1.0 1:114.0 2:111.0 3:81.0 4:117.0 5:111.0 6:124.0 7:88.0 8:78.0 9:65.0 10:120.0 
1.0 1:111.0 2:111.0 3:85.0 4:114.0 5:111.0 6:127.0 7:88.0 8:75.0 9:65.0 10:120.0 
1.0 1:111.0 2:117.0 3:85.0 4:117.0 5:111.0 6:124.0 7:85.0 8:78.0 9:65.0 10:124.0 
1.0 1:107.0 2:117.0 3:85.0 4:114.0 5:111.0 6:124.0 7:85.0 8:78.0 9:68.0 10:124.0 
1.0 1:111.0 2:117.0 3:85.0 4:114.0 5:111.0 6:124.0 7:85.0 8:75.0 9:68.0 10:120.0 
1.0 1:107.0 2:117.0 3:81.0 4:114.0 5:114.0 6:120.0 7:85.0 8:75.0 9:68.0 10:120.0 
1.0 1:111.0 2:117.0 3:85.0 4:114.0 5:117.0 6:120.0 7:85.0 8:78.0 9:71.0 10:120.0 
1.0 1:111.0 2:117.0 3:85.0 4:117.0 5:120.0 6:120.0 7:85.0 8:75.0 9:71.0 10:120.0 
1.0 1:111.0 2:114.0 3:88.0 4:117.0 5:117.0 6:120.0 7:85.0 8:78.0 9:71.0 10:117.0 
1.0 1:107.0 2:114.0 3:88.0 4:117.0 5:117.0 6:117.0 7:85.0 8:75.0 9:71.0 10:117.0 
1.0 1:111.0 2:111.0 3:88.0 4:114.0 5:120.0 6:120.0 7:85.0 8:71.0 9:71.0 10:120.0 
1.0 1:107.0 2:111.0 3:88.0 4:114.0 5:120.0 6:120.0 7:81.0 8:71.0 9:68.0 10:120.0 
1.0 1:107.0 2:114.0 3:85.0 4:111.0 5:117.0 6:120.0 7:81.0 8:75.0 9:68.0 10:117.0 
1.0 1:104.0 2:114.0 3:85.0 4:111.0 5:124.0 6:117.0 7:85.0 8:75.0 9:68.0 10:117.0 
0.8943238978332453 1:104.0 2:114.0 3:85.0 4:111.0 5:127.0 6:117.0 7:85.0 8:75.0 9:71.0 10:117.0 
0.3782023900730146 1:104.0 2:117.0 3:85.0 4:111.0 5:124.0 6:117.0 7:85.0 8:75.0 9:71.0 10:114.0 
0.9521241195535135 1:101.0 2:114.0 3:85.0 4:111.0 5:127.0 6:120.0 7:85.0 8:75.0 9:71.0 10:114.0 
0.9516633566030892 1:101.0 2:117.0 3:85.0 4:111.0 5:124.0 6:117.0 7:85.0 8:75.0 9:71.0 10:114.0 
0.7209500321586098 1:104.0 2:114.0 3:85.0 4:111.0 5:127.0 6:120.0 7:85.0 8:75.0 9:71.0 10:114.0 
1.0 1:104.0 2:117.0 3:88.0 4:111.0 5:127.0 6:120.0 7:85.0 8:75.0 9:68.0 10:114.0 
0.7361598208544268 1:104.0 2:117.0 3:85.0 4:111.0 5:124.0 6:117.0 7:85.0 8:75.0 9:71.0 10:117.0 
1.0 1:104.0 2:120.0 3:85.0 4:107.0 5:124.0 6:117.0 7:85.0 8:78.0 9:71.0 10:114.0 
1.0 1:104.0 2:117.0 3:85.0 4:107.0 5:124.0 6:117.0 7:85.0 8:75.0 9:71.0 10:111.0 
1.0 1:104.0 2:117.0 3:85.0 4:107.0 5:120.0 6:114.0 7:85.0 8:78.0 9:68.0 10:114.0 
1.0 1:104.0 2:114.0 3:85.0 4:107.0 5:120.0 6:117.0 7:85.0 8:75.0 9:71.0 10:114.0 
1.0 1:104.0 2:114.0 3:88.0 4:111.0 5:117.0 6:117.0 7:81.0 8:75.0 9:68.0 10:114.0 
1.0 1:104.0 2:114.0 3:88.0 4:111.0 5:117.0 6:117.0 7:81.0 8:71.0 9:68.0 10:114.0 
1.0 1:104.0 2:111.0 3:91.0 4:111.0 5:120.0 6:117.0 7:81.0 8:71.0 9:65.0 10:111.0 
1.0 1:101.0 2:111.0 3:88.0 4:111.0 5:120.0 6:117.0 7:78.0 8:71.0 9:65.0 10:114.0 
1.0 1:101.0 2:114.0 3:85.0 4:107.0 5:117.0 6:117.0 7:81.0 8:71.0 9:65.0 10:114.0 
1.0 1:98.0 2:114.0 3:85.0 4:107.0 5:117.0 6:114.0 7:81.0 8:71.0 9:65.0 10:117.0 
1.0 1:101.0 2:114.0 3:85.0 4:107.0 5:120.0 6:114.0 7:78.0 8:78.0 9:65.0 10:117.0 
1.0 1:101.0 2:114.0 3:85.0 4:107.0 5:120.0 6:114.0 7:81.0 8:78.0 9:65.0 10:114.0 
1.0 1:101.0 2:114.0 3:85.0 4:104.0 5:117.0 6:114.0 7:78.0 8:78.0 9:65.0 10:114.0 
1.0 1:101.0 2:114.0 3:85.0 4:107.0 5:117.0 6:114.0 7:78.0 8:75.0 9:65.0 10:114.0 
1.0 1:104.0 2:114.0 3:85.0 4:111.0 5:117.0 6:114.0 7:78.0 8:78.0 9:65.0 10:114.0 
1.0 1:104.0 2:114.0 3:85.0 4:111.0 5:117.0 6:114.0 7:78.0 8:78.0 9:68.0 10:111.0 
1.0 1:104.0 2:114.0 3:88.0 4:111.0 5:114.0 6:114.0 7:75.0 8:81.0 9:68.0 10:111.0 
1.0 1:101.0 2:114.0 3:88.0 4:111.0 5:117.0 6:114.0 7:78.0 8:81.0 9:68.0 10:114.0 
1.0 1:104.0 2:117.0 3:88.0 4:111.0 5:114.0 6:114.0 7:75.0 8:81.0 9:68.0 10:117.0 
1.0 1:104.0 2:114.0 3:88.0 4:111.0 5:114.0 6:114.0 7:78.0 8:85.0 9:68.0 10:114.0 
1.0 1:104.0 2:114.0 3:88.0 4:111.0 5:111.0 6:114.0 7:75.0 8:81.0 9:68.0 10:114.0 
1.0 1:104.0 2:117.0 3:88.0 4:107.0 5:114.0 6:117.0 7:75.0 8:81.0 9:68.0 10:117.0 
1.0 1:111.0 2:117.0 3:88.0 4:111.0 5:114.0 6:117.0 7:75.0 8:85.0 9:68.0 10:114.0 
1.0 1:107.0 2:114.0 3:88.0 4:114.0 5:114.0 6:117.0 7:78.0 8:85.0 9:68.0 10:114.0 
1.0 1:107.0 2:117.0 3:91.0 4:114.0 5:111.0 6:117.0 7:78.0 8:85.0 9:68.0 10:114.0 
1.0 1:107.0 2:114.0 3:91.0 4:111.0 5:111.0 6:117.0 7:81.0 8:85.0 9:68.0 10:114.0 
0.9310633770324418 1:107.0 2:114.0 3:88.0 4:111.0 5:111.0 6:117.0 7:78.0 8:85.0 9:68.0 10:114.0 
1.0 1:107.0 2:114.0 3:91.0 4:107.0 5:117.0 6:117.0 7:81.0 8:81.0 9:68.0 10:114.0 
1.0 1:107.0 2:117.0 3:91.0 4:107.0 5:114.0 6:114.0 7:78.0 8:81.0 9:68.0 10:114.0 
1.0 1:107.0 2:114.0 3:91.0 4:107.0 5:117.0 6:114.0 7:78.0 8:81.0 9:68.0 10:114.0 
1.0 1:104.0 2:114.0 3:91.0 4:104.0 5:114.0 6:114.0 7:78.0 8:81.0 9:68.0 10:111.0 
1.0 1:107.0 2:114.0 3:91.0 4:104.0 5:114.0 6:114.0 7:81.0 8:81.0 9:68.0 10:111.0 
1.0 1:107.0 2:114.0 3:91.0 4:101.0 5:114.0 6:114.0 7:81.0 8:81.0 9:71.0 10:107.0 
1.0 1:107.0 2:114.0 3:88.0 4:104.0 5:111.0 6:114.0 7:81.0 8:85.0 9:71.0 10:111.0 
1.0 1:104.0 2:117.0 3:88.0 4:104.0 5:111.0 6:117.0 7:81.0 8:85.0 9:71.0 10:111.0 
1.0 1:104.0 2:117.0 3:88.0 4:107.0 5:114.0 6:117.0 7:81.0 8:81.0 9:71.0 10:107.0 
1.0 1:104.0 2:117.0 3:85.0 4:104.0 5:114.0 6:117.0 7:81.0 8:81.0 9:71.0 10:107.0 
1.0 1:104.0 2:107.0 3:88.0 4:107.0 5:114.0 6:117.0 7:81.0 8:81.0 9:71.0 10:111.0 
1.0 1:104.0 2:107.0 3:88.0 4:107.0 5:114.0 6:117.0 7:78.0 8:85.0 9:68.0 10:111.0 
1.0 1:101.0 2:107.0 3:85.0 4:104.0 5:114.0 6:117.0 7:78.0 8:85.0 9:68.0 10:107.0 
1.0 1:104.0 2:107.0 3:88.0 4:104.0 5:114.0 6:117.0 7:78.0 8:85.0 9:68.0 10:107.0 
1.0 1:107.0 2:107.0 3:88.0 4:104.0 5:114.0 6:120.0 7:81.0 8:85.0 9:68.0 10:104.0 
1.0 1:107.0 2:107.0 3:88.0 4:101.0 5:114.0 6:120.0 7:81.0 8:81.0 9:68.0 10:104.0 
1.0 1:104.0 2:107.0 3:88.0 4:101.0 5:117.0 6:120.0 7:85.0 8:81.0 9:68.0 10:104.0 
1.0 1:104.0 2:107.0 3:88.0 4:104.0 5:117.0 6:124.0 7:85.0 8:81.0 9:68.0 10:101.0 
1.0 1:104.0 2:107.0 3:85.0 4:104.0 5:114.0 6:124.0 7:85.0 8:78.0 9:68.0 10:101.0 
1.0 1:104.0 2:107.0 3:85.0 4:101.0 5:114.0 6:124.0 7:85.0 8:78.0 9:71.0 10:101.0 
0.25106455689383067 1:101.0 2:107.0 3:88.0 4:104.0 5:117.0 6:124.0 7:85.0 8:75.0 9:71.0 10:104.0 
1.0 1:101.0 2:107.0 3:88.0 4:104.0 5:117.0 6:124.0 7:85.0 8:75.0 9:71.0 10:104.0 
1.0 1:101.0 2:107.0 3:88.0 4:101.0 5:117.0 6:124.0 7:85.0 8:75.0 9:71.0 10:101.0 
1.0 1:101.0 2:107.0 3:91.0 4:101.0 5:117.0 6:120.0 7:81.0 8:78.0 9:71.0 10:101.0 
1.0 1:104.0 2:111.0 3:91.0 4:98.0 5:117.0 6:120.0 7:81.0 8:78.0 9:71.0 10:101.0 
1.0 1:104.0 2:111.0 3:88.0 4:101.0 5:117.0 6:120.0 7:85.0 8:81.0 9:71.0 10:101.0 
1.0 1:104.0 2:114.0 3:91.0 4:104.0 5:117.0 6:120.0 7:81.0 8:81.0 9:71.0 10:98.0 
1.0 1:104.0 2:114.0 3:91.0 4:107.0 5:120.0 6:117.0 7:88.0 8:78.0 9:68.0 10:101.0 
1.0 1:104.0 2:114.0 3:91.0 4:107.0 5:120.0 6:114.0 7:88.0 8:78.0 9:68.0 10:98.0 
1.0 1:107.0 2:114.0 3:88.0 4:107.0 5:117.0 6:114.0 7:88.0 8:78.0 9:71.0 10:94.0 
1.0 1:107.0 2:114.0 3:88.0 4:107.0 5:120.0 6:114.0 7:88.0 8:78.0 9:75.0 10:94.0 
1.0 1:107.0 2:117.0 3:88.0 4:104.0 5:120.0 6:117.0 7:88.0 8:78.0 9:75.0 10:94.0 
1.0 1:107.0 2:117.0 3:88.0 4:107.0 5:117.0 6:117.0 7:88.0 8:78.0 9:75.0 10:94.0 
1.0 1:107.0 2:117.0 3:85.0 4:107.0 5:117.0 6:117.0 7:91.0 8:78.0 9:75.0 10:98.0 
1.0 1:107.0 2:114.0 3:88.0 4:107.0 5:114.0 6:114.0 7:88.0 8:81.0 9:75.0 10:98.0 
1.0 1:107.0 2:114.0 3:88.0 4:107.0 5:114.0 6:117.0 7:88.0 8:81.0 9:71.0 10:101.0 
1.0 1:104.0 2:114.0 3:85.0 4:111.0 5:114.0 6:114.0 7:91.0 8:81.0 9:75.0 10:98.0 
1.0 1:107.0 2:111.0 3:88.0 4:107.0 5:111.0 6:111.0 7:91.0 8:81.0 9:75.0 10:98.0 
1.0 1:104.0 2:111.0 3:88.0 4:107.0 5:111.0 6:114.0 7:91.0 8:81.0 9:75.0 10:98.0 
1.0 1:104.0 2:114.0 3:88.0 4:104.0 5:111.0 6:114.0 7:94.0 8:81.0 9:75.0 10:101.0 
1.0 1:104.0 2:117.0 3:88.0 4:104.0 5:114.0 6:124.0 7:94.0 8:85.0 9:75.0 10:101.0 
1.0 1:107.0 2:114.0 3:85.0 4:111.0 5:114.0 6:120.0 7:94.0 8:85.0 9:75.0 10:101.0 
1.0 1:104.0 2:117.0 3:88.0 4:111.0 5:114.0 6:120.0 7:91.0 8:81.0 9:71.0 10:101.0 
1.0 1:107.0 2:117.0 3:88.0 4:111.0 5:114.0 6:120.0 7:94.0 8:81.0 9:71.0 10:101.0 
1.0 1:104.0 2:114.0 3:85.0 4:114.0 5:114.0 6:120.0 7:94.0 8:81.0 9:71.0 10:101.0 
1.0 1:117.0 2:114.0 3:85.0 4:114.0 5:117.0 6:120.0 7:94.0 8:88.0 9:75.0 10:101.0 
1.0 1:117.0 2:114.0 3:81.0 4:111.0 5:114.0 6:117.0 7:91.0 8:88.0 9:75.0 10:104.0 
1.0 1:114.0 2:111.0 3:85.0 4:114.0 5:117.0 6:117.0 7:94.0 8:85.0 9:75.0 10:104.0 
1.0 1:114.0 2:111.0 3:81.0 4:114.0 5:117.0 6:117.0 7:91.0 8:88.0 9:71.0 10:104.0 
1.0 1:114.0 2:111.0 3:78.0 4:114.0 5:117.0 6:117.0 7:88.0 8:88.0 9:71.0 10:101.0 
1.0 1:114.0 2:111.0 3:81.0 4:114.0 5:117.0 6:117.0 7:91.0 8:88.0 9:75.0 10:101.0 
1.0 1:114.0 2:114.0 3:81.0 4:114.0 5:114.0 6:117.0 7:91.0 8:88.0 9:75.0 10:101.0 
0.9956419739498834 1:111.0 2:114.0 3:81.0 4:111.0 5:117.0 6:117.0 7:94.0 8:91.0 9:75.0 10:101.0 
1.0 1:111.0 2:117.0 3:81.0 4:111.0 5:117.0 6:117.0 7:94.0 8:91.0 9:75.0 10:101.0 
1.0 1:114.0 2:117.0 3:81.0 4:117.0 5:114.0 6:114.0 7:94.0 8:91.0 9:75.0 10:101.0 
1.0 1:117.0 2:114.0 3:81.0 4:117.0 5:117.0 6:117.0 7:94.0 8:91.0 9:75.0 10:101.0 
1.0 1:114.0 2:114.0 3:78.0 4:117.0 5:117.0 6:117.0 7:91.0 8:91.0 9:71.0 10:101.0 
1.0 1:114.0 2:114.0 3:88.0 4:120.0 5:114.0 6:117.0 7:94.0 8:94.0 9:78.0 10:101.0 
1.0 1:111.0 2:117.0 3:88.0 4:117.0 5:114.0 6:124.0 7:94.0 8:94.0 9:78.0 10:101.0 
1.0 1:114.0 2:114.0 3:91.0 4:114.0 5:111.0 6:124.0 7:94.0 8:94.0 9:81.0 10:101.0 
1.0 1:114.0 2:114.0 3:88.0 4:117.0 5:111.0 6:124.0 7:94.0 8:94.0 9:78.0 10:101.0 
1.0 1:111.0 2:111.0 3:91.0 4:117.0 5:111.0 6:120.0 7:94.0 8:91.0 9:81.0 10:101.0 
1.0 1:111.0 2:114.0 3:88.0 4:114.0 5:107.0 6:124.0 7:94.0 8:94.0 9:78.0 10:104.0 
1.0 1:107.0 2:114.0 3:85.0 4:117.0 5:111.0 6:124.0 7:91.0 8:94.0 9:78.0 10:104.0 
1.0 1:111.0 2:111.0 3:85.0 4:117.0 5:111.0 6:124.0 7:94.0 8:94.0 9:81.0 10:104.0 
1.0 1:111.0 2:111.0 3:88.0 4:114.0 5:117.0 6:120.0 7:91.0 8:94.0 9:81.0 10:101.0 
1.0 1:111.0 2:107.0 3:91.0 4:120.0 5:114.0 6:120.0 7:88.0 8:91.0 9:81.0 10:101.0 
1.0 1:107.0 2:107.0 3:91.0 4:120.0 5:117.0 6:117.0 7:88.0 8:91.0 9:81.0 10:101.0 
1.0 1:111.0 2:107.0 3:91.0 4:117.0 5:117.0 6:120.0 7:88.0 8:91.0 9:81.0 10:101.0 
1.0 1:107.0 2:107.0 3:91.0 4:117.0 5:114.0 6:120.0 7:88.0 8:91.0 9:81.0 10:101.0 
1.0 1:104.0 2:114.0 3:88.0 4:114.0 5:114.0 6:117.0 7:88.0 8:94.0 9:78.0 10:104.0 
1.0 1:107.0 2:114.0 3:88.0 4:114.0 5:114.0 6:120.0 7:88.0 8:94.0 9:78.0 10:104.0 
1.0 1:111.0 2:111.0 3:91.0 4:111.0 5:111.0 6:117.0 7:88.0 8:94.0 9:81.0 10:107.0 
1.0 1:117.0 2:111.0 3:91.0 4:117.0 5:111.0 6:120.0 7:91.0 8:94.0 9:81.0 10:104.0 
1.0 1:117.0 2:111.0 3:88.0 4:114.0 5:114.0 6:120.0 7:88.0 8:91.0 9:78.0 10:104.0 
1.0 1:114.0 2:114.0 3:91.0 4:111.0 5:117.0 6:124.0 7:88.0 8:91.0 9:78.0 10:104.0 
1.0 1:114.0 2:111.0 3:91.0 4:114.0 5:114.0 6:124.0 7:91.0 8:94.0 9:81.0 10:104.0 
1.0 1:114.0 2:114.0 3:85.0 4:117.0 5:114.0 6:124.0 7:94.0 8:94.0 9:81.0 10:107.0 
1.0 1:114.0 2:117.0 3:85.0 4:117.0 5:117.0 6:124.0 7:94.0 8:91.0 9:78.0 10:107.0 
1.0 1:111.0 2:114.0 3:88.0 4:114.0 5:117.0 6:120.0 7:94.0 8:94.0 9:78.0 10:104.0 
1.0 1:107.0 2:117.0 3:85.0 4:120.0 5:114.0 6:124.0 7:94.0 8:91.0 9:78.0 10:104.0 
1.0 1:107.0 2:117.0 3:88.0 4:117.0 5:117.0 6:120.0 7:91.0 8:94.0 9:75.0 10:101.0 
1.0 1:104.0 2:114.0 3:85.0 4:117.0 5:114.0 6:120.0 7:91.0 8:94.0 9:81.0 10:101.0 
1.0 1:107.0 2:114.0 3:81.0 4:117.0 5:114.0 6:120.0 7:91.0 8:94.0 9:81.0 10:107.0 
1.0 1:107.0 2:114.0 3:81.0 4:114.0 5:114.0 6:120.0 7:91.0 8:94.0 9:78.0 10:107.0 
1.0 1:107.0 2:120.0 3:85.0 4:114.0 5:114.0 6:120.0 7:94.0 8:94.0 9:81.0 10:107.0 
1.0 1:104.0 2:117.0 3:85.0 4:117.0 5:117.0 6:120.0 7:91.0 8:94.0 9:78.0 10:111.0 
1.0 1:107.0 2:120.0 3:85.0 4:114.0 5:114.0 6:117.0 7:91.0 8:98.0 9:78.0 10:107.0 
1.0 1:107.0 2:120.0 3:85.0 4:117.0 5:117.0 6:117.0 7:91.0 8:98.0 9:81.0 10:107.0 
1.0 1:104.0 2:117.0 3:85.0 4:124.0 5:117.0 6:117.0 7:91.0 8:98.0 9:78.0 10:107.0 
1.0 1:107.0 2:117.0 3:81.0 4:124.0 5:117.0 6:117.0 7:91.0 8:98.0 9:78.0 10:107.0 
1.0 1:107.0 2:114.0 3:81.0 4:120.0 5:114.0 6:117.0 7:94.0 8:94.0 9:75.0 10:111.0 
1.0 1:111.0 2:117.0 3:88.0 4:124.0 5:117.0 6:120.0 7:91.0 8:98.0 9:75.0 10:107.0 
1.0 1:107.0 2:117.0 3:88.0 4:120.0 5:114.0 6:120.0 7:91.0 8:94.0 9:75.0 10:111.0 
1.0 1:107.0 2:114.0 3:85.0 4:117.0 5:117.0 6:117.0 7:91.0 8:94.0 9:71.0 10:111.0 
1.0 1:104.0 2:114.0 3:88.0 4:120.0 5:117.0 6:117.0 7:88.0 8:91.0 9:75.0 10:111.0 
1.0 1:104.0 2:117.0 3:88.0 4:120.0 5:114.0 6:114.0 7:88.0 8:94.0 9:78.0 10:111.0 
1.0 1:107.0 2:117.0 3:85.0 4:124.0 5:114.0 6:114.0 7:88.0 8:91.0 9:78.0 10:111.0 
1.0 1:107.0 2:117.0 3:88.0 4:120.0 5:111.0 6:114.0 7:88.0 8:94.0 9:78.0 10:111.0 
1.0 1:111.0 2:117.0 3:88.0 4:120.0 5:111.0 6:117.0 7:88.0 8:94.0 9:78.0 10:111.0 
1.0 1:111.0 2:117.0 3:88.0 4:120.0 5:111.0 6:114.0 7:88.0 8:91.0 9:75.0 10:111.0 
1.0 1:111.0 2:114.0 3:88.0 4:117.0 5:114.0 6:114.0 7:88.0 8:91.0 9:75.0 10:111.0 
1.0 1:107.0 2:114.0 3:88.0 4:124.0 5:111.0 6:114.0 7:88.0 8:91.0 9:75.0 10:111.0 
1.0 1:111.0 2:114.0 3:88.0 4:124.0 5:114.0 6:114.0 7:85.0 8:91.0 9:75.0 10:111.0 
1.0 1:111.0 2:114.0 3:85.0 4:124.0 5:114.0 6:114.0 7:88.0 8:91.0 9:71.0 10:111.0 
1.0 1:114.0 2:114.0 3:85.0 4:127.0 5:111.0 6:114.0 7:88.0 8:91.0 9:71.0 10:111.0 
1.0 1:111.0 2:117.0 3:85.0 4:127.0 5:111.0 6:114.0 7:88.0 8:88.0 9:71.0 10:111.0 
1.0 1:111.0 2:117.0 3:85.0 4:127.0 5:107.0 6:111.0 7:85.0 8:91.0 9:71.0 10:111.0 
1.0 1:111.0 2:114.0 3:85.0 4:127.0 5:114.0 6:111.0 7:88.0 8:91.0 9:68.0 10:111.0 
1.0 1:111.0 2:117.0 3:81.0 4:127.0 5:114.0 6:111.0 7:88.0 8:88.0 9:68.0 10:107.0 
1.0 1:107.0 2:114.0 3:81.0 4:127.0 5:111.0 6:111.0 7:88.0 8:88.0 9:68.0 10:107.0 
1.0 1:111.0 2:120.0 3:81.0 4:127.0 5:111.0 6:111.0 7:85.0 8:91.0 9:65.0 10:107.0 
1.0 1:107.0 2:117.0 3:81.0 4:127.0 5:111.0 6:107.0 7:85.0 8:88.0 9:65.0 10:107.0 
1.0 1:107.0 2:120.0 3:81.0 4:124.0 5:107.0 6:114.0 7:81.0 8:91.0 9:65.0 10:107.0 
1.0 1:107.0 2:120.0 3:88.0 4:124.0 5:107.0 6:114.0 7:81.0 8:91.0 9:68.0 10:107.0 
0.8255866871730124 1:107.0 2:120.0 3:88.0 4:124.0 5:107.0 6:111.0 7:81.0 8:91.0 9:68.0 10:107.0 
1.0 1:107.0 2:120.0 3:88.0 4:127.0 5:104.0 6:111.0 7:81.0 8:91.0 9:68.0 10:107.0 
1.0 1:107.0 2:117.0 3:88.0 4:127.0 5:104.0 6:107.0 7:81.0 8:91.0 9:68.0 10:111.0 
1.0 1:107.0 2:120.0 3:88.0 4:127.0 5:111.0 6:107.0 7:81.0 8:91.0 9:65.0 10:111.0 
1.0 1:104.0 2:117.0 3:88.0 4:124.0 5:107.0 6:107.0 7:81.0 8:91.0 9:68.0 10:111.0 
1.0 1:107.0 2:117.0 3:88.0 4:124.0 5:111.0 6:111.0 7:81.0 8:91.0 9:68.0 10:111.0 
1.0 1:104.0 2:117.0 3:88.0 4:124.0 5:111.0 6:107.0 7:85.0 8:91.0 9:65.0 10:111.0 
1.0 1:104.0 2:120.0 3:88.0 4:120.0 5:107.0 6:114.0 7:85.0 8:91.0 9:65.0 10:111.0 
1.0 1:104.0 2:117.0 3:88.0 4:117.0 5:111.0 6:117.0 7:85.0 8:91.0 9:65.0 10:111.0 
0.9931593392825453 1:107.0 2:120.0 3:88.0 4:120.0 5:107.0 6:114.0 7:85.0 8:91.0 9:65.0 10:111.0 
1.0 1:107.0 2:117.0 3:88.0 4:120.0 5:107.0 6:114.0 7:85.0 8:88.0 9:62.0 10:107.0 
1.0 1:107.0 2:117.0 3:88.0 4:117.0 5:107.0 6:111.0 7:88.0 8:88.0 9:65.0 10:107.0 
1.0 1:111.0 2:117.0 3:88.0 4:120.0 5:107.0 6:111.0 7:85.0 8:88.0 9:65.0 10:107.0 
1.0 1:111.0 2:107.0 3:88.0 4:120.0 5:104.0 6:114.0 7:85.0 8:85.0 9:62.0 10:107.0 
1.0 1:107.0 2:107.0 3:88.0 4:117.0 5:107.0 6:114.0 7:81.0 8:88.0 9:62.0 10:107.0 
1.0 1:107.0 2:107.0 3:88.0 4:117.0 5:107.0 6:111.0 7:81.0 8:85.0 9:62.0 10:107.0 
1.0 1:107.0 2:104.0 3:88.0 4:117.0 5:104.0 6:117.0 7:85.0 8:88.0 9:62.0 10:111.0 
0.9954038212268048 1:107.0 2:107.0 3:88.0 4:117.0 5:104.0 6:114.0 7:85.0 8:88.0 9:62.0 10:111.0 
1.0 1:107.0 2:107.0 3:88.0 4:117.0 5:104.0 6:114.0 7:85.0 8:85.0 9:58.0 10:111.0 
1.0 1:114.0 2:107.0 3:91.0 4:120.0 5:101.0 6:114.0 7:88.0 8:88.0 9:62.0 10:111.0 
1.0 1:111.0 2:104.0 3:91.0 4:117.0 5:104.0 6:114.0 7:88.0 8:85.0 9:62.0 10:111.0 
1.0 1:111.0 2:107.0 3:88.0 4:117.0 5:104.0 6:111.0 7:88.0 8:88.0 9:65.0 10:111.0 
1.0 1:111.0 2:107.0 3:88.0 4:117.0 5:104.0 6:114.0 7:85.0 8:88.0 9:62.0 10:114.0 
1.0 1:107.0 2:107.0 3:88.0 4:120.0 5:104.0 6:111.0 7:85.0 8:85.0 9:65.0 10:114.0 
1.0 1:107.0 2:107.0 3:88.0 4:117.0 5:107.0 6:111.0 7:81.0 8:85.0 9:65.0 10:114.0 
1.0 1:107.0 2:107.0 3:88.0 4:120.0 5:107.0 6:111.0 7:81.0 8:88.0 9:62.0 10:114.0 
1.0 1:111.0 2:104.0 3:88.0 4:120.0 5:107.0 6:107.0 7:78.0 8:85.0 9:62.0 10:111.0 
1.0 1:107.0 2:107.0 3:88.0 4:117.0 5:107.0 6:114.0 7:78.0 8:85.0 9:65.0 10:114.0 
1.0 1:107.0 2:104.0 3:88.0 4:117.0 5:104.0 6:114.0 7:81.0 8:88.0 9:62.0 10:114.0 
1.0 1:107.0 2:107.0 3:88.0 4:117.0 5:107.0 6:114.0 7:81.0 8:91.0 9:65.0 10:114.0 
1.0 1:111.0 2:107.0 3:88.0 4:114.0 5:107.0 6:111.0 7:81.0 8:88.0 9:65.0 10:114.0 
1.0 1:111.0 2:104.0 3:88.0 4:114.0 5:104.0 6:111.0 7:81.0 8:91.0 9:65.0 10:117.0 
1.0 1:111.0 2:107.0 3:88.0 4:117.0 5:104.0 6:107.0 7:81.0 8:91.0 9:62.0 10:120.0 
1.0 1:114.0 2:107.0 3:88.0 4:117.0 5:104.0 6:107.0 7:78.0 8:88.0 9:65.0 10:120.0 
1.0 1:111.0 2:107.0 3:88.0 4:117.0 5:104.0 6:107.0 7:78.0 8:88.0 9:62.0 10:117.0 
1.0 1:111.0 2:107.0 3:91.0 4:120.0 5:101.0 6:104.0 7:78.0 8:85.0 9:58.0 10:117.0 
1.0 1:111.0 2:107.0 3:91.0 4:120.0 5:104.0 6:107.0 7:78.0 8:88.0 9:62.0 10:120.0 
1.0 1:114.0 2:104.0 3:88.0 4:117.0 5:104.0 6:107.0 7:81.0 8:88.0 9:62.0 10:120.0 
1.0 1:111.0 2:104.0 3:85.0 4:117.0 5:101.0 6:104.0 7:78.0 8:88.0 9:58.0 10:117.0 
1.0 1:111.0 2:101.0 3:88.0 4:117.0 5:104.0 6:104.0 7:81.0 8:88.0 9:62.0 10:120.0 
1.0 1:111.0 2:101.0 3:88.0 4:117.0 5:104.0 6:104.0 7:85.0 8:88.0 9:62.0 10:120.0 
1.0 1:111.0 2:114.0 3:88.0 4:117.0 5:101.0 6:107.0 7:88.0 8:91.0 9:58.0 10:120.0 
1.0 1:114.0 2:107.0 3:88.0 4:117.0 5:101.0 6:107.0 7:85.0 8:88.0 9:58.0 10:117.0 
1.0 1:111.0 2:104.0 3:88.0 4:117.0 5:98.0 6:107.0 7:88.0 8:88.0 9:62.0 10:117.0 
1.0 1:111.0 2:104.0 3:88.0 4:117.0 5:98.0 6:104.0 7:88.0 8:85.0 9:58.0 10:120.0 
1.0 1:111.0 2:104.0 3:85.0 4:117.0 5:98.0 6:107.0 7:88.0 8:88.0 9:58.0 10:120.0 
1.0 1:107.0 2:101.0 3:88.0 4:120.0 5:101.0 6:107.0 7:88.0 8:88.0 9:58.0 10:120.0 
1.0 1:104.0 2:101.0 3:88.0 4:124.0 5:98.0 6:104.0 7:88.0 8:85.0 9:55.0 10:117.0 
1.0 1:101.0 2:104.0 3:88.0 4:124.0 5:101.0 6:104.0 7:85.0 8:85.0 9:58.0 10:117.0 
1.0 1:101.0 2:104.0 3:85.0 4:124.0 5:101.0 6:104.0 7:85.0 8:85.0 9:55.0 10:114.0 
1.0 1:104.0 2:101.0 3:88.0 4:120.0 5:98.0 6:107.0 7:85.0 8:85.0 9:52.0 10:117.0 
1.0 1:107.0 2:104.0 3:88.0 4:120.0 5:98.0 6:107.0 7:85.0 8:81.0 9:52.0 10:114.0 
1.0 1:107.0 2:101.0 3:88.0 4:124.0 5:101.0 6:107.0 7:85.0 8:81.0 9:52.0 10:117.0 
1.0 1:107.0 2:104.0 3:88.0 4:124.0 5:98.0 6:104.0 7:85.0 8:81.0 9:52.0 10:117.0 
1.0 1:104.0 2:104.0 3:88.0 4:120.0 5:104.0 6:104.0 7:88.0 8:85.0 9:52.0 10:114.0 
1.0 1:104.0 2:107.0 3:88.0 4:124.0 5:104.0 6:107.0 7:88.0 8:88.0 9:55.0 10:114.0 
1.0 1:107.0 2:107.0 3:88.0 4:120.0 5:107.0 6:111.0 7:85.0 8:85.0 9:55.0 10:111.0 
1.0 1:107.0 2:107.0 3:88.0 4:117.0 5:104.0 6:107.0 7:85.0 8:85.0 9:55.0 10:114.0 
1.0 1:107.0 2:111.0 3:91.0 4:120.0 5:107.0 6:111.0 7:88.0 8:85.0 9:55.0 10:114.0 
1.0 1:107.0 2:111.0 3:91.0 4:124.0 5:104.0 6:111.0 7:91.0 8:85.0 9:55.0 10:111.0 
1.0 1:107.0 2:111.0 3:88.0 4:124.0 5:101.0 6:111.0 7:88.0 8:81.0 9:55.0 10:111.0 
1.0 1:111.0 2:111.0 3:91.0 4:124.0 5:101.0 6:111.0 7:91.0 8:81.0 9:55.0 10:111.0 
1.0 1:111.0 2:111.0 3:94.0 4:124.0 5:101.0 6:107.0 7:91.0 8:78.0 9:55.0 10:107.0 
1.0 1:111.0 2:111.0 3:94.0 4:120.0 5:104.0 6:107.0 7:88.0 8:81.0 9:58.0 10:107.0 
1.0 1:104.0 2:111.0 3:91.0 4:120.0 5:104.0 6:107.0 7:88.0 8:81.0 9:55.0 10:114.0 
1.0 1:104.0 2:111.0 3:94.0 4:127.0 5:107.0 6:107.0 7:85.0 8:81.0 9:55.0 10:117.0 
1.0 1:104.0 2:107.0 3:91.0 4:127.0 5:107.0 6:104.0 7:85.0 8:81.0 9:55.0 10:114.0 
1.0 1:104.0 2:107.0 3:91.0 4:124.0 5:107.0 6:107.0 7:85.0 8:85.0 9:55.0 10:120.0 
1.0 1:104.0 2:107.0 3:91.0 4:127.0 5:114.0 6:107.0 7:81.0 8:85.0 9:55.0 10:117.0 
1.0 1:107.0 2:107.0 3:91.0 4:124.0 5:114.0 6:107.0 7:85.0 8:85.0 9:58.0 10:117.0 
1.0 1:104.0 2:111.0 3:91.0 4:124.0 5:114.0 6:111.0 7:85.0 8:81.0 9:58.0 10:117.0 
1.0 1:107.0 2:111.0 3:88.0 4:124.0 5:111.0 6:111.0 7:81.0 8:85.0 9:62.0 10:117.0 
1.0 1:104.0 2:111.0 3:88.0 4:127.0 5:114.0 6:111.0 7:78.0 8:85.0 9:58.0 10:117.0 
1.0 1:107.0 2:111.0 3:88.0 4:127.0 5:111.0 6:111.0 7:81.0 8:85.0 9:58.0 10:117.0 
1.0 1:104.0 2:107.0 3:88.0 4:127.0 5:107.0 6:107.0 7:78.0 8:81.0 9:58.0 10:117.0 
1.0 1:104.0 2:107.0 3:91.0 4:130.0 5:114.0 6:107.0 7:78.0 8:85.0 9:58.0 10:117.0 
1.0 1:107.0 2:107.0 3:88.0 4:127.0 5:114.0 6:111.0 7:78.0 8:85.0 9:58.0 10:117.0 
0.6002321654272674 1:107.0 2:111.0 3:88.0 4:127.0 5:114.0 6:111.0 7:78.0 8:85.0 9:58.0 10:117.0 
1.0 1:107.0 2:114.0 3:88.0 4:127.0 5:117.0 6:107.0 7:78.0 8:85.0 9:58.0 10:117.0 
1.0 1:107.0 2:114.0 3:91.0 4:124.0 5:117.0 6:107.0 7:78.0 8:81.0 9:55.0 10:117.0 
1.0 1:107.0 2:111.0 3:91.0 4:120.0 5:114.0 6:107.0 7:78.0 8:81.0 9:55.0 10:120.0 
1.0 1:107.0 2:111.0 3:91.0 4:124.0 5:117.0 6:104.0 7:78.0 8:81.0 9:55.0 10:120.0 
1.0 1:104.0 2:107.0 3:91.0 4:124.0 5:117.0 6:104.0 7:75.0 8:81.0 9:55.0 10:120.0 
1.0 1:104.0 2:111.0 3:94.0 4:127.0 5:114.0 6:104.0 7:78.0 8:81.0 9:55.0 10:117.0 
1.0 1:107.0 2:107.0 3:91.0 4:124.0 5:114.0 6:107.0 7:78.0 8:81.0 9:55.0 10:120.0 
1.0 1:107.0 2:107.0 3:94.0 4:127.0 5:114.0 6:107.0 7:81.0 8:81.0 9:55.0 10:120.0 
1.0 1:104.0 2:107.0 3:94.0 4:124.0 5:117.0 6:107.0 7:81.0 8:85.0 9:55.0 10:120.0 
1.0 1:107.0 2:107.0 3:98.0 4:127.0 5:114.0 6:104.0 7:81.0 8:85.0 9:55.0 10:120.0 
1.0 1:104.0 2:111.0 3:94.0 4:127.0 5:117.0 6:104.0 7:81.0 8:85.0 9:55.0 10:120.0 
1.0 1:101.0 2:111.0 3:98.0 4:127.0 5:117.0 6:104.0 7:78.0 8:85.0 9:55.0 10:120.0 
1.0 1:101.0 2:111.0 3:98.0 4:127.0 5:114.0 6:104.0 7:78.0 8:81.0 9:55.0 10:120.0 
0.9748806864694742 1:104.0 2:111.0 3:94.0 4:127.0 5:114.0 6:107.0 7:78.0 8:85.0 9:55.0 10:117.0 
1.0 1:101.0 2:111.0 3:94.0 4:127.0 5:114.0 6:107.0 7:78.0 8:85.0 9:55.0 10:120.0 
1.0 1:107.0 2:111.0 3:94.0 4:127.0 5:111.0 6:107.0 7:78.0 8:85.0 9:55.0 10:120.0 
1.0 1:104.0 2:111.0 3:98.0 4:130.0 5:111.0 6:104.0 7:78.0 8:85.0 9:55.0 10:120.0 
0.9183428685648761 1:104.0 2:111.0 3:98.0 4:130.0 5:111.0 6:107.0 7:78.0 8:85.0 9:55.0 10:120.0 
1.0 1:107.0 2:111.0 3:101.0 4:130.0 5:107.0 6:111.0 7:78.0 8:85.0 9:55.0 10:120.0 
1.0 1:107.0 2:111.0 3:98.0 4:134.0 5:111.0 6:111.0 7:78.0 8:81.0 9:55.0 10:120.0 
1.0 1:101.0 2:111.0 3:98.0 4:130.0 5:107.0 6:111.0 7:78.0 8:81.0 9:55.0 10:117.0 
1.0 1:101.0 2:111.0 3:98.0 4:130.0 5:111.0 6:111.0 7:75.0 8:81.0 9:55.0 10:120.0 
1.0 1:101.0 2:111.0 3:98.0 4:130.0 5:114.0 6:111.0 7:75.0 8:81.0 9:55.0 10:117.0 
1.0 1:104.0 2:114.0 3:94.0 4:130.0 5:114.0 6:114.0 7:75.0 8:81.0 9:55.0 10:120.0 
1.0 1:101.0 2:114.0 3:98.0 4:127.0 5:111.0 6:114.0 7:75.0 8:78.0 9:55.0 10:120.0 
1.0 1:104.0 2:111.0 3:98.0 4:127.0 5:111.0 6:114.0 7:75.0 8:81.0 9:55.0 10:120.0 
1.0 1:104.0 2:114.0 3:94.0 4:134.0 5:111.0 6:114.0 7:78.0 8:81.0 9:55.0 10:120.0 
1.0 1:104.0 2:114.0 3:98.0 4:130.0 5:111.0 6:114.0 7:78.0 8:81.0 9:55.0 10:117.0 
1.0 1:101.0 2:114.0 3:98.0 4:127.0 5:111.0 6:111.0 7:78.0 8:81.0 9:55.0 10:117.0 
0.8930006338683185 1:104.0 2:114.0 3:98.0 4:127.0 5:111.0 6:111.0 7:81.0 8:81.0 9:55.0 10:120.0 
1.0 1:104.0 2:114.0 3:101.0 4:127.0 5:111.0 6:111.0 7:81.0 8:81.0 9:55.0 10:120.0 
1.0 1:104.0 2:114.0 3:91.0 4:127.0 5:107.0 6:111.0 7:81.0 8:81.0 9:52.0 10:117.0 
1.0 1:104.0 2:114.0 3:94.0 4:127.0 5:107.0 6:107.0 7:81.0 8:81.0 9:52.0 10:117.0 
1.0 1:104.0 2:114.0 3:98.0 4:127.0 5:107.0 6:111.0 7:81.0 8:85.0 9:52.0 10:117.0 
1.0 1:104.0 2:114.0 3:94.0 4:124.0 5:107.0 6:111.0 7:81.0 8:85.0 9:52.0 10:117.0 
1.0 1:104.0 2:111.0 3:94.0 4:127.0 5:104.0 6:107.0 7:81.0 8:85.0 9:55.0 10:117.0 
1.0 1:104.0 2:111.0 3:94.0 4:124.0 5:111.0 6:111.0 7:81.0 8:85.0 9:55.0 10:120.0 
1.0 1:107.0 2:111.0 3:94.0 4:127.0 5:111.0 6:111.0 7:78.0 8:85.0 9:55.0 10:120.0 
1.0 1:107.0 2:111.0 3:94.0 4:124.0 5:107.0 6:111.0 7:78.0 8:88.0 9:55.0 10:120.0 
1.0 1:104.0 2:111.0 3:94.0 4:124.0 5:107.0 6:111.0 7:81.0 8:88.0 9:55.0 10:117.0 
1.0 1:104.0 2:107.0 3:94.0 4:124.0 5:107.0 6:114.0 7:81.0 8:85.0 9:58.0 10:117.0 
1.0 1:104.0 2:107.0 3:98.0 4:120.0 5:107.0 6:111.0 7:81.0 8:85.0 9:58.0 10:117.0 
1.0 1:107.0 2:107.0 3:98.0 4:120.0 5:111.0 6:107.0 7:81.0 8:85.0 9:58.0 10:117.0 
1.0 1:104.0 2:107.0 3:98.0 4:117.0 5:107.0 6:107.0 7:81.0 8:85.0 9:58.0 10:117.0 
1.0 1:107.0 2:104.0 3:91.0 4:117.0 5:107.0 6:111.0 7:81.0 8:88.0 9:58.0 10:120.0 
1.0 1:104.0 2:104.0 3:94.0 4:124.0 5:111.0 6:107.0 7:78.0 8:88.0 9:58.0 10:120.0 
1.0 1:107.0 2:104.0 3:94.0 4:120.0 5:111.0 6:107.0 7:78.0 8:88.0 9:58.0 10:120.0 
1.0 1:104.0 2:107.0 3:98.0 4:120.0 5:111.0 6:107.0 7:81.0 8:91.0 9:58.0 10:117.0 
0.8906389403782549 1:104.0 2:107.0 3:98.0 4:120.0 5:107.0 6:107.0 7:81.0 8:91.0 9:58.0 10:120.0 
1.0 1:104.0 2:107.0 3:98.0 4:124.0 5:107.0 6:104.0 7:78.0 8:91.0 9:58.0 10:120.0 
1.0 1:104.0 2:104.0 3:98.0 4:120.0 5:107.0 6:107.0 7:81.0 8:91.0 9:58.0 10:120.0 
1.0 1:101.0 2:107.0 3:98.0 4:124.0 5:104.0 6:104.0 7:78.0 8:91.0 9:58.0 10:120.0 
1.0 1:101.0 2:104.0 3:94.0 4:124.0 5:104.0 6:104.0 7:78.0 8:91.0 9:58.0 10:117.0 
1.0 1:107.0 2:104.0 3:94.0 4:124.0 5:104.0 6:107.0 7:78.0 8:91.0 9:58.0 10:117.0 
1.0 1:107.0 2:107.0 3:98.0 4:127.0 5:104.0 6:104.0 7:78.0 8:91.0 9:58.0 10:117.0 
1.0 1:107.0 2:107.0 3:98.0 4:127.0 5:104.0 6:107.0 7:78.0 8:88.0 9:58.0 10:117.0 
0.724516413803286 1:107.0 2:107.0 3:94.0 4:124.0 5:104.0 6:107.0 7:78.0 8:88.0 9:58.0 10:117.0 
0.9846055219341027 1:107.0 2:107.0 3:94.0 4:124.0 5:104.0 6:107.0 7:78.0 8:88.0 9:58.0 10:114.0 
1.0 1:107.0 2:107.0 3:91.0 4:124.0 5:104.0 6:107.0 7:81.0 8:88.0 9:62.0 10:114.0 
1.0 1:107.0 2:107.0 3:91.0 4:124.0 5:107.0 6:107.0 7:81.0 8:88.0 9:62.0 10:117.0 
1.0 1:107.0 2:107.0 3:94.0 4:127.0 5:104.0 6:107.0 7:85.0 8:88.0 9:62.0 10:117.0 
1.0 1:107.0 2:107.0 3:91.0 4:124.0 5:104.0 6:104.0 7:85.0 8:88.0 9:62.0 10:114.0 
1.0 1:107.0 2:107.0 3:91.0 4:124.0 5:104.0 6:104.0 7:81.0 8:94.0 9:62.0 10:114.0 
1.0 1:107.0 2:111.0 3:94.0 4:120.0 5:104.0 6:107.0 7:81.0 8:91.0 9:65.0 10:117.0 
1.0 1:107.0 2:111.0 3:94.0 4:120.0 5:104.0 6:107.0 7:85.0 8:91.0 9:65.0 10:117.0 
1.0 1:111.0 2:111.0 3:91.0 4:120.0 5:107.0 6:107.0 7:85.0 8:94.0 9:65.0 10:117.0 
0.990615896018885 1:111.0 2:111.0 3:94.0 4:120.0 5:104.0 6:107.0 7:81.0 8:94.0 9:65.0 10:120.0 
1.0 1:111.0 2:111.0 3:94.0 4:120.0 5:104.0 6:107.0 7:85.0 8:94.0 9:65.0 10:120.0 
1.0 1:107.0 2:111.0 3:94.0 4:120.0 5:107.0 6:111.0 7:81.0 8:94.0 9:65.0 10:120.0 
0.48286451728882784 1:111.0 2:111.0 3:94.0 4:124.0 5:104.0 6:107.0 7:78.0 8:94.0 9:65.0 10:117.0 
0.9322529647735974 1:111.0 2:111.0 3:94.0 4:124.0 5:104.0 6:107.0 7:78.0 8:94.0 9:65.0 10:120.0 
1.0 1:111.0 2:111.0 3:94.0 4:127.0 5:104.0 6:107.0 7:78.0 8:91.0 9:65.0 10:117.0 
0.8758537264387145 1:111.0 2:111.0 3:94.0 4:124.0 5:104.0 6:107.0 7:81.0 8:94.0 9:65.0 10:117.0 
1.0 1:117.0 2:111.0 3:91.0 4:120.0 5:104.0 6:104.0 7:81.0 8:94.0 9:65.0 10:114.0 
1.0 1:114.0 2:114.0 3:91.0 4:124.0 5:104.0 6:104.0 7:81.0 8:94.0 9:68.0 10:114.0 
1.0 1:114.0 2:111.0 3:88.0 4:120.0 5:107.0 6:104.0 7:81.0 8:91.0 9:68.0 10:114.0 
1.0 1:114.0 2:111.0 3:88.0 4:124.0 5:104.0 6:104.0 7:81.0 8:94.0 9:68.0 10:114.0 
1.0 1:114.0 2:111.0 3:91.0 4:124.0 5:104.0 6:101.0 7:81.0 8:94.0 9:68.0 10:117.0 
1.0 1:114.0 2:111.0 3:91.0 4:124.0 5:101.0 6:101.0 7:81.0 8:94.0 9:68.0 10:114.0 
1.0 1:117.0 2:111.0 3:91.0 4:124.0 5:104.0 6:101.0 7:85.0 8:91.0 9:68.0 10:117.0 
1.0 1:114.0 2:111.0 3:91.0 4:124.0 5:104.0 6:98.0 7:85.0 8:94.0 9:68.0 10:117.0 
1.0 1:114.0 2:111.0 3:91.0 4:120.0 5:101.0 6:98.0 7:88.0 8:94.0 9:68.0 10:117.0 
1.0 1:114.0 2:111.0 3:94.0 4:124.0 5:101.0 6:98.0 7:91.0 8:94.0 9:68.0 10:117.0 
0.8714221538939106 1:114.0 2:111.0 3:94.0 4:124.0 5:101.0 6:101.0 7:91.0 8:94.0 9:68.0 10:114.0 
0.9982172733424569 1:114.0 2:114.0 3:98.0 4:124.0 5:101.0 6:101.0 7:91.0 8:94.0 9:68.0 10:114.0 
1.0 1:114.0 2:114.0 3:94.0 4:124.0 5:101.0 6:101.0 7:88.0 8:94.0 9:68.0 10:114.0 
1.0 1:117.0 2:114.0 3:94.0 4:124.0 5:98.0 6:101.0 7:91.0 8:94.0 9:68.0 10:114.0 
1.0 1:114.0 2:114.0 3:94.0 4:124.0 5:98.0 6:101.0 7:91.0 8:91.0 9:68.0 10:111.0 
1.0 1:114.0 2:114.0 3:98.0 4:124.0 5:101.0 6:101.0 7:91.0 8:98.0 9:68.0 10:114.0 
1.0 1:111.0 2:114.0 3:94.0 4:124.0 5:101.0 6:98.0 7:91.0 8:98.0 9:68.0 10:114.0 
1.0 1:111.0 2:114.0 3:94.0 4:124.0 5:104.0 6:101.0 7:91.0 8:98.0 9:68.0 10:114.0 
1.0 1:107.0 2:111.0 3:94.0 4:124.0 5:107.0 6:101.0 7:94.0 8:94.0 9:68.0 10:114.0 
1.0 1:107.0 2:111.0 3:94.0 4:124.0 5:104.0 6:101.0 7:94.0 8:98.0 9:68.0 10:114.0 
1.0 1:107.0 2:114.0 3:94.0 4:124.0 5:107.0 6:101.0 7:91.0 8:98.0 9:68.0 10:111.0 
1.0 1:107.0 2:114.0 3:101.0 4:124.0 5:104.0 6:101.0 7:91.0 8:94.0 9:68.0 10:111.0 
1.0 1:104.0 2:114.0 3:98.0 4:124.0 5:104.0 6:101.0 7:94.0 8:94.0 9:65.0 10:111.0 
1.0 1:107.0 2:114.0 3:98.0 4:124.0 5:101.0 6:101.0 7:94.0 8:94.0 9:65.0 10:111.0 
1.0 1:107.0 2:114.0 3:98.0 4:120.0 5:101.0 6:98.0 7:91.0 8:98.0 9:65.0 10:111.0 
1.0 1:107.0 2:117.0 3:98.0 4:120.0 5:101.0 6:101.0 7:94.0 8:98.0 9:65.0 10:107.0 
0.9586995606926005 1:104.0 2:117.0 3:98.0 4:120.0 5:101.0 6:101.0 7:91.0 8:98.0 9:65.0 10:107.0 
1.0 1:104.0 2:117.0 3:101.0 4:124.0 5:101.0 6:101.0 7:88.0 8:98.0 9:65.0 10:107.0 
0.5770400354668788 1:107.0 2:117.0 3:98.0 4:120.0 5:101.0 6:101.0 7:91.0 8:98.0 9:65.0 10:107.0 
1.0 1:104.0 2:117.0 3:94.0 4:124.0 5:101.0 6:104.0 7:91.0 8:98.0 9:65.0 10:104.0 
0.8401526883933381 1:104.0 2:117.0 3:94.0 4:124.0 5:104.0 6:101.0 7:91.0 8:98.0 9:65.0 10:104.0 
0.9966650098210796 1:104.0 2:117.0 3:94.0 4:124.0 5:104.0 6:101.0 7:91.0 8:101.0 9:65.0 10:104.0 
0.9956339144761954 1:101.0 2:114.0 3:94.0 4:120.0 5:104.0 6:101.0 7:91.0 8:101.0 9:68.0 10:104.0 
1.0 1:101.0 2:114.0 3:94.0 4:120.0 5:104.0 6:101.0 7:94.0 8:101.0 9:68.0 10:107.0 
0.2994173515272682 1:101.0 2:114.0 3:94.0 4:120.0 5:104.0 6:101.0 7:94.0 8:101.0 9:68.0 10:104.0 
1.0 1:98.0 2:114.0 3:91.0 4:120.0 5:104.0 6:101.0 7:94.0 8:101.0 9:68.0 10:104.0 
1.0 1:101.0 2:117.0 3:98.0 4:120.0 5:101.0 6:101.0 7:94.0 8:101.0 9:68.0 10:101.0 
1.0 1:98.0 2:114.0 3:98.0 4:120.0 5:101.0 6:104.0 7:94.0 8:101.0 9:68.0 10:101.0 
1.0 1:101.0 2:114.0 3:98.0 4:120.0 5:101.0 6:101.0 7:94.0 8:101.0 9:68.0 10:104.0 
1.0 1:98.0 2:111.0 3:98.0 4:124.0 5:101.0 6:101.0 7:94.0 8:101.0 9:68.0 10:101.0 
1.0 1:98.0 2:114.0 3:98.0 4:124.0 5:104.0 6:101.0 7:94.0 8:101.0 9:68.0 10:101.0 
1.0 1:98.0 2:114.0 3:94.0 4:124.0 5:104.0 6:101.0 7:94.0 8:101.0 9:71.0 10:98.0 
1.0 1:101.0 2:114.0 3:94.0 4:124.0 5:104.0 6:101.0 7:94.0 8:101.0 9:71.0 10:101.0 
1.0 1:101.0 2:111.0 3:91.0 4:124.0 5:104.0 6:107.0 7:94.0 8:101.0 9:71.0 10:101.0 
1.0 1:104.0 2:111.0 3:91.0 4:124.0 5:104.0 6:104.0 7:94.0 8:101.0 9:71.0 10:98.0 
1.0 1:107.0 2:111.0 3:91.0 4:124.0 5:107.0 6:107.0 7:94.0 8:101.0 9:71.0 10:98.0 
1.0 1:104.0 2:111.0 3:94.0 4:124.0 5:107.0 6:107.0 7:91.0 8:101.0 9:71.0 10:98.0 
1.0 1:104.0 2:111.0 3:94.0 4:120.0 5:107.0 6:107.0 7:91.0 8:101.0 9:71.0 10:94.0 
1.0 1:104.0 2:111.0 3:91.0 4:124.0 5:104.0 6:107.0 7:94.0 8:101.0 9:71.0 10:94.0 
1.0 1:104.0 2:111.0 3:91.0 4:120.0 5:107.0 6:104.0 7:94.0 8:98.0 9:71.0 10:94.0 
1.0 1:104.0 2:111.0 3:88.0 4:120.0 5:104.0 6:107.0 7:94.0 8:98.0 9:71.0 10:94.0 
1.0 1:104.0 2:111.0 3:94.0 4:120.0 5:101.0 6:107.0 7:94.0 8:98.0 9:68.0 10:98.0 
1.0 1:104.0 2:111.0 3:94.0 4:120.0 5:101.0 6:104.0 7:98.0 8:101.0 9:68.0 10:98.0 
0.2918545083156109 1:104.0 2:114.0 3:94.0 4:117.0 5:101.0 6:104.0 7:94.0 8:101.0 9:68.0 10:98.0 
1.0 1:104.0 2:114.0 3:91.0 4:120.0 5:98.0 6:104.0 7:94.0 8:101.0 9:68.0 10:98.0 
1.0 1:104.0 2:114.0 3:94.0 4:117.0 5:101.0 6:104.0 7:94.0 8:101.0 9:68.0 10:98.0 
1.0 1:107.0 2:117.0 3:91.0 4:117.0 5:104.0 6:107.0 7:94.0 8:101.0 9:68.0 10:101.0 
1.0 1:107.0 2:120.0 3:98.0 4:117.0 5:107.0 6:107.0 7:98.0 8:101.0 9:68.0 10:101.0 
1.0 1:107.0 2:117.0 3:101.0 4:120.0 5:107.0 6:107.0 7:94.0 8:101.0 9:68.0 10:101.0 
1.0 1:107.0 2:117.0 3:101.0 4:117.0 5:107.0 6:107.0 7:94.0 8:104.0 9:68.0 10:104.0 
1.0 1:111.0 2:114.0 3:101.0 4:124.0 5:107.0 6:111.0 7:98.0 8:104.0 9:71.0 10:104.0 
1.0 1:111.0 2:114.0 3:98.0 4:124.0 5:104.0 6:111.0 7:98.0 8:104.0 9:71.0 10:104.0 
1.0 1:107.0 2:117.0 3:94.0 4:120.0 5:104.0 6:107.0 7:98.0 8:104.0 9:71.0 10:104.0 
0.3338578884815926 1:107.0 2:117.0 3:98.0 4:120.0 5:104.0 6:107.0 7:101.0 8:107.0 9:71.0 10:101.0 
0.999394235455801 1:107.0 2:117.0 3:98.0 4:120.0 5:104.0 6:107.0 7:101.0 8:107.0 9:71.0 10:101.0 
1.0 1:107.0 2:117.0 3:98.0 4:120.0 5:104.0 6:107.0 7:98.0 8:104.0 9:71.0 10:98.0 
1.0 1:107.0 2:117.0 3:98.0 4:127.0 5:104.0 6:107.0 7:98.0 8:104.0 9:71.0 10:98.0 
1.0 1:107.0 2:117.0 3:101.0 4:124.0 5:104.0 6:107.0 7:94.0 8:104.0 9:68.0 10:98.0 
1.0 1:107.0 2:114.0 3:98.0 4:127.0 5:107.0 6:111.0 7:98.0 8:104.0 9:68.0 10:98.0 
1.0 1:107.0 2:117.0 3:101.0 4:127.0 5:107.0 6:111.0 7:98.0 8:104.0 9:68.0 10:101.0 
1.0 1:107.0 2:117.0 3:101.0 4:124.0 5:104.0 6:107.0 7:101.0 8:107.0 9:68.0 10:104.0 
1.0 1:111.0 2:124.0 3:98.0 4:124.0 5:107.0 6:111.0 7:101.0 8:107.0 9:71.0 10:101.0 
1.0 1:111.0 2:120.0 3:104.0 4:124.0 5:107.0 6:111.0 7:101.0 8:107.0 9:75.0 10:104.0 
1.0 1:114.0 2:120.0 3:104.0 4:120.0 5:104.0 6:111.0 7:101.0 8:104.0 9:75.0 10:104.0 
1.0 1:111.0 2:124.0 3:101.0 4:120.0 5:107.0 6:111.0 7:101.0 8:104.0 9:75.0 10:101.0 
1.0 1:111.0 2:124.0 3:104.0 4:120.0 5:107.0 6:111.0 7:98.0 8:107.0 9:75.0 10:101.0 
1.0 1:111.0 2:124.0 3:104.0 4:124.0 5:104.0 6:114.0 7:101.0 8:111.0 9:75.0 10:101.0 
1.0 1:114.0 2:120.0 3:101.0 4:120.0 5:104.0 6:111.0 7:104.0 8:111.0 9:75.0 10:101.0 
1.0 1:111.0 2:120.0 3:104.0 4:127.0 5:101.0 6:111.0 7:104.0 8:111.0 9:75.0 10:101.0 
0.4200648426643607 1:111.0 2:120.0 3:101.0 4:127.0 5:107.0 6:117.0 7:104.0 8:107.0 9:75.0 10:101.0 
0.9918060819246877 1:111.0 2:120.0 3:101.0 4:127.0 5:107.0 6:117.0 7:104.0 8:107.0 9:75.0 10:101.0 
1.0 1:111.0 2:117.0 3:98.0 4:127.0 5:104.0 6:114.0 7:104.0 8:107.0 9:78.0 10:104.0 
1.0 1:107.0 2:117.0 3:98.0 4:127.0 5:107.0 6:114.0 7:104.0 8:104.0 9:75.0 10:101.0 
1.0 1:107.0 2:120.0 3:98.0 4:124.0 5:104.0 6:117.0 7:104.0 8:104.0 9:75.0 10:101.0 
1.0 1:107.0 2:120.0 3:94.0 4:124.0 5:104.0 6:114.0 7:104.0 8:107.0 9:75.0 10:98.0 
1.0 1:107.0 2:124.0 3:98.0 4:120.0 5:101.0 6:114.0 7:101.0 8:107.0 9:75.0 10:98.0 
1.0 1:107.0 2:124.0 3:98.0 4:124.0 5:101.0 6:114.0 7:101.0 8:104.0 9:75.0 10:98.0 
1.0 1:107.0 2:124.0 3:94.0 4:124.0 5:101.0 6:114.0 7:98.0 8:111.0 9:75.0 10:98.0 
1.0 1:111.0 2:124.0 3:98.0 4:124.0 5:101.0 6:114.0 7:101.0 8:111.0 9:78.0 10:94.0 
1.0 1:114.0 2:124.0 3:98.0 4:127.0 5:101.0 6:114.0 7:101.0 8:107.0 9:78.0 10:94.0 
1.0 1:111.0 2:120.0 3:94.0 4:124.0 5:101.0 6:114.0 7:101.0 8:107.0 9:78.0 10:91.0 
0.3935878510052879 1:111.0 2:124.0 3:101.0 4:127.0 5:101.0 6:111.0 7:101.0 8:107.0 9:78.0 10:91.0 
0.9992432134967708 1:111.0 2:124.0 3:101.0 4:127.0 5:101.0 6:111.0 7:101.0 8:107.0 9:78.0 10:91.0 
1.0 1:111.0 2:120.0 3:98.0 4:124.0 5:101.0 6:111.0 7:101.0 8:111.0 9:78.0 10:94.0 
1.0 1:114.0 2:120.0 3:98.0 4:124.0 5:101.0 6:107.0 7:101.0 8:111.0 9:78.0 10:94.0 
1.0 1:114.0 2:117.0 3:101.0 4:127.0 5:101.0 6:107.0 7:98.0 8:111.0 9:81.0 10:94.0 
1.0 1:114.0 2:120.0 3:91.0 4:124.0 5:104.0 6:107.0 7:98.0 8:111.0 9:81.0 10:101.0 
1.0 1:111.0 2:117.0 3:98.0 4:127.0 5:104.0 6:107.0 7:98.0 8:111.0 9:81.0 10:101.0 
1.0 1:111.0 2:117.0 3:94.0 4:124.0 5:104.0 6:104.0 7:101.0 8:107.0 9:78.0 10:98.0 
1.0 1:111.0 2:117.0 3:94.0 4:124.0 5:101.0 6:107.0 7:101.0 8:107.0 9:81.0 10:98.0 
1.0 1:111.0 2:117.0 3:94.0 4:120.0 5:104.0 6:104.0 7:104.0 8:107.0 9:81.0 10:98.0 
1.0 1:111.0 2:114.0 3:94.0 4:120.0 5:101.0 6:104.0 7:101.0 8:111.0 9:85.0 10:101.0 
1.0 1:111.0 2:107.0 3:94.0 4:120.0 5:107.0 6:104.0 7:101.0 8:114.0 9:81.0 10:98.0 
1.0 1:111.0 2:114.0 3:94.0 4:127.0 5:104.0 6:107.0 7:101.0 8:114.0 9:85.0 10:98.0 
1.0 1:114.0 2:117.0 3:94.0 4:124.0 5:107.0 6:107.0 7:104.0 8:114.0 9:81.0 10:98.0 
1.0 1:114.0 2:114.0 3:94.0 4:127.0 5:107.0 6:104.0 7:101.0 8:114.0 9:81.0 10:94.0 
1.0 1:114.0 2:117.0 3:91.0 4:127.0 5:104.0 6:104.0 7:104.0 8:111.0 9:81.0 10:94.0 
1.0 1:114.0 2:117.0 3:94.0 4:124.0 5:104.0 6:107.0 7:104.0 8:114.0 9:85.0 10:94.0 
1.0 1:111.0 2:114.0 3:94.0 4:124.0 5:104.0 6:107.0 7:104.0 8:114.0 9:85.0 10:94.0 
1.0 1:111.0 2:114.0 3:101.0 4:120.0 5:107.0 6:104.0 7:104.0 8:114.0 9:85.0 10:94.0 
1.0 1:111.0 2:114.0 3:98.0 4:120.0 5:107.0 6:104.0 7:104.0 8:114.0 9:88.0 10:98.0 
1.0 1:111.0 2:114.0 3:101.0 4:120.0 5:107.0 6:104.0 7:107.0 8:117.0 9:88.0 10:98.0 
1.0 1:107.0 2:114.0 3:98.0 4:130.0 5:107.0 6:101.0 7:104.0 8:114.0 9:85.0 10:98.0 
1.0 1:107.0 2:114.0 3:98.0 4:130.0 5:107.0 6:104.0 7:107.0 8:114.0 9:85.0 10:98.0 
1.0 1:107.0 2:117.0 3:98.0 4:130.0 5:104.0 6:101.0 7:104.0 8:114.0 9:85.0 10:98.0 
1.0 1:111.0 2:117.0 3:94.0 4:130.0 5:107.0 6:101.0 7:104.0 8:114.0 9:88.0 10:98.0 
1.0 1:114.0 2:114.0 3:94.0 4:127.0 5:111.0 6:101.0 7:104.0 8:111.0 9:85.0 10:98.0 
0.9499463966948758 1:114.0 2:114.0 3:94.0 4:127.0 5:107.0 6:101.0 7:101.0 8:114.0 9:88.0 10:98.0 
1.0 1:114.0 2:114.0 3:91.0 4:127.0 5:107.0 6:101.0 7:101.0 8:114.0 9:88.0 10:98.0 
1.0 1:114.0 2:117.0 3:98.0 4:127.0 5:107.0 6:101.0 7:101.0 8:111.0 9:85.0 10:98.0 
1.0 1:114.0 2:114.0 3:98.0 4:124.0 5:111.0 6:98.0 7:101.0 8:111.0 9:85.0 10:98.0 
1.0 1:114.0 2:117.0 3:94.0 4:124.0 5:107.0 6:101.0 7:98.0 8:111.0 9:85.0 10:98.0 
1.0 1:111.0 2:114.0 3:94.0 4:127.0 5:111.0 6:98.0 7:101.0 8:111.0 9:85.0 10:94.0 
1.0 1:111.0 2:117.0 3:94.0 4:127.0 5:114.0 6:104.0 7:101.0 8:114.0 9:85.0 10:94.0 
1.0 1:107.0 2:120.0 3:94.0 4:127.0 5:111.0 6:101.0 7:98.0 8:114.0 9:81.0 10:91.0 
1.0 1:111.0 2:117.0 3:98.0 4:130.0 5:111.0 6:104.0 7:98.0 8:114.0 9:81.0 10:94.0 
1.0 1:111.0 2:120.0 3:94.0 4:127.0 5:111.0 6:104.0 7:98.0 8:117.0 9:81.0 10:98.0 
1.0 1:111.0 2:120.0 3:94.0 4:127.0 5:107.0 6:101.0 7:98.0 8:114.0 9:81.0 10:94.0 
1.0 1:107.0 2:117.0 3:91.0 4:127.0 5:107.0 6:101.0 7:98.0 8:114.0 9:81.0 10:98.0 
1.0 1:107.0 2:120.0 3:94.0 4:127.0 5:111.0 6:101.0 7:94.0 8:114.0 9:85.0 10:94.0 
1.0 1:114.0 2:117.0 3:94.0 4:127.0 5:111.0 6:104.0 7:98.0 8:114.0 9:85.0 10:91.0 
1.0 1:114.0 2:117.0 3:94.0 4:124.0 5:114.0 6:101.0 7:98.0 8:111.0 9:85.0 10:98.0 
1.0 1:114.0 2:114.0 3:91.0 4:124.0 5:114.0 6:101.0 7:101.0 8:111.0 9:85.0 10:98.0 
1.0 1:114.0 2:114.0 3:94.0 4:124.0 5:114.0 6:101.0 7:98.0 8:111.0 9:85.0 10:101.0 
1.0 1:111.0 2:114.0 3:91.0 4:127.0 5:114.0 6:101.0 7:101.0 8:111.0 9:85.0 10:101.0 
1.0 1:111.0 2:114.0 3:91.0 4:127.0 5:111.0 6:101.0 7:101.0 8:114.0 9:81.0 10:101.0 
1.0 1:111.0 2:114.0 3:91.0 4:127.0 5:114.0 6:104.0 7:98.0 8:114.0 9:81.0 10:101.0 
1.0 1:111.0 2:114.0 3:91.0 4:124.0 5:111.0 6:101.0 7:98.0 8:111.0 9:81.0 10:101.0 
1.0 1:111.0 2:114.0 3:91.0 4:124.0 5:111.0 6:98.0 7:98.0 8:114.0 9:81.0 10:104.0 
1.0 1:114.0 2:114.0 3:91.0 4:127.0 5:107.0 6:101.0 7:101.0 8:111.0 9:81.0 10:101.0 
1.0 1:114.0 2:111.0 3:91.0 4:130.0 5:111.0 6:101.0 7:101.0 8:111.0 9:78.0 10:101.0 
1.0 1:111.0 2:111.0 3:91.0 4:130.0 5:107.0 6:101.0 7:101.0 8:111.0 9:78.0 10:101.0 
1.0 1:111.0 2:111.0 3:94.0 4:130.0 5:111.0 6:98.0 7:98.0 8:107.0 9:81.0 10:101.0 
1.0 1:111.0 2:107.0 3:98.0 4:130.0 5:107.0 6:101.0 7:98.0 8:107.0 9:81.0 10:101.0 
1.0 1:114.0 2:107.0 3:94.0 4:130.0 5:107.0 6:98.0 7:98.0 8:107.0 9:81.0 10:101.0 
1.0 1:111.0 2:107.0 3:98.0 4:127.0 5:107.0 6:94.0 7:98.0 8:107.0 9:81.0 10:98.0 
1.0 1:107.0 2:111.0 3:94.0 4:127.0 5:107.0 6:98.0 7:94.0 8:107.0 9:81.0 10:98.0 
