svm_type c_svc
kernel_type rbf
gamma 0.1
nr_class 2
total_sv 15609
rho 0.5533827618164967
label 1 0
nr_sv 4819 10790
SV
1.0 1:48.0 2:57.0 3:2041717.0 4:121822.0 5:49480.0 6:1.6770734E7 7:1.6745517E7 8:16418.0 9:5457.0 10:175551.0 
1.0 1:48.0 2:63.0 3:780522.0 4:64151.0 5:6713.0 6:18178.0 7:12925.0 8:10958.0 9:2153.0 10:178712.0 
1.0 1:61.0 2:91.0 3:1044244.0 4:32291.0 5:1.6756794E7 6:1.6751606E7 7:1.6767012E7 8:9208.0 9:2529.0 10:277279.0 
1.0 1:70.0 2:67.0 3:1204384.0 4:211870.0 5:90057.0 6:27153.0 7:18163.0 8:14681.0 9:1823.0 10:357580.0 
1.0 1:57.0 2:75.0 3:694371.0 4:1.6762491E7 5:16612.0 6:68462.0 7:28817.0 8:8051.0 9:1835.0 10:307647.0 
1.0 1:81.0 2:69.0 3:843442.0 4:207236.0 5:1.6753822E7 6:13547.0 7:14815.0 8:23882.0 9:3009.0 10:356903.0 
1.0 1:87.0 2:64.0 3:655331.0 4:159968.0 5:14600.0 6:1.6776443E7 7:29407.0 8:13028.0 9:1629.0 10:175504.0 
1.0 1:67.0 2:90.0 3:795750.0 4:9414.0 5:5888.0 6:5541.0 7:2429.0 8:1996.0 9:458.0 10:1.6763165E7 
1.0 1:66.0 2:64.0 3:698318.0 4:154974.0 5:28751.0 6:21185.0 7:21850.0 8:26845.0 9:4012.0 10:235620.0 
1.0 1:37.0 2:64.0 3:119112.0 4:95863.0 5:25914.0 6:5441.0 7:16735.0 8:5689.0 9:1254.0 10:82573.0 
1.0 1:16.0 2:54.0 3:1270867.0 4:196705.0 5:20320.0 6:14498.0 7:1.6773794E7 8:1.6754178E7 9:6819.0 10:434365.0 
1.0 1:8.0 2:38.0 3:1663889.0 4:265600.0 5:19217.0 6:17723.0 7:10854.0 8:17053.0 9:7589.0 10:417213.0 
1.0 1:4.0 2:57.0 3:1131708.0 4:686072.0 5:1.6759925E7 6:199343.0 7:25264.0 8:26465.0 9:27911.0 10:48235.0 
1.0 1:11.0 2:53.0 3:834754.0 4:63471.0 5:1.674994E7 6:30152.0 7:5769.0 8:8287.0 9:7196.0 10:1.6768265E7 
1.0 1:13.0 2:48.0 3:95681.0 4:22823.0 5:2021.0 6:7005.0 7:1668.0 8:2323.0 9:793.0 10:16991.0 
1.0 1:13.0 2:41.0 3:712869.0 4:29074.0 5:16822.0 6:8518.0 7:6080.0 8:4970.0 9:1301.0 10:155978.0 
1.0 1:24.0 2:35.0 3:796156.0 4:11166.0 5:1184.0 6:3939.0 7:1790.0 8:157.0 9:522.0 10:1.6753136E7 
1.0 1:37.0 2:51.0 3:970528.0 4:1.6773411E7 5:24907.0 6:22841.0 7:15247.0 8:7913.0 9:3082.0 10:138446.0 
1.0 1:56.0 2:60.0 3:508682.0 4:83951.0 5:66486.0 6:12315.0 7:15582.0 8:9455.0 9:1733.0 10:170258.0 
1.0 1:66.0 2:63.0 3:2655933.0 4:1139844.0 5:110199.0 6:85551.0 7:96482.0 8:29232.0 9:10398.0 10:1003601.0 
1.0 1:74.0 2:67.0 3:2009500.0 4:265553.0 5:27516.0 6:11219.0 7:9320.0 8:8485.0 9:1599.0 10:288061.0 
1.0 1:77.0 2:70.0 3:509136.0 4:162996.0 5:67489.0 6:1.6760003E7 7:10169.0 8:7774.0 9:2641.0 10:290533.0 
1.0 1:70.0 2:84.0 3:1256256.0 4:1.6776137E7 5:7060.0 6:4267.0 7:28021.0 8:13429.0 9:1270.0 10:179768.0 
1.0 1:75.0 2:96.0 3:1396515.0 4:1.6757972E7 5:1.6748634E7 6:15080.0 7:20742.0 8:9693.0 9:865.0 10:238757.0 
1.0 1:53.0 2:88.0 3:1089420.0 4:81933.0 5:25176.0 6:27362.0 7:13187.0 8:6757.0 9:2168.0 10:276209.0 
1.0 1:60.0 2:87.0 3:1008952.0 4:53159.0 5:1.6770296E7 6:1.6762761E7 7:21411.0 8:6777.0 9:1543.0 10:283406.0 
1.0 1:51.0 2:75.0 3:724381.0 4:81973.0 5:943.0 6:6624.0 7:4354.0 8:5903.0 9:425.0 10:68640.0 
1.0 1:34.0 2:63.0 3:110682.0 4:22178.0 5:5427.0 6:9938.0 7:2631.0 8:2819.0 9:1.6777165E7 10:71661.0 
1.0 1:26.0 2:67.0 3:274003.0 4:27575.0 5:5549.0 6:3621.0 7:6116.0 8:1228.0 9:247.0 10:75356.0 
1.0 1:16.0 2:61.0 3:1877382.0 4:138848.0 5:1.6745669E7 6:23009.0 7:21945.0 8:18382.0 9:5683.0 10:317689.0 
1.0 1:11.0 2:67.0 3:263336.0 4:19610.0 5:3268.0 6:9484.0 7:9486.0 8:4671.0 9:600.0 10:90284.0 
1.0 1:43.0 2:83.0 3:951337.0 4:1.6747152E7 5:1.6751247E7 6:10678.0 7:5823.0 8:2462.0 9:394.0 10:71921.0 
1.0 1:74.0 2:87.0 3:1052770.0 4:69167.0 5:10064.0 6:25886.0 7:9678.0 8:3573.0 9:2193.0 10:157819.0 
1.0 1:90.0 2:78.0 3:186680.0 4:471265.0 5:35355.0 6:1.675582E7 7:1.6760073E7 8:20053.0 9:5261.0 10:565862.0 
1.0 1:96.0 2:77.0 3:323747.0 4:93816.0 5:14665.0 6:1.6762208E7 7:24645.0 8:9210.0 9:5702.0 10:508342.0 
1.0 1:81.0 2:60.0 3:264706.0 4:73427.0 5:61001.0 6:1.6748567E7 7:1.6755982E7 8:17283.0 9:5232.0 10:591679.0 
1.0 1:64.0 2:57.0 3:747907.0 4:23058.0 5:26985.0 6:15488.0 7:12124.0 8:12134.0 9:6686.0 10:494756.0 
1.0 1:56.0 2:69.0 3:149332.0 4:1.6776256E7 5:2805.0 6:7014.0 7:11379.0 8:6019.0 9:3368.0 10:593989.0 
1.0 1:61.0 2:70.0 3:165699.0 4:1.6764725E7 5:27304.0 6:14327.0 7:13181.0 8:14349.0 9:3181.0 10:437619.0 
1.0 1:70.0 2:91.0 3:170929.0 4:10338.0 5:5931.0 6:1267.0 7:1271.0 8:486.0 9:133.0 10:1.6748115E7 
1.0 1:78.0 2:87.0 3:425104.0 4:1.6758863E7 5:7653.0 6:17488.0 7:8999.0 8:6146.0 9:1502.0 10:156120.0 
1.0 1:67.0 2:83.0 3:1655979.0 4:135153.0 5:1.6749768E7 6:21168.0 7:6879.0 8:20061.0 9:8671.0 10:553725.0 
1.0 1:54.0 2:84.0 3:451646.0 4:428064.0 5:1.6745856E7 6:22896.0 7:27361.0 8:7839.0 9:7068.0 10:437603.0 
1.0 1:54.0 2:83.0 3:226544.0 4:1.6765125E7 5:6057.0 6:8680.0 7:5190.0 8:3169.0 9:1157.0 10:151737.0 
1.0 1:56.0 2:88.0 3:948193.0 4:7286.0 5:2133.0 6:10663.0 7:2649.0 8:1364.0 9:654.0 10:1.6745521E7 
1.0 1:66.0 2:87.0 3:937858.0 4:17219.0 5:10076.0 6:4893.0 7:2976.0 8:3188.0 9:897.0 10:149918.0 
1.0 1:70.0 2:81.0 3:349667.0 4:246160.0 5:3310.0 6:1.6750985E7 7:29046.0 8:14232.0 9:16322.0 10:605298.0 
1.0 1:77.0 2:75.0 3:75863.0 4:29327.0 5:9603.0 6:10151.0 7:6753.0 8:10159.0 9:2037.0 10:527552.0 
1.0 1:70.0 2:69.0 3:32149.0 4:27802.0 5:1.6765165E7 6:27462.0 7:4213.0 8:7373.0 9:4663.0 10:382087.0 
1.0 1:77.0 2:80.0 3:219484.0 4:156616.0 5:19638.0 6:3469.0 7:9720.0 8:2386.0 9:2750.0 10:64618.0 
1.0 1:90.0 2:77.0 3:22359.0 4:17510.0 5:3366.0 6:14894.0 7:3325.0 8:12581.0 9:3816.0 10:537063.0 
1.0 1:81.0 2:81.0 3:327804.0 4:73840.0 5:3018.0 6:17894.0 7:3476.0 8:4981.0 9:2301.0 10:549193.0 
1.0 1:80.0 2:80.0 3:136772.0 4:136112.0 5:11853.0 6:12787.0 7:1.6757971E7 8:11664.0 9:2896.0 10:482040.0 
1.0 1:69.0 2:70.0 3:461286.0 4:134061.0 5:25026.0 6:22067.0 7:7019.0 8:20248.0 9:6621.0 10:441522.0 
1.0 1:56.0 2:83.0 3:308680.0 4:121008.0 5:1.6771632E7 6:19952.0 7:1.6760165E7 8:16128.0 9:16847.0 10:408291.0 
1.0 1:61.0 2:77.0 3:1583825.0 4:226526.0 5:71877.0 6:1.6747001E7 7:28143.0 8:17204.0 9:12729.0 10:374171.0 
1.0 1:69.0 2:83.0 3:1717219.0 4:685665.0 5:20861.0 6:1.6768512E7 7:156933.0 8:20248.0 9:11014.0 10:723575.0 
1.0 1:67.0 2:94.0 3:84463.0 4:15202.0 5:875.0 6:3127.0 7:3352.0 8:479.0 9:1663.0 10:26225.0 
1.0 1:74.0 2:87.0 3:363139.0 4:178275.0 5:8724.0 6:8270.0 7:16554.0 8:14598.0 9:10963.0 10:265139.0 
1.0 1:64.0 2:96.0 3:104458.0 4:1.6748562E7 5:26803.0 6:1.6751083E7 7:9903.0 8:14147.0 9:6412.0 10:218689.0 
1.0 1:75.0 2:96.0 3:1.6770812E7 4:24038.0 5:4237.0 6:13342.0 7:7890.0 8:7810.0 9:5689.0 10:130453.0 
1.0 1:69.0 2:94.0 3:334995.0 4:163102.0 5:29189.0 6:1.6763966E7 7:24555.0 8:9575.0 9:5981.0 10:206730.0 
1.0 1:67.0 2:90.0 3:6839.0 4:11880.0 5:1.675434E7 6:12551.0 7:31940.0 8:13499.0 9:8371.0 10:64303.0 
1.0 1:66.0 2:87.0 3:103375.0 4:11526.0 5:1787.0 6:1362.0 7:9935.0 8:4946.0 9:3822.0 10:13047.0 
1.0 1:54.0 2:74.0 3:1093431.0 4:111937.0 5:217899.0 6:1.675427E7 7:71668.0 8:26086.0 9:26288.0 10:224515.0 
1.0 1:69.0 2:67.0 3:288063.0 4:1.6766337E7 5:9615.0 6:8601.0 7:13513.0 8:22859.0 9:4779.0 10:135816.0 
1.0 1:50.0 2:67.0 3:15330.0 4:21187.0 5:11895.0 6:13532.0 7:6769.0 8:14283.0 9:11470.0 10:113952.0 
1.0 1:67.0 2:53.0 3:719072.0 4:14588.0 5:23368.0 6:11204.0 7:4904.0 8:2852.0 9:6706.0 10:46595.0 
1.0 1:83.0 2:74.0 3:109293.0 4:29544.0 5:1339.0 6:944.0 7:1018.0 8:1417.0 9:569.0 10:29263.0 
1.0 1:77.0 2:66.0 3:288497.0 4:120884.0 5:1.6749448E7 6:5440.0 7:9285.0 8:4742.0 9:3332.0 10:41179.0 
1.0 1:100.0 2:67.0 3:473123.0 4:68824.0 5:3868.0 6:15640.0 7:15496.0 8:4362.0 9:1608.0 10:163449.0 
1.0 1:97.0 2:81.0 3:1220032.0 4:106397.0 5:72620.0 6:7473.0 7:71361.0 8:7245.0 9:7172.0 10:788003.0 
1.0 1:88.0 2:84.0 3:715808.0 4:25106.0 5:10502.0 6:4599.0 7:3060.0 8:1174.0 9:567.0 10:20389.0 
1.0 1:83.0 2:94.0 3:542682.0 4:426683.0 5:11017.0 6:65829.0 7:28400.0 8:21478.0 9:4461.0 10:42500.0 
1.0 1:70.0 2:91.0 3:152390.0 4:61488.0 5:3227.0 6:20317.0 7:1.6744622E7 8:9836.0 9:7937.0 10:100343.0 
1.0 1:61.0 2:93.0 3:90630.0 4:143043.0 5:20161.0 6:2386.0 7:8392.0 8:4624.0 9:3416.0 10:193250.0 
1.0 1:63.0 2:83.0 3:357465.0 4:1.6775201E7 5:15667.0 6:4285.0 7:4656.0 8:8991.0 9:5606.0 10:208111.0 
1.0 1:77.0 2:69.0 3:23585.0 4:26180.0 5:16175.0 6:22690.0 7:19360.0 8:7109.0 9:5460.0 10:1.6769609E7 
1.0 1:84.0 2:81.0 3:1964288.0 4:31656.0 5:10005.0 6:13753.0 7:21944.0 8:21828.0 9:5779.0 10:65564.0 
1.0 1:91.0 2:69.0 3:132947.0 4:35691.0 5:10060.0 6:16156.0 7:5329.0 8:9415.0 9:763.0 10:1.6765731E7 
1.0 1:97.0 2:70.0 3:72159.0 4:22253.0 5:13307.0 6:2587.0 7:8318.0 8:7474.0 9:1996.0 10:294023.0 
1.0 1:69.0 2:78.0 3:11191.0 4:9338.0 5:5463.0 6:14803.0 7:5296.0 8:4080.0 9:5372.0 10:222286.0 
1.0 1:60.0 2:69.0 3:10124.0 4:3778.0 5:5948.0 6:8923.0 7:4056.0 8:4135.0 9:5914.0 10:222519.0 
1.0 1:50.0 2:67.0 3:84397.0 4:1.6751696E7 5:23096.0 6:10434.0 7:12577.0 8:7869.0 9:5664.0 10:185094.0 
1.0 1:41.0 2:69.0 3:31663.0 4:1.6754888E7 5:4071.0 6:4987.0 7:5695.0 8:1281.0 9:954.0 10:1.6771604E7 
1.0 1:56.0 2:56.0 3:32526.0 4:8975.0 5:4710.0 6:15048.0 7:5087.0 8:7472.0 9:4320.0 10:284654.0 
1.0 1:48.0 2:48.0 3:2003927.0 4:1.6765466E7 5:23253.0 6:18525.0 7:1.6754616E7 8:10954.0 9:9676.0 10:604461.0 
1.0 1:41.0 2:53.0 3:1829814.0 4:222809.0 5:19569.0 6:23199.0 7:4485.0 8:5393.0 9:3124.0 10:630303.0 
1.0 1:44.0 2:44.0 3:1826207.0 4:42699.0 5:29610.0 6:5986.0 7:10367.0 8:1693.0 9:1054.0 10:132426.0 
1.0 1:48.0 2:50.0 3:422192.0 4:1.6750531E7 5:26717.0 6:3062.0 7:11382.0 8:7427.0 9:15260.0 10:306637.0 
1.0 1:53.0 2:69.0 3:29189.0 4:1.6771018E7 5:1.6757849E7 6:19530.0 7:22685.0 8:9525.0 9:13547.0 10:106049.0 
1.0 1:78.0 2:66.0 3:12686.0 4:11935.0 5:13783.0 6:8149.0 7:5851.0 8:11814.0 9:9604.0 10:137558.0 
1.0 1:74.0 2:75.0 3:17924.0 4:1.6745931E7 5:26929.0 6:9382.0 7:19026.0 8:15416.0 9:8189.0 10:1.6765444E7 
1.0 1:74.0 2:88.0 3:10471.0 4:22443.0 5:22610.0 6:21163.0 7:136049.0 8:31246.0 9:17481.0 10:20298.0 
1.0 1:81.0 2:80.0 3:72869.0 4:1.6771025E7 5:20109.0 6:1.6750987E7 7:10150.0 8:17747.0 9:11287.0 10:19010.0 
1.0 1:64.0 2:93.0 3:151279.0 4:116174.0 5:17544.0 6:14998.0 7:26487.0 8:17745.0 9:22024.0 10:1.6753199E7 
1.0 1:66.0 2:96.0 3:358276.0 4:21086.0 5:4207.0 6:5289.0 7:2487.0 8:1648.0 9:2354.0 10:12992.0 
1.0 1:61.0 2:87.0 3:288501.0 4:19965.0 5:7615.0 6:24185.0 7:10246.0 8:10414.0 9:12828.0 10:29354.0 
1.0 1:51.0 2:77.0 3:1.6755439E7 4:28375.0 5:8633.0 6:32261.0 7:10076.0 8:16196.0 9:6631.0 10:29738.0 
1.0 1:67.0 2:53.0 3:67584.0 4:18281.0 5:3412.0 6:1.6753693E7 7:4990.0 8:13887.0 9:7461.0 10:17953.0 
1.0 1:75.0 2:35.0 3:79305.0 4:75579.0 5:6493.0 6:17271.0 7:9200.0 8:8978.0 9:4991.0 10:22679.0 
1.0 1:81.0 2:35.0 3:53397.0 4:1.6761548E7 5:30617.0 6:9740.0 7:10484.0 8:7082.0 9:4470.0 10:1.6745758E7 
1.0 1:91.0 2:43.0 3:1.6755567E7 4:16273.0 5:14599.0 6:9073.0 7:6345.0 8:2623.0 9:5648.0 10:1.6761613E7 
1.0 1:74.0 2:67.0 3:882269.0 4:5252.0 5:13851.0 6:19037.0 7:20192.0 8:8048.0 9:4720.0 10:1.6756878E7 
1.0 1:66.0 2:80.0 3:1.6757671E7 4:49585.0 5:1.6753392E7 6:17849.0 7:13585.0 8:17066.0 9:10367.0 10:30116.0 
1.0 1:78.0 2:81.0 3:297112.0 4:26436.0 5:8704.0 6:9903.0 7:11506.0 8:9581.0 9:28127.0 10:1.6762655E7 
1.0 1:75.0 2:93.0 3:16248.0 4:29954.0 5:17698.0 6:5020.0 7:4799.0 8:5039.0 9:1544.0 10:29713.0 
1.0 1:69.0 2:80.0 3:703.0 4:8765.0 5:4289.0 6:12053.0 7:18001.0 8:9007.0 9:4270.0 10:10891.0 
1.0 1:69.0 2:74.0 3:150487.0 4:76627.0 5:6677.0 6:20717.0 7:15503.0 8:6520.0 9:4591.0 10:16006.0 
1.0 1:43.0 2:83.0 3:16111.0 4:3969.0 5:12900.0 6:20043.0 7:11688.0 8:13533.0 9:8301.0 10:14169.0 
1.0 1:61.0 2:69.0 3:7736.0 4:12670.0 5:3032.0 6:5634.0 7:3756.0 8:7196.0 9:6300.0 10:22142.0 
1.0 1:66.0 2:75.0 3:1.6744828E7 4:19402.0 5:21244.0 6:7590.0 7:7713.0 8:7206.0 9:4109.0 10:1.6744327E7 
1.0 1:63.0 2:80.0 3:46959.0 4:17583.0 5:2775.0 6:1522.0 7:2910.0 8:1338.0 9:1029.0 10:9176.0 
1.0 1:80.0 2:66.0 3:171480.0 4:1.6749564E7 5:19577.0 6:6316.0 7:4592.0 8:8595.0 9:3401.0 10:1.6759149E7 
1.0 1:77.0 2:60.0 3:5257.0 4:5769.0 5:27196.0 6:13639.0 7:19113.0 8:4373.0 9:1799.0 10:1.675554E7 
1.0 1:70.0 2:44.0 3:8478.0 4:4806.0 5:5922.0 6:2249.0 7:10054.0 8:3561.0 9:2911.0 10:1.6753245E7 
1.0 1:77.0 2:43.0 3:146160.0 4:1.6761424E7 5:12211.0 6:23275.0 7:23539.0 8:9582.0 9:6469.0 10:22144.0 
1.0 1:69.0 2:54.0 3:23203.0 4:5696.0 5:11149.0 6:24263.0 7:12041.0 8:5501.0 9:5455.0 10:11268.0 
1.0 1:43.0 2:53.0 3:86652.0 4:1.675628E7 5:31426.0 6:10708.0 7:10861.0 8:14111.0 9:7988.0 10:1.6746766E7 
1.0 1:54.0 2:75.0 3:1.6757495E7 4:13264.0 5:18149.0 6:13024.0 7:7507.0 8:5788.0 9:5978.0 10:32389.0 
1.0 1:56.0 2:78.0 3:13400.0 4:17640.0 5:6657.0 6:2972.0 7:1849.0 8:6776.0 9:3965.0 10:1.6773908E7 
1.0 1:50.0 2:67.0 3:1.6751488E7 4:1.6751877E7 5:31077.0 6:30361.0 7:8299.0 8:7731.0 9:3845.0 10:1.6765101E7 
1.0 1:57.0 2:75.0 3:13196.0 4:1.6765485E7 5:14226.0 6:9942.0 7:7502.0 8:10184.0 9:1444.0 10:1.6767806E7 
1.0 1:51.0 2:57.0 3:1.6745733E7 4:6832.0 5:12502.0 6:10511.0 7:15528.0 8:3416.0 9:1873.0 10:1.6748699E7 
1.0 1:48.0 2:50.0 3:1.6776759E7 4:12924.0 5:1322.0 6:859.0 7:5360.0 8:1403.0 9:766.0 10:11646.0 
1.0 1:54.0 2:44.0 3:11783.0 4:8549.0 5:6870.0 6:9333.0 7:9119.0 8:7083.0 9:4541.0 10:72248.0 
1.0 1:60.0 2:53.0 3:56945.0 4:32025.0 5:5460.0 6:6046.0 7:3394.0 8:707.0 9:444.0 10:15603.0 
1.0 1:56.0 2:66.0 3:20002.0 4:10372.0 5:3143.0 6:3982.0 7:8504.0 8:11824.0 9:2998.0 10:1.6766025E7 
1.0 1:47.0 2:91.0 3:16295.0 4:6517.0 5:4618.0 6:13393.0 7:7074.0 8:7547.0 9:3927.0 10:81579.0 
1.0 1:47.0 2:100.0 3:9238.0 4:13668.0 5:6735.0 6:2177.0 7:6296.0 8:3820.0 9:4635.0 10:1.6751185E7 
1.0 1:50.0 2:100.0 3:6978.0 4:8502.0 5:4521.0 6:2727.0 7:9488.0 8:4909.0 9:8142.0 10:76553.0 
1.0 1:67.0 2:90.0 3:25104.0 4:6648.0 5:9160.0 6:6432.0 7:5119.0 8:7811.0 9:5946.0 10:90594.0 
1.0 1:88.0 2:77.0 3:6013.0 4:12424.0 5:11005.0 6:15014.0 7:3669.0 8:4501.0 9:4374.0 10:1.6773073E7 
1.0 1:87.0 2:75.0 3:43111.0 4:26818.0 5:26115.0 6:13654.0 7:4925.0 8:7217.0 9:6232.0 10:1.6769842E7 
1.0 1:69.0 2:53.0 3:11907.0 4:1.6757176E7 5:4507.0 6:10429.0 7:17463.0 8:6861.0 9:2933.0 10:1.677384E7 
1.0 1:64.0 2:56.0 3:20898.0 4:11946.0 5:12780.0 6:8249.0 7:4498.0 8:4861.0 9:8074.0 10:76176.0 
1.0 1:57.0 2:56.0 3:27813.0 4:19487.0 5:14811.0 6:4788.0 7:11587.0 8:5823.0 9:8584.0 10:1.6746564E7 
1.0 1:57.0 2:69.0 3:14571.0 4:26072.0 5:6522.0 6:7363.0 7:15116.0 8:13631.0 9:6647.0 10:66953.0 
1.0 1:66.0 2:93.0 3:71651.0 4:27480.0 5:1.675401E7 6:13938.0 7:22606.0 8:19099.0 9:13985.0 10:73989.0 
1.0 1:64.0 2:96.0 3:1.6752905E7 4:19832.0 5:5124.0 6:8620.0 7:14290.0 8:8404.0 9:9312.0 10:1.67731E7 
1.0 1:47.0 2:96.0 3:355666.0 4:1.6750541E7 5:31261.0 6:1968.0 7:3472.0 8:18568.0 9:13107.0 10:1.6759105E7 
1.0 1:43.0 2:81.0 3:352408.0 4:1.6752806E7 5:14280.0 6:11533.0 7:6371.0 8:1876.0 9:1835.0 10:12791.0 
1.0 1:34.0 2:61.0 3:1.6744676E7 4:1.6744515E7 5:10988.0 6:3655.0 7:6611.0 8:4066.0 9:1509.0 10:80299.0 
1.0 1:34.0 2:64.0 3:11176.0 4:27302.0 5:9102.0 6:4203.0 7:19787.0 8:3805.0 9:7553.0 10:1.676295E7 
1.0 1:37.0 2:64.0 3:1.6768506E7 4:12745.0 5:4481.0 6:19259.0 7:20650.0 8:5292.0 9:7272.0 10:17666.0 
1.0 1:34.0 2:63.0 3:1.6773068E7 4:1.6748731E7 5:1338.0 6:4751.0 7:848.0 8:4199.0 9:2713.0 10:2935.0 
1.0 1:53.0 2:88.0 3:184306.0 4:1.6774616E7 5:4722.0 6:6632.0 7:2357.0 8:3204.0 9:1249.0 10:5377.0 
1.0 1:50.0 2:83.0 3:48572.0 4:1.6756164E7 5:17453.0 6:4939.0 7:4337.0 8:3443.0 9:1890.0 10:25366.0 
1.0 1:38.0 2:77.0 3:8639.0 4:1.6752072E7 5:10289.0 6:5895.0 7:5567.0 8:10678.0 9:10069.0 10:89046.0 
1.0 1:53.0 2:80.0 3:24799.0 4:23410.0 5:14684.0 6:5251.0 7:1.6760096E7 8:5714.0 9:10486.0 10:94410.0 
1.0 1:51.0 2:77.0 3:1.6749335E7 4:27407.0 5:7713.0 6:1.6745846E7 7:4230.0 8:4940.0 9:7556.0 10:33656.0 
1.0 1:48.0 2:75.0 3:26372.0 4:11604.0 5:9696.0 6:4001.0 7:15321.0 8:12752.0 9:5356.0 10:55416.0 
1.0 1:67.0 2:63.0 3:25701.0 4:1.6746163E7 5:8434.0 6:23880.0 7:5970.0 8:8222.0 9:14701.0 10:87107.0 
1.0 1:56.0 2:66.0 3:8139.0 4:20100.0 5:32417.0 6:1309.0 7:10570.0 8:7078.0 9:4383.0 10:158731.0 
1.0 1:40.0 2:56.0 3:137903.0 4:18545.0 5:4346.0 6:7573.0 7:4483.0 8:4608.0 9:2518.0 10:24587.0 
1.0 1:34.0 2:50.0 3:709329.0 4:1.6744623E7 5:1.6764652E7 6:23159.0 7:7822.0 8:12895.0 9:13623.0 10:83716.0 
1.0 1:34.0 2:69.0 3:21217.0 4:12015.0 5:7879.0 6:6494.0 7:1718.0 8:3632.0 9:2828.0 10:29159.0 
1.0 1:34.0 2:77.0 3:14000.0 4:76691.0 5:25513.0 6:9713.0 7:8755.0 8:9653.0 9:6058.0 10:153994.0 
1.0 1:37.0 2:81.0 3:468434.0 4:226352.0 5:25265.0 6:21518.0 7:17035.0 8:16028.0 9:21455.0 10:41069.0 
1.0 1:29.0 2:81.0 3:1.677585E7 4:1.6746445E7 5:706.0 6:8646.0 7:9525.0 8:20481.0 9:7486.0 10:34124.0 
1.0 1:8.0 2:75.0 3:755109.0 4:89176.0 5:14571.0 6:7539.0 7:9291.0 8:28936.0 9:10772.0 10:49234.0 
1.0 1:1.0 2:75.0 3:246679.0 4:80495.0 5:25293.0 6:11461.0 7:11712.0 8:18558.0 9:1469.0 10:86640.0 
1.0 1:3.0 2:83.0 3:16999.0 4:25116.0 5:2215.0 6:19512.0 7:23427.0 8:6364.0 9:4823.0 10:40328.0 
1.0 1:24.0 2:87.0 3:216211.0 4:5977.0 5:3577.0 6:11944.0 7:1094.0 8:2022.0 9:1056.0 10:20882.0 
1.0 1:40.0 2:100.0 3:8282.0 4:32480.0 5:8911.0 6:14168.0 7:5943.0 8:7691.0 9:3718.0 10:66288.0 
1.0 1:48.0 2:96.0 3:64201.0 4:12409.0 5:3888.0 6:7686.0 7:6581.0 8:9505.0 9:3069.0 10:86191.0 
1.0 1:53.0 2:84.0 3:20244.0 4:17980.0 5:23589.0 6:27626.0 7:18242.0 8:7045.0 9:3875.0 10:72762.0 
1.0 1:57.0 2:93.0 3:5834.0 4:1.674433E7 5:15528.0 6:10994.0 7:17991.0 8:3744.0 9:4176.0 10:75159.0 
1.0 1:60.0 2:80.0 3:290524.0 4:1.6772443E7 5:14943.0 6:14081.0 7:1.6745997E7 8:12020.0 9:2838.0 10:1.6775623E7 
1.0 1:66.0 2:87.0 3:24049.0 4:1.6747275E7 5:21241.0 6:16448.0 7:5593.0 8:2889.0 9:4226.0 10:77999.0 
1.0 1:57.0 2:90.0 3:1.6747368E7 4:6581.0 5:3484.0 6:2505.0 7:5796.0 8:7122.0 9:3388.0 10:1.6770508E7 
1.0 1:53.0 2:84.0 3:5336.0 4:15691.0 5:7749.0 6:12068.0 7:3621.0 8:3538.0 9:2972.0 10:73065.0 
1.0 1:64.0 2:84.0 3:1878211.0 4:31780.0 5:10950.0 6:7537.0 7:10613.0 8:4884.0 9:4073.0 10:74531.0 
1.0 1:64.0 2:80.0 3:1.6772073E7 4:26476.0 5:2616.0 6:9575.0 7:7797.0 8:7403.0 9:1493.0 10:80237.0 
1.0 1:78.0 2:87.0 3:8720.0 4:19255.0 5:3100.0 6:3336.0 7:9685.0 8:10229.0 9:2888.0 10:70601.0 
1.0 1:74.0 2:84.0 3:34545.0 4:16088.0 5:1416.0 6:2255.0 7:4222.0 8:1261.0 9:691.0 10:11514.0 
1.0 1:88.0 2:87.0 3:7529.0 4:30243.0 5:10445.0 6:10337.0 7:16031.0 8:6953.0 9:6085.0 10:1.6776837E7 
1.0 1:96.0 2:77.0 3:2183.0 4:25714.0 5:23120.0 6:8530.0 7:7858.0 8:6878.0 9:5547.0 10:73996.0 
1.0 1:83.0 2:69.0 3:158314.0 4:28716.0 5:3149.0 6:1379.0 7:1615.0 8:1360.0 9:743.0 10:21953.0 
1.0 1:74.0 2:69.0 3:14358.0 4:8842.0 5:18867.0 6:13527.0 7:3345.0 8:7239.0 9:1446.0 10:73206.0 
1.0 1:50.0 2:75.0 3:19044.0 4:23535.0 5:2955.0 6:12257.0 7:4282.0 8:6153.0 9:2567.0 10:69684.0 
1.0 1:37.0 2:78.0 3:1146788.0 4:91335.0 5:7447.0 6:24263.0 7:5475.0 8:8978.0 9:4008.0 10:86062.0 
1.0 1:34.0 2:70.0 3:151252.0 4:1.6762869E7 5:7765.0 6:7071.0 7:3418.0 8:5001.0 9:4618.0 10:80921.0 
1.0 1:44.0 2:69.0 3:199943.0 4:1.6774598E7 5:8667.0 6:21201.0 7:4566.0 8:9886.0 9:3537.0 10:1.6771351E7 
1.0 1:27.0 2:56.0 3:14458.0 4:23167.0 5:3419.0 6:4203.0 7:11607.0 8:3207.0 9:3200.0 10:1.676654E7 
1.0 1:34.0 2:60.0 3:21668.0 4:28222.0 5:5772.0 6:4804.0 7:16447.0 8:4693.0 9:2819.0 10:75882.0 
1.0 1:41.0 2:61.0 3:1.6746417E7 4:1.674895E7 5:12041.0 6:19847.0 7:10352.0 8:8404.0 9:1657.0 10:67158.0 
1.0 1:38.0 2:64.0 3:1.6748557E7 4:27687.0 5:28713.0 6:27692.0 7:10880.0 8:6201.0 9:4366.0 10:1.6775454E7 
1.0 1:63.0 2:90.0 3:15638.0 4:26672.0 5:1.6747933E7 6:1.6756184E7 7:7607.0 8:4448.0 9:2789.0 10:1.6776688E7 
1.0 1:64.0 2:84.0 3:6065.0 4:21898.0 5:17956.0 6:3952.0 7:4233.0 8:5779.0 9:3549.0 10:69593.0 
1.0 1:69.0 2:100.0 3:23792.0 4:26512.0 5:15800.0 6:12897.0 7:8616.0 8:9365.0 9:3817.0 10:39252.0 
1.0 1:70.0 2:97.0 3:8238.0 4:16800.0 5:9381.0 6:3906.0 7:10371.0 8:10511.0 9:4955.0 10:1.6763431E7 
1.0 1:57.0 2:87.0 3:80034.0 4:29145.0 5:14811.0 6:14441.0 7:7963.0 8:15506.0 9:5871.0 10:1.6761615E7 
1.0 1:63.0 2:91.0 3:30569.0 4:1.6759342E7 5:7761.0 6:27976.0 7:8859.0 8:9309.0 9:3710.0 10:79176.0 
1.0 1:63.0 2:81.0 3:588270.0 4:45255.0 5:3395.0 6:6949.0 7:11938.0 8:4433.0 9:3680.0 10:75054.0 
1.0 1:54.0 2:90.0 3:10829.0 4:12436.0 5:2029.0 6:15498.0 7:15903.0 8:7204.0 9:5962.0 10:1.6765759E7 
1.0 1:64.0 2:90.0 3:15585.0 4:22850.0 5:11352.0 6:9180.0 7:3884.0 8:6601.0 9:5763.0 10:1.6770356E7 
1.0 1:54.0 2:90.0 3:1.6754775E7 4:22781.0 5:1.67458E7 6:1.674797E7 7:5440.0 8:9699.0 9:7300.0 10:1.6764048E7 
1.0 1:48.0 2:88.0 3:28487.0 4:26219.0 5:16300.0 6:14911.0 7:10489.0 8:4627.0 9:4927.0 10:1.6763495E7 
1.0 1:60.0 2:78.0 3:4856.0 4:15399.0 5:1723.0 6:20771.0 7:7317.0 8:8024.0 9:2835.0 10:66633.0 
1.0 1:53.0 2:78.0 3:1.6761476E7 4:83371.0 5:1.6760213E7 6:14497.0 7:22051.0 8:4107.0 9:3782.0 10:1.6763963E7 
1.0 1:47.0 2:77.0 3:212171.0 4:1.6770928E7 5:17821.0 6:10865.0 7:14255.0 8:6219.0 9:2554.0 10:70515.0 
1.0 1:51.0 2:87.0 3:495361.0 4:143914.0 5:15606.0 6:3792.0 7:2045.0 8:4778.0 9:3055.0 10:1.6772815E7 
1.0 1:38.0 2:84.0 3:1.6752549E7 4:4572.0 5:7058.0 6:11012.0 7:6908.0 8:4706.0 9:2544.0 10:1.6763564E7 
1.0 1:35.0 2:81.0 3:1.6772676E7 4:29613.0 5:4519.0 6:29750.0 7:30048.0 8:2495.0 9:5492.0 10:1.6757222E7 
1.0 1:43.0 2:87.0 3:198619.0 4:132172.0 5:26599.0 6:28788.0 7:23655.0 8:11603.0 9:2705.0 10:1.6763649E7 
1.0 1:51.0 2:74.0 3:10336.0 4:6282.0 5:11759.0 6:16020.0 7:7416.0 8:6309.0 9:4964.0 10:1.6773091E7 
1.0 1:51.0 2:67.0 3:1.6768315E7 4:1.6745202E7 5:23071.0 6:11836.0 7:10282.0 8:10468.0 9:2113.0 10:1.6758336E7 
1.0 1:67.0 2:70.0 3:655183.0 4:105580.0 5:22865.0 6:28513.0 7:21596.0 8:3004.0 9:5092.0 10:70069.0 
1.0 1:83.0 2:60.0 3:33675.0 4:5068.0 5:3833.0 6:657.0 7:1518.0 8:2252.0 9:1080.0 10:17835.0 
1.0 1:69.0 2:67.0 3:14694.0 4:11057.0 5:9340.0 6:14957.0 7:8332.0 8:5900.0 9:8724.0 10:66488.0 
1.0 1:75.0 2:90.0 3:1019508.0 4:49486.0 5:69636.0 6:1.6752057E7 7:1.677495E7 8:26436.0 9:29170.0 10:16662.0 
1.0 1:70.0 2:97.0 3:170286.0 4:54252.0 5:12208.0 6:1106.0 7:11587.0 8:12622.0 9:5210.0 10:1.6745897E7 
1.0 1:50.0 2:100.0 3:1.6767112E7 4:1.6749546E7 5:11488.0 6:17351.0 7:4167.0 8:5099.0 9:5908.0 10:1.6755225E7 
1.0 1:56.0 2:100.0 3:71916.0 4:55347.0 5:1.6759599E7 6:2245.0 7:10273.0 8:5877.0 9:3602.0 10:4632.0 
1.0 1:56.0 2:94.0 3:408233.0 4:286700.0 5:1.6774133E7 6:1.6753316E7 7:29173.0 8:22724.0 9:12101.0 10:90064.0 
1.0 1:51.0 2:97.0 3:168302.0 4:1.6747398E7 5:25436.0 6:7939.0 7:13673.0 8:6450.0 9:4675.0 10:17319.0 
1.0 1:74.0 2:93.0 3:19399.0 4:30607.0 5:1.6745999E7 6:16628.0 7:6222.0 8:6027.0 9:3254.0 10:80754.0 
1.0 1:66.0 2:97.0 3:592574.0 4:58060.0 5:74513.0 6:21623.0 7:26069.0 8:11280.0 9:10802.0 10:20440.0 
1.0 1:56.0 2:90.0 3:350616.0 4:283112.0 5:1.6745211E7 6:70023.0 7:78766.0 8:11867.0 9:9630.0 10:1.6774721E7 
1.0 1:64.0 2:77.0 3:301035.0 4:234096.0 5:1.6776743E7 6:1.6761852E7 7:24454.0 8:4644.0 9:10549.0 10:25954.0 
1.0 1:63.0 2:81.0 3:398582.0 4:1.6775491E7 5:36105.0 6:5149.0 7:21688.0 8:5867.0 9:6009.0 10:5233.0 
1.0 1:80.0 2:56.0 3:588043.0 4:312340.0 5:505312.0 6:294474.0 7:178941.0 8:77292.0 9:1.6755338E7 10:133273.0 
1.0 1:77.0 2:63.0 3:354875.0 4:19493.0 5:9879.0 6:9699.0 7:17478.0 8:8948.0 9:3545.0 10:23524.0 
1.0 1:69.0 2:57.0 3:321737.0 4:44329.0 5:1.6772345E7 6:147165.0 7:10584.0 8:15507.0 9:27631.0 10:1.6748508E7 
1.0 1:54.0 2:43.0 3:18196.0 4:1.6771672E7 5:13906.0 6:1.6747289E7 7:3978.0 8:8780.0 9:6098.0 10:74703.0 
1.0 1:54.0 2:53.0 3:74777.0 4:74489.0 5:26781.0 6:17782.0 7:16010.0 8:11769.0 9:8505.0 10:73638.0 
1.0 1:74.0 2:44.0 3:8001.0 4:13576.0 5:13681.0 6:31348.0 7:5964.0 8:24388.0 9:5394.0 10:1.6770918E7 
1.0 1:77.0 2:63.0 3:1.6775775E7 4:30654.0 5:8257.0 6:6210.0 7:2999.0 8:2547.0 9:2920.0 10:11225.0 
1.0 1:91.0 2:75.0 3:25882.0 4:12344.0 5:9521.0 6:23735.0 7:7633.0 8:6724.0 9:4170.0 10:1.6768141E7 
1.0 1:74.0 2:80.0 3:241496.0 4:32087.0 5:6516.0 6:11965.0 7:1962.0 8:1937.0 9:2498.0 10:15057.0 
1.0 1:70.0 2:80.0 3:13028.0 4:18536.0 5:16703.0 6:19638.0 7:17365.0 8:13556.0 9:5254.0 10:1.6769038E7 
1.0 1:74.0 2:64.0 3:164555.0 4:1.6773545E7 5:22717.0 6:6977.0 7:6356.0 8:15131.0 9:6249.0 10:1.6764374E7 
1.0 1:66.0 2:61.0 3:4628.0 4:24947.0 5:24712.0 6:10886.0 7:8708.0 8:8210.0 9:4022.0 10:1.676672E7 
1.0 1:74.0 2:67.0 3:4282.0 4:7497.0 5:9675.0 6:4961.0 7:3052.0 8:3590.0 9:10358.0 10:1.6768017E7 
1.0 1:54.0 2:67.0 3:94694.0 4:18530.0 5:7410.0 6:7943.0 7:3826.0 8:5423.0 9:3956.0 10:1.6768737E7 
1.0 1:54.0 2:70.0 3:6326.0 4:2888.0 5:4231.0 6:5013.0 7:10247.0 8:9996.0 9:5263.0 10:69451.0 
1.0 1:64.0 2:64.0 3:14870.0 4:12285.0 5:4602.0 6:4770.0 7:6650.0 8:7672.0 9:6925.0 10:1.6765759E7 
1.0 1:54.0 2:53.0 3:361259.0 4:29534.0 5:6593.0 6:13378.0 7:6929.0 8:2464.0 9:716.0 10:15373.0 
1.0 1:61.0 2:75.0 3:1682766.0 4:1.6765898E7 5:16065.0 6:22205.0 7:4453.0 8:6122.0 9:1178.0 10:15153.0 
1.0 1:57.0 2:81.0 3:67610.0 4:20911.0 5:4694.0 6:14390.0 7:3845.0 8:2819.0 9:1322.0 10:12430.0 
1.0 1:51.0 2:87.0 3:1.6768977E7 4:1.6753627E7 5:21966.0 6:9791.0 7:21603.0 8:7401.0 9:2980.0 10:1.6758696E7 
1.0 1:57.0 2:81.0 3:208455.0 4:1.6768495E7 5:9601.0 6:5642.0 7:5272.0 8:2523.0 9:222.0 10:9634.0 
1.0 1:50.0 2:66.0 3:10715.0 4:26515.0 5:18665.0 6:5205.0 7:4361.0 8:10651.0 9:2269.0 10:1.67569E7 
1.0 1:41.0 2:43.0 3:110251.0 4:96999.0 5:6342.0 6:11751.0 7:2395.0 8:1477.0 9:739.0 10:9036.0 
1.0 1:44.0 2:44.0 3:1.6746118E7 4:23969.0 5:9927.0 6:10450.0 7:3279.0 8:7610.0 9:3401.0 10:1.6759054E7 
1.0 1:51.0 2:44.0 3:97565.0 4:22136.0 5:3734.0 6:6330.0 7:10590.0 8:2814.0 9:200.0 10:8120.0 
1.0 1:67.0 2:38.0 3:7970.0 4:15261.0 5:8600.0 6:10286.0 7:4238.0 8:5123.0 9:3216.0 10:1.6746826E7 
1.0 1:84.0 2:54.0 3:7828.0 4:4104.0 5:13775.0 6:11096.0 7:5294.0 8:5258.0 9:2275.0 10:25775.0 
1.0 1:90.0 2:53.0 3:45546.0 4:9460.0 5:5157.0 6:3134.0 7:8519.0 8:3351.0 9:393.0 10:11520.0 
1.0 1:94.0 2:70.0 3:217382.0 4:5600.0 5:8712.0 6:9854.0 7:2009.0 8:2994.0 9:1701.0 10:6164.0 
1.0 1:83.0 2:81.0 3:1.6757308E7 4:31407.0 5:13127.0 6:11166.0 7:12551.0 8:9747.0 9:5124.0 10:22412.0 
1.0 1:67.0 2:81.0 3:102147.0 4:44293.0 5:1.6755363E7 6:1.675483E7 7:23831.0 8:10586.0 9:3764.0 10:30532.0 
1.0 1:64.0 2:87.0 3:8142.0 4:21956.0 5:6027.0 6:23815.0 7:7371.0 8:13812.0 9:1816.0 10:1.6745995E7 
1.0 1:61.0 2:70.0 3:13448.0 4:10137.0 5:4541.0 6:5553.0 7:4745.0 8:2844.0 9:2360.0 10:1.6765829E7 
1.0 1:88.0 2:51.0 3:1.675181E7 4:5556.0 5:2876.0 6:7688.0 7:3295.0 8:1268.0 9:444.0 10:9691.0 
1.0 1:93.0 2:37.0 3:10533.0 4:1.6756327E7 5:17334.0 6:20179.0 7:10953.0 8:12018.0 9:3334.0 10:1.6752504E7 
1.0 1:81.0 2:30.0 3:1.6760028E7 4:32488.0 5:25794.0 6:7115.0 7:5769.0 8:6785.0 9:8090.0 10:31158.0 
1.0 1:77.0 2:44.0 3:24233.0 4:30922.0 5:18289.0 6:9143.0 7:18678.0 8:4359.0 9:4187.0 10:31784.0 
1.0 1:61.0 2:60.0 3:2533.0 4:27343.0 5:12262.0 6:12392.0 7:18635.0 8:14061.0 9:3239.0 10:72474.0 
1.0 1:66.0 2:61.0 3:5111.0 4:17984.0 5:12824.0 6:6010.0 7:14987.0 8:2640.0 9:4066.0 10:68428.0 
1.0 1:61.0 2:63.0 3:1426270.0 4:85834.0 5:1.6775468E7 6:13791.0 7:27885.0 8:7080.0 9:2652.0 10:72243.0 
1.0 1:74.0 2:53.0 3:136746.0 4:13453.0 5:22891.0 6:13068.0 7:7143.0 8:6018.0 9:5491.0 10:35296.0 
1.0 1:70.0 2:60.0 3:225234.0 4:84335.0 5:9394.0 6:32480.0 7:21420.0 8:9765.0 9:6919.0 10:69150.0 
1.0 1:63.0 2:63.0 3:133475.0 4:28126.0 5:6692.0 6:7996.0 7:4468.0 8:1972.0 9:1819.0 10:11948.0 
1.0 1:74.0 2:60.0 3:27011.0 4:2549.0 5:2748.0 6:1594.0 7:612.0 8:452.0 9:359.0 10:2181.0 
1.0 1:61.0 2:63.0 3:1.6757326E7 4:18155.0 5:11777.0 6:2794.0 7:14240.0 8:11252.0 9:8317.0 10:78510.0 
1.0 1:57.0 2:54.0 3:609289.0 4:1.6750106E7 5:2102.0 6:10669.0 7:17704.0 8:3561.0 9:12574.0 10:1.6761488E7 
1.0 1:56.0 2:63.0 3:7032.0 4:15453.0 5:12829.0 6:11322.0 7:7702.0 8:10456.0 9:8992.0 10:1.6766407E7 
1.0 1:56.0 2:81.0 3:29066.0 4:8957.0 5:4820.0 6:7311.0 7:19145.0 8:8755.0 9:4073.0 10:1.6776025E7 
1.0 1:47.0 2:81.0 3:208287.0 4:1.6775627E7 5:1.6762593E7 6:16246.0 7:24011.0 8:11988.0 9:3023.0 10:1.6752226E7 
1.0 1:56.0 2:81.0 3:442510.0 4:12148.0 5:30869.0 6:12200.0 7:4779.0 8:7331.0 9:4533.0 10:1.6751665E7 
1.0 1:67.0 2:67.0 3:4104.0 4:23007.0 5:1.6762248E7 6:24513.0 7:15945.0 8:19873.0 9:5780.0 10:1.6775133E7 
1.0 1:66.0 2:51.0 3:357397.0 4:1.6764329E7 5:24346.0 6:9259.0 7:7623.0 8:3845.0 9:3286.0 10:8547.0 
1.0 1:67.0 2:37.0 3:18503.0 4:72484.0 5:32263.0 6:1.6745835E7 7:17974.0 8:21842.0 9:4268.0 10:1.6753331E7 
1.0 1:56.0 2:35.0 3:206315.0 4:22060.0 5:18447.0 6:11767.0 7:7012.0 8:7288.0 9:2453.0 10:1.6762861E7 
1.0 1:48.0 2:50.0 3:1.6766729E7 4:21197.0 5:1.6760237E7 6:19115.0 7:11160.0 8:9407.0 9:3887.0 10:1.675274E7 
1.0 1:50.0 2:63.0 3:25878.0 4:17170.0 5:5149.0 6:8666.0 7:4768.0 8:13297.0 9:1758.0 10:1.674929E7 
1.0 1:53.0 2:81.0 3:1.6757828E7 4:32529.0 5:31110.0 6:1.6745945E7 7:31439.0 8:6835.0 9:6743.0 10:1.6770299E7 
1.0 1:61.0 2:70.0 3:311830.0 4:94868.0 5:21077.0 6:25682.0 7:11808.0 8:7623.0 9:3291.0 10:1.6758287E7 
1.0 1:66.0 2:67.0 3:16035.0 4:12983.0 5:5923.0 6:11087.0 7:14437.0 8:7785.0 9:1441.0 10:1.674578E7 
1.0 1:61.0 2:70.0 3:7472.0 4:14090.0 5:13567.0 6:5238.0 7:5547.0 8:11964.0 9:2964.0 10:1.6761061E7 
1.0 1:57.0 2:67.0 3:15172.0 4:12154.0 5:875.0 6:1673.0 7:7503.0 8:5436.0 9:1474.0 10:1.6750463E7 
1.0 1:44.0 2:64.0 3:94499.0 4:68936.0 5:31622.0 6:1.6756358E7 7:1.6744697E7 8:6505.0 9:8477.0 10:1.6753497E7 
1.0 1:29.0 2:54.0 3:6607.0 4:19679.0 5:4235.0 6:4512.0 7:9360.0 8:4454.0 9:1379.0 10:1.674714E7 
1.0 1:37.0 2:41.0 3:221037.0 4:70331.0 5:10983.0 6:2096.0 7:21208.0 8:5879.0 9:3839.0 10:1.6754409E7 
1.0 1:41.0 2:38.0 3:4361.0 4:9601.0 5:2064.0 6:3498.0 7:6678.0 8:5917.0 9:5695.0 10:1.6755248E7 
1.0 1:44.0 2:60.0 3:713.0 4:16114.0 5:4769.0 6:5979.0 7:7393.0 8:7966.0 9:8523.0 10:1.674969E7 
1.0 1:51.0 2:61.0 3:1.6761599E7 4:1768.0 5:6265.0 6:2142.0 7:1661.0 8:2107.0 9:1252.0 10:11393.0 
1.0 1:41.0 2:66.0 3:18808.0 4:26093.0 5:15656.0 6:2500.0 7:2044.0 8:11362.0 9:2491.0 10:1.6763918E7 
1.0 1:41.0 2:53.0 3:1.6773638E7 4:1.6767994E7 5:25257.0 6:9665.0 7:12911.0 8:5336.0 9:2806.0 10:1.6756749E7 
1.0 1:35.0 2:37.0 3:62544.0 4:1.6747952E7 5:16994.0 6:4117.0 7:14705.0 8:15916.0 9:4588.0 10:1.675783E7 
1.0 1:30.0 2:38.0 3:56671.0 4:6928.0 5:3410.0 6:2591.0 7:3545.0 8:2848.0 9:466.0 10:4285.0 
1.0 1:35.0 2:38.0 3:167741.0 4:78053.0 5:22183.0 6:17744.0 7:20439.0 8:18006.0 9:7290.0 10:8376.0 
1.0 1:27.0 2:44.0 3:35887.0 4:29052.0 5:25594.0 6:16766.0 7:14405.0 8:7137.0 9:8473.0 10:12484.0 
1.0 1:43.0 2:43.0 3:77959.0 4:65658.0 5:8490.0 6:10520.0 7:896.0 8:3574.0 9:2240.0 10:2660.0 
1.0 1:57.0 2:51.0 3:1.6756317E7 4:20528.0 5:24396.0 6:6692.0 7:21143.0 8:12461.0 9:7969.0 10:21137.0 
1.0 1:56.0 2:41.0 3:1379449.0 4:80216.0 5:12402.0 6:13612.0 7:10035.0 8:1.6745069E7 9:12954.0 10:1.6762284E7 
1.0 1:63.0 2:61.0 3:71848.0 4:69000.0 5:9693.0 6:11558.0 7:4751.0 8:3833.0 9:2623.0 10:15386.0 
1.0 1:44.0 2:64.0 3:10459.0 4:12542.0 5:1.6758982E7 6:22936.0 7:5340.0 8:7542.0 9:3935.0 10:34388.0 
1.0 1:29.0 2:60.0 3:2908.0 4:10243.0 5:1.6756835E7 6:2979.0 7:7298.0 8:9388.0 9:4970.0 10:136797.0 
1.0 1:44.0 2:67.0 3:18419.0 4:1.6749578E7 5:8127.0 6:9860.0 7:9892.0 8:10100.0 9:8315.0 10:126898.0 
1.0 1:43.0 2:51.0 3:20185.0 4:77743.0 5:5932.0 6:14025.0 7:8109.0 8:8636.0 9:3466.0 10:131215.0 
1.0 1:63.0 2:56.0 3:223648.0 4:25865.0 5:8625.0 6:9378.0 7:7724.0 8:1205.0 9:932.0 10:1.6750233E7 
1.0 1:51.0 2:54.0 3:136870.0 4:36362.0 5:4828.0 6:15096.0 7:4622.0 8:8819.0 9:21817.0 10:245410.0 
1.0 1:41.0 2:44.0 3:1.6756699E7 4:25793.0 5:11345.0 6:6758.0 7:12545.0 8:10279.0 9:7759.0 10:318106.0 
1.0 1:44.0 2:53.0 3:472034.0 4:1.6767963E7 5:7880.0 6:11359.0 7:20284.0 8:13503.0 9:10136.0 10:180389.0 
1.0 1:27.0 2:50.0 3:178943.0 4:70986.0 5:17587.0 6:8620.0 7:3991.0 8:18263.0 9:6856.0 10:78383.0 
1.0 1:50.0 2:51.0 3:9879.0 4:12644.0 5:29521.0 6:10032.0 7:10117.0 8:19480.0 9:6325.0 10:25191.0 
1.0 1:41.0 2:56.0 3:342754.0 4:14576.0 5:12617.0 6:8532.0 7:1.6746268E7 8:15126.0 9:10512.0 10:9081.0 
1.0 1:40.0 2:53.0 3:4751.0 4:11832.0 5:4742.0 6:27185.0 7:5068.0 8:11158.0 9:14125.0 10:7276.0 
1.0 1:48.0 2:54.0 3:262653.0 4:87860.0 5:68565.0 6:1.6748101E7 7:16461.0 8:11127.0 9:13976.0 10:5470.0 
1.0 1:44.0 2:57.0 3:36332.0 4:1.6764514E7 5:1.6757703E7 6:26117.0 7:10388.0 8:11148.0 9:4151.0 10:14696.0 
1.0 1:40.0 2:51.0 3:19651.0 4:8134.0 5:3530.0 6:8384.0 7:9775.0 8:6853.0 9:4453.0 10:18403.0 
1.0 1:38.0 2:54.0 3:71273.0 4:9419.0 5:1573.0 6:2781.0 7:3900.0 8:2517.0 9:997.0 10:5632.0 
1.0 1:29.0 2:63.0 3:20178.0 4:9639.0 5:2951.0 6:386.0 7:5306.0 8:20345.0 9:2613.0 10:20684.0 
1.0 1:17.0 2:77.0 3:1.675249E7 4:1.674764E7 5:5645.0 6:4508.0 7:5757.0 8:10130.0 9:4660.0 10:14647.0 
1.0 1:29.0 2:83.0 3:75564.0 4:1.6769028E7 5:2195.0 6:20971.0 7:8144.0 8:9027.0 9:3081.0 10:19997.0 
1.0 1:30.0 2:61.0 3:1.6777021E7 4:1.6745961E7 5:12890.0 6:1.6760431E7 7:13013.0 8:15382.0 9:15424.0 10:18344.0 
1.0 1:34.0 2:60.0 3:1.6771915E7 4:17443.0 5:17969.0 6:11079.0 7:19834.0 8:11897.0 9:4921.0 10:3758.0 
1.0 1:30.0 2:40.0 3:5086.0 4:1.6749828E7 5:3878.0 6:12494.0 7:8243.0 8:20172.0 9:8547.0 10:17721.0 
1.0 1:17.0 2:30.0 3:1.6761319E7 4:31272.0 5:11058.0 6:705.0 7:1534.0 8:2543.0 9:1406.0 10:2243.0 
1.0 1:17.0 2:48.0 3:3527.0 4:6354.0 5:8952.0 6:3987.0 7:13789.0 8:14524.0 9:4866.0 10:10522.0 
1.0 1:14.0 2:51.0 3:1099.0 4:9657.0 5:14873.0 6:11087.0 7:6661.0 8:6505.0 9:3822.0 10:16685.0 
1.0 1:20.0 2:53.0 3:524331.0 4:1.6752226E7 5:15722.0 6:4421.0 7:11025.0 8:9484.0 9:4417.0 10:12563.0 
1.0 1:13.0 2:47.0 3:11028.0 4:19436.0 5:1859.0 6:8305.0 7:12372.0 8:5456.0 9:1928.0 10:6275.0 
1.0 1:3.0 2:41.0 3:18850.0 4:22438.0 5:14274.0 6:5950.0 7:5603.0 8:9413.0 9:3087.0 10:25203.0 
1.0 1:14.0 2:35.0 3:43157.0 4:1.6756106E7 5:18679.0 6:12087.0 7:11588.0 8:7811.0 9:4670.0 10:15997.0 
1.0 1:17.0 2:29.0 3:12630.0 4:21797.0 5:5058.0 6:20743.0 7:4815.0 8:6603.0 9:6530.0 10:10278.0 
1.0 1:34.0 2:50.0 3:4334.0 4:6208.0 5:23620.0 6:19658.0 7:12188.0 8:8232.0 9:8849.0 10:11316.0 
1.0 1:50.0 2:41.0 3:24909.0 4:1.6762435E7 5:26663.0 6:7796.0 7:6298.0 8:5904.0 9:4927.0 10:9513.0 
1.0 1:41.0 2:35.0 3:16472.0 4:12119.0 5:3170.0 6:11499.0 7:6753.0 8:9192.0 9:7214.0 10:18897.0 
1.0 1:43.0 2:50.0 3:9500.0 4:12131.0 5:1264.0 6:2662.0 7:6397.0 8:8045.0 9:4201.0 10:6813.0 
1.0 1:41.0 2:51.0 3:6514.0 4:1.67478E7 5:6396.0 6:11735.0 7:18828.0 8:8168.0 9:1844.0 10:7361.0 
1.0 1:34.0 2:74.0 3:58439.0 4:35107.0 5:8601.0 6:6701.0 7:11015.0 8:8080.0 9:4841.0 10:11557.0 
1.0 1:37.0 2:80.0 3:1.6749211E7 4:1.6752846E7 5:22031.0 6:5032.0 7:10505.0 8:6787.0 9:10413.0 10:12559.0 
1.0 1:26.0 2:66.0 3:1591.0 4:12532.0 5:22135.0 6:3646.0 7:13947.0 8:7862.0 9:4287.0 10:15194.0 
1.0 1:24.0 2:60.0 3:80320.0 4:67195.0 5:1.6768828E7 6:1.6754692E7 7:4911.0 8:30259.0 9:2094.0 10:6565.0 
1.0 1:29.0 2:51.0 3:5348.0 4:19698.0 5:15333.0 6:16026.0 7:10834.0 8:5710.0 9:4349.0 10:16765.0 
1.0 1:29.0 2:50.0 3:1.6755588E7 4:31701.0 5:5246.0 6:3667.0 7:13674.0 8:9133.0 9:9076.0 10:9723.0 
1.0 1:43.0 2:54.0 3:11659.0 4:11953.0 5:4247.0 6:11080.0 7:6562.0 8:10950.0 9:4423.0 10:5967.0 
1.0 1:51.0 2:41.0 3:75562.0 4:15206.0 5:22075.0 6:17196.0 7:7591.0 8:5173.0 9:3927.0 10:7457.0 
1.0 1:40.0 2:30.0 3:38924.0 4:1.6766074E7 5:1.6751236E7 6:10200.0 7:20291.0 8:7394.0 9:6695.0 10:10144.0 
1.0 1:48.0 2:38.0 3:83460.0 4:24412.0 5:844.0 6:2688.0 7:5821.0 8:1611.0 9:1559.0 10:5486.0 
1.0 1:41.0 2:48.0 3:42745.0 4:14515.0 5:1433.0 6:2005.0 7:2441.0 8:1154.0 9:1402.0 10:2687.0 
1.0 1:30.0 2:63.0 3:326985.0 4:1.674708E7 5:14854.0 6:12143.0 7:20242.0 8:13333.0 9:11882.0 10:6518.0 
1.0 1:34.0 2:66.0 3:17771.0 4:1.675115E7 5:5470.0 6:16659.0 7:6096.0 8:8422.0 9:7220.0 10:6093.0 
1.0 1:14.0 2:64.0 3:128017.0 4:11876.0 5:12154.0 6:9170.0 7:3971.0 8:2930.0 9:1553.0 10:1797.0 
1.0 1:16.0 2:54.0 3:82504.0 4:17625.0 5:3717.0 6:2304.0 7:3926.0 8:3591.0 9:3221.0 10:19256.0 
1.0 1:7.0 2:47.0 3:79130.0 4:10676.0 5:2761.0 6:6136.0 7:2978.0 8:1298.0 9:1063.0 10:23359.0 
1.0 1:1.0 2:61.0 3:1.6758154E7 4:1.6765557E7 5:2744.0 6:4825.0 7:9641.0 8:7489.0 9:19731.0 10:1.6776919E7 
1.0 1:3.0 2:60.0 3:192717.0 4:157329.0 5:29296.0 6:10973.0 7:26937.0 8:8552.0 9:2940.0 10:68672.0 
1.0 1:1.0 2:48.0 3:60179.0 4:21475.0 5:3492.0 6:4812.0 7:4290.0 8:2810.0 9:1228.0 10:13899.0 
1.0 1:1.0 2:54.0 3:466712.0 4:24108.0 5:10517.0 6:6445.0 7:1594.0 8:4211.0 9:1838.0 10:8476.0 
1.0 1:14.0 2:50.0 3:1124210.0 4:136594.0 5:17695.0 6:14597.0 7:13705.0 8:9493.0 9:4939.0 10:27084.0 
1.0 1:21.0 2:60.0 3:81174.0 4:11560.0 5:2189.0 6:1114.0 7:2429.0 8:3662.0 9:1596.0 10:6732.0 
1.0 1:35.0 2:67.0 3:20265.0 4:14151.0 5:10759.0 6:14609.0 7:5746.0 8:16790.0 9:12589.0 10:19594.0 
1.0 1:51.0 2:69.0 3:1.6745357E7 4:74034.0 5:15364.0 6:5696.0 7:7339.0 8:8642.0 9:14812.0 10:28369.0 
1.0 1:53.0 2:60.0 3:9746.0 4:7041.0 5:9740.0 6:27384.0 7:13699.0 8:4536.0 9:12519.0 10:68733.0 
1.0 1:44.0 2:30.0 3:1.677644E7 4:15242.0 5:660.0 6:3440.0 7:634.0 8:603.0 9:1335.0 10:2557.0 
1.0 1:43.0 2:34.0 3:29987.0 4:39951.0 5:1.6760307E7 6:22779.0 7:1.6776425E7 8:14316.0 9:12931.0 10:18756.0 
1.0 1:38.0 2:21.0 3:1.674718E7 4:7936.0 5:3639.0 6:9739.0 7:7659.0 8:11456.0 9:10796.0 10:83128.0 
1.0 1:34.0 2:17.0 3:296531.0 4:162838.0 5:1.6751605E7 6:19495.0 7:2752.0 8:21554.0 9:7035.0 10:75317.0 
1.0 1:44.0 2:43.0 3:595207.0 4:1.6746244E7 5:1969.0 6:29583.0 7:1.6750605E7 8:19448.0 9:19381.0 10:1.6774188E7 
1.0 1:40.0 2:34.0 3:441402.0 4:213392.0 5:1.6775792E7 6:16866.0 7:7191.0 8:6670.0 9:25586.0 10:7969.0 
1.0 1:40.0 2:48.0 3:275370.0 4:4836.0 5:586.0 6:1826.0 7:6354.0 8:1363.0 9:1084.0 10:1571.0 
1.0 1:37.0 2:64.0 3:828891.0 4:142837.0 5:115084.0 6:14978.0 7:1.675522E7 8:1.6760125E7 9:1.676865E7 10:30193.0 
1.0 1:34.0 2:57.0 3:1837384.0 4:139810.0 5:21875.0 6:14487.0 7:3473.0 8:7752.0 9:6752.0 10:5966.0 
1.0 1:35.0 2:67.0 3:60141.0 4:7527.0 5:2097.0 6:2622.0 7:1081.0 8:2704.0 9:1712.0 10:829.0 
1.0 1:27.0 2:60.0 3:312910.0 4:31760.0 5:9756.0 6:5654.0 7:12074.0 8:3188.0 9:4357.0 10:5801.0 
1.0 1:27.0 2:51.0 3:83169.0 4:1.6761765E7 5:25906.0 6:12323.0 7:15665.0 8:9881.0 9:19157.0 10:8765.0 
1.0 1:26.0 2:53.0 3:1233279.0 4:283611.0 5:88367.0 6:6004.0 7:1.6746134E7 8:1.6752724E7 9:22083.0 10:4020.0 
1.0 1:35.0 2:40.0 3:1276603.0 4:44151.0 5:2310.0 6:95488.0 7:8652.0 8:1.6744797E7 9:16184.0 10:16873.0 
1.0 1:53.0 2:48.0 3:323156.0 4:178590.0 5:25554.0 6:29934.0 7:13583.0 8:12200.0 9:5632.0 10:9602.0 
1.0 1:53.0 2:57.0 3:311892.0 4:26177.0 5:9159.0 6:19985.0 7:11216.0 8:5344.0 9:3850.0 10:2433.0 
1.0 1:51.0 2:50.0 3:652731.0 4:128054.0 5:97659.0 6:1.6759442E7 7:13004.0 8:14982.0 9:10521.0 10:11762.0 
1.0 1:50.0 2:70.0 3:46148.0 4:36345.0 5:263734.0 6:1.6764097E7 7:21700.0 8:19200.0 9:12727.0 10:9774.0 
1.0 1:41.0 2:70.0 3:1159740.0 4:22062.0 5:3482.0 6:9309.0 7:3875.0 8:5855.0 9:5579.0 10:19603.0 
1.0 1:47.0 2:47.0 3:35790.0 4:1.6761781E7 5:2724.0 6:1425.0 7:1815.0 8:5563.0 9:1092.0 10:18799.0 
1.0 1:47.0 2:56.0 3:178454.0 4:1.6751453E7 5:12500.0 6:15835.0 7:15162.0 8:3881.0 9:2780.0 10:64576.0 
1.0 1:43.0 2:53.0 3:985791.0 4:1.6760912E7 5:7027.0 6:12418.0 7:10429.0 8:2574.0 9:1864.0 10:198152.0 
1.0 1:47.0 2:57.0 3:218245.0 4:382252.0 5:1.6759596E7 6:1.6750159E7 7:15683.0 8:20723.0 9:14609.0 10:738541.0 
1.0 1:57.0 2:70.0 3:2036533.0 4:273304.0 5:1.6744983E7 6:97834.0 7:1.6745658E7 8:1.6749843E7 9:9129.0 10:494580.0 
1.0 1:78.0 2:70.0 3:96617.0 4:4007.0 5:2776.0 6:140.0 7:433.0 8:337.0 9:107.0 10:11398.0 
1.0 1:81.0 2:66.0 3:1157935.0 4:293997.0 5:74754.0 6:1.6772914E7 7:1.6758753E7 8:27793.0 9:6980.0 10:756428.0 
1.0 1:81.0 2:63.0 3:916555.0 4:432326.0 5:1.6747549E7 6:15071.0 7:17247.0 8:11006.0 9:5536.0 10:804055.0 
1.0 1:78.0 2:63.0 3:676146.0 4:68881.0 5:18719.0 6:3681.0 7:7297.0 8:2956.0 9:1511.0 10:50593.0 
1.0 1:70.0 2:64.0 3:30162.0 4:56004.0 5:1.6745102E7 6:18246.0 7:29412.0 8:24837.0 9:3046.0 10:1.6745117E7 
1.0 1:64.0 2:69.0 3:309860.0 4:1.6773132E7 5:19905.0 6:4609.0 7:21899.0 8:7002.0 9:1062.0 10:3678.0 
1.0 1:66.0 2:63.0 3:310486.0 4:21119.0 5:4233.0 6:10646.0 7:2495.0 8:3751.0 9:2129.0 10:7606.0 
1.0 1:47.0 2:64.0 3:240835.0 4:150121.0 5:12771.0 6:16698.0 7:1.6774252E7 8:1.6749996E7 9:5373.0 10:1.6763875E7 
1.0 1:35.0 2:61.0 3:62833.0 4:32049.0 5:1324.0 6:4581.0 7:3097.0 8:1677.0 9:1223.0 10:3330.0 
1.0 1:43.0 2:61.0 3:20078.0 4:28910.0 5:3950.0 6:1.6759444E7 7:5158.0 8:7637.0 9:3337.0 10:1.6745226E7 
1.0 1:40.0 2:77.0 3:169810.0 4:1.6758493E7 5:19360.0 6:31956.0 7:17109.0 8:8274.0 9:3862.0 10:1.6750851E7 
1.0 1:60.0 2:75.0 3:71465.0 4:14041.0 5:12708.0 6:6871.0 7:3736.0 8:2959.0 9:1532.0 10:6194.0 
1.0 1:67.0 2:75.0 3:1338421.0 4:113750.0 5:1.6754816E7 6:1.6746532E7 7:31244.0 8:20069.0 9:4818.0 10:1.6768454E7 
1.0 1:70.0 2:67.0 3:138472.0 4:35778.0 5:17999.0 6:20805.0 7:18265.0 8:5206.0 9:6864.0 10:1.67693E7 
1.0 1:81.0 2:66.0 3:104027.0 4:31244.0 5:11657.0 6:7558.0 7:15479.0 8:3590.0 9:1238.0 10:13479.0 
1.0 1:75.0 2:51.0 3:18103.0 4:1.6753936E7 5:10962.0 6:11411.0 7:3878.0 8:11122.0 9:3169.0 10:1.6761179E7 
1.0 1:70.0 2:54.0 3:444815.0 4:72016.0 5:150.0 6:24384.0 7:11623.0 8:7038.0 9:7715.0 10:1.6753641E7 
1.0 1:57.0 2:64.0 3:1090689.0 4:110266.0 5:1.6771482E7 6:1.6773398E7 7:21359.0 8:1.6757787E7 9:17735.0 10:87695.0 
1.0 1:50.0 2:60.0 3:2311635.0 4:229776.0 5:18532.0 6:32025.0 7:55766.0 8:1.6773401E7 9:7617.0 10:1072323.0 
1.0 1:57.0 2:80.0 3:185421.0 4:1.6769401E7 5:7108.0 6:4212.0 7:18841.0 8:3122.0 9:1997.0 10:5582.0 
1.0 1:69.0 2:74.0 3:143525.0 4:71160.0 5:1.6744738E7 6:27959.0 7:15291.0 8:26907.0 9:7901.0 10:9198.0 
1.0 1:81.0 2:70.0 3:378583.0 4:12112.0 5:6298.0 6:14215.0 7:3424.0 8:2222.0 9:2257.0 10:2516.0 
1.0 1:84.0 2:60.0 3:218670.0 4:91492.0 5:1.6764331E7 6:7881.0 7:17985.0 8:8473.0 9:8395.0 10:22232.0 
1.0 1:78.0 2:37.0 3:182953.0 4:155972.0 5:27471.0 6:8808.0 7:9960.0 8:9798.0 9:2487.0 10:1.6753014E7 
1.0 1:70.0 2:48.0 3:1951416.0 4:56876.0 5:23267.0 6:1.6760704E7 7:30385.0 8:4954.0 9:3372.0 10:1.675135E7 
1.0 1:66.0 2:43.0 3:88228.0 4:72993.0 5:25454.0 6:12529.0 7:8856.0 8:8561.0 9:3329.0 10:1.6752433E7 
1.0 1:54.0 2:44.0 3:148699.0 4:228564.0 5:25058.0 6:29405.0 7:10080.0 8:5186.0 9:7703.0 10:1.6776219E7 
1.0 1:43.0 2:60.0 3:1.6760007E7 4:69411.0 5:1.6761047E7 6:31320.0 7:14703.0 8:3269.0 9:5552.0 10:1.6765243E7 
1.0 1:29.0 2:38.0 3:547010.0 4:118168.0 5:1.6756006E7 6:1.6751737E7 7:26186.0 8:13240.0 9:5061.0 10:22746.0 
1.0 1:27.0 2:37.0 3:25612.0 4:193042.0 5:19255.0 6:19364.0 7:8012.0 8:10906.0 9:5338.0 10:30288.0 
1.0 1:29.0 2:37.0 3:104291.0 4:70946.0 5:23564.0 6:6856.0 7:5915.0 8:3188.0 9:2046.0 10:5716.0 
1.0 1:43.0 2:30.0 3:274526.0 4:86333.0 5:31760.0 6:65555.0 7:29411.0 8:18949.0 9:10719.0 10:24845.0 
1.0 1:43.0 2:56.0 3:539757.0 4:73273.0 5:1.6769127E7 6:1.6754553E7 7:12323.0 8:16654.0 9:8714.0 10:79552.0 
1.0 1:29.0 2:60.0 3:491610.0 4:182851.0 5:7108.0 6:92474.0 7:1.6757429E7 8:1.6765431E7 9:20417.0 10:22081.0 
1.0 1:24.0 2:60.0 3:1.6753528E7 4:21379.0 5:11592.0 6:6524.0 7:9113.0 8:6535.0 9:3017.0 10:2529.0 
1.0 1:16.0 2:70.0 3:1042500.0 4:486709.0 5:109499.0 6:24694.0 7:139402.0 8:95053.0 9:52264.0 10:37551.0 
1.0 1:30.0 2:69.0 3:274736.0 4:1.6774996E7 5:2087.0 6:2228.0 7:7695.0 8:3060.0 9:8123.0 10:6606.0 
1.0 1:38.0 2:69.0 3:652716.0 4:53556.0 5:20029.0 6:1.6745007E7 7:15017.0 8:22236.0 9:16783.0 10:20327.0 
1.0 1:38.0 2:61.0 3:425048.0 4:346736.0 5:28503.0 6:22172.0 7:9711.0 8:1.6750627E7 9:15103.0 10:26707.0 
1.0 1:40.0 2:48.0 3:50755.0 4:1.6756529E7 5:8463.0 6:2387.0 7:2691.0 8:4606.0 9:7719.0 10:2983.0 
1.0 1:21.0 2:40.0 3:477163.0 4:1.6772707E7 5:1.6767413E7 6:25909.0 7:1.6751811E7 8:21269.0 9:14820.0 10:29011.0 
1.0 1:40.0 2:47.0 3:1052469.0 4:165493.0 5:26765.0 6:13021.0 7:25151.0 8:20146.0 9:22139.0 10:18803.0 
1.0 1:38.0 2:78.0 3:329004.0 4:23901.0 5:6075.0 6:15228.0 7:6079.0 8:4242.0 9:4205.0 10:3960.0 
1.0 1:56.0 2:84.0 3:34996.0 4:27497.0 5:18647.0 6:27211.0 7:9143.0 8:4835.0 9:4533.0 10:2329.0 
1.0 1:60.0 2:69.0 3:707653.0 4:1.6758302E7 5:13125.0 6:11282.0 7:12658.0 8:6542.0 9:3745.0 10:2396.0 
1.0 1:61.0 2:61.0 3:362245.0 4:201522.0 5:1.67501E7 6:1.6774502E7 7:1.6758786E7 8:26571.0 9:7202.0 10:5883.0 
1.0 1:83.0 2:40.0 3:40009.0 4:19940.0 5:5758.0 6:248.0 7:1980.0 8:731.0 9:359.0 10:536.0 
1.0 1:69.0 2:47.0 3:213531.0 4:24991.0 5:10387.0 6:5302.0 7:7754.0 8:3032.0 9:1516.0 10:1778.0 
1.0 1:78.0 2:50.0 3:293736.0 4:242343.0 5:51139.0 6:1.6748519E7 7:69013.0 8:1.6749613E7 9:6214.0 10:9337.0 
1.0 1:70.0 2:57.0 3:1366114.0 4:1.6756954E7 5:1162.0 6:8420.0 7:1.6745981E7 8:11267.0 9:12056.0 10:27480.0 
1.0 1:67.0 2:60.0 3:558138.0 4:82362.0 5:27547.0 6:67405.0 7:28938.0 8:1.6766229E7 9:13500.0 10:7372.0 
1.0 1:77.0 2:53.0 3:152248.0 4:9953.0 5:12430.0 6:7770.0 7:2737.0 8:1681.0 9:665.0 10:632.0 
1.0 1:84.0 2:63.0 3:207029.0 4:6640.0 5:3081.0 6:1643.0 7:2307.0 8:398.0 9:348.0 10:1.6777098E7 
1.0 1:88.0 2:50.0 3:1023699.0 4:71010.0 5:726.0 6:13100.0 7:11949.0 8:6076.0 9:4151.0 10:3041.0 
1.0 1:83.0 2:44.0 3:935602.0 4:90240.0 5:72330.0 6:97979.0 7:1.6745715E7 8:1.6758985E7 9:18293.0 10:11102.0 
1.0 1:77.0 2:48.0 3:2091316.0 4:39558.0 5:1.6747043E7 6:1.6772022E7 7:1.6767268E7 8:24634.0 9:31001.0 10:2354.0 
1.0 1:70.0 2:48.0 3:1311684.0 4:351187.0 5:22520.0 6:28531.0 7:1.6755406E7 8:1.6758254E7 9:11356.0 10:6927.0 
1.0 1:57.0 2:43.0 3:218655.0 4:1.6746089E7 5:7096.0 6:13943.0 7:11788.0 8:3748.0 9:2302.0 10:4314.0 
1.0 1:53.0 2:53.0 3:175304.0 4:25745.0 5:22273.0 6:11473.0 7:12645.0 8:7438.0 9:1732.0 10:5684.0 
1.0 1:43.0 2:50.0 3:18549.0 4:32395.0 5:12053.0 6:1.675286E7 7:24472.0 8:15804.0 9:22452.0 10:7491.0 
1.0 1:26.0 2:51.0 3:71264.0 4:24815.0 5:10765.0 6:17235.0 7:11394.0 8:21773.0 9:10778.0 10:1.6754009E7 
1.0 1:26.0 2:63.0 3:6838.0 4:12620.0 5:16824.0 6:3753.0 7:15271.0 8:24016.0 9:6512.0 10:1.6747173E7 
1.0 1:23.0 2:48.0 3:1.6756967E7 4:1.6748957E7 5:20042.0 6:10946.0 7:27328.0 8:13362.0 9:6198.0 10:1.6756803E7 
1.0 1:23.0 2:43.0 3:10600.0 4:1.6752192E7 5:11312.0 6:25988.0 7:13572.0 8:15245.0 9:8847.0 10:31847.0 
1.0 1:37.0 2:47.0 3:1.6751824E7 4:29222.0 5:17372.0 6:17963.0 7:22769.0 8:18336.0 9:11482.0 10:25722.0 
1.0 1:41.0 2:43.0 3:5595.0 4:15569.0 5:20821.0 6:8266.0 7:28138.0 8:14728.0 9:9360.0 10:20033.0 
1.0 1:40.0 2:41.0 3:113023.0 4:80116.0 5:67357.0 6:12639.0 7:16138.0 8:15239.0 9:4576.0 10:1.6764877E7 
1.0 1:41.0 2:43.0 3:20907.0 4:1.6746106E7 5:8038.0 6:17271.0 7:1.6746544E7 8:14715.0 9:4363.0 10:1.6760174E7 
1.0 1:41.0 2:38.0 3:86017.0 4:1.6763981E7 5:24370.0 6:8589.0 7:5076.0 8:2556.0 9:2087.0 10:6811.0 
1.0 1:40.0 2:34.0 3:1.6761865E7 4:1.6750396E7 5:3143.0 6:16626.0 7:12185.0 8:5969.0 9:6564.0 10:27476.0 
1.0 1:50.0 2:48.0 3:5937.0 4:24877.0 5:10830.0 6:23085.0 7:9782.0 8:15598.0 9:9326.0 10:1.6756372E7 
1.0 1:56.0 2:64.0 3:701.0 4:16122.0 5:1.675484E7 6:9630.0 7:14703.0 8:11155.0 9:2179.0 10:1.6751224E7 
1.0 1:53.0 2:41.0 3:10906.0 4:24538.0 5:28817.0 6:9104.0 7:29230.0 8:19970.0 9:6619.0 10:24497.0 
1.0 1:64.0 2:40.0 3:35863.0 4:28811.0 5:3089.0 6:20832.0 7:21927.0 8:12375.0 9:7999.0 10:1.6746424E7 
1.0 1:53.0 2:29.0 3:2270.0 4:15842.0 5:20193.0 6:7845.0 7:1.6746995E7 8:16637.0 9:8961.0 10:1.6760481E7 
1.0 1:43.0 2:8.0 3:10404.0 4:5199.0 5:21482.0 6:12634.0 7:9382.0 8:16966.0 9:18566.0 10:1.6751565E7 
1.0 1:48.0 2:27.0 3:1.677027E7 4:1.6763907E7 5:6577.0 6:3339.0 7:19316.0 8:8774.0 9:8652.0 10:1.6746098E7 
1.0 1:26.0 2:34.0 3:6072.0 4:1.675096E7 5:24394.0 6:4151.0 7:3870.0 8:12832.0 9:9600.0 10:1.6765723E7 
1.0 1:27.0 2:35.0 3:46569.0 4:1.6774171E7 5:80498.0 6:24303.0 7:14069.0 8:14277.0 9:9036.0 10:20305.0 
1.0 1:30.0 2:40.0 3:4971.0 4:3958.0 5:13927.0 6:6940.0 7:20314.0 8:4518.0 9:12073.0 10:21632.0 
1.0 1:14.0 2:37.0 3:10645.0 4:10965.0 5:20709.0 6:11497.0 7:7961.0 8:13611.0 9:10368.0 10:1.6757892E7 
1.0 1:11.0 2:35.0 3:4739.0 4:10334.0 5:3370.0 6:16274.0 7:1.6748517E7 8:19608.0 9:4881.0 10:29720.0 
1.0 1:17.0 2:38.0 3:19859.0 4:1.6747186E7 5:1.6747469E7 6:25780.0 7:8714.0 8:28895.0 9:11062.0 10:1.675229E7 
1.0 1:16.0 2:29.0 3:313150.0 4:12680.0 5:3902.0 6:1702.0 7:5647.0 8:6001.0 9:2236.0 10:4541.0 
1.0 1:35.0 2:21.0 3:11702.0 4:61428.0 5:7305.0 6:6593.0 7:30643.0 8:23259.0 9:7507.0 10:19658.0 
1.0 1:40.0 2:8.0 3:82389.0 4:1.6753308E7 5:24254.0 6:1.6769591E7 7:10895.0 8:1.675361E7 9:27794.0 10:32013.0 
1.0 1:40.0 2:4.0 3:1.6756636E7 4:1.6764301E7 5:25107.0 6:31331.0 7:30458.0 8:16761.0 9:6215.0 10:27850.0 
1.0 1:38.0 2:13.0 3:69476.0 4:1.6766856E7 5:6821.0 6:12721.0 7:6013.0 8:6639.0 9:2732.0 10:5584.0 
1.0 1:27.0 2:21.0 3:1878675.0 4:359239.0 5:84696.0 6:1.6767431E7 7:30898.0 8:22529.0 9:1.6754198E7 10:28625.0 
1.0 1:34.0 2:37.0 3:1126956.0 4:111243.0 5:9608.0 6:14197.0 7:6083.0 8:14124.0 9:13178.0 10:9081.0 
1.0 1:34.0 2:47.0 3:1152882.0 4:162972.0 5:36513.0 6:13968.0 7:1.6765644E7 8:1.6750764E7 9:71149.0 10:1.6749685E7 
1.0 1:29.0 2:50.0 3:345723.0 4:1.675466E7 5:7649.0 6:5694.0 7:6611.0 8:5863.0 9:7688.0 10:7173.0 
1.0 1:21.0 2:54.0 3:513663.0 4:143978.0 5:30522.0 6:26105.0 7:67066.0 8:1.6744369E7 9:11196.0 10:14117.0 
1.0 1:10.0 2:41.0 3:316810.0 4:18931.0 5:1.6761013E7 6:7252.0 7:15334.0 8:5690.0 9:13691.0 10:11751.0 
1.0 1:1.0 2:27.0 3:575075.0 4:223206.0 5:46429.0 6:67080.0 7:1.6745809E7 8:12024.0 9:13243.0 10:30415.0 
1.0 1:8.0 2:29.0 3:218197.0 4:32365.0 5:4792.0 6:5329.0 7:5050.0 8:2546.0 9:3222.0 10:7770.0 
1.0 1:14.0 2:14.0 3:1886928.0 4:174439.0 5:207819.0 6:76329.0 7:64283.0 8:1.6755574E7 9:29040.0 10:1.6763891E7 
1.0 1:29.0 2:35.0 3:2137.0 4:22182.0 5:1.6756293E7 6:1.6754783E7 7:13135.0 8:1.6748735E7 9:10373.0 10:13163.0 
1.0 1:26.0 2:40.0 3:1.6747851E7 4:75974.0 5:1.6751548E7 6:15807.0 7:11083.0 8:9068.0 9:3070.0 10:1.6761171E7 
1.0 1:11.0 2:37.0 3:332414.0 4:224026.0 5:10219.0 6:21028.0 7:29134.0 8:18080.0 9:13186.0 10:59969.0 
1.0 1:14.0 2:47.0 3:1006663.0 4:338061.0 5:28325.0 6:1.6751938E7 7:1.6751725E7 8:1.6746139E7 9:21574.0 10:1.6756105E7 
1.0 1:8.0 2:43.0 3:2132632.0 4:200937.0 5:1.6744809E7 6:84983.0 7:11653.0 8:14851.0 9:14155.0 10:19077.0 
1.0 1:23.0 2:54.0 3:18651.0 4:11423.0 5:21286.0 6:1.6748796E7 7:11943.0 8:29884.0 9:16638.0 10:1.674438E7 
1.0 1:26.0 2:63.0 3:3788.0 4:22718.0 5:71866.0 6:39705.0 7:9307.0 8:11933.0 9:24103.0 10:21000.0 
1.0 1:27.0 2:74.0 3:1.676578E7 4:24764.0 5:13262.0 6:17010.0 7:8024.0 8:1.6753195E7 9:11837.0 10:31568.0 
1.0 1:17.0 2:64.0 3:275735.0 4:27764.0 5:161.0 6:3755.0 7:1980.0 8:2169.0 9:1746.0 10:1443.0 
1.0 1:1.0 2:61.0 3:19151.0 4:7176.0 5:17833.0 6:18925.0 7:1.6754274E7 8:21999.0 9:1.6746173E7 10:29460.0 
1.0 1:17.0 2:60.0 3:21338.0 4:16695.0 5:22499.0 6:12787.0 7:1.6748948E7 8:29521.0 9:20439.0 10:1.6773699E7 
1.0 1:11.0 2:66.0 3:1.6768847E7 4:1.6760989E7 5:24878.0 6:1.6758716E7 7:21899.0 8:22472.0 9:18647.0 10:72677.0 
1.0 1:21.0 2:74.0 3:120578.0 4:29772.0 5:3835.0 6:4632.0 7:6671.0 8:7020.0 9:6448.0 10:10286.0 
1.0 1:27.0 2:74.0 3:17731.0 4:1.6746911E7 5:1.6761696E7 6:1.6761164E7 7:20852.0 8:30452.0 9:15248.0 10:1.6751302E7 
1.0 1:23.0 2:77.0 3:7459.0 4:16200.0 5:8300.0 6:20632.0 7:11645.0 8:21631.0 9:15193.0 10:1.675416E7 
1.0 1:27.0 2:50.0 3:1.6767845E7 4:32508.0 5:12501.0 6:18797.0 7:1.6748027E7 8:28576.0 9:5207.0 10:1.6766153E7 
1.0 1:35.0 2:53.0 3:32346.0 4:13077.0 5:15043.0 6:20747.0 7:19356.0 8:22388.0 9:8945.0 10:1.6773341E7 
1.0 1:37.0 2:60.0 3:73185.0 4:1.6751499E7 5:15262.0 6:10782.0 7:24490.0 8:25507.0 9:9689.0 10:87630.0 
1.0 1:26.0 2:50.0 3:736247.0 4:96373.0 5:8975.0 6:1.6748735E7 7:12606.0 8:1.6746145E7 9:14952.0 10:75898.0 
1.0 1:24.0 2:66.0 3:17647.0 4:89821.0 5:31074.0 6:1.6749414E7 7:21682.0 8:31515.0 9:19044.0 10:1.6774218E7 
1.0 1:16.0 2:63.0 3:151688.0 4:68405.0 5:1.6772417E7 6:1.6744824E7 7:1.6748191E7 8:1.6750311E7 9:9955.0 10:26652.0 
1.0 1:24.0 2:44.0 3:252728.0 4:203036.0 5:29444.0 6:9848.0 7:13847.0 8:16644.0 9:9475.0 10:13245.0 
1.0 1:29.0 2:47.0 3:212939.0 4:1.6749697E7 5:16192.0 6:1.6769936E7 7:18245.0 8:14910.0 9:4624.0 10:1.6769491E7 
1.0 1:16.0 2:27.0 3:1.6774025E7 4:21660.0 5:3236.0 6:5504.0 7:6390.0 8:2520.0 9:2598.0 10:5277.0 
1.0 1:26.0 2:23.0 3:804376.0 4:54028.0 5:94524.0 6:27263.0 7:13475.0 8:8749.0 9:7710.0 10:14914.0 
1.0 1:20.0 2:21.0 3:220511.0 4:22199.0 5:5057.0 6:10703.0 7:2076.0 8:2509.0 9:590.0 10:1240.0 
1.0 1:26.0 2:21.0 3:1098909.0 4:98525.0 5:17430.0 6:19925.0 7:19189.0 8:20323.0 9:22194.0 10:10355.0 
1.0 1:38.0 2:21.0 3:2387724.0 4:443153.0 5:1.6748731E7 6:1.6773748E7 7:27475.0 8:1.6762963E7 9:1.6756624E7 10:23351.0 
1.0 1:23.0 2:16.0 3:122051.0 4:1.67485E7 5:1.6761108E7 6:1.6774254E7 7:14856.0 8:25521.0 9:17308.0 10:1.6765749E7 
1.0 1:29.0 2:34.0 3:1328361.0 4:130548.0 5:1.6762437E7 6:1.6751385E7 7:11996.0 8:1.6752331E7 9:11800.0 10:45549.0 
1.0 1:35.0 2:37.0 3:830195.0 4:575188.0 5:90732.0 6:1.676185E7 7:52787.0 8:1.6765093E7 9:1.6764884E7 10:24084.0 
1.0 1:35.0 2:37.0 3:1220367.0 4:348520.0 5:17776.0 6:1.6769081E7 7:11361.0 8:1.6752035E7 9:26704.0 10:26215.0 
1.0 1:43.0 2:35.0 3:287260.0 4:49206.0 5:77387.0 6:76110.0 7:21598.0 8:1.6757037E7 9:26431.0 10:10391.0 
1.0 1:40.0 2:21.0 3:1181397.0 4:385970.0 5:1.6771274E7 6:40090.0 7:166362.0 8:72780.0 9:1.6768418E7 10:67210.0 
1.0 1:37.0 2:13.0 3:220350.0 4:7458.0 5:3901.0 6:10544.0 7:3831.0 8:4739.0 9:1607.0 10:1472.0 
1.0 1:54.0 2:29.0 3:308468.0 4:28323.0 5:1.6771152E7 6:30491.0 7:14779.0 8:23310.0 9:10365.0 10:27698.0 
1.0 1:64.0 2:35.0 3:319820.0 4:250826.0 5:4540.0 6:22217.0 7:65412.0 8:1.6747275E7 9:23375.0 10:9074.0 
1.0 1:69.0 2:41.0 3:306447.0 4:1.6758782E7 5:3124.0 6:14234.0 7:23110.0 8:26650.0 9:2076.0 10:1175.0 
1.0 1:56.0 2:38.0 3:1138065.0 4:62495.0 5:23119.0 6:16698.0 7:10572.0 8:10429.0 9:5834.0 10:5494.0 
1.0 1:40.0 2:24.0 3:224474.0 4:43423.0 5:3361.0 6:11150.0 7:427.0 8:9063.0 9:1740.0 10:2870.0 
1.0 1:35.0 2:26.0 3:117783.0 4:14995.0 5:10531.0 6:3136.0 7:2515.0 8:5242.0 9:3344.0 10:4758.0 
1.0 1:35.0 2:29.0 3:516517.0 4:244210.0 5:1.6776802E7 6:71074.0 7:48867.0 8:16539.0 9:14405.0 10:18593.0 
1.0 1:44.0 2:50.0 3:330609.0 4:200806.0 5:32499.0 6:1.6752389E7 7:11080.0 8:18972.0 9:15171.0 10:17825.0 
1.0 1:51.0 2:48.0 3:1059529.0 4:288433.0 5:7551.0 6:85163.0 7:88797.0 8:1.6746136E7 9:1.6751031E7 10:19775.0 
1.0 1:47.0 2:56.0 3:307888.0 4:58111.0 5:1.6753133E7 6:11497.0 7:6416.0 8:5065.0 9:8793.0 10:9271.0 
1.0 1:30.0 2:47.0 3:1247241.0 4:153149.0 5:32338.0 6:16406.0 7:9729.0 8:5536.0 9:13571.0 10:1680.0 
1.0 1:30.0 2:40.0 3:1.6766794E7 4:14620.0 5:7735.0 6:879.0 7:2330.0 8:3255.0 9:1113.0 10:1062.0 
1.0 1:24.0 2:47.0 3:238891.0 4:231988.0 5:19826.0 6:7085.0 7:18780.0 8:21790.0 9:14412.0 10:13156.0 
1.0 1:27.0 2:43.0 3:660611.0 4:1.6767735E7 5:2981.0 6:9385.0 7:5502.0 8:18104.0 9:17490.0 10:22200.0 
1.0 1:38.0 2:50.0 3:870482.0 4:601195.0 5:30776.0 6:18625.0 7:21304.0 8:1.6745723E7 9:1.6745928E7 10:1.676871E7 
1.0 1:30.0 2:43.0 3:1843602.0 4:96970.0 5:20099.0 6:13001.0 7:10549.0 8:19399.0 9:7364.0 10:1.6756263E7 
1.0 1:40.0 2:38.0 3:166440.0 4:18909.0 5:1483.0 6:3102.0 7:2613.0 8:1342.0 9:636.0 10:1305.0 
1.0 1:26.0 2:26.0 3:1627443.0 4:43811.0 5:24624.0 6:22596.0 7:18155.0 8:13152.0 9:10206.0 10:16051.0 
1.0 1:38.0 2:23.0 3:647962.0 4:144131.0 5:1.6752192E7 6:18431.0 7:21025.0 8:16780.0 9:1.6761468E7 10:23586.0 
1.0 1:51.0 2:30.0 3:413242.0 4:1.6749141E7 5:23146.0 6:20022.0 7:7134.0 8:12548.0 9:8517.0 10:11767.0 
1.0 1:53.0 2:34.0 3:534194.0 4:196920.0 5:25125.0 6:1.6760892E7 7:23538.0 8:11176.0 9:9945.0 10:10179.0 
1.0 1:63.0 2:44.0 3:979941.0 4:193395.0 5:57341.0 6:29164.0 7:1.6750103E7 8:12086.0 9:12724.0 10:13505.0 
1.0 1:44.0 2:44.0 3:1145627.0 4:156231.0 5:8963.0 6:5241.0 7:9425.0 8:4070.0 9:3199.0 10:2704.0 
1.0 1:48.0 2:48.0 3:590587.0 4:81042.0 5:2751.0 6:14732.0 7:20600.0 8:3705.0 9:3762.0 10:1524.0 
1.0 1:43.0 2:53.0 3:41138.0 4:5101.0 5:1723.0 6:1631.0 7:2643.0 8:1295.0 9:1289.0 10:795.0 
1.0 1:40.0 2:56.0 3:1501882.0 4:200811.0 5:19473.0 6:6479.0 7:13791.0 8:12929.0 9:1354.0 10:3170.0 
1.0 1:41.0 2:56.0 3:3201803.0 4:71305.0 5:1.6744627E7 6:28413.0 7:8214.0 8:19552.0 9:2702.0 10:1239.0 
1.0 1:40.0 2:37.0 3:1553375.0 4:280080.0 5:70289.0 6:21404.0 7:1.6758123E7 8:9826.0 9:1.6748107E7 10:22710.0 
1.0 1:34.0 2:38.0 3:1013121.0 4:376046.0 5:67262.0 6:1.6770716E7 7:21588.0 8:15023.0 9:3936.0 10:8286.0 
1.0 1:38.0 2:29.0 3:1324608.0 4:314555.0 5:1.6752311E7 6:34592.0 7:17968.0 8:1.675429E7 9:4652.0 10:9248.0 
1.0 1:40.0 2:29.0 3:539893.0 4:30685.0 5:8443.0 6:10643.0 7:3624.0 8:3412.0 9:479.0 10:1289.0 
1.0 1:40.0 2:50.0 3:406106.0 4:8453.0 5:11733.0 6:8238.0 7:9299.0 8:4342.0 9:2546.0 10:1363.0 
1.0 1:37.0 2:54.0 3:353026.0 4:1.6771166E7 5:15928.0 6:29564.0 7:6431.0 8:3343.0 9:3305.0 10:1395.0 
1.0 1:51.0 2:47.0 3:796134.0 4:10756.0 5:7771.0 6:7978.0 7:4911.0 8:2297.0 9:145.0 10:775.0 
1.0 1:54.0 2:54.0 3:991734.0 4:1.6744426E7 5:6441.0 6:1452.0 7:3015.0 8:845.0 9:1104.0 10:373.0 
1.0 1:43.0 2:56.0 3:847435.0 4:1.6750488E7 5:12752.0 6:15816.0 7:6712.0 8:1529.0 9:1327.0 10:641.0 
1.0 1:50.0 2:60.0 3:1770874.0 4:156364.0 5:49055.0 6:15233.0 7:30155.0 8:1.6770559E7 9:19383.0 10:20307.0 
1.0 1:26.0 2:64.0 3:311340.0 4:27943.0 5:1.6775945E7 6:28570.0 7:15345.0 8:5067.0 9:5237.0 10:2854.0 
1.0 1:20.0 2:56.0 3:475799.0 4:17526.0 5:1408.0 6:1912.0 7:1835.0 8:1147.0 9:207.0 10:165.0 
1.0 1:11.0 2:37.0 3:182386.0 4:12335.0 5:2731.0 6:4069.0 7:3075.0 8:1029.0 9:271.0 10:310.0 
1.0 1:20.0 2:34.0 3:76832.0 4:11345.0 5:3976.0 6:3458.0 7:1642.0 8:1093.0 9:584.0 10:258.0 
1.0 1:26.0 2:48.0 3:1193862.0 4:41002.0 5:16276.0 6:88722.0 7:5136.0 8:22337.0 9:2453.0 10:1693.0 
1.0 1:34.0 2:48.0 3:570809.0 4:42854.0 5:2508.0 6:12693.0 7:8836.0 8:10445.0 9:2091.0 10:1103.0 
1.0 1:34.0 2:67.0 3:1641741.0 4:7443.0 5:3798.0 6:2659.0 7:2107.0 8:1180.0 9:425.0 10:678.0 
1.0 1:16.0 2:51.0 3:31177.0 4:10574.0 5:18440.0 6:3438.0 7:4096.0 8:2125.0 9:1339.0 10:485.0 
1.0 1:20.0 2:48.0 3:857533.0 4:148133.0 5:28804.0 6:10213.0 7:12560.0 8:6714.0 9:4022.0 10:2764.0 
1.0 1:17.0 2:50.0 3:1355069.0 4:19468.0 5:11402.0 6:9630.0 7:6557.0 8:2799.0 9:1401.0 10:1319.0 
1.0 1:29.0 2:54.0 3:1741115.0 4:167139.0 5:34070.0 6:1.6750216E7 7:1.6748151E7 8:17503.0 9:13399.0 10:7836.0 
1.0 1:37.0 2:54.0 3:183638.0 4:5833.0 5:725.0 6:636.0 7:873.0 8:1303.0 9:856.0 10:387.0 
1.0 1:35.0 2:61.0 3:1397433.0 4:369266.0 5:83457.0 6:66856.0 7:1.6773219E7 8:1.6744389E7 9:15199.0 10:8630.0 
1.0 1:37.0 2:54.0 3:1765879.0 4:726939.0 5:1.6761688E7 6:32402.0 7:72098.0 8:14152.0 9:1.675532E7 10:13763.0 
1.0 1:30.0 2:40.0 3:881588.0 4:425648.0 5:1.6775136E7 6:42256.0 7:91328.0 8:86495.0 9:85753.0 10:16604.0 
1.0 1:34.0 2:53.0 3:1145661.0 4:141752.0 5:12130.0 6:26711.0 7:72851.0 8:14632.0 9:22173.0 10:7459.0 
1.0 1:35.0 2:38.0 3:937588.0 4:47675.0 5:27853.0 6:7588.0 7:8336.0 8:18473.0 9:3031.0 10:2856.0 
1.0 1:43.0 2:44.0 3:79545.0 4:95800.0 5:6062.0 6:6670.0 7:5564.0 8:6391.0 9:2409.0 10:959.0 
1.0 1:56.0 2:61.0 3:1778920.0 4:714527.0 5:1.6745121E7 6:47440.0 7:1.6759907E7 8:27292.0 9:1.6756293E7 10:1.6759194E7 
1.0 1:48.0 2:54.0 3:1181437.0 4:1.6749109E7 5:1.6745338E7 6:31600.0 7:21187.0 8:14751.0 9:7840.0 10:4150.0 
1.0 1:47.0 2:56.0 3:1803340.0 4:16796.0 5:7280.0 6:9685.0 7:19672.0 8:8482.0 9:9378.0 10:5403.0 
1.0 1:35.0 2:54.0 3:203129.0 4:165678.0 5:4444.0 6:23958.0 7:14132.0 8:13940.0 9:9257.0 10:3394.0 
1.0 1:34.0 2:48.0 3:146801.0 4:24842.0 5:2351.0 6:2174.0 7:2970.0 8:1751.0 9:1254.0 10:617.0 
1.0 1:38.0 2:51.0 3:564987.0 4:52695.0 5:15012.0 6:16716.0 7:16852.0 8:15734.0 9:16477.0 10:10010.0 
1.0 1:43.0 2:48.0 3:1294442.0 4:139983.0 5:9482.0 6:19339.0 7:17862.0 8:29490.0 9:8128.0 10:5497.0 
1.0 1:34.0 2:40.0 3:254569.0 4:1.674731E7 5:70885.0 6:21488.0 7:70713.0 8:1.6761854E7 9:31363.0 10:13857.0 
1.0 1:29.0 2:35.0 3:986083.0 4:85012.0 5:15454.0 6:11392.0 7:8470.0 8:22415.0 9:6435.0 10:5097.0 
1.0 1:37.0 2:30.0 3:66317.0 4:1.6769886E7 5:27575.0 6:20204.0 7:28608.0 8:18695.0 9:11422.0 10:12807.0 
1.0 1:43.0 2:40.0 3:95917.0 4:208195.0 5:16914.0 6:9593.0 7:14756.0 8:11065.0 9:15358.0 10:1.6751399E7 
1.0 1:67.0 2:54.0 3:881159.0 4:109876.0 5:16296.0 6:14296.0 7:13220.0 8:13154.0 9:8066.0 10:1.6776473E7 
1.0 1:64.0 2:51.0 3:1449075.0 4:188437.0 5:67625.0 6:13897.0 7:27082.0 8:1.6752367E7 9:17556.0 10:14522.0 
1.0 1:53.0 2:54.0 3:303489.0 4:1.6754838E7 5:1.6758894E7 6:17446.0 7:30864.0 8:21585.0 9:9095.0 10:5476.0 
1.0 1:50.0 2:56.0 3:367870.0 4:1.6754289E7 5:8584.0 6:1.6749098E7 7:8167.0 8:10305.0 9:3677.0 10:3949.0 
1.0 1:37.0 2:51.0 3:49559.0 4:26855.0 5:3301.0 6:2285.0 7:13487.0 8:4201.0 9:2222.0 10:13211.0 
1.0 1:50.0 2:34.0 3:873540.0 4:206119.0 5:85073.0 6:67142.0 7:27360.0 8:21726.0 9:20887.0 10:11658.0 
1.0 1:74.0 2:30.0 3:196729.0 4:85234.0 5:23843.0 6:2582.0 7:7735.0 8:4280.0 9:5208.0 10:7513.0 
1.0 1:67.0 2:29.0 3:1.67618E7 4:1.675402E7 5:5049.0 6:17485.0 7:13952.0 8:7235.0 9:18618.0 10:12665.0 
1.0 1:78.0 2:34.0 3:1260140.0 4:162824.0 5:6159.0 6:1.6764425E7 7:1.6746879E7 8:14555.0 9:13612.0 10:28417.0 
1.0 1:74.0 2:56.0 3:175788.0 4:58268.0 5:29660.0 6:1.675309E7 7:24960.0 8:15979.0 9:27404.0 10:25271.0 
1.0 1:69.0 2:54.0 3:219571.0 4:1.6769548E7 5:68934.0 6:12064.0 7:65890.0 8:15663.0 9:24950.0 10:22490.0 
1.0 1:81.0 2:63.0 3:61463.0 4:1.6762206E7 5:6706.0 6:4133.0 7:9040.0 8:3190.0 9:1928.0 10:14368.0 
1.0 1:83.0 2:60.0 3:1.675116E7 4:1.6774417E7 5:5850.0 6:10188.0 7:25867.0 8:13549.0 9:9934.0 10:14584.0 
1.0 1:91.0 2:60.0 3:597645.0 4:155133.0 5:17977.0 6:4269.0 7:16281.0 8:3633.0 9:6717.0 10:3455.0 
1.0 1:100.0 2:57.0 3:9633.0 4:10439.0 5:5123.0 6:7738.0 7:12642.0 8:8698.0 9:10736.0 10:24741.0 
1.0 1:96.0 2:35.0 3:35956.0 4:1.6755926E7 5:19165.0 6:8254.0 7:11533.0 8:15553.0 9:10052.0 10:31897.0 
1.0 1:91.0 2:44.0 3:96743.0 4:15036.0 5:1091.0 6:3939.0 7:4664.0 8:3758.0 9:2242.0 10:2570.0 
1.0 1:83.0 2:43.0 3:2789803.0 4:180381.0 5:85417.0 6:1.6751101E7 7:1.6745644E7 8:23719.0 9:1.6771045E7 10:22981.0 
1.0 1:61.0 2:37.0 3:1371689.0 4:96971.0 5:17112.0 6:1.6746509E7 7:15787.0 8:8205.0 9:9730.0 10:5789.0 
1.0 1:53.0 2:57.0 3:21801.0 4:11978.0 5:7089.0 6:4964.0 7:5104.0 8:7186.0 9:5039.0 10:1.6756967E7 
1.0 1:50.0 2:30.0 3:1190527.0 4:1.6753857E7 5:8522.0 6:14736.0 7:10540.0 8:8808.0 9:3546.0 10:1.6775847E7 
1.0 1:44.0 2:30.0 3:100909.0 4:143615.0 5:45568.0 6:9421.0 7:1.6762902E7 8:12510.0 9:13184.0 10:21120.0 
1.0 1:41.0 2:30.0 3:105334.0 4:72445.0 5:26872.0 6:8210.0 7:2801.0 8:7249.0 9:8115.0 10:4586.0 
1.0 1:41.0 2:11.0 3:279494.0 4:63176.0 5:7057.0 6:3715.0 7:7956.0 8:1.6746578E7 9:11812.0 10:1.6756167E7 
1.0 1:41.0 2:14.0 3:379313.0 4:101810.0 5:21468.0 6:1.6771831E7 7:18957.0 8:17427.0 9:15058.0 10:78766.0 
1.0 1:60.0 2:11.0 3:160019.0 4:1.6760088E7 5:3158.0 6:11659.0 7:6626.0 8:4161.0 9:2064.0 10:5329.0 
1.0 1:67.0 2:27.0 3:783716.0 4:60538.0 5:16696.0 6:1.6759699E7 7:13823.0 8:15094.0 9:10206.0 10:29751.0 
1.0 1:80.0 2:40.0 3:19454.0 4:25601.0 5:9079.0 6:12529.0 7:5726.0 8:11335.0 9:5467.0 10:23629.0 
1.0 1:80.0 2:66.0 3:491910.0 4:203467.0 5:57633.0 6:1.6775566E7 7:10577.0 8:16365.0 9:4733.0 10:1.6752252E7 
1.0 1:61.0 2:70.0 3:965748.0 4:33153.0 5:8676.0 6:6194.0 7:18175.0 8:1.6744554E7 9:10992.0 10:1.6750427E7 
1.0 1:50.0 2:66.0 3:562683.0 4:1.6755272E7 5:69668.0 6:15901.0 7:17315.0 8:15974.0 9:13304.0 10:17777.0 
1.0 1:37.0 2:74.0 3:1.6761326E7 4:1.6768622E7 5:7175.0 6:1.674914E7 7:6806.0 8:7035.0 9:8330.0 10:1.6752427E7 
1.0 1:40.0 2:74.0 3:61458.0 4:6684.0 5:5133.0 6:5829.0 7:2239.0 8:1506.0 9:1559.0 10:27469.0 
1.0 1:27.0 2:53.0 3:789007.0 4:156577.0 5:12897.0 6:16674.0 7:6373.0 8:4888.0 9:2830.0 10:7281.0 
1.0 1:35.0 2:60.0 3:37750.0 4:137157.0 5:1.675771E7 6:26707.0 7:16350.0 8:12509.0 9:4901.0 10:1.6762124E7 
1.0 1:47.0 2:63.0 3:1093058.0 4:246925.0 5:19778.0 6:7489.0 7:11127.0 8:8966.0 9:10765.0 10:76904.0 
1.0 1:43.0 2:38.0 3:303303.0 4:26527.0 5:22082.0 6:6716.0 7:5057.0 8:13645.0 9:8544.0 10:79075.0 
1.0 1:50.0 2:56.0 3:328630.0 4:17458.0 5:19214.0 6:1401.0 7:4376.0 8:2093.0 9:1759.0 10:3291.0 
1.0 1:57.0 2:54.0 3:35172.0 4:70930.0 5:17630.0 6:25735.0 7:16108.0 8:14595.0 9:7763.0 10:234677.0 
1.0 1:54.0 2:54.0 3:259245.0 4:143701.0 5:1.6775893E7 6:1.6749576E7 7:11355.0 8:6309.0 9:5812.0 10:7926.0 
1.0 1:51.0 2:78.0 3:203695.0 4:118081.0 5:14964.0 6:8302.0 7:14579.0 8:9994.0 9:4750.0 10:13098.0 
1.0 1:57.0 2:74.0 3:747329.0 4:74914.0 5:1.6748926E7 6:1.6747545E7 7:22518.0 8:12971.0 9:9947.0 10:1.6759995E7 
1.0 1:50.0 2:74.0 3:48638.0 4:160382.0 5:1.6744404E7 6:1.6763604E7 7:6056.0 8:23807.0 9:25725.0 10:1.6756071E7 
1.0 1:56.0 2:61.0 3:1257956.0 4:144529.0 5:49786.0 6:66763.0 7:8178.0 8:25129.0 9:18288.0 10:1.6751309E7 
1.0 1:50.0 2:41.0 3:173728.0 4:240412.0 5:22226.0 6:15441.0 7:11058.0 8:1.6748218E7 9:19183.0 10:78443.0 
1.0 1:51.0 2:47.0 3:1553393.0 4:99242.0 5:265286.0 6:1.6746845E7 7:1.6753802E7 8:29214.0 9:1.6745794E7 10:27372.0 
1.0 1:57.0 2:40.0 3:370359.0 4:87873.0 5:28099.0 6:7985.0 7:27361.0 8:17798.0 9:9493.0 10:11523.0 
1.0 1:57.0 2:37.0 3:1037366.0 4:254630.0 5:1.6768821E7 6:22336.0 7:1.6758015E7 8:18832.0 9:7572.0 10:1.6746085E7 
1.0 1:66.0 2:41.0 3:261410.0 4:94508.0 5:4540.0 6:1.6769308E7 7:12606.0 8:16813.0 9:18716.0 10:1.6758081E7 
1.0 1:60.0 2:43.0 3:804611.0 4:85722.0 5:17296.0 6:9923.0 7:5940.0 8:8712.0 9:7071.0 10:6465.0 
1.0 1:43.0 2:40.0 3:140265.0 4:7449.0 5:1500.0 6:5861.0 7:4681.0 8:4505.0 9:2474.0 10:4559.0 
1.0 1:29.0 2:41.0 3:25371.0 4:22424.0 5:1.6757879E7 6:8373.0 7:6020.0 8:13845.0 9:7103.0 10:1.6749298E7 
1.0 1:34.0 2:44.0 3:261965.0 4:99979.0 5:30757.0 6:1.6750453E7 7:96249.0 8:13161.0 9:3545.0 10:1.6771758E7 
1.0 1:30.0 2:54.0 3:631072.0 4:207790.0 5:1.6762751E7 6:1.6745511E7 7:1.6744412E7 8:16730.0 9:10299.0 10:1.6765233E7 
1.0 1:30.0 2:54.0 3:1.6757183E7 4:17374.0 5:7674.0 6:2276.0 7:9568.0 8:2915.0 9:3328.0 10:17103.0 
1.0 1:26.0 2:64.0 3:56023.0 4:1.6767218E7 5:1.6749743E7 6:24315.0 7:17334.0 8:18280.0 9:14313.0 10:29429.0 
1.0 1:21.0 2:63.0 3:760245.0 4:50845.0 5:24860.0 6:27448.0 7:8618.0 8:13908.0 9:10488.0 10:1.6750186E7 
1.0 1:17.0 2:56.0 3:475202.0 4:1.6760252E7 5:5498.0 6:11571.0 7:24989.0 8:7292.0 9:5435.0 10:1.6774989E7 
1.0 1:14.0 2:57.0 3:90755.0 4:41873.0 5:10006.0 6:5985.0 7:3011.0 8:3989.0 9:1820.0 10:8974.0 
1.0 1:16.0 2:56.0 3:1713851.0 4:38199.0 5:1.6750151E7 6:27011.0 7:1.6758422E7 8:18712.0 9:10587.0 10:1.6758004E7 
1.0 1:10.0 2:67.0 3:1267558.0 4:175147.0 5:1.6773982E7 6:18804.0 7:1.6750301E7 8:1.675765E7 9:27635.0 10:1.6757309E7 
1.0 1:23.0 2:64.0 3:1.674818E7 4:1.6749305E7 5:19689.0 6:16510.0 7:5212.0 8:18898.0 9:16548.0 10:1.6746635E7 
1.0 1:38.0 2:69.0 3:6638.0 4:18178.0 5:14565.0 6:15314.0 7:6776.0 8:23516.0 9:8685.0 10:57087.0 
1.0 1:44.0 2:61.0 3:17582.0 4:71190.0 5:17606.0 6:10760.0 7:18566.0 8:7747.0 9:8506.0 10:1.6752679E7 
1.0 1:51.0 2:54.0 3:163659.0 4:1.6769267E7 5:16537.0 6:7677.0 7:4065.0 8:2958.0 9:5089.0 10:12837.0 
1.0 1:37.0 2:54.0 3:25553.0 4:21377.0 5:6282.0 6:16865.0 7:6530.0 8:9080.0 9:7288.0 10:1.6747912E7 
1.0 1:38.0 2:48.0 3:74457.0 4:1.6753612E7 5:10715.0 6:14276.0 7:14581.0 8:7561.0 9:10934.0 10:21505.0 
1.0 1:34.0 2:38.0 3:4576.0 4:1.675838E7 5:747.0 6:1624.0 7:8162.0 8:15969.0 9:20354.0 10:1.6759067E7 
1.0 1:24.0 2:38.0 3:14867.0 4:25825.0 5:2999.0 6:12462.0 7:4332.0 8:18989.0 9:4091.0 10:1.677383E7 
1.0 1:38.0 2:40.0 3:12515.0 4:1.6748875E7 5:19534.0 6:28901.0 7:1.6759854E7 8:9654.0 9:7248.0 10:74141.0 
1.0 1:29.0 2:50.0 3:6245.0 4:21450.0 5:10565.0 6:13429.0 7:11549.0 8:15681.0 9:12456.0 10:1.6749432E7 
1.0 1:53.0 2:57.0 3:93802.0 4:1.6757735E7 5:1.6744493E7 6:3007.0 7:17338.0 8:16139.0 9:11767.0 10:1.6762901E7 
1.0 1:64.0 2:74.0 3:7569.0 4:19724.0 5:8502.0 6:2983.0 7:6779.0 8:10962.0 9:7908.0 10:1.6748665E7 
1.0 1:51.0 2:61.0 3:1.676473E7 4:7464.0 5:1.6757412E7 6:4955.0 7:14734.0 8:20429.0 9:11557.0 10:21733.0 
1.0 1:56.0 2:56.0 3:3174.0 4:27342.0 5:13123.0 6:10718.0 7:16455.0 8:24689.0 9:3455.0 10:26826.0 
1.0 1:17.0 2:51.0 3:14726.0 4:13243.0 5:7782.0 6:6552.0 7:5549.0 8:11167.0 9:11026.0 10:1.674882E7 
1.0 1:8.0 2:41.0 3:19147.0 4:10196.0 5:6811.0 6:5939.0 7:14738.0 8:25586.0 9:13796.0 10:26648.0 
1.0 1:10.0 2:51.0 3:1.6767561E7 4:19798.0 5:1229.0 6:833.0 7:4130.0 8:4201.0 9:4072.0 10:5189.0 
1.0 1:1.0 2:50.0 3:481730.0 4:26932.0 5:29208.0 6:25397.0 7:11385.0 8:18756.0 9:5522.0 10:1.6748404E7 
1.0 1:17.0 2:57.0 3:1.6752041E7 4:1.6747694E7 5:1.6756384E7 6:11067.0 7:79456.0 8:17813.0 9:7658.0 10:32136.0 
1.0 1:10.0 2:53.0 3:150335.0 4:30638.0 5:2044.0 6:3049.0 7:4353.0 8:3397.0 9:1621.0 10:2229.0 
1.0 1:16.0 2:56.0 3:3976.0 4:25501.0 5:13326.0 6:25269.0 7:13433.0 8:5829.0 9:10201.0 10:26971.0 
1.0 1:24.0 2:66.0 3:386663.0 4:232471.0 5:8360.0 6:14421.0 7:21417.0 8:1.676121E7 9:4813.0 10:1.6752353E7 
1.0 1:30.0 2:61.0 3:291477.0 4:85230.0 5:4803.0 6:1.675002E7 7:11312.0 8:15586.0 9:14344.0 10:1.6757524E7 
1.0 1:41.0 2:47.0 3:312451.0 4:34268.0 5:13071.0 6:812.0 7:9937.0 8:7384.0 9:4393.0 10:11389.0 
1.0 1:37.0 2:41.0 3:800978.0 4:208065.0 5:7117.0 6:20935.0 7:1.6750611E7 8:19229.0 9:19598.0 10:18349.0 
1.0 1:48.0 2:29.0 3:1095978.0 4:128633.0 5:13013.0 6:10000.0 7:28120.0 8:1.6749075E7 9:18774.0 10:31208.0 
1.0 1:41.0 2:24.0 3:166594.0 4:25483.0 5:10428.0 6:14554.0 7:20934.0 8:1.6755982E7 9:7156.0 10:1.6758018E7 
1.0 1:51.0 2:35.0 3:42301.0 4:15212.0 5:9710.0 6:7375.0 7:5132.0 8:6213.0 9:4020.0 10:9933.0 
1.0 1:60.0 2:26.0 3:231949.0 4:1.6748526E7 5:22927.0 6:6769.0 7:22311.0 8:20397.0 9:10519.0 10:1.6764662E7 
1.0 1:47.0 2:20.0 3:1143676.0 4:20762.0 5:45143.0 6:24574.0 7:1.6755184E7 8:27622.0 9:18028.0 10:30812.0 
1.0 1:53.0 2:20.0 3:502763.0 4:27679.0 5:23180.0 6:1.6759363E7 7:95264.0 8:11609.0 9:23583.0 10:1.6752537E7 
1.0 1:53.0 2:10.0 3:1.6765454E7 4:161516.0 5:1.6753565E7 6:1.6748927E7 7:17425.0 8:11223.0 9:8144.0 10:27286.0 
1.0 1:54.0 2:16.0 3:350167.0 4:76027.0 5:77670.0 6:16297.0 7:1.6751892E7 8:12147.0 9:17082.0 10:1.6748385E7 
1.0 1:60.0 2:21.0 3:17906.0 4:11186.0 5:16224.0 6:1.6752492E7 7:1776.0 8:18951.0 9:9993.0 10:23086.0 
1.0 1:57.0 2:26.0 3:109860.0 4:83014.0 5:3146.0 6:1768.0 7:14920.0 8:2434.0 9:7766.0 10:9472.0 
1.0 1:60.0 2:35.0 3:112499.0 4:73959.0 5:1.6774703E7 6:1.6745429E7 7:20026.0 8:15603.0 9:20641.0 10:1.6751731E7 
1.0 1:56.0 2:38.0 3:13109.0 4:26803.0 5:17990.0 6:1.6751753E7 7:7538.0 8:22107.0 9:10343.0 10:1.6751575E7 
1.0 1:50.0 2:40.0 3:25472.0 4:1.6775537E7 5:6076.0 6:2874.0 7:15083.0 8:13673.0 9:8561.0 10:1.6776205E7 
1.0 1:53.0 2:38.0 3:361963.0 4:156478.0 5:1.6759936E7 6:23424.0 7:22774.0 8:14113.0 9:9171.0 10:76831.0 
1.0 1:44.0 2:53.0 3:23118.0 4:28378.0 5:22143.0 6:25141.0 7:14730.0 8:18057.0 9:5940.0 10:86172.0 
1.0 1:48.0 2:48.0 3:6372.0 4:19127.0 5:17327.0 6:22915.0 7:5438.0 8:11669.0 9:5336.0 10:146911.0 
1.0 1:57.0 2:57.0 3:9577.0 4:25243.0 5:1.6750901E7 6:17088.0 7:5438.0 8:10133.0 9:6059.0 10:53457.0 
1.0 1:48.0 2:69.0 3:1.6745169E7 4:78404.0 5:7659.0 6:16640.0 7:7437.0 8:13190.0 9:7711.0 10:65431.0 
1.0 1:41.0 2:40.0 3:104433.0 4:43195.0 5:1.6772865E7 6:1.6747918E7 7:5278.0 8:16508.0 9:12686.0 10:88276.0 
1.0 1:41.0 2:38.0 3:4272.0 4:1.6747817E7 5:3705.0 6:22256.0 7:20742.0 8:22783.0 9:19093.0 10:20337.0 
1.0 1:30.0 2:34.0 3:2368111.0 4:190086.0 5:7357.0 6:30367.0 7:18448.0 8:19775.0 9:8634.0 10:1.6755539E7 
1.0 1:27.0 2:20.0 3:32165.0 4:79166.0 5:22435.0 6:19435.0 7:14769.0 8:17523.0 9:8140.0 10:26339.0 
1.0 1:29.0 2:44.0 3:2186414.0 4:68192.0 5:22429.0 6:21097.0 7:15874.0 8:23341.0 9:9253.0 10:5042.0 
1.0 1:34.0 2:44.0 3:1460926.0 4:40716.0 5:6257.0 6:31288.0 7:25762.0 8:1.6759409E7 9:1.6763431E7 10:13845.0 
1.0 1:29.0 2:47.0 3:1898027.0 4:79108.0 5:11666.0 6:13423.0 7:24408.0 8:18102.0 9:9936.0 10:5510.0 
1.0 1:40.0 2:64.0 3:2803450.0 4:43876.0 5:17150.0 6:1.6756836E7 7:22843.0 8:12876.0 9:4630.0 10:4514.0 
1.0 1:48.0 2:48.0 3:1029794.0 4:131663.0 5:9316.0 6:32264.0 7:11830.0 8:5829.0 9:3417.0 10:3406.0 
1.0 1:51.0 2:34.0 3:220970.0 4:1.676154E7 5:7341.0 6:13662.0 7:17409.0 8:4765.0 9:6470.0 10:3574.0 
1.0 1:57.0 2:43.0 3:1668488.0 4:42150.0 5:29586.0 6:14881.0 7:14547.0 8:1.6751682E7 9:11765.0 10:16884.0 
1.0 1:51.0 2:24.0 3:1211769.0 4:85368.0 5:52632.0 6:32062.0 7:13804.0 8:14817.0 9:13962.0 10:18442.0 
1.0 1:53.0 2:30.0 3:1957983.0 4:311381.0 5:1.6774905E7 6:1.6763182E7 7:1.6746458E7 8:17977.0 9:8639.0 10:20914.0 
1.0 1:44.0 2:47.0 3:212877.0 4:72103.0 5:2358.0 6:1.6773902E7 7:2655.0 8:5928.0 9:3927.0 10:1794.0 
1.0 1:29.0 2:23.0 3:30055.0 4:4975.0 5:570.0 6:702.0 7:145.0 8:645.0 9:218.0 10:258.0 
1.0 1:27.0 2:16.0 3:1537781.0 4:65806.0 5:30752.0 6:25047.0 7:5927.0 8:5779.0 9:3318.0 10:1769.0 
1.0 1:13.0 2:3.0 3:192837.0 4:129903.0 5:28848.0 6:1.6755272E7 7:14589.0 8:6062.0 9:6046.0 10:4265.0 
1.0 1:7.0 2:3.0 3:1414325.0 4:84951.0 5:1.6744399E7 6:1.674525E7 7:5986.0 8:7222.0 9:4266.0 10:3833.0 
1.0 1:13.0 2:1.0 3:191090.0 4:7290.0 5:3192.0 6:4816.0 7:3434.0 8:926.0 9:2016.0 10:718.0 
1.0 1:16.0 2:13.0 3:748555.0 4:119418.0 5:97904.0 6:71180.0 7:73422.0 8:1.6776077E7 9:14462.0 10:16182.0 
1.0 1:29.0 2:26.0 3:1864409.0 4:68575.0 5:29778.0 6:23120.0 7:18695.0 8:14356.0 9:11387.0 10:4681.0 
1.0 1:37.0 2:24.0 3:1255579.0 4:33560.0 5:10449.0 6:31857.0 7:31690.0 8:13352.0 9:4317.0 10:9490.0 
1.0 1:48.0 2:40.0 3:549673.0 4:1.6756357E7 5:18813.0 6:5803.0 7:5651.0 8:10098.0 9:6848.0 10:2287.0 
1.0 1:51.0 2:43.0 3:96149.0 4:162466.0 5:1.677176E7 6:1.6749477E7 7:13607.0 8:10328.0 9:13470.0 10:8350.0 
1.0 1:47.0 2:44.0 3:920874.0 4:352579.0 5:1.6746446E7 6:68010.0 7:73877.0 8:1.6774052E7 9:17812.0 10:15569.0 
1.0 1:48.0 2:51.0 3:773543.0 4:140745.0 5:11652.0 6:7070.0 7:15918.0 8:8551.0 9:6392.0 10:3036.0 
1.0 1:56.0 2:61.0 3:1990209.0 4:303003.0 5:25535.0 6:60465.0 7:1.6761172E7 8:30017.0 9:1.675248E7 10:12101.0 
1.0 1:60.0 2:56.0 3:219575.0 4:5899.0 5:3500.0 6:3717.0 7:3206.0 8:2208.0 9:2115.0 10:562.0 
1.0 1:63.0 2:61.0 3:1421834.0 4:1.6751174E7 5:18362.0 6:12717.0 7:5814.0 8:3888.0 9:8464.0 10:3689.0 
1.0 1:74.0 2:51.0 3:991061.0 4:228068.0 5:131802.0 6:22365.0 7:1.6748338E7 8:269350.0 9:14963.0 10:6962.0 
1.0 1:61.0 2:44.0 3:474283.0 4:8339.0 5:15487.0 6:24305.0 7:4240.0 8:8702.0 9:3442.0 10:1364.0 
1.0 1:60.0 2:29.0 3:1046718.0 4:327735.0 5:15397.0 6:1.6768159E7 7:11612.0 8:14478.0 9:4702.0 10:5931.0 
1.0 1:56.0 2:29.0 3:660331.0 4:139031.0 5:1.6748436E7 6:1.6776204E7 7:41054.0 8:23430.0 9:8628.0 10:8359.0 
1.0 1:47.0 2:27.0 3:98992.0 4:48441.0 5:5005.0 6:13422.0 7:8563.0 8:1585.0 9:1849.0 10:2017.0 
1.0 1:48.0 2:14.0 3:565521.0 4:1.6765011E7 5:31107.0 6:20595.0 7:11485.0 8:5044.0 9:6216.0 10:2203.0 
1.0 1:61.0 2:34.0 3:1352116.0 4:1.6744954E7 5:13527.0 6:9908.0 7:2530.0 8:2220.0 9:1475.0 10:648.0 
1.0 1:64.0 2:30.0 3:502828.0 4:372111.0 5:80451.0 6:1.6765738E7 7:21783.0 8:19736.0 9:15080.0 10:17233.0 
1.0 1:69.0 2:30.0 3:495483.0 4:157481.0 5:8797.0 6:1.6760969E7 7:15066.0 8:17958.0 9:10108.0 10:9820.0 
1.0 1:63.0 2:34.0 3:105200.0 4:1.6761086E7 5:19345.0 6:4704.0 7:5060.0 8:1180.0 9:3487.0 10:1837.0 
1.0 1:51.0 2:41.0 3:986717.0 4:91794.0 5:72192.0 6:28920.0 7:6552.0 8:16886.0 9:13169.0 10:8266.0 
1.0 1:47.0 2:37.0 3:2477756.0 4:304186.0 5:411657.0 6:110900.0 7:134781.0 8:77793.0 9:1.6767895E7 10:93121.0 
1.0 1:37.0 2:44.0 3:377473.0 4:26003.0 5:3205.0 6:3038.0 7:4664.0 8:5888.0 9:2080.0 10:2234.0 
1.0 1:40.0 2:50.0 3:1210078.0 4:428193.0 5:1.6751279E7 6:5779.0 7:30900.0 8:31437.0 9:1.6765662E7 10:15328.0 
1.0 1:35.0 2:43.0 3:1495550.0 4:168664.0 5:74754.0 6:1.6772418E7 7:26379.0 8:20884.0 9:81485.0 10:1.6746526E7 
1.0 1:35.0 2:30.0 3:1240255.0 4:78360.0 5:3013.0 6:1.6751968E7 7:1.6769833E7 8:1.6747904E7 9:1.6746095E7 10:1.677622E7 
1.0 1:34.0 2:35.0 3:148131.0 4:1.6759322E7 5:1410.0 6:5229.0 7:5035.0 8:3796.0 9:6061.0 10:4860.0 
1.0 1:29.0 2:35.0 3:1.6768671E7 4:174986.0 5:1.6768314E7 6:9015.0 7:11904.0 8:1.6771628E7 9:7836.0 10:2302.0 
1.0 1:35.0 2:38.0 3:130002.0 4:1.6761917E7 5:7814.0 6:5370.0 7:6248.0 8:8142.0 9:7875.0 10:2093.0 
1.0 1:27.0 2:41.0 3:936787.0 4:129119.0 5:18062.0 6:10059.0 7:17326.0 8:16068.0 9:15153.0 10:10318.0 
1.0 1:47.0 2:38.0 3:982242.0 4:199702.0 5:16021.0 6:11088.0 7:10527.0 8:30951.0 9:15935.0 10:6589.0 
1.0 1:44.0 2:40.0 3:1389109.0 4:540861.0 5:15104.0 6:1.6749567E7 7:31249.0 8:52388.0 9:1.6761203E7 10:1.6763402E7 
1.0 1:40.0 2:41.0 3:137150.0 4:23586.0 5:4592.0 6:15422.0 7:7012.0 8:6720.0 9:5286.0 10:2420.0 
1.0 1:48.0 2:54.0 3:53555.0 4:29881.0 5:4748.0 6:2147.0 7:1599.0 8:4793.0 9:3913.0 10:1952.0 
1.0 1:37.0 2:50.0 3:849767.0 4:332295.0 5:1.6744721E7 6:1.6756797E7 7:27480.0 8:1.6762935E7 9:1.6765065E7 10:19515.0 
1.0 1:44.0 2:51.0 3:411869.0 4:55336.0 5:1.6745222E7 6:18510.0 7:73906.0 8:1.6758031E7 9:1.6745341E7 10:17153.0 
1.0 1:47.0 2:40.0 3:582752.0 4:113951.0 5:97542.0 6:1.6763373E7 7:21203.0 8:31339.0 9:28607.0 10:11789.0 
1.0 1:47.0 2:35.0 3:1114517.0 4:1035896.0 5:264036.0 6:1.6751701E7 7:1.6762939E7 8:78690.0 9:66253.0 10:14969.0 
1.0 1:51.0 2:43.0 3:231847.0 4:1.6774731E7 5:5427.0 6:7681.0 7:3427.0 8:15569.0 9:5315.0 10:6512.0 
1.0 1:44.0 2:29.0 3:115002.0 4:38273.0 5:159238.0 6:18720.0 7:13062.0 8:28618.0 9:12072.0 10:6050.0 
1.0 1:37.0 2:23.0 3:854749.0 4:263286.0 5:1.6751016E7 6:75472.0 7:1.6753988E7 8:1.6758493E7 9:93594.0 10:17726.0 
1.0 1:29.0 2:11.0 3:2103588.0 4:58353.0 5:41095.0 6:1.6761872E7 7:1.6749169E7 8:1.6765224E7 9:1.6773413E7 10:25056.0 
1.0 1:21.0 2:11.0 3:495215.0 4:201219.0 5:68172.0 6:1.6766894E7 7:1.6749845E7 8:21084.0 9:26736.0 10:20555.0 
1.0 1:34.0 2:23.0 3:1162788.0 4:410098.0 5:4755.0 6:20436.0 7:1.6752137E7 8:20929.0 9:1.6755163E7 10:18031.0 
1.0 1:41.0 2:35.0 3:657834.0 4:339916.0 5:72717.0 6:1.6758492E7 7:19513.0 8:1.6766174E7 9:16313.0 10:15626.0 
1.0 1:47.0 2:51.0 3:155005.0 4:1.6747036E7 5:5766.0 6:11271.0 7:12735.0 8:3320.0 9:11815.0 10:5478.0 
1.0 1:53.0 2:56.0 3:1449127.0 4:185769.0 5:2941.0 6:30584.0 7:11773.0 8:12940.0 9:9149.0 10:7677.0 
1.0 1:27.0 2:50.0 3:1037016.0 4:141268.0 5:45957.0 6:14230.0 7:16775.0 8:18555.0 9:12575.0 10:8412.0 
1.0 1:27.0 2:48.0 3:2943578.0 4:1.6761806E7 5:9813.0 6:13866.0 7:5796.0 8:12951.0 9:5948.0 10:4264.0 
1.0 1:26.0 2:37.0 3:963247.0 4:120110.0 5:1.6773074E7 6:22255.0 7:14304.0 8:13226.0 9:15595.0 10:3230.0 
1.0 1:17.0 2:20.0 3:407572.0 4:67407.0 5:73897.0 6:19910.0 7:9671.0 8:19981.0 9:21693.0 10:9559.0 
1.0 1:30.0 2:35.0 3:642393.0 4:484041.0 5:15558.0 6:1.6761417E7 7:11596.0 8:92211.0 9:1.6771929E7 10:1.6758564E7 
1.0 1:38.0 2:47.0 3:75922.0 4:193053.0 5:8260.0 6:14887.0 7:31770.0 8:69211.0 9:29068.0 10:29064.0 
1.0 1:34.0 2:51.0 3:1596523.0 4:58787.0 5:142372.0 6:97708.0 7:70532.0 8:1.6748506E7 9:1.6758824E7 10:1.674864E7 
1.0 1:43.0 2:60.0 3:671421.0 4:329534.0 5:1.674598E7 6:22064.0 7:1.6759336E7 8:19832.0 9:23910.0 10:7773.0 
1.0 1:43.0 2:47.0 3:486566.0 4:90583.0 5:692.0 6:1.6748316E7 7:1.6755682E7 8:26765.0 9:1.6753142E7 10:29354.0 
1.0 1:34.0 2:16.0 3:907320.0 4:392372.0 5:1.6760323E7 6:111212.0 7:38917.0 8:70875.0 9:25916.0 10:28825.0 
1.0 1:53.0 2:34.0 3:1730133.0 4:447406.0 5:1.6750199E7 6:11339.0 7:18089.0 8:12116.0 9:9966.0 10:4831.0 
1.0 1:53.0 2:44.0 3:671391.0 4:136116.0 5:2803.0 6:6560.0 7:5848.0 8:5752.0 9:3232.0 10:1979.0 
1.0 1:61.0 2:61.0 3:822970.0 4:718427.0 5:6626.0 6:1.6761908E7 7:80682.0 8:1.674759E7 9:71643.0 10:19559.0 
1.0 1:67.0 2:70.0 3:1717084.0 4:193141.0 5:1.6776839E7 6:26511.0 7:13911.0 8:17549.0 9:13869.0 10:11476.0 
1.0 1:51.0 2:50.0 3:353743.0 4:486337.0 5:13522.0 6:24192.0 7:26502.0 8:25856.0 9:1.6747631E7 10:22514.0 
1.0 1:50.0 2:34.0 3:430428.0 4:52269.0 5:10186.0 6:26096.0 7:11733.0 8:8256.0 9:7199.0 10:2483.0 
1.0 1:53.0 2:20.0 3:764667.0 4:24171.0 5:6468.0 6:4156.0 7:8265.0 8:6465.0 9:4617.0 10:2959.0 
1.0 1:56.0 2:21.0 3:262443.0 4:1.6776338E7 5:13189.0 6:7327.0 7:5128.0 8:8149.0 9:3248.0 10:3791.0 
1.0 1:61.0 2:35.0 3:88551.0 4:1.6766812E7 5:10104.0 6:13976.0 7:11337.0 8:12504.0 9:1.6745828E7 10:6069.0 
1.0 1:47.0 2:34.0 3:673771.0 4:142045.0 5:1.6770832E7 6:18075.0 7:27726.0 8:18295.0 9:17470.0 10:19453.0 
1.0 1:44.0 2:35.0 3:974810.0 4:1.6759357E7 5:8920.0 6:9334.0 7:6543.0 8:7174.0 9:2373.0 10:9573.0 
1.0 1:37.0 2:48.0 3:1018126.0 4:110142.0 5:70674.0 6:1.6760382E7 7:15505.0 8:1.6747919E7 9:1.6761461E7 10:15653.0 
1.0 1:38.0 2:41.0 3:297156.0 4:2439.0 5:2897.0 6:9307.0 7:3052.0 8:6413.0 9:5542.0 10:4884.0 
1.0 1:50.0 2:60.0 3:162569.0 4:25966.0 5:3082.0 6:5189.0 7:4963.0 8:4089.0 9:2422.0 10:2330.0 
1.0 1:34.0 2:53.0 3:897384.0 4:96025.0 5:1.6753105E7 6:20396.0 7:3851.0 8:21656.0 9:15060.0 10:13891.0 
1.0 1:27.0 2:40.0 3:1676149.0 4:47438.0 5:25138.0 6:7187.0 7:1.675042E7 8:1.6765132E7 9:1.6762036E7 10:8097.0 
1.0 1:30.0 2:53.0 3:180587.0 4:1.6764354E7 5:16538.0 6:20606.0 7:16462.0 8:9756.0 9:6186.0 10:4151.0 
1.0 1:30.0 2:47.0 3:277236.0 4:107597.0 5:1320.0 6:10653.0 7:18417.0 8:21400.0 9:3220.0 10:2481.0 
1.0 1:30.0 2:54.0 3:388763.0 4:88618.0 5:1.6755513E7 6:11601.0 7:9539.0 8:12491.0 9:12601.0 10:5247.0 
1.0 1:30.0 2:43.0 3:609304.0 4:45280.0 5:2335.0 6:16391.0 7:11345.0 8:15864.0 9:13869.0 10:7496.0 
1.0 1:35.0 2:26.0 3:1095946.0 4:174677.0 5:6043.0 6:1.6745582E7 7:20492.0 8:1.6751345E7 9:1.6745625E7 10:13114.0 
1.0 1:47.0 2:40.0 3:604386.0 4:21207.0 5:11103.0 6:3989.0 7:6724.0 8:15687.0 9:3223.0 10:2415.0 
1.0 1:44.0 2:26.0 3:98367.0 4:1.6753651E7 5:10213.0 6:13265.0 7:3681.0 8:10209.0 9:8067.0 10:1757.0 
1.0 1:51.0 2:41.0 3:706351.0 4:146466.0 5:12520.0 6:17934.0 7:1.674973E7 8:31562.0 9:29920.0 10:18556.0 
1.0 1:43.0 2:48.0 3:479647.0 4:57410.0 5:23458.0 6:2858.0 7:14283.0 8:10898.0 9:8054.0 10:6294.0 
1.0 1:37.0 2:21.0 3:407049.0 4:145268.0 5:95380.0 6:73797.0 7:19291.0 8:1.6753887E7 9:32251.0 10:12937.0 
1.0 1:51.0 2:41.0 3:577984.0 4:201283.0 5:17023.0 6:1.6756614E7 7:24440.0 8:21759.0 9:13302.0 10:16507.0 
1.0 1:63.0 2:50.0 3:1976042.0 4:642583.0 5:201072.0 6:1.6750565E7 7:1.6758927E7 8:72975.0 9:1.6744918E7 10:74019.0 
1.0 1:57.0 2:50.0 3:520710.0 4:86220.0 5:1.6755075E7 6:4012.0 7:1.6765501E7 8:12641.0 9:6184.0 10:13895.0 
1.0 1:56.0 2:60.0 3:977895.0 4:1.6757161E7 5:7865.0 6:16116.0 7:11697.0 8:5262.0 9:5829.0 10:15115.0 
1.0 1:38.0 2:54.0 3:1128707.0 4:48311.0 5:8828.0 6:2852.0 7:9475.0 8:10502.0 9:6646.0 10:3233.0 
1.0 1:43.0 2:57.0 3:302212.0 4:35264.0 5:5951.0 6:1.6758203E7 7:14266.0 8:8812.0 9:3875.0 10:11092.0 
1.0 1:47.0 2:61.0 3:242788.0 4:287852.0 5:88101.0 6:11500.0 7:18717.0 8:25193.0 9:17738.0 10:339563.0 
1.0 1:50.0 2:50.0 3:240915.0 4:56035.0 5:1.6765116E7 6:1.6761502E7 7:31730.0 8:29212.0 9:9169.0 10:478915.0 
1.0 1:48.0 2:35.0 3:1568828.0 4:400269.0 5:17944.0 6:1.6744876E7 7:21031.0 8:16798.0 9:12928.0 10:338666.0 
1.0 1:35.0 2:21.0 3:280969.0 4:77071.0 5:31975.0 6:10270.0 7:1.6745303E7 8:1.6752772E7 9:21966.0 10:9292.0 
1.0 1:37.0 2:17.0 3:498382.0 4:47489.0 5:1.6751641E7 6:16406.0 7:12618.0 8:10271.0 9:8419.0 10:9151.0 
1.0 1:20.0 2:16.0 3:770701.0 4:84442.0 5:19146.0 6:1.6755985E7 7:10522.0 8:12363.0 9:1.6748787E7 10:14058.0 
1.0 1:29.0 2:38.0 3:1172416.0 4:134166.0 5:1.6771313E7 6:22851.0 7:13545.0 8:20313.0 9:13348.0 10:12882.0 
1.0 1:30.0 2:44.0 3:340128.0 4:1.6759023E7 5:3898.0 6:7822.0 7:14700.0 8:5835.0 9:3211.0 10:12090.0 
1.0 1:30.0 2:54.0 3:1633207.0 4:103158.0 5:1.6768613E7 6:1.6765984E7 7:17612.0 8:1.6759876E7 9:1.6747367E7 10:15886.0 
1.0 1:48.0 2:78.0 3:238132.0 4:70789.0 5:7684.0 6:6200.0 7:4376.0 8:8607.0 9:11110.0 10:8550.0 
1.0 1:48.0 2:66.0 3:1320154.0 4:117199.0 5:32458.0 6:29760.0 7:10109.0 8:21528.0 9:23328.0 10:23507.0 
1.0 1:56.0 2:67.0 3:517572.0 4:332698.0 5:1.6768364E7 6:145098.0 7:81034.0 8:85451.0 9:1.6770539E7 10:1.6768103E7 
1.0 1:56.0 2:63.0 3:279020.0 4:1.6751971E7 5:4199.0 6:743.0 7:6632.0 8:3757.0 9:3954.0 10:6141.0 
1.0 1:56.0 2:53.0 3:618189.0 4:138205.0 5:7745.0 6:6380.0 7:21428.0 8:5684.0 9:11405.0 10:1.6754508E7 
1.0 1:51.0 2:53.0 3:377573.0 4:147836.0 5:3197.0 6:9245.0 7:4485.0 8:7393.0 9:6269.0 10:1.6758012E7 
1.0 1:47.0 2:56.0 3:1220238.0 4:472511.0 5:113208.0 6:21665.0 7:1.6758869E7 8:1.6751436E7 9:30584.0 10:99402.0 
1.0 1:54.0 2:44.0 3:585075.0 4:30656.0 5:6170.0 6:18867.0 7:12658.0 8:17828.0 9:7706.0 10:1.6758167E7 
1.0 1:50.0 2:41.0 3:553619.0 4:319598.0 5:131381.0 6:1.676892E7 7:49493.0 8:1.6768699E7 9:1.6749521E7 10:39960.0 
1.0 1:64.0 2:35.0 3:1331936.0 4:154009.0 5:74359.0 6:11556.0 7:18366.0 8:18950.0 9:15783.0 10:1.6746085E7 
1.0 1:66.0 2:34.0 3:536216.0 4:1.6766245E7 5:30678.0 6:15688.0 7:7248.0 8:10471.0 9:5346.0 10:1.6769118E7 
1.0 1:60.0 2:40.0 3:1723903.0 4:1400617.0 5:1.6761871E7 6:206280.0 7:66658.0 8:1.67522E7 9:1.675193E7 10:216954.0 
1.0 1:60.0 2:40.0 3:116724.0 4:69803.0 5:5906.0 6:18929.0 7:5976.0 8:8082.0 9:4375.0 10:29363.0 
1.0 1:64.0 2:50.0 3:2256088.0 4:718094.0 5:69719.0 6:1.6746467E7 7:70455.0 8:1.676953E7 9:72006.0 10:113282.0 
1.0 1:61.0 2:54.0 3:259300.0 4:167774.0 5:9366.0 6:24116.0 7:17893.0 8:13121.0 9:16094.0 10:84993.0 
1.0 1:61.0 2:66.0 3:997237.0 4:37980.0 5:78391.0 6:29337.0 7:11120.0 8:17165.0 9:14211.0 10:1.6770171E7 
1.0 1:74.0 2:77.0 3:888486.0 4:14758.0 5:26962.0 6:15530.0 7:13128.0 8:12657.0 9:5616.0 10:10905.0 
1.0 1:69.0 2:75.0 3:1.676385E7 4:11480.0 5:1053.0 6:1438.0 7:779.0 8:445.0 9:369.0 10:218.0 
1.0 1:63.0 2:81.0 3:637982.0 4:1.6770246E7 5:11451.0 6:12973.0 7:18415.0 8:10337.0 9:6244.0 10:8214.0 
1.0 1:66.0 2:81.0 3:192529.0 4:52772.0 5:10718.0 6:16281.0 7:12248.0 8:12676.0 9:7776.0 10:12469.0 
1.0 1:64.0 2:80.0 3:1238141.0 4:518685.0 5:6940.0 6:22842.0 7:31937.0 8:1.6759357E7 9:16344.0 10:1.6754558E7 
1.0 1:54.0 2:88.0 3:494400.0 4:23556.0 5:1.6762273E7 6:1.6761564E7 7:18267.0 8:1.6755123E7 9:9416.0 10:23289.0 
1.0 1:35.0 2:64.0 3:521685.0 4:18076.0 5:19485.0 6:24448.0 7:17273.0 8:7730.0 9:8959.0 10:4936.0 
1.0 1:17.0 2:67.0 3:29813.0 4:25612.0 5:27329.0 6:1.6758226E7 7:13605.0 8:24011.0 9:11617.0 10:1.6750251E7 
1.0 1:8.0 2:61.0 3:814295.0 4:396219.0 5:66258.0 6:15027.0 7:1.6761034E7 8:71815.0 9:10843.0 10:21698.0 
1.0 1:3.0 2:48.0 3:315403.0 4:273798.0 5:11524.0 6:17052.0 7:15345.0 8:16841.0 9:8200.0 10:4040.0 
1.0 1:29.0 2:54.0 3:343408.0 4:220434.0 5:17958.0 6:1.675051E7 7:26647.0 8:26547.0 9:17352.0 10:9911.0 
1.0 1:37.0 2:54.0 3:47114.0 4:6879.0 5:982.0 6:2205.0 7:3060.0 8:3870.0 9:4512.0 10:650.0 
1.0 1:40.0 2:57.0 3:1.6759814E7 4:25452.0 5:1170.0 6:5676.0 7:6353.0 8:6273.0 9:3810.0 10:2000.0 
1.0 1:41.0 2:56.0 3:1235250.0 4:162621.0 5:5258.0 6:80668.0 7:1.6750667E7 8:27427.0 9:11083.0 10:92111.0 
1.0 1:38.0 2:66.0 3:147767.0 4:212011.0 5:11606.0 6:23060.0 7:11923.0 8:4511.0 9:6274.0 10:1.6760856E7 
1.0 1:41.0 2:61.0 3:61261.0 4:1.6750329E7 5:10715.0 6:14116.0 7:12946.0 8:20589.0 9:16898.0 10:290101.0 
1.0 1:44.0 2:66.0 3:3678810.0 4:41826.0 5:97844.0 6:27740.0 7:1.6767127E7 8:17366.0 9:16556.0 10:95846.0 
1.0 1:50.0 2:61.0 3:39404.0 4:1.6760157E7 5:1851.0 6:11376.0 7:6524.0 8:8279.0 9:4812.0 10:5090.0 
1.0 1:53.0 2:64.0 3:636612.0 4:92801.0 5:90641.0 6:1.6752488E7 7:1.6748265E7 8:13870.0 9:3762.0 10:339403.0 
1.0 1:51.0 2:61.0 3:1412663.0 4:391013.0 5:1.6771949E7 6:1.6761554E7 7:1.6773929E7 8:31419.0 9:7388.0 10:190604.0 
1.0 1:40.0 2:69.0 3:125317.0 4:159408.0 5:3764.0 6:25083.0 7:3985.0 8:6779.0 9:2242.0 10:96818.0 
1.0 1:40.0 2:80.0 3:263901.0 4:1.6757286E7 5:31147.0 6:20230.0 7:5498.0 8:18375.0 9:5452.0 10:33543.0 
1.0 1:35.0 2:80.0 3:664464.0 4:355017.0 5:143483.0 6:61590.0 7:46503.0 8:1.6749633E7 9:30728.0 10:29294.0 
1.0 1:35.0 2:78.0 3:191610.0 4:1.6761822E7 5:12304.0 6:16462.0 7:4911.0 8:4020.0 9:3749.0 10:3827.0 
1.0 1:43.0 2:66.0 3:1554765.0 4:1340214.0 5:23860.0 6:1.6749144E7 7:26341.0 8:1.6757344E7 9:1.6760409E7 10:22149.0 
1.0 1:38.0 2:63.0 3:214304.0 4:1.6745459E7 5:4676.0 6:2004.0 7:5411.0 8:12271.0 9:4402.0 10:1722.0 
1.0 1:37.0 2:44.0 3:6507.0 4:17689.0 5:1.6745735E7 6:1.6773584E7 7:1792.0 8:28192.0 9:16704.0 10:10218.0 
1.0 1:44.0 2:37.0 3:901949.0 4:487268.0 5:1.677014E7 6:11392.0 7:21329.0 8:25257.0 9:29822.0 10:12289.0 
1.0 1:48.0 2:40.0 3:353086.0 4:67034.0 5:6008.0 6:11287.0 7:2289.0 8:5965.0 9:7328.0 10:5170.0 
1.0 1:51.0 2:44.0 3:97503.0 4:23353.0 5:1609.0 6:5556.0 7:2132.0 8:4037.0 9:4879.0 10:4844.0 
1.0 1:41.0 2:56.0 3:132818.0 4:29825.0 5:1662.0 6:2887.0 7:3657.0 8:4069.0 9:5381.0 10:4270.0 
1.0 1:35.0 2:57.0 3:144590.0 4:8330.0 5:19678.0 6:2224.0 7:2567.0 8:6957.0 9:4625.0 10:8336.0 
1.0 1:29.0 2:53.0 3:460022.0 4:1.6759338E7 5:27393.0 6:15038.0 7:19758.0 8:20552.0 9:18184.0 10:17768.0 
1.0 1:38.0 2:56.0 3:28862.0 4:60379.0 5:31777.0 6:9639.0 7:24818.0 8:13305.0 9:14964.0 10:4176.0 
1.0 1:53.0 2:54.0 3:334353.0 4:36705.0 5:32231.0 6:28750.0 7:1.6746655E7 8:15879.0 9:15333.0 10:4538.0 
1.0 1:34.0 2:54.0 3:521530.0 4:93727.0 5:1.6767727E7 6:25849.0 7:18067.0 8:4853.0 9:13869.0 10:7212.0 
1.0 1:43.0 2:54.0 3:1.6747974E7 4:16425.0 5:2689.0 6:25771.0 7:9857.0 8:19677.0 9:16415.0 10:299160.0 
1.0 1:29.0 2:56.0 3:484926.0 4:148830.0 5:1.6759986E7 6:20452.0 7:30107.0 8:25832.0 9:8735.0 10:78267.0 
1.0 1:24.0 2:53.0 3:210117.0 4:18419.0 5:2637.0 6:605.0 7:5711.0 8:2842.0 9:685.0 10:19221.0 
1.0 1:47.0 2:51.0 3:528713.0 4:447557.0 5:1.6750523E7 6:1.6744466E7 7:14467.0 8:13982.0 9:11848.0 10:317401.0 
1.0 1:54.0 2:57.0 3:202739.0 4:123123.0 5:16547.0 6:20096.0 7:6850.0 8:21875.0 9:12891.0 10:275639.0 
1.0 1:66.0 2:61.0 3:1345367.0 4:498519.0 5:95156.0 6:65859.0 7:1.6744732E7 8:56530.0 9:14523.0 10:767237.0 
1.0 1:66.0 2:74.0 3:2001229.0 4:1756661.0 5:1.6772907E7 6:134371.0 7:73767.0 8:1.6758811E7 9:30404.0 10:777678.0 
1.0 1:74.0 2:81.0 3:544742.0 4:74049.0 5:1.6774134E7 6:78974.0 7:16748.0 8:14642.0 9:11428.0 10:1.6766823E7 
1.0 1:70.0 2:70.0 3:519059.0 4:87897.0 5:14199.0 6:30396.0 7:21240.0 8:17709.0 9:4267.0 10:9082.0 
1.0 1:78.0 2:67.0 3:114346.0 4:23429.0 5:26681.0 6:2945.0 7:10179.0 8:7649.0 9:10965.0 10:21872.0 
1.0 1:84.0 2:60.0 3:46993.0 4:1.6745861E7 5:1.6766308E7 6:1.6750068E7 7:31681.0 8:17899.0 9:6952.0 10:31317.0 
1.0 1:69.0 2:64.0 3:32516.0 4:1.6769272E7 5:23474.0 6:5472.0 7:1905.0 8:5829.0 9:2462.0 10:7694.0 
1.0 1:78.0 2:70.0 3:17202.0 4:15123.0 5:5459.0 6:8393.0 7:8248.0 8:8208.0 9:9711.0 10:1.6748244E7 
1.0 1:77.0 2:61.0 3:1.6756158E7 4:69565.0 5:15203.0 6:18333.0 7:8122.0 8:14790.0 9:3741.0 10:28504.0 
1.0 1:81.0 2:66.0 3:104657.0 4:1.6772685E7 5:24447.0 6:15041.0 7:15812.0 8:14076.0 9:5081.0 10:30695.0 
1.0 1:88.0 2:63.0 3:690406.0 4:82220.0 5:15123.0 6:22163.0 7:4893.0 8:4474.0 9:3849.0 10:10639.0 
1.0 1:64.0 2:50.0 3:1.6775742E7 4:1.6754657E7 5:13476.0 6:31782.0 7:23651.0 8:15721.0 9:22533.0 10:69478.0 
1.0 1:66.0 2:50.0 3:140452.0 4:1.6773686E7 5:3867.0 6:8352.0 7:13679.0 8:26183.0 9:7516.0 10:1.6769384E7 
1.0 1:50.0 2:50.0 3:98055.0 4:62453.0 5:1.6747362E7 6:7413.0 7:20157.0 8:14490.0 9:10901.0 10:1.6765247E7 
1.0 1:61.0 2:43.0 3:11581.0 4:1.6745811E7 5:9303.0 6:4505.0 7:20849.0 8:7879.0 9:11061.0 10:21133.0 
1.0 1:67.0 2:56.0 3:212334.0 4:20066.0 5:5913.0 6:11762.0 7:13001.0 8:9084.0 9:11404.0 10:9879.0 
1.0 1:70.0 2:61.0 3:1.6755882E7 4:10079.0 5:838.0 6:3708.0 7:4215.0 8:2391.0 9:2977.0 10:13859.0 
1.0 1:93.0 2:56.0 3:556458.0 4:165435.0 5:1.6749206E7 6:1.6755179E7 7:5637.0 8:27931.0 9:15150.0 10:72371.0 
1.0 1:77.0 2:43.0 3:400796.0 4:20730.0 5:15020.0 6:13121.0 7:6360.0 8:14660.0 9:14902.0 10:16323.0 
1.0 1:83.0 2:41.0 3:30799.0 4:1.6750229E7 5:15702.0 6:32437.0 7:7764.0 8:14761.0 9:12781.0 10:23727.0 
1.0 1:69.0 2:40.0 3:774539.0 4:1.6770649E7 5:1.6766439E7 6:1.6753189E7 7:20980.0 8:25378.0 9:10072.0 10:8302.0 
1.0 1:64.0 2:40.0 3:30295.0 4:22805.0 5:14978.0 6:28633.0 7:10676.0 8:21975.0 9:10393.0 10:24222.0 
1.0 1:64.0 2:56.0 3:81393.0 4:32567.0 5:18241.0 6:11751.0 7:10641.0 8:12687.0 9:3952.0 10:158509.0 
1.0 1:67.0 2:51.0 3:26585.0 4:18396.0 5:23991.0 6:16905.0 7:5283.0 8:6009.0 9:4956.0 10:74897.0 
1.0 1:66.0 2:54.0 3:73108.0 4:1.6744375E7 5:20422.0 6:1.6764045E7 7:18776.0 8:20796.0 9:7247.0 10:161358.0 
1.0 1:60.0 2:66.0 3:69177.0 4:1.6751149E7 5:8202.0 6:1.674984E7 7:15204.0 8:21821.0 9:4033.0 10:46980.0 
1.0 1:61.0 2:70.0 3:1672306.0 4:72529.0 5:78127.0 6:1.6776138E7 7:13009.0 8:14124.0 9:7426.0 10:64001.0 
1.0 1:53.0 2:74.0 3:65035.0 4:46714.0 5:9142.0 6:4611.0 7:5447.0 8:1475.0 9:4992.0 10:18013.0 
1.0 1:43.0 2:74.0 3:229429.0 4:26399.0 5:1.6756707E7 6:7498.0 7:8385.0 8:2518.0 9:1309.0 10:1.6768715E7 
1.0 1:47.0 2:66.0 3:644101.0 4:28795.0 5:6708.0 6:4322.0 7:6900.0 8:2900.0 9:1808.0 10:50196.0 
1.0 1:54.0 2:56.0 3:624314.0 4:19493.0 5:2004.0 6:5409.0 7:3192.0 8:1045.0 9:2164.0 10:1.6750233E7 
1.0 1:53.0 2:56.0 3:824658.0 4:1.67654E7 5:10420.0 6:14991.0 7:32536.0 8:15689.0 9:9571.0 10:1.6771902E7 
1.0 1:63.0 2:54.0 3:47554.0 4:7243.0 5:11759.0 6:2718.0 7:2527.0 8:1521.0 9:1352.0 10:8782.0 
1.0 1:64.0 2:43.0 3:195257.0 4:82928.0 5:1.6744692E7 6:15887.0 7:16064.0 8:13889.0 9:3546.0 10:1.6772741E7 
1.0 1:61.0 2:44.0 3:455472.0 4:215515.0 5:1.6756118E7 6:1.6744841E7 7:1.6747302E7 8:14759.0 9:22402.0 10:1.6750247E7 
1.0 1:66.0 2:57.0 3:419676.0 4:1.6771876E7 5:1.6759107E7 6:1.6761788E7 7:1.6755207E7 8:20851.0 9:15742.0 10:30180.0 
1.0 1:61.0 2:50.0 3:165421.0 4:8068.0 5:10892.0 6:7204.0 7:11688.0 8:3209.0 9:2119.0 10:74093.0 
1.0 1:60.0 2:61.0 3:1154175.0 4:58416.0 5:1.6769522E7 6:81711.0 7:21135.0 8:1.6753569E7 9:24209.0 10:202408.0 
1.0 1:56.0 2:54.0 3:867878.0 4:190413.0 5:21535.0 6:27696.0 7:31725.0 8:25627.0 9:20405.0 10:109593.0 
1.0 1:54.0 2:47.0 3:402461.0 4:31135.0 5:29668.0 6:1.6750853E7 7:20151.0 8:20094.0 9:17745.0 10:1.6745876E7 
1.0 1:50.0 2:54.0 3:52001.0 4:19754.0 5:9746.0 6:4779.0 7:4620.0 8:3654.0 9:2297.0 10:7246.0 
1.0 1:51.0 2:54.0 3:1.676517E7 4:1.6753953E7 5:1.6748112E7 6:1.6772852E7 7:3848.0 8:5720.0 9:4774.0 10:3369.0 
1.0 1:47.0 2:60.0 3:76749.0 4:19056.0 5:5530.0 6:5366.0 7:1393.0 8:2178.0 9:3751.0 10:1123.0 
1.0 1:47.0 2:61.0 3:1.6746115E7 4:1.6768009E7 5:1.6747859E7 6:30789.0 7:9283.0 8:15153.0 9:3793.0 10:8057.0 
1.0 1:47.0 2:64.0 3:201334.0 4:21630.0 5:10400.0 6:4249.0 7:7271.0 8:3671.0 9:2045.0 10:2008.0 
1.0 1:40.0 2:56.0 3:210572.0 4:31690.0 5:13044.0 6:5557.0 7:1257.0 8:4075.0 9:2630.0 10:2230.0 
1.0 1:30.0 2:64.0 3:63464.0 4:29462.0 5:9333.0 6:3022.0 7:2922.0 8:1766.0 9:1529.0 10:3985.0 
1.0 1:24.0 2:69.0 3:112924.0 4:84610.0 5:5079.0 6:9605.0 7:12635.0 8:10632.0 9:5581.0 10:8977.0 
1.0 1:24.0 2:54.0 3:18654.0 4:1.6753776E7 5:6242.0 6:6083.0 7:7678.0 8:14323.0 9:7797.0 10:5167.0 
1.0 1:24.0 2:66.0 3:359579.0 4:89941.0 5:11013.0 6:83180.0 7:19558.0 8:22250.0 9:6369.0 10:7267.0 
1.0 1:24.0 2:66.0 3:1.6744981E7 4:1.6761398E7 5:10178.0 6:26722.0 7:8453.0 8:5583.0 9:3461.0 10:1.6749924E7 
1.0 1:23.0 2:53.0 3:500766.0 4:82755.0 5:1.6754778E7 6:25099.0 7:1.6747463E7 8:6290.0 9:9459.0 10:23902.0 
1.0 1:27.0 2:50.0 3:585338.0 4:87689.0 5:8025.0 6:16958.0 7:11309.0 8:13412.0 9:18980.0 10:6009.0 
1.0 1:20.0 2:64.0 3:82587.0 4:92794.0 5:22230.0 6:14440.0 7:12416.0 8:8604.0 9:5003.0 10:27663.0 
1.0 1:26.0 2:66.0 3:21675.0 4:12788.0 5:12142.0 6:13918.0 7:10381.0 8:6720.0 9:4211.0 10:1.6755187E7 
1.0 1:37.0 2:80.0 3:1.6759069E7 4:1.6747688E7 5:15835.0 6:17684.0 7:23551.0 8:14545.0 9:3896.0 10:1.6748344E7 
1.0 1:51.0 2:84.0 3:1485655.0 4:585788.0 5:63108.0 6:17142.0 7:28792.0 8:11243.0 9:4315.0 10:313061.0 
1.0 1:54.0 2:77.0 3:1550506.0 4:466468.0 5:156701.0 6:65449.0 7:13473.0 8:59057.0 9:7878.0 10:931793.0 
1.0 1:56.0 2:74.0 3:844220.0 4:1.6774164E7 5:65856.0 6:1.6746131E7 7:17983.0 8:6514.0 9:4818.0 10:172549.0 
1.0 1:70.0 2:60.0 3:449936.0 4:1.67603E7 5:13567.0 6:3948.0 7:2394.0 8:8648.0 9:3232.0 10:1810.0 
1.0 1:78.0 2:60.0 3:724335.0 4:289661.0 5:28182.0 6:1.6748262E7 7:21644.0 8:1.6768276E7 9:20736.0 10:32263.0 
1.0 1:91.0 2:51.0 3:22634.0 4:20775.0 5:1.6747084E7 6:19862.0 7:20885.0 8:31365.0 9:10736.0 10:1.6774674E7 
1.0 1:100.0 2:48.0 3:714373.0 4:29449.0 5:69421.0 6:1.6770935E7 7:26757.0 8:25121.0 9:5141.0 10:116395.0 
1.0 1:88.0 2:57.0 3:309257.0 4:1.6769012E7 5:1.6774043E7 6:27183.0 7:19155.0 8:14347.0 9:11104.0 10:274666.0 
1.0 1:78.0 2:69.0 3:1.6756045E7 4:14052.0 5:11338.0 6:5276.0 7:13093.0 8:12069.0 9:10428.0 10:68488.0 
1.0 1:88.0 2:67.0 3:187240.0 4:32278.0 5:10492.0 6:3742.0 7:5806.0 8:16068.0 9:11634.0 10:192274.0 
1.0 1:87.0 2:64.0 3:450729.0 4:13226.0 5:1.6762629E7 6:4905.0 7:13241.0 8:23396.0 9:7585.0 10:488218.0 
1.0 1:90.0 2:67.0 3:76463.0 4:1.675012E7 5:3817.0 6:15766.0 7:4573.0 8:11536.0 9:4366.0 10:286310.0 
1.0 1:70.0 2:63.0 3:1.674976E7 4:1.6768165E7 5:1.6749905E7 6:27595.0 7:20792.0 8:9936.0 9:2990.0 10:1.6757399E7 
1.0 1:47.0 2:66.0 3:1.6750969E7 4:6632.0 5:2508.0 6:15998.0 7:6266.0 8:18414.0 9:4152.0 10:1.6766358E7 
1.0 1:47.0 2:67.0 3:24234.0 4:21698.0 5:7330.0 6:15112.0 7:31987.0 8:12350.0 9:5301.0 10:1.6769105E7 
1.0 1:50.0 2:63.0 3:126614.0 4:15240.0 5:17290.0 6:5420.0 7:5902.0 8:11712.0 9:4067.0 10:1.6758047E7 
1.0 1:61.0 2:74.0 3:5690.0 4:19683.0 5:13978.0 6:9240.0 7:6327.0 8:7267.0 9:5727.0 10:25636.0 
1.0 1:63.0 2:88.0 3:1258403.0 4:219385.0 5:8611.0 6:26572.0 7:10967.0 8:15892.0 9:14553.0 10:15779.0 
1.0 1:54.0 2:84.0 3:1.6751656E7 4:9929.0 5:4646.0 6:1765.0 7:6139.0 8:6111.0 9:3947.0 10:7767.0 
1.0 1:53.0 2:91.0 3:656582.0 4:114197.0 5:65375.0 6:10753.0 7:19190.0 8:14540.0 9:26498.0 10:1.6771123E7 
1.0 1:61.0 2:83.0 3:27373.0 4:27155.0 5:7396.0 6:19021.0 7:15282.0 8:1.6750664E7 9:25449.0 10:22261.0 
1.0 1:63.0 2:57.0 3:150881.0 4:90784.0 5:1.6750266E7 6:19738.0 7:6953.0 8:16272.0 9:6561.0 10:5420.0 
1.0 1:69.0 2:66.0 3:176576.0 4:4937.0 5:2791.0 6:4682.0 7:3171.0 8:6062.0 9:2922.0 10:7846.0 
1.0 1:56.0 2:57.0 3:8520.0 4:24704.0 5:6600.0 6:10396.0 7:7408.0 8:22278.0 9:19889.0 10:1.6744861E7 
1.0 1:44.0 2:70.0 3:58506.0 4:21512.0 5:573.0 6:2446.0 7:7358.0 8:2713.0 9:3461.0 10:2596.0 
1.0 1:53.0 2:78.0 3:7907.0 4:25350.0 5:6108.0 6:14052.0 7:8161.0 8:11460.0 9:15981.0 10:68847.0 
1.0 1:43.0 2:78.0 3:17072.0 4:1.6758014E7 5:24573.0 6:15775.0 7:1.674452E7 8:10505.0 9:12437.0 10:179138.0 
1.0 1:37.0 2:74.0 3:306740.0 4:1.6764015E7 5:27865.0 6:25761.0 7:50084.0 8:27102.0 9:12991.0 10:1.6749273E7 
1.0 1:37.0 2:57.0 3:2099722.0 4:180008.0 5:88472.0 6:266661.0 7:204370.0 8:78742.0 9:116044.0 10:87637.0 
1.0 1:48.0 2:60.0 3:1.6752986E7 4:7518.0 5:1946.0 6:878.0 7:840.0 8:3261.0 9:1134.0 10:556.0 
1.0 1:47.0 2:51.0 3:287484.0 4:1.6771557E7 5:10681.0 6:1.6751636E7 7:12194.0 8:12077.0 9:13040.0 10:11448.0 
1.0 1:48.0 2:47.0 3:30198.0 4:20722.0 5:10601.0 6:28365.0 7:5902.0 8:8394.0 9:3800.0 10:27209.0 
1.0 1:43.0 2:34.0 3:4758.0 4:16871.0 5:21651.0 6:18495.0 7:7756.0 8:8642.0 9:2629.0 10:1.6745012E7 
1.0 1:34.0 2:30.0 3:21170.0 4:27459.0 5:4592.0 6:8682.0 7:10089.0 8:4953.0 9:2214.0 10:1.6760984E7 
1.0 1:40.0 2:43.0 3:96012.0 4:32201.0 5:13468.0 6:10257.0 7:3777.0 8:2160.0 9:553.0 10:11923.0 
1.0 1:47.0 2:41.0 3:7898.0 4:18338.0 5:7778.0 6:11827.0 7:7500.0 8:7810.0 9:3165.0 10:69885.0 
1.0 1:60.0 2:56.0 3:11518.0 4:16155.0 5:4131.0 6:9522.0 7:7030.0 8:10225.0 9:3530.0 10:1.6761137E7 
1.0 1:51.0 2:53.0 3:104091.0 4:69254.0 5:22817.0 6:5535.0 7:10121.0 8:8020.0 9:5392.0 10:69632.0 
1.0 1:53.0 2:27.0 3:18254.0 4:30061.0 5:14885.0 6:2900.0 7:4550.0 8:5328.0 9:7132.0 10:1.6767357E7 
1.0 1:56.0 2:43.0 3:267474.0 4:22398.0 5:2322.0 6:3132.0 7:6143.0 8:7334.0 9:3057.0 10:29769.0 
1.0 1:48.0 2:50.0 3:1.6764422E7 4:24477.0 5:3296.0 6:22571.0 7:18268.0 8:12538.0 9:14754.0 10:35379.0 
1.0 1:48.0 2:48.0 3:658549.0 4:21766.0 5:15923.0 6:1.6756371E7 7:8699.0 8:13489.0 9:10387.0 10:27060.0 
1.0 1:50.0 2:64.0 3:1.6764314E7 4:25535.0 5:5149.0 6:1149.0 7:3878.0 8:1765.0 9:935.0 10:9625.0 
1.0 1:50.0 2:60.0 3:715420.0 4:20145.0 5:12117.0 6:10369.0 7:13946.0 8:10129.0 9:5383.0 10:18499.0 
1.0 1:50.0 2:50.0 3:15262.0 4:29965.0 5:6409.0 6:2426.0 7:5426.0 8:6648.0 9:2183.0 10:1.6745478E7 
1.0 1:61.0 2:54.0 3:10164.0 4:30113.0 5:13766.0 6:8403.0 7:4944.0 8:6370.0 9:9295.0 10:1.6756628E7 
1.0 1:61.0 2:54.0 3:1.6761461E7 4:29001.0 5:15827.0 6:1261.0 7:1208.0 8:1548.0 9:1248.0 10:13626.0 
1.0 1:57.0 2:53.0 3:1.6769558E7 4:17970.0 5:13048.0 6:8396.0 7:9167.0 8:12401.0 9:3823.0 10:1.6754206E7 
1.0 1:48.0 2:37.0 3:13738.0 4:1.6753511E7 5:12864.0 6:6186.0 7:5567.0 8:5668.0 9:3247.0 10:1.6758401E7 
1.0 1:41.0 2:27.0 3:57927.0 4:1.6749998E7 5:14728.0 6:1.6746121E7 7:27467.0 8:9443.0 9:9389.0 10:27793.0 
1.0 1:38.0 2:23.0 3:1.6760677E7 4:32066.0 5:23207.0 6:6977.0 7:6109.0 8:2350.0 9:1064.0 10:20788.0 
1.0 1:30.0 2:23.0 3:1706889.0 4:92037.0 5:17778.0 6:7097.0 7:13047.0 8:18221.0 9:15771.0 10:14633.0 
1.0 1:35.0 2:38.0 3:288826.0 4:30296.0 5:18474.0 6:17218.0 7:4829.0 8:3040.0 9:1168.0 10:4741.0 
1.0 1:34.0 2:43.0 3:924385.0 4:81877.0 5:1.6751939E7 6:94102.0 7:22509.0 8:12808.0 9:15460.0 10:7457.0 
1.0 1:24.0 2:29.0 3:386129.0 4:447569.0 5:1.6749533E7 6:1.6765152E7 7:14407.0 8:25745.0 9:9491.0 10:7408.0 
1.0 1:23.0 2:20.0 3:477362.0 4:31613.0 5:1.6755246E7 6:15793.0 7:1.6762923E7 8:13022.0 9:15029.0 10:12348.0 
1.0 1:27.0 2:21.0 3:74679.0 4:11568.0 5:7794.0 6:4320.0 7:1328.0 8:1136.0 9:1610.0 10:1845.0 
1.0 1:26.0 2:30.0 3:99194.0 4:80332.0 5:14701.0 6:7669.0 7:2607.0 8:4666.0 9:5784.0 10:16548.0 
1.0 1:34.0 2:43.0 3:79043.0 4:1.6753332E7 5:3349.0 6:2746.0 7:8893.0 8:2786.0 9:1198.0 10:11666.0 
1.0 1:41.0 2:60.0 3:1.6755803E7 4:10803.0 5:17300.0 6:94995.0 7:15604.0 8:7004.0 9:11988.0 10:19295.0 
1.0 1:40.0 2:50.0 3:16048.0 4:1.6752922E7 5:28125.0 6:1.6745096E7 7:7157.0 8:10017.0 9:3708.0 10:12518.0 
