svm_type c_svc
kernel_type rbf
gamma 0.1
nr_class 2
total_sv 5770
rho -0.9086571928989405
label 1 0
nr_sv 4700 1070
SV
0.09028920633932819 1:104.0 2:114.0 3:88.0 4:104.0 5:98.0 6:94.0 7:75.0 8:62.0 9:49.0 10:91.0 
0.0886418393175919 1:104.0 2:114.0 3:88.0 4:101.0 5:98.0 6:91.0 7:75.0 8:62.0 9:45.0 10:94.0 
0.08846287284123655 1:104.0 2:117.0 3:85.0 4:101.0 5:101.0 6:94.0 7:71.0 8:65.0 9:45.0 10:94.0 
0.08515254943975709 1:104.0 2:114.0 3:85.0 4:104.0 5:101.0 6:91.0 7:71.0 8:62.0 9:45.0 10:94.0 
0.05129015455039224 1:101.0 2:114.0 3:81.0 4:104.0 5:98.0 6:88.0 7:71.0 8:65.0 9:45.0 10:94.0 
0.06336360082872719 1:101.0 2:114.0 3:81.0 4:104.0 5:101.0 6:88.0 7:71.0 8:65.0 9:45.0 10:94.0 
0.08387039706359214 1:101.0 2:117.0 3:81.0 4:104.0 5:101.0 6:88.0 7:75.0 8:62.0 9:49.0 10:94.0 
0.076598955833137 1:104.0 2:114.0 3:81.0 4:104.0 5:98.0 6:88.0 7:71.0 8:62.0 9:49.0 10:94.0 
0.057545745758703894 1:101.0 2:117.0 3:81.0 4:104.0 5:98.0 6:88.0 7:71.0 8:62.0 9:49.0 10:94.0 
0.06659284437412835 1:101.0 2:120.0 3:81.0 4:104.0 5:98.0 6:88.0 7:71.0 8:62.0 9:45.0 10:94.0 
0.05586521443857967 1:101.0 2:117.0 3:81.0 4:104.0 5:98.0 6:91.0 7:71.0 8:62.0 9:45.0 10:94.0 
0.07639512119719055 1:101.0 2:120.0 3:78.0 4:107.0 5:98.0 6:91.0 7:71.0 8:62.0 9:45.0 10:94.0 
0.0583744894145628 1:98.0 2:117.0 3:81.0 4:107.0 5:98.0 6:88.0 7:71.0 8:65.0 9:45.0 10:94.0 
0.08640089638497284 1:98.0 2:117.0 3:81.0 4:107.0 5:98.0 6:88.0 7:75.0 8:62.0 9:42.0 10:94.0 
0.05881279266762051 1:94.0 2:117.0 3:81.0 4:107.0 5:98.0 6:91.0 7:71.0 8:62.0 9:45.0 10:94.0 
0.06697459053393806 1:98.0 2:120.0 3:81.0 4:107.0 5:98.0 6:91.0 7:71.0 8:65.0 9:45.0 10:94.0 
0.07644911807696653 1:98.0 2:117.0 3:81.0 4:107.0 5:98.0 6:91.0 7:68.0 8:62.0 9:42.0 10:94.0 
0.08624928452705333 1:94.0 2:120.0 3:85.0 4:107.0 5:98.0 6:91.0 7:68.0 8:62.0 9:42.0 10:94.0 
0.08629600213731586 1:98.0 2:117.0 3:85.0 4:107.0 5:98.0 6:91.0 7:68.0 8:58.0 9:42.0 10:94.0 
0.05727531420594135 1:94.0 2:117.0 3:81.0 4:107.0 5:98.0 6:88.0 7:71.0 8:62.0 9:45.0 10:94.0 
0.08783649508949781 1:94.0 2:120.0 3:81.0 4:107.0 5:94.0 6:88.0 7:68.0 8:62.0 9:42.0 10:94.0 
0.09041495083543899 1:101.0 2:120.0 3:88.0 4:111.0 5:98.0 6:88.0 7:68.0 8:62.0 9:42.0 10:94.0 
0.09048332526512926 1:101.0 2:120.0 3:91.0 4:111.0 5:98.0 6:88.0 7:65.0 8:58.0 9:42.0 10:98.0 
0.08791429544849788 1:98.0 2:120.0 3:88.0 4:114.0 5:94.0 6:85.0 7:68.0 8:58.0 9:39.0 10:98.0 
0.08653624468073812 1:101.0 2:120.0 3:91.0 4:114.0 5:94.0 6:85.0 7:68.0 8:58.0 9:35.0 10:98.0 
0.07893827122372825 1:101.0 2:117.0 3:88.0 4:111.0 5:94.0 6:85.0 7:65.0 8:55.0 9:35.0 10:98.0 
0.08802831925402554 1:98.0 2:117.0 3:85.0 4:111.0 5:91.0 6:85.0 7:68.0 8:62.0 9:32.0 10:98.0 
0.08276277724910824 1:101.0 2:117.0 3:85.0 4:111.0 5:94.0 6:85.0 7:68.0 8:58.0 9:32.0 10:98.0 
0.08170187153502911 1:98.0 2:117.0 3:88.0 4:111.0 5:91.0 6:85.0 7:68.0 8:55.0 9:32.0 10:98.0 
0.08199940464688693 1:98.0 2:114.0 3:91.0 4:111.0 5:94.0 6:88.0 7:68.0 8:55.0 9:32.0 10:98.0 
0.07883205672738898 1:101.0 2:117.0 3:91.0 4:111.0 5:94.0 6:88.0 7:65.0 8:55.0 9:32.0 10:98.0 
0.08254702418311932 1:98.0 2:114.0 3:85.0 4:111.0 5:94.0 6:88.0 7:65.0 8:55.0 9:32.0 10:98.0 
0.08772364688279471 1:98.0 2:117.0 3:85.0 4:107.0 5:91.0 6:88.0 7:65.0 8:55.0 9:32.0 10:101.0 
0.05375461172859144 1:98.0 2:114.0 3:78.0 4:111.0 5:91.0 6:88.0 7:65.0 8:55.0 9:32.0 10:101.0 
0.08703115365636632 1:98.0 2:114.0 3:75.0 4:117.0 5:91.0 6:91.0 7:65.0 8:55.0 9:32.0 10:101.0 
0.05586417443773504 1:98.0 2:114.0 3:78.0 4:114.0 5:91.0 6:88.0 7:65.0 8:55.0 9:32.0 10:101.0 
0.07648694163085346 1:98.0 2:111.0 3:85.0 4:114.0 5:91.0 6:91.0 7:65.0 8:55.0 9:35.0 10:101.0 
0.08064199449734465 1:101.0 2:111.0 3:78.0 4:114.0 5:88.0 6:88.0 7:65.0 8:55.0 9:35.0 10:101.0 
0.08163139570395357 1:101.0 2:114.0 3:78.0 4:111.0 5:88.0 6:85.0 7:65.0 8:55.0 9:35.0 10:101.0 
0.035183908749647684 1:101.0 2:114.0 3:85.0 4:111.0 5:88.0 6:88.0 7:65.0 8:55.0 9:35.0 10:101.0 
0.039052732092126896 1:101.0 2:114.0 3:85.0 4:111.0 5:91.0 6:88.0 7:65.0 8:55.0 9:35.0 10:101.0 
0.06437179589159461 1:101.0 2:114.0 3:85.0 4:111.0 5:88.0 6:88.0 7:65.0 8:52.0 9:35.0 10:101.0 
0.06596350354168437 1:98.0 2:114.0 3:81.0 4:111.0 5:91.0 6:88.0 7:65.0 8:55.0 9:35.0 10:101.0 
0.0853729819216675 1:101.0 2:111.0 3:81.0 4:111.0 5:88.0 6:91.0 7:65.0 8:55.0 9:35.0 10:104.0 
0.07239781364642256 1:98.0 2:111.0 3:88.0 4:111.0 5:88.0 6:91.0 7:65.0 8:55.0 9:35.0 10:101.0 
0.0655463733207769 1:98.0 2:114.0 3:88.0 4:111.0 5:91.0 6:91.0 7:65.0 8:55.0 9:35.0 10:101.0 
0.0639142453187156 1:104.0 2:114.0 3:85.0 4:111.0 5:91.0 6:91.0 7:65.0 8:55.0 9:32.0 10:101.0 
0.06782149533034681 1:104.0 2:114.0 3:85.0 4:111.0 5:88.0 6:91.0 7:62.0 8:55.0 9:32.0 10:101.0 
0.059238810370323566 1:101.0 2:114.0 3:85.0 4:111.0 5:91.0 6:91.0 7:62.0 8:55.0 9:32.0 10:101.0 
0.08887917718733901 1:104.0 2:111.0 3:88.0 4:114.0 5:91.0 6:91.0 7:62.0 8:52.0 9:32.0 10:101.0 
0.08962816931181239 1:101.0 2:111.0 3:85.0 4:114.0 5:88.0 6:94.0 7:68.0 8:52.0 9:35.0 10:101.0 
0.05845760511617015 1:101.0 2:114.0 3:81.0 4:114.0 5:91.0 6:94.0 7:68.0 8:55.0 9:35.0 10:107.0 
0.08061348043901201 1:101.0 2:111.0 3:85.0 4:114.0 5:91.0 6:98.0 7:68.0 8:55.0 9:35.0 10:107.0 
0.0750902237512834 1:101.0 2:111.0 3:85.0 4:111.0 5:94.0 6:94.0 7:68.0 8:55.0 9:35.0 10:107.0 
0.06693996579396361 1:101.0 2:114.0 3:85.0 4:111.0 5:94.0 6:98.0 7:68.0 8:55.0 9:35.0 10:107.0 
0.07851390008254844 1:101.0 2:114.0 3:81.0 4:111.0 5:94.0 6:98.0 7:65.0 8:55.0 9:35.0 10:107.0 
0.07596412137185304 1:101.0 2:114.0 3:81.0 4:111.0 5:91.0 6:98.0 7:68.0 8:52.0 9:35.0 10:107.0 
0.08023827125187799 1:101.0 2:117.0 3:81.0 4:111.0 5:91.0 6:94.0 7:71.0 8:55.0 9:35.0 10:107.0 
0.08425230437292258 1:101.0 2:114.0 3:81.0 4:111.0 5:91.0 6:98.0 7:71.0 8:55.0 9:35.0 10:111.0 
0.05768065337593659 1:101.0 2:114.0 3:81.0 4:114.0 5:94.0 6:94.0 7:68.0 8:55.0 9:35.0 10:111.0 
0.07058818738111591 1:101.0 2:114.0 3:85.0 4:114.0 5:94.0 6:94.0 7:71.0 8:55.0 9:35.0 10:107.0 
0.08338632782613428 1:101.0 2:114.0 3:85.0 4:114.0 5:94.0 6:91.0 7:71.0 8:55.0 9:39.0 10:107.0 
0.07209737001185923 1:101.0 2:114.0 3:81.0 4:114.0 5:94.0 6:88.0 7:68.0 8:55.0 9:35.0 10:107.0 
0.03126290628776335 1:101.0 2:114.0 3:81.0 4:114.0 5:94.0 6:91.0 7:68.0 8:55.0 9:35.0 10:107.0 
0.052651910422213205 1:101.0 2:114.0 3:81.0 4:114.0 5:91.0 6:91.0 7:68.0 8:55.0 9:35.0 10:111.0 
0.061119532231722236 1:98.0 2:114.0 3:81.0 4:114.0 5:94.0 6:91.0 7:68.0 8:55.0 9:35.0 10:111.0 
0.05404097022157522 1:98.0 2:117.0 3:81.0 4:114.0 5:91.0 6:91.0 7:71.0 8:55.0 9:35.0 10:111.0 
0.059278944453708134 1:98.0 2:117.0 3:81.0 4:114.0 5:91.0 6:94.0 7:71.0 8:55.0 9:35.0 10:111.0 
0.07294061059599194 1:101.0 2:120.0 3:81.0 4:117.0 5:91.0 6:91.0 7:68.0 8:52.0 9:35.0 10:111.0 
0.08494825076384349 1:101.0 2:117.0 3:81.0 4:114.0 5:91.0 6:88.0 7:68.0 8:52.0 9:39.0 10:111.0 
0.05877103441903486 1:101.0 2:120.0 3:81.0 4:114.0 5:91.0 6:91.0 7:68.0 8:52.0 9:35.0 10:114.0 
0.0756074394907506 1:101.0 2:120.0 3:81.0 4:114.0 5:91.0 6:88.0 7:68.0 8:52.0 9:35.0 10:117.0 
0.0757774462262259 1:101.0 2:120.0 3:81.0 4:117.0 5:88.0 6:88.0 7:68.0 8:52.0 9:35.0 10:114.0 
0.08429457292501696 1:101.0 2:117.0 3:81.0 4:117.0 5:91.0 6:88.0 7:71.0 8:55.0 9:39.0 10:114.0 
0.08870061164445331 1:101.0 2:117.0 3:81.0 4:117.0 5:88.0 6:85.0 7:75.0 8:55.0 9:35.0 10:114.0 
0.07924941695810933 1:104.0 2:117.0 3:81.0 4:117.0 5:91.0 6:88.0 7:71.0 8:55.0 9:35.0 10:111.0 
0.08301512706692382 1:104.0 2:114.0 3:81.0 4:117.0 5:88.0 6:85.0 7:71.0 8:55.0 9:35.0 10:111.0 
0.09126514554259041 1:104.0 2:107.0 3:81.0 4:114.0 5:88.0 6:81.0 7:68.0 8:55.0 9:32.0 10:111.0 
0.06562880452815754 1:104.0 2:114.0 3:78.0 4:114.0 5:88.0 6:81.0 7:71.0 8:55.0 9:32.0 10:114.0 
0.050137980794226246 1:104.0 2:117.0 3:78.0 4:117.0 5:88.0 6:81.0 7:71.0 8:55.0 9:32.0 10:114.0 
0.06191534977704277 1:104.0 2:114.0 3:78.0 4:117.0 5:88.0 6:81.0 7:68.0 8:55.0 9:32.0 10:114.0 
0.07879112303382232 1:104.0 2:117.0 3:81.0 4:114.0 5:85.0 6:81.0 7:71.0 8:55.0 9:32.0 10:114.0 
0.06081364917475746 1:104.0 2:117.0 3:81.0 4:120.0 5:88.0 6:81.0 7:71.0 8:55.0 9:32.0 10:117.0 
0.04177475803037466 1:104.0 2:117.0 3:81.0 4:120.0 5:88.0 6:81.0 7:68.0 8:55.0 9:32.0 10:117.0 
0.006607089137273298 1:104.0 2:117.0 3:81.0 4:117.0 5:88.0 6:81.0 7:68.0 8:55.0 9:32.0 10:117.0 
0.03831901970419501 1:104.0 2:117.0 3:81.0 4:117.0 5:88.0 6:81.0 7:68.0 8:55.0 9:32.0 10:114.0 
0.06594988981286248 1:104.0 2:120.0 3:81.0 4:117.0 5:88.0 6:81.0 7:68.0 8:55.0 9:32.0 10:117.0 
0.08051684691997546 1:104.0 2:120.0 3:85.0 4:117.0 5:85.0 6:85.0 7:68.0 8:55.0 9:32.0 10:117.0 
0.07172950742945738 1:107.0 2:120.0 3:85.0 4:114.0 5:88.0 6:85.0 7:68.0 8:52.0 9:32.0 10:117.0 
0.0789393995838214 1:107.0 2:117.0 3:85.0 4:117.0 5:88.0 6:81.0 7:68.0 8:52.0 9:32.0 10:117.0 
0.04822095523057568 1:107.0 2:117.0 3:85.0 4:114.0 5:88.0 6:85.0 7:68.0 8:55.0 9:32.0 10:117.0 
0.06669182619266262 1:107.0 2:114.0 3:85.0 4:117.0 5:88.0 6:85.0 7:68.0 8:55.0 9:32.0 10:117.0 
0.07698835768836963 1:107.0 2:117.0 3:85.0 4:117.0 5:91.0 6:85.0 7:68.0 8:55.0 9:32.0 10:114.0 
0.04734834827565435 1:107.0 2:117.0 3:85.0 4:117.0 5:88.0 6:85.0 7:65.0 8:55.0 9:32.0 10:117.0 
0.06150745196650707 1:107.0 2:120.0 3:88.0 4:117.0 5:88.0 6:85.0 7:65.0 8:55.0 9:32.0 10:117.0 
0.06505519873990845 1:107.0 2:120.0 3:88.0 4:117.0 5:85.0 6:85.0 7:65.0 8:52.0 9:32.0 10:117.0 
0.08571911926649284 1:104.0 2:117.0 3:88.0 4:114.0 5:85.0 6:85.0 7:62.0 8:52.0 9:32.0 10:114.0 
0.07027377529297746 1:104.0 2:120.0 3:88.0 4:114.0 5:88.0 6:85.0 7:62.0 8:52.0 9:35.0 10:117.0 
0.06736369844992937 1:104.0 2:120.0 3:88.0 4:114.0 5:88.0 6:88.0 7:62.0 8:52.0 9:32.0 10:117.0 
0.08326329647990066 1:104.0 2:120.0 3:88.0 4:120.0 5:88.0 6:88.0 7:65.0 8:49.0 9:32.0 10:114.0 
0.07600356137956399 1:104.0 2:120.0 3:91.0 4:117.0 5:88.0 6:85.0 7:62.0 8:52.0 9:32.0 10:117.0 
0.08059868807044313 1:104.0 2:124.0 3:88.0 4:117.0 5:88.0 6:88.0 7:65.0 8:49.0 9:32.0 10:117.0 
0.07138855824469692 1:104.0 2:120.0 3:88.0 4:117.0 5:85.0 6:88.0 7:65.0 8:49.0 9:32.0 10:117.0 
0.09102316324170551 1:114.0 2:120.0 3:88.0 4:117.0 5:88.0 6:85.0 7:62.0 8:49.0 9:32.0 10:117.0 
0.08658049836931098 1:114.0 2:117.0 3:91.0 4:117.0 5:85.0 6:85.0 7:62.0 8:45.0 9:32.0 10:114.0 
0.0890085088372598 1:114.0 2:117.0 3:88.0 4:117.0 5:81.0 6:85.0 7:62.0 8:49.0 9:32.0 10:114.0 
0.08116902232676004 1:114.0 2:117.0 3:91.0 4:117.0 5:81.0 6:88.0 7:58.0 8:45.0 9:32.0 10:114.0 
0.0790921854037569 1:117.0 2:114.0 3:91.0 4:117.0 5:81.0 6:88.0 7:58.0 8:42.0 9:32.0 10:114.0 
0.08037403185195574 1:117.0 2:114.0 3:88.0 4:120.0 5:81.0 6:88.0 7:58.0 8:45.0 9:32.0 10:114.0 
0.08592693695113546 1:117.0 2:114.0 3:88.0 4:120.0 5:85.0 6:85.0 7:62.0 8:45.0 9:32.0 10:117.0 
0.07444909502098293 1:117.0 2:114.0 3:88.0 4:120.0 5:85.0 6:85.0 7:58.0 8:42.0 9:32.0 10:114.0 
0.07969007587337698 1:117.0 2:114.0 3:88.0 4:117.0 5:88.0 6:88.0 7:58.0 8:42.0 9:32.0 10:114.0 
0.08099759575330795 1:114.0 2:120.0 3:88.0 4:117.0 5:88.0 6:91.0 7:58.0 8:42.0 9:32.0 10:114.0 
0.08300039638540307 1:114.0 2:120.0 3:88.0 4:117.0 5:85.0 6:88.0 7:55.0 8:42.0 9:32.0 10:114.0 
0.05224700163893403 1:114.0 2:117.0 3:88.0 4:117.0 5:88.0 6:88.0 7:58.0 8:42.0 9:32.0 10:117.0 
0.051285195548624686 1:114.0 2:117.0 3:88.0 4:120.0 5:88.0 6:85.0 7:58.0 8:42.0 9:32.0 10:117.0 
0.03805095924438495 1:114.0 2:117.0 3:88.0 4:120.0 5:88.0 6:88.0 7:58.0 8:42.0 9:32.0 10:117.0 
0.06709849320282482 1:117.0 2:117.0 3:91.0 4:120.0 5:88.0 6:85.0 7:58.0 8:42.0 9:32.0 10:117.0 
0.0847576105914774 1:117.0 2:114.0 3:91.0 4:124.0 5:91.0 6:85.0 7:58.0 8:42.0 9:32.0 10:117.0 
0.07735602477926562 1:120.0 2:114.0 3:91.0 4:120.0 5:88.0 6:81.0 7:58.0 8:42.0 9:32.0 10:117.0 
0.05731989547833838 1:117.0 2:114.0 3:94.0 4:124.0 5:88.0 6:81.0 7:58.0 8:42.0 9:32.0 10:117.0 
0.052239020732346375 1:117.0 2:117.0 3:94.0 4:124.0 5:88.0 6:81.0 7:58.0 8:42.0 9:32.0 10:117.0 
0.07236742439465382 1:117.0 2:117.0 3:91.0 4:124.0 5:88.0 6:81.0 7:58.0 8:45.0 9:32.0 10:117.0 
0.0798923634634981 1:117.0 2:114.0 3:91.0 4:124.0 5:85.0 6:78.0 7:58.0 8:45.0 9:35.0 10:117.0 
0.08345684475648607 1:120.0 2:114.0 3:91.0 4:124.0 5:85.0 6:78.0 7:55.0 8:42.0 9:35.0 10:117.0 
0.08430779474718014 1:120.0 2:111.0 3:91.0 4:124.0 5:91.0 6:78.0 7:55.0 8:42.0 9:35.0 10:120.0 
0.08102673176342196 1:120.0 2:111.0 3:91.0 4:120.0 5:91.0 6:78.0 7:55.0 8:42.0 9:35.0 10:117.0 
0.07811549608216628 1:117.0 2:114.0 3:91.0 4:120.0 5:88.0 6:78.0 7:58.0 8:42.0 9:35.0 10:117.0 
0.09054929945148038 1:107.0 2:114.0 3:91.0 4:117.0 5:91.0 6:78.0 7:55.0 8:42.0 9:35.0 10:117.0 
0.08446388556974305 1:104.0 2:111.0 3:91.0 4:117.0 5:88.0 6:75.0 7:58.0 8:42.0 9:35.0 10:117.0 
0.08541805767599805 1:104.0 2:111.0 3:91.0 4:117.0 5:85.0 6:75.0 7:58.0 8:39.0 9:32.0 10:117.0 
0.08395231651825491 1:117.0 2:111.0 3:91.0 4:114.0 5:88.0 6:75.0 7:55.0 8:39.0 9:32.0 10:120.0 
0.08199745066840836 1:117.0 2:111.0 3:94.0 4:114.0 5:88.0 6:75.0 7:55.0 8:35.0 9:32.0 10:120.0 
0.08320449155404169 1:117.0 2:114.0 3:94.0 4:120.0 5:85.0 6:71.0 7:55.0 8:35.0 9:32.0 10:124.0 
0.05742568561519523 1:117.0 2:117.0 3:94.0 4:120.0 5:85.0 6:71.0 7:55.0 8:35.0 9:32.0 10:120.0 
0.062229104689805914 1:117.0 2:117.0 3:94.0 4:117.0 5:85.0 6:71.0 7:55.0 8:35.0 9:32.0 10:120.0 
0.0903127413954325 1:114.0 2:117.0 3:98.0 4:120.0 5:81.0 6:71.0 7:55.0 8:35.0 9:32.0 10:124.0 
0.09074048646453392 1:114.0 2:114.0 3:98.0 4:120.0 5:88.0 6:68.0 7:52.0 8:35.0 9:32.0 10:124.0 
0.08597466803688586 1:117.0 2:114.0 3:94.0 4:117.0 5:85.0 6:75.0 7:52.0 8:35.0 9:32.0 10:120.0 
0.08896851247202953 1:107.0 2:114.0 3:94.0 4:117.0 5:85.0 6:71.0 7:52.0 8:35.0 9:32.0 10:124.0 
0.0881773226793911 1:104.0 2:111.0 3:94.0 4:117.0 5:85.0 6:68.0 7:55.0 8:35.0 9:32.0 10:124.0 
0.08716238373023848 1:107.0 2:107.0 3:94.0 4:117.0 5:88.0 6:71.0 7:55.0 8:35.0 9:35.0 10:120.0 
0.08512101219713465 1:107.0 2:107.0 3:94.0 4:117.0 5:88.0 6:71.0 7:55.0 8:39.0 9:39.0 10:120.0 
0.08619717660655418 1:107.0 2:111.0 3:94.0 4:117.0 5:85.0 6:71.0 7:58.0 8:39.0 9:39.0 10:120.0 
0.08932364937994247 1:111.0 2:111.0 3:94.0 4:117.0 5:88.0 6:71.0 7:55.0 8:35.0 9:39.0 10:124.0 
0.08236298748374021 1:107.0 2:111.0 3:98.0 4:117.0 5:85.0 6:71.0 7:55.0 8:35.0 9:39.0 10:124.0 
0.0834927630552803 1:107.0 2:111.0 3:98.0 4:117.0 5:85.0 6:71.0 7:58.0 8:35.0 9:35.0 10:124.0 
0.09006477276048747 1:107.0 2:111.0 3:98.0 4:124.0 5:81.0 6:71.0 7:58.0 8:39.0 9:35.0 10:120.0 
0.08851617359069408 1:111.0 2:107.0 3:98.0 4:120.0 5:81.0 6:68.0 7:58.0 8:39.0 9:35.0 10:120.0 
0.06448394065468277 1:117.0 2:107.0 3:98.0 4:124.0 5:81.0 6:71.0 7:58.0 8:39.0 9:35.0 10:120.0 
0.047661788537093415 1:117.0 2:107.0 3:98.0 4:124.0 5:81.0 6:71.0 7:58.0 8:39.0 9:35.0 10:117.0 
0.07264066567868238 1:117.0 2:107.0 3:98.0 4:124.0 5:81.0 6:75.0 7:58.0 8:39.0 9:39.0 10:117.0 
0.0606679407996798 1:117.0 2:107.0 3:98.0 4:124.0 5:81.0 6:71.0 7:58.0 8:39.0 9:39.0 10:117.0 
0.08765864849379101 1:117.0 2:107.0 3:94.0 4:120.0 5:81.0 6:75.0 7:58.0 8:39.0 9:39.0 10:117.0 
0.08733340892974079 1:107.0 2:107.0 3:94.0 4:124.0 5:78.0 6:71.0 7:58.0 8:39.0 9:35.0 10:117.0 
0.0884174618900983 1:104.0 2:107.0 3:94.0 4:120.0 5:81.0 6:71.0 7:58.0 8:39.0 9:35.0 10:117.0 
0.08134983406028162 1:107.0 2:111.0 3:98.0 4:117.0 5:85.0 6:75.0 7:58.0 8:39.0 9:39.0 10:117.0 
0.08959177624403564 1:107.0 2:111.0 3:98.0 4:117.0 5:85.0 6:71.0 7:58.0 8:39.0 9:35.0 10:114.0 
0.08418612348859722 1:104.0 2:111.0 3:98.0 4:117.0 5:81.0 6:75.0 7:58.0 8:39.0 9:39.0 10:117.0 
0.06174085410669647 1:114.0 2:111.0 3:98.0 4:120.0 5:81.0 6:71.0 7:58.0 8:39.0 9:35.0 10:117.0 
0.0546819229238201 1:114.0 2:111.0 3:98.0 4:120.0 5:81.0 6:71.0 7:58.0 8:39.0 9:32.0 10:117.0 
0.08377382153850199 1:114.0 2:107.0 3:98.0 4:117.0 5:81.0 6:71.0 7:58.0 8:39.0 9:32.0 10:117.0 
0.09067662803576437 1:114.0 2:107.0 3:94.0 4:124.0 5:81.0 6:75.0 7:62.0 8:39.0 9:32.0 10:117.0 
0.08390851390380522 1:114.0 2:111.0 3:94.0 4:124.0 5:81.0 6:71.0 7:58.0 8:39.0 9:32.0 10:117.0 
0.08497633543989253 1:114.0 2:114.0 3:94.0 4:124.0 5:81.0 6:71.0 7:62.0 8:42.0 9:32.0 10:120.0 
0.07435211008271514 1:114.0 2:111.0 3:94.0 4:124.0 5:85.0 6:71.0 7:62.0 8:42.0 9:32.0 10:117.0 
0.07618532022775606 1:114.0 2:111.0 3:94.0 4:124.0 5:85.0 6:68.0 7:62.0 8:42.0 9:32.0 10:120.0 
0.0778411918974114 1:117.0 2:107.0 3:94.0 4:120.0 5:81.0 6:68.0 7:65.0 8:42.0 9:32.0 10:124.0 
0.07830969827080875 1:117.0 2:107.0 3:94.0 4:120.0 5:81.0 6:65.0 7:62.0 8:42.0 9:32.0 10:124.0 
0.09070050464242335 1:117.0 2:104.0 3:94.0 4:117.0 5:81.0 6:71.0 7:62.0 8:42.0 9:32.0 10:120.0 
0.075983480197158 1:117.0 2:104.0 3:94.0 4:120.0 5:81.0 6:75.0 7:58.0 8:42.0 9:32.0 10:130.0 
0.08136060524597316 1:117.0 2:104.0 3:94.0 4:120.0 5:85.0 6:71.0 7:58.0 8:42.0 9:32.0 10:127.0 
0.0769186382259901 1:117.0 2:104.0 3:94.0 4:117.0 5:81.0 6:71.0 7:58.0 8:42.0 9:32.0 10:127.0 
0.08213373369842075 1:114.0 2:104.0 3:94.0 4:124.0 5:81.0 6:71.0 7:58.0 8:42.0 9:32.0 10:127.0 
0.07424024017086006 1:117.0 2:104.0 3:98.0 4:120.0 5:78.0 6:75.0 7:58.0 8:42.0 9:32.0 10:127.0 
0.08565839329376312 1:114.0 2:104.0 3:98.0 4:124.0 5:78.0 6:71.0 7:58.0 8:42.0 9:32.0 10:130.0 
0.0854965338507912 1:114.0 2:104.0 3:98.0 4:120.0 5:81.0 6:75.0 7:62.0 8:42.0 9:32.0 10:127.0 
0.08167860788534193 1:114.0 2:104.0 3:94.0 4:120.0 5:78.0 6:78.0 7:58.0 8:42.0 9:32.0 10:127.0 
0.06859350361440003 1:114.0 2:107.0 3:94.0 4:120.0 5:81.0 6:75.0 7:58.0 8:42.0 9:32.0 10:127.0 
0.07305243979859016 1:114.0 2:107.0 3:94.0 4:120.0 5:78.0 6:71.0 7:58.0 8:42.0 9:32.0 10:127.0 
0.07568609461265385 1:117.0 2:107.0 3:98.0 4:120.0 5:78.0 6:71.0 7:58.0 8:42.0 9:32.0 10:127.0 
0.08766679199690458 1:104.0 2:107.0 3:98.0 4:120.0 5:78.0 6:71.0 7:55.0 8:42.0 9:32.0 10:127.0 
0.08431564194076063 1:107.0 2:104.0 3:101.0 4:117.0 5:85.0 6:75.0 7:55.0 8:42.0 9:32.0 10:127.0 
0.07045718528778305 1:107.0 2:104.0 3:98.0 4:117.0 5:81.0 6:75.0 7:55.0 8:42.0 9:32.0 10:127.0 
0.073974340695868 1:107.0 2:104.0 3:98.0 4:120.0 5:81.0 6:75.0 7:52.0 8:42.0 9:32.0 10:127.0 
0.08730588178475235 1:107.0 2:104.0 3:98.0 4:124.0 5:78.0 6:75.0 7:55.0 8:42.0 9:32.0 10:127.0 
0.06227025332009467 1:107.0 2:104.0 3:101.0 4:120.0 5:78.0 6:71.0 7:55.0 8:42.0 9:32.0 10:130.0 
0.052559974303905355 1:107.0 2:104.0 3:101.0 4:120.0 5:81.0 6:71.0 7:55.0 8:42.0 9:32.0 10:130.0 
0.08249247249752328 1:111.0 2:104.0 3:101.0 4:120.0 5:81.0 6:68.0 7:55.0 8:42.0 9:32.0 10:130.0 
0.08568527608856163 1:107.0 2:107.0 3:101.0 4:117.0 5:78.0 6:68.0 7:52.0 8:42.0 9:32.0 10:134.0 
0.08158553365832089 1:107.0 2:104.0 3:101.0 4:120.0 5:81.0 6:68.0 7:52.0 8:42.0 9:32.0 10:134.0 
0.08863767577066223 1:117.0 2:104.0 3:101.0 4:124.0 5:78.0 6:65.0 7:52.0 8:42.0 9:32.0 10:134.0 
0.08843266178077891 1:117.0 2:107.0 3:104.0 4:124.0 5:75.0 6:68.0 7:52.0 8:42.0 9:32.0 10:130.0 
0.08290725778831731 1:114.0 2:107.0 3:104.0 4:124.0 5:78.0 6:65.0 7:52.0 8:45.0 9:32.0 10:130.0 
0.08303900730808089 1:117.0 2:104.0 3:104.0 4:124.0 5:81.0 6:62.0 7:58.0 8:45.0 9:32.0 10:130.0 
0.05587781880849557 1:117.0 2:107.0 3:104.0 4:120.0 5:81.0 6:62.0 7:58.0 8:45.0 9:32.0 10:130.0 
0.07711976855529493 1:117.0 2:111.0 3:104.0 4:120.0 5:81.0 6:62.0 7:58.0 8:45.0 9:32.0 10:130.0 
0.07049006086710474 1:117.0 2:107.0 3:101.0 4:120.0 5:81.0 6:62.0 7:55.0 8:45.0 9:32.0 10:130.0 
0.07285313887358563 1:114.0 2:107.0 3:101.0 4:120.0 5:81.0 6:62.0 7:55.0 8:45.0 9:32.0 10:134.0 
0.08551376027392193 1:114.0 2:107.0 3:101.0 4:117.0 5:78.0 6:65.0 7:55.0 8:45.0 9:32.0 10:134.0 
0.06402661077702593 1:114.0 2:104.0 3:101.0 4:124.0 5:78.0 6:65.0 7:58.0 8:45.0 9:32.0 10:130.0 
0.052672377669921 1:114.0 2:104.0 3:101.0 4:124.0 5:78.0 6:65.0 7:55.0 8:45.0 9:32.0 10:130.0 
0.06583221433577523 1:114.0 2:107.0 3:101.0 4:124.0 5:81.0 6:65.0 7:55.0 8:45.0 9:32.0 10:134.0 
0.07775372267917409 1:114.0 2:107.0 3:101.0 4:124.0 5:81.0 6:68.0 7:58.0 8:45.0 9:32.0 10:134.0 
0.08956027340126821 1:114.0 2:107.0 3:101.0 4:127.0 5:81.0 6:68.0 7:55.0 8:49.0 9:32.0 10:130.0 
0.06509963799296781 1:111.0 2:111.0 3:104.0 4:124.0 5:78.0 6:68.0 7:58.0 8:49.0 9:32.0 10:130.0 
0.06397678820035563 1:114.0 2:111.0 3:104.0 4:124.0 5:78.0 6:68.0 7:58.0 8:49.0 9:32.0 10:130.0 
0.08372467446835036 1:114.0 2:120.0 3:104.0 4:124.0 5:78.0 6:68.0 7:58.0 8:49.0 9:32.0 10:130.0 
0.07968435475462643 1:114.0 2:120.0 3:104.0 4:127.0 5:81.0 6:65.0 7:58.0 8:49.0 9:32.0 10:127.0 
0.06757675276359448 1:114.0 2:120.0 3:104.0 4:124.0 5:81.0 6:65.0 7:62.0 8:49.0 9:32.0 10:127.0 
0.06697835250494377 1:117.0 2:120.0 3:104.0 4:124.0 5:81.0 6:65.0 7:62.0 8:52.0 9:32.0 10:127.0 
0.08159180459853954 1:114.0 2:117.0 3:104.0 4:120.0 5:81.0 6:65.0 7:62.0 8:52.0 9:32.0 10:130.0 
0.08022749948020298 1:117.0 2:120.0 3:101.0 4:124.0 5:78.0 6:65.0 7:58.0 8:52.0 9:32.0 10:127.0 
0.07666406051704788 1:117.0 2:117.0 3:101.0 4:124.0 5:81.0 6:65.0 7:62.0 8:52.0 9:32.0 10:130.0 
0.04471015536200773 1:114.0 2:120.0 3:101.0 4:124.0 5:81.0 6:68.0 7:58.0 8:52.0 9:32.0 10:127.0 
0.08854742826169953 1:117.0 2:120.0 3:101.0 4:120.0 5:85.0 6:68.0 7:55.0 8:52.0 9:32.0 10:127.0 
0.06637703336659555 1:114.0 2:120.0 3:101.0 4:124.0 5:81.0 6:68.0 7:55.0 8:52.0 9:32.0 10:127.0 
0.08746328218966648 1:114.0 2:124.0 3:104.0 4:120.0 5:85.0 6:68.0 7:55.0 8:52.0 9:32.0 10:130.0 
0.061044153169196196 1:111.0 2:124.0 3:104.0 4:120.0 5:81.0 6:68.0 7:55.0 8:52.0 9:32.0 10:127.0 
0.06541047053139692 1:111.0 2:124.0 3:104.0 4:120.0 5:78.0 6:68.0 7:55.0 8:52.0 9:32.0 10:127.0 
0.0752370838994088 1:107.0 2:124.0 3:101.0 4:117.0 5:78.0 6:71.0 7:55.0 8:52.0 9:32.0 10:130.0 
0.07489261557192657 1:107.0 2:120.0 3:101.0 4:117.0 5:78.0 6:71.0 7:55.0 8:52.0 9:32.0 10:130.0 
0.07960604880663741 1:111.0 2:120.0 3:101.0 4:117.0 5:78.0 6:71.0 7:58.0 8:52.0 9:32.0 10:134.0 
0.08807675968540107 1:111.0 2:124.0 3:101.0 4:114.0 5:81.0 6:68.0 7:58.0 8:52.0 9:32.0 10:134.0 
0.09005303101328951 1:111.0 2:127.0 3:101.0 4:114.0 5:81.0 6:71.0 7:58.0 8:52.0 9:29.0 10:130.0 
0.08052614013081894 1:114.0 2:117.0 3:104.0 4:117.0 5:81.0 6:68.0 7:58.0 8:52.0 9:29.0 10:130.0 
0.08342631405320822 1:114.0 2:120.0 3:104.0 4:117.0 5:78.0 6:71.0 7:58.0 8:52.0 9:29.0 10:134.0 
0.07813660177756815 1:111.0 2:117.0 3:101.0 4:117.0 5:81.0 6:68.0 7:58.0 8:52.0 9:29.0 10:134.0 
0.04784237289068116 1:114.0 2:120.0 3:101.0 4:117.0 5:81.0 6:65.0 7:58.0 8:52.0 9:29.0 10:134.0 
0.03349868044948062 1:114.0 2:120.0 3:101.0 4:120.0 5:81.0 6:65.0 7:58.0 8:52.0 9:29.0 10:134.0 
0.08964244915569884 1:120.0 2:120.0 3:101.0 4:117.0 5:78.0 6:65.0 7:58.0 8:52.0 9:29.0 10:130.0 
0.073641445818737 1:114.0 2:117.0 3:101.0 4:120.0 5:81.0 6:65.0 7:58.0 8:52.0 9:29.0 10:130.0 
0.06486321243917381 1:114.0 2:120.0 3:98.0 4:120.0 5:78.0 6:65.0 7:58.0 8:52.0 9:29.0 10:134.0 
0.07426044157339146 1:114.0 2:124.0 3:98.0 4:120.0 5:78.0 6:65.0 7:58.0 8:52.0 9:29.0 10:130.0 
0.07449602974199726 1:114.0 2:124.0 3:98.0 4:117.0 5:81.0 6:65.0 7:58.0 8:52.0 9:29.0 10:130.0 
0.05480157537089295 1:117.0 2:120.0 3:98.0 4:117.0 5:81.0 6:65.0 7:58.0 8:52.0 9:29.0 10:134.0 
0.04589388579059348 1:117.0 2:120.0 3:98.0 4:120.0 5:81.0 6:65.0 7:58.0 8:52.0 9:29.0 10:134.0 
0.08711797342643574 1:117.0 2:127.0 3:98.0 4:120.0 5:81.0 6:65.0 7:58.0 8:52.0 9:29.0 10:134.0 
0.08846560373259471 1:117.0 2:127.0 3:101.0 4:124.0 5:81.0 6:65.0 7:62.0 8:52.0 9:29.0 10:134.0 
0.08471845115007882 1:111.0 2:124.0 3:101.0 4:127.0 5:81.0 6:65.0 7:62.0 8:52.0 9:29.0 10:134.0 
0.0808850346318567 1:114.0 2:124.0 3:101.0 4:127.0 5:81.0 6:68.0 7:62.0 8:52.0 9:32.0 10:134.0 
0.06206258729888159 1:114.0 2:120.0 3:101.0 4:124.0 5:81.0 6:68.0 7:62.0 8:52.0 9:32.0 10:130.0 
0.08297703717709898 1:111.0 2:120.0 3:104.0 4:124.0 5:81.0 6:68.0 7:62.0 8:55.0 9:32.0 10:130.0 
0.07333769288668385 1:114.0 2:120.0 3:101.0 4:124.0 5:81.0 6:68.0 7:62.0 8:55.0 9:32.0 10:134.0 
0.08558297796782893 1:114.0 2:120.0 3:104.0 4:120.0 5:81.0 6:68.0 7:62.0 8:55.0 9:32.0 10:137.0 
0.0737466897184727 1:111.0 2:120.0 3:101.0 4:120.0 5:81.0 6:68.0 7:58.0 8:55.0 9:32.0 10:137.0 
0.07285703773955199 1:111.0 2:120.0 3:101.0 4:124.0 5:81.0 6:65.0 7:58.0 8:55.0 9:32.0 10:134.0 
0.05700443223219359 1:111.0 2:120.0 3:101.0 4:120.0 5:81.0 6:65.0 7:58.0 8:55.0 9:32.0 10:134.0 
0.08839438093111782 1:114.0 2:120.0 3:98.0 4:120.0 5:85.0 6:65.0 7:58.0 8:58.0 9:32.0 10:130.0 
0.08754362586032022 1:114.0 2:117.0 3:94.0 4:117.0 5:85.0 6:65.0 7:58.0 8:58.0 9:32.0 10:130.0 
0.08987839587048235 1:117.0 2:117.0 3:98.0 4:117.0 5:81.0 6:65.0 7:65.0 8:58.0 9:32.0 10:130.0 
0.07372983187527433 1:114.0 2:117.0 3:94.0 4:117.0 5:85.0 6:65.0 7:65.0 8:58.0 9:32.0 10:130.0 
0.07527477259331349 1:114.0 2:117.0 3:94.0 4:120.0 5:85.0 6:68.0 7:65.0 8:58.0 9:32.0 10:130.0 
0.08515241456153244 1:111.0 2:117.0 3:94.0 4:117.0 5:85.0 6:68.0 7:65.0 8:58.0 9:32.0 10:134.0 
0.08940070150908719 1:114.0 2:117.0 3:98.0 4:117.0 5:85.0 6:68.0 7:65.0 8:62.0 9:32.0 10:134.0 
0.0649662866164192 1:104.0 2:117.0 3:98.0 4:120.0 5:85.0 6:68.0 7:65.0 8:62.0 9:32.0 10:130.0 
0.06181363132598147 1:104.0 2:117.0 3:98.0 4:120.0 5:85.0 6:68.0 7:65.0 8:62.0 9:35.0 10:130.0 
0.08824438770382065 1:104.0 2:117.0 3:98.0 4:117.0 5:81.0 6:68.0 7:68.0 8:62.0 9:35.0 10:130.0 
0.046825312396094776 1:104.0 2:120.0 3:98.0 4:120.0 5:85.0 6:78.0 7:68.0 8:62.0 9:35.0 10:127.0 
0.07118464329340801 1:101.0 2:120.0 3:98.0 4:120.0 5:85.0 6:78.0 7:68.0 8:62.0 9:35.0 10:130.0 
0.07414249698927655 1:104.0 2:117.0 3:98.0 4:120.0 5:88.0 6:78.0 7:65.0 8:62.0 9:35.0 10:130.0 
0.07265501854851764 1:104.0 2:120.0 3:101.0 4:120.0 5:85.0 6:75.0 7:65.0 8:62.0 9:35.0 10:130.0 
0.0851724753093811 1:107.0 2:120.0 3:98.0 4:124.0 5:88.0 6:75.0 7:65.0 8:62.0 9:35.0 10:130.0 
0.04177488786830619 1:104.0 2:120.0 3:98.0 4:120.0 5:88.0 6:75.0 7:65.0 8:62.0 9:35.0 10:130.0 
0.08484957571797475 1:101.0 2:120.0 3:101.0 4:124.0 5:85.0 6:75.0 7:65.0 8:62.0 9:35.0 10:127.0 
0.06974237964541086 1:101.0 2:120.0 3:98.0 4:120.0 5:88.0 6:75.0 7:65.0 8:62.0 9:35.0 10:127.0 
0.07722346309450606 1:101.0 2:120.0 3:98.0 4:120.0 5:85.0 6:78.0 7:68.0 8:62.0 9:35.0 10:124.0 
0.07024551108578003 1:104.0 2:120.0 3:98.0 4:120.0 5:88.0 6:78.0 7:68.0 8:65.0 9:35.0 10:127.0 
0.08946027771309045 1:107.0 2:124.0 3:98.0 4:120.0 5:88.0 6:81.0 7:65.0 8:65.0 9:35.0 10:134.0 
0.08846104113688957 1:104.0 2:124.0 3:94.0 4:120.0 5:88.0 6:78.0 7:65.0 8:65.0 9:35.0 10:130.0 
0.07438127475471906 1:104.0 2:124.0 3:98.0 4:117.0 5:88.0 6:81.0 7:68.0 8:65.0 9:35.0 10:130.0 
0.08876937986082112 1:101.0 2:124.0 3:94.0 4:117.0 5:91.0 6:81.0 7:71.0 8:65.0 9:35.0 10:130.0 
0.0853349455976059 1:107.0 2:124.0 3:98.0 4:114.0 5:91.0 6:81.0 7:71.0 8:65.0 9:35.0 10:130.0 
0.08657127693919842 1:107.0 2:120.0 3:94.0 4:117.0 5:91.0 6:81.0 7:71.0 8:65.0 9:35.0 10:130.0 
0.07806311264756705 1:104.0 2:120.0 3:98.0 4:117.0 5:88.0 6:81.0 7:71.0 8:65.0 9:35.0 10:130.0 
0.08695702083903317 1:104.0 2:124.0 3:101.0 4:114.0 5:88.0 6:81.0 7:68.0 8:65.0 9:35.0 10:134.0 
0.0882041039316604 1:104.0 2:124.0 3:98.0 4:114.0 5:94.0 6:81.0 7:68.0 8:65.0 9:35.0 10:134.0 
0.08776300816017762 1:101.0 2:120.0 3:98.0 4:114.0 5:94.0 6:81.0 7:68.0 8:68.0 9:39.0 10:134.0 
0.08971722559418471 1:104.0 2:120.0 3:94.0 4:111.0 5:91.0 6:81.0 7:68.0 8:68.0 9:39.0 10:134.0 
0.07482686677054418 1:101.0 2:117.0 3:94.0 4:117.0 5:94.0 6:81.0 7:65.0 8:68.0 9:39.0 10:130.0 
0.08125876896709516 1:101.0 2:117.0 3:94.0 4:114.0 5:98.0 6:81.0 7:65.0 8:68.0 9:42.0 10:130.0 
0.08163404366569671 1:101.0 2:114.0 3:98.0 4:114.0 5:94.0 6:81.0 7:68.0 8:68.0 9:42.0 10:130.0 
0.05887403215034254 1:101.0 2:117.0 3:94.0 4:114.0 5:94.0 6:81.0 7:68.0 8:68.0 9:42.0 10:130.0 
0.054540915747104735 1:101.0 2:117.0 3:98.0 4:117.0 5:91.0 6:81.0 7:68.0 8:71.0 9:42.0 10:130.0 
0.06547753382663563 1:98.0 2:117.0 3:98.0 4:117.0 5:91.0 6:81.0 7:68.0 8:71.0 9:42.0 10:130.0 
0.06785632728881086 1:101.0 2:117.0 3:94.0 4:117.0 5:91.0 6:81.0 7:68.0 8:71.0 9:39.0 10:130.0 
0.059760983882170715 1:101.0 2:117.0 3:94.0 4:114.0 5:94.0 6:81.0 7:68.0 8:71.0 9:39.0 10:130.0 
0.08370169407892525 1:104.0 2:117.0 3:98.0 4:114.0 5:98.0 6:81.0 7:68.0 8:71.0 9:39.0 10:127.0 
0.07729974094085007 1:104.0 2:117.0 3:98.0 4:117.0 5:98.0 6:85.0 7:68.0 8:71.0 9:39.0 10:127.0 
0.07267613963898883 1:104.0 2:114.0 3:94.0 4:117.0 5:98.0 6:85.0 7:68.0 8:71.0 9:39.0 10:127.0 
0.04834047020140342 1:101.0 2:114.0 3:94.0 4:114.0 5:98.0 6:85.0 7:68.0 8:71.0 9:39.0 10:134.0 
0.07122094640975668 1:101.0 2:114.0 3:94.0 4:117.0 5:98.0 6:85.0 7:68.0 8:71.0 9:39.0 10:130.0 
0.08792522313480311 1:98.0 2:117.0 3:98.0 4:114.0 5:98.0 6:85.0 7:68.0 8:71.0 9:39.0 10:137.0 
0.055471806380449136 1:101.0 2:117.0 3:94.0 4:111.0 5:98.0 6:85.0 7:68.0 8:71.0 9:39.0 10:134.0 
0.055822884224735046 1:101.0 2:117.0 3:94.0 4:111.0 5:98.0 6:85.0 7:65.0 8:71.0 9:39.0 10:134.0 
0.02867814265356139 1:101.0 2:114.0 3:94.0 4:114.0 5:98.0 6:85.0 7:65.0 8:71.0 9:39.0 10:134.0 
0.06136557446036056 1:101.0 2:114.0 3:94.0 4:114.0 5:98.0 6:85.0 7:65.0 8:71.0 9:42.0 10:134.0 
0.08433114341771739 1:101.0 2:114.0 3:101.0 4:114.0 5:98.0 6:85.0 7:65.0 8:71.0 9:42.0 10:134.0 
0.07447084159044329 1:101.0 2:114.0 3:98.0 4:117.0 5:98.0 6:85.0 7:65.0 8:71.0 9:42.0 10:137.0 
0.08341974839090444 1:101.0 2:114.0 3:98.0 4:117.0 5:94.0 6:81.0 7:65.0 8:71.0 9:42.0 10:137.0 
0.08474468119354928 1:98.0 2:114.0 3:98.0 4:117.0 5:98.0 6:81.0 7:65.0 8:71.0 9:45.0 10:137.0 
0.08747696582359754 1:104.0 2:114.0 3:98.0 4:114.0 5:98.0 6:81.0 7:65.0 8:71.0 9:45.0 10:137.0 
0.039377882011743665 1:104.0 2:114.0 3:98.0 4:117.0 5:98.0 6:91.0 7:68.0 8:71.0 9:45.0 10:134.0 
0.06322407802627927 1:101.0 2:114.0 3:98.0 4:117.0 5:98.0 6:91.0 7:68.0 8:71.0 9:45.0 10:134.0 
0.06370232358206057 1:104.0 2:114.0 3:98.0 4:114.0 5:98.0 6:91.0 7:68.0 8:71.0 9:45.0 10:134.0 
0.0832924083936718 1:101.0 2:114.0 3:98.0 4:114.0 5:101.0 6:91.0 7:65.0 8:71.0 9:45.0 10:130.0 
0.08297155904920733 1:98.0 2:117.0 3:98.0 4:114.0 5:101.0 6:88.0 7:65.0 8:71.0 9:45.0 10:130.0 
0.06636297344947417 1:98.0 2:117.0 3:94.0 4:111.0 5:101.0 6:88.0 7:68.0 8:71.0 9:49.0 10:130.0 
0.06175592959830417 1:98.0 2:117.0 3:98.0 4:111.0 5:101.0 6:91.0 7:68.0 8:71.0 9:49.0 10:130.0 
0.04673032535890476 1:98.0 2:117.0 3:98.0 4:111.0 5:101.0 6:88.0 7:68.0 8:71.0 9:49.0 10:130.0 
0.07357020798083819 1:98.0 2:117.0 3:98.0 4:107.0 5:104.0 6:91.0 7:68.0 8:71.0 9:49.0 10:127.0 
0.06962679650350817 1:98.0 2:117.0 3:94.0 4:107.0 5:104.0 6:91.0 7:68.0 8:71.0 9:49.0 10:127.0 
0.07640924491587725 1:94.0 2:117.0 3:94.0 4:107.0 5:101.0 6:88.0 7:71.0 8:71.0 9:49.0 10:127.0 
0.0580566024920014 1:98.0 2:117.0 3:94.0 4:107.0 5:101.0 6:88.0 7:71.0 8:71.0 9:49.0 10:127.0 
0.07817297579557525 1:98.0 2:117.0 3:94.0 4:111.0 5:101.0 6:85.0 7:71.0 8:71.0 9:49.0 10:127.0 
0.08658212949419643 1:101.0 2:117.0 3:94.0 4:114.0 5:101.0 6:88.0 7:71.0 8:71.0 9:45.0 10:127.0 
0.0787334942508497 1:101.0 2:117.0 3:94.0 4:111.0 5:104.0 6:88.0 7:71.0 8:75.0 9:45.0 10:127.0 
0.08535541083446163 1:101.0 2:120.0 3:94.0 4:111.0 5:104.0 6:91.0 7:71.0 8:75.0 9:45.0 10:130.0 
0.08622388532700243 1:101.0 2:117.0 3:91.0 4:107.0 5:101.0 6:88.0 7:71.0 8:75.0 9:49.0 10:127.0 
0.0820487436921648 1:104.0 2:117.0 3:94.0 4:111.0 5:101.0 6:91.0 7:71.0 8:75.0 9:49.0 10:127.0 
0.07081267832607616 1:104.0 2:117.0 3:94.0 4:111.0 5:101.0 6:88.0 7:68.0 8:75.0 9:49.0 10:124.0 
0.07833821371238184 1:104.0 2:117.0 3:91.0 4:114.0 5:101.0 6:88.0 7:68.0 8:75.0 9:49.0 10:124.0 
0.07877487916323417 1:104.0 2:117.0 3:98.0 4:111.0 5:107.0 6:88.0 7:71.0 8:75.0 9:49.0 10:124.0 
0.05387291921937781 1:104.0 2:117.0 3:94.0 4:111.0 5:107.0 6:88.0 7:71.0 8:75.0 9:49.0 10:124.0 
0.07915802107898956 1:104.0 2:120.0 3:94.0 4:107.0 5:107.0 6:88.0 7:71.0 8:75.0 9:49.0 10:124.0 
0.05630119148838224 1:104.0 2:120.0 3:91.0 4:111.0 5:107.0 6:88.0 7:71.0 8:75.0 9:49.0 10:124.0 
0.0767400088248143 1:101.0 2:120.0 3:91.0 4:111.0 5:107.0 6:91.0 7:71.0 8:75.0 9:49.0 10:124.0 
0.08786160139682142 1:101.0 2:117.0 3:88.0 4:107.0 5:107.0 6:88.0 7:71.0 8:75.0 9:49.0 10:124.0 
0.08715279311444651 1:98.0 2:117.0 3:88.0 4:111.0 5:111.0 6:88.0 7:75.0 8:75.0 9:49.0 10:120.0 
0.08305300647837988 1:98.0 2:120.0 3:88.0 4:107.0 5:107.0 6:88.0 7:75.0 8:75.0 9:49.0 10:120.0 
0.0625976732505169 1:101.0 2:120.0 3:91.0 4:111.0 5:107.0 6:88.0 7:75.0 8:75.0 9:49.0 10:120.0 
0.054224269752660315 1:101.0 2:120.0 3:88.0 4:111.0 5:107.0 6:88.0 7:75.0 8:75.0 9:49.0 10:120.0 
0.08566427783225589 1:107.0 2:120.0 3:91.0 4:111.0 5:107.0 6:88.0 7:71.0 8:75.0 9:52.0 10:120.0 
0.07723285609337188 1:107.0 2:124.0 3:88.0 4:111.0 5:107.0 6:85.0 7:71.0 8:75.0 9:52.0 10:120.0 
0.08188798283496118 1:104.0 2:124.0 3:85.0 4:107.0 5:104.0 6:88.0 7:71.0 8:75.0 9:52.0 10:117.0 
0.08027527859790995 1:104.0 2:124.0 3:88.0 4:111.0 5:104.0 6:88.0 7:71.0 8:75.0 9:52.0 10:117.0 
0.07294021143426521 1:104.0 2:124.0 3:88.0 4:111.0 5:104.0 6:85.0 7:71.0 8:75.0 9:52.0 10:124.0 
0.07432454414150963 1:104.0 2:124.0 3:88.0 4:107.0 5:107.0 6:85.0 7:71.0 8:75.0 9:52.0 10:120.0 
0.0617990418256551 1:104.0 2:124.0 3:88.0 4:107.0 5:104.0 6:85.0 7:71.0 8:75.0 9:52.0 10:124.0 
0.08309308321656383 1:104.0 2:124.0 3:88.0 4:104.0 5:101.0 6:88.0 7:71.0 8:78.0 9:52.0 10:124.0 
0.07726912153653281 1:104.0 2:124.0 3:88.0 4:107.0 5:101.0 6:85.0 7:68.0 8:78.0 9:52.0 10:124.0 
0.08104919816590933 1:104.0 2:127.0 3:88.0 4:107.0 5:101.0 6:88.0 7:68.0 8:78.0 9:52.0 10:120.0 
0.08417691661877691 1:107.0 2:124.0 3:91.0 4:107.0 5:104.0 6:85.0 7:68.0 8:78.0 9:49.0 10:120.0 
0.07462859734280292 1:107.0 2:127.0 3:91.0 4:107.0 5:101.0 6:88.0 7:68.0 8:78.0 9:49.0 10:120.0 
0.08375859633369427 1:107.0 2:127.0 3:91.0 4:107.0 5:98.0 6:85.0 7:68.0 8:78.0 9:49.0 10:117.0 
0.06778205484300026 1:111.0 2:127.0 3:91.0 4:104.0 5:98.0 6:81.0 7:68.0 8:78.0 9:49.0 10:117.0 
0.06827340366906387 1:111.0 2:124.0 3:91.0 4:104.0 5:98.0 6:81.0 7:68.0 8:78.0 9:49.0 10:114.0 
0.06495729403501144 1:111.0 2:124.0 3:88.0 4:104.0 5:98.0 6:81.0 7:68.0 8:78.0 9:49.0 10:117.0 
0.08658879881813325 1:107.0 2:120.0 3:88.0 4:104.0 5:98.0 6:81.0 7:68.0 8:78.0 9:49.0 10:117.0 
0.039504108358732956 1:107.0 2:120.0 3:91.0 4:107.0 5:98.0 6:85.0 7:71.0 8:78.0 9:49.0 10:114.0 
0.06333873203950459 1:107.0 2:120.0 3:91.0 4:104.0 5:98.0 6:85.0 7:71.0 8:78.0 9:49.0 10:114.0 
0.06057243277662533 1:107.0 2:120.0 3:88.0 4:107.0 5:98.0 6:85.0 7:71.0 8:78.0 9:49.0 10:114.0 
0.07319493737622018 1:107.0 2:120.0 3:88.0 4:107.0 5:98.0 6:88.0 7:75.0 8:75.0 9:49.0 10:114.0 
0.07569994730399221 1:111.0 2:120.0 3:88.0 4:111.0 5:98.0 6:88.0 7:75.0 8:75.0 9:49.0 10:114.0 
0.05793004325176526 1:111.0 2:120.0 3:88.0 4:107.0 5:98.0 6:88.0 7:75.0 8:75.0 9:49.0 10:114.0 
0.08454467831025908 1:107.0 2:120.0 3:91.0 4:114.0 5:94.0 6:85.0 7:75.0 8:75.0 9:49.0 10:111.0 
0.08304638079617355 1:107.0 2:124.0 3:88.0 4:114.0 5:94.0 6:85.0 7:75.0 8:75.0 9:49.0 10:111.0 
0.08802690651036055 1:107.0 2:124.0 3:88.0 4:111.0 5:98.0 6:85.0 7:75.0 8:75.0 9:45.0 10:111.0 
0.08674737330330767 1:111.0 2:124.0 3:88.0 4:107.0 5:98.0 6:88.0 7:75.0 8:75.0 9:45.0 10:111.0 
0.08875686598795818 1:114.0 2:120.0 3:91.0 4:107.0 5:101.0 6:88.0 7:75.0 8:75.0 9:45.0 10:114.0 
0.08904397930137442 1:114.0 2:124.0 3:88.0 4:104.0 5:101.0 6:91.0 7:75.0 8:75.0 9:45.0 10:114.0 
0.08062712090218893 1:117.0 2:130.0 3:94.0 4:104.0 5:101.0 6:91.0 7:75.0 8:75.0 9:45.0 10:111.0 
0.06930161579459382 1:114.0 2:130.0 3:94.0 4:107.0 5:104.0 6:91.0 7:75.0 8:75.0 9:45.0 10:111.0 
0.07068082308459545 1:114.0 2:127.0 3:94.0 4:107.0 5:101.0 6:88.0 7:75.0 8:78.0 9:45.0 10:111.0 
0.04845080406337815 1:114.0 2:130.0 3:94.0 4:107.0 5:101.0 6:91.0 7:75.0 8:78.0 9:45.0 10:111.0 
0.02268228626282294 1:114.0 2:127.0 3:94.0 4:107.0 5:101.0 6:91.0 7:75.0 8:78.0 9:45.0 10:111.0 
0.07210607904306966 1:114.0 2:127.0 3:94.0 4:107.0 5:104.0 6:94.0 7:75.0 8:78.0 9:45.0 10:111.0 
0.08160291539561348 1:117.0 2:127.0 3:94.0 4:104.0 5:104.0 6:94.0 7:78.0 8:78.0 9:45.0 10:111.0 
0.06200180492151782 1:117.0 2:130.0 3:94.0 4:104.0 5:107.0 6:98.0 7:78.0 8:78.0 9:45.0 10:111.0 
0.064295606343244 1:117.0 2:130.0 3:94.0 4:107.0 5:107.0 6:98.0 7:78.0 8:78.0 9:45.0 10:111.0 
0.09114048042060438 1:117.0 2:134.0 3:91.0 4:111.0 5:104.0 6:94.0 7:75.0 8:78.0 9:45.0 10:107.0 
0.08204590647264781 1:114.0 2:130.0 3:94.0 4:117.0 5:104.0 6:94.0 7:75.0 8:78.0 9:45.0 10:111.0 
0.08423485638518557 1:114.0 2:134.0 3:94.0 4:117.0 5:101.0 6:94.0 7:75.0 8:78.0 9:45.0 10:111.0 
0.0766651399353886 1:117.0 2:130.0 3:98.0 4:120.0 5:101.0 6:94.0 7:75.0 8:78.0 9:45.0 10:111.0 
0.059154981852939936 1:117.0 2:127.0 3:98.0 4:117.0 5:101.0 6:94.0 7:75.0 8:78.0 9:45.0 10:111.0 
0.07197489511225535 1:120.0 2:127.0 3:98.0 4:117.0 5:104.0 6:94.0 7:75.0 8:78.0 9:45.0 10:111.0 
0.07299139179926789 1:120.0 2:127.0 3:94.0 4:117.0 5:101.0 6:94.0 7:75.0 8:78.0 9:45.0 10:111.0 
0.07623628320470908 1:120.0 2:124.0 3:91.0 4:117.0 5:104.0 6:91.0 7:75.0 8:78.0 9:45.0 10:111.0 
0.06569996293022808 1:120.0 2:124.0 3:91.0 4:114.0 5:104.0 6:91.0 7:78.0 8:78.0 9:45.0 10:111.0 
0.07615945699066606 1:120.0 2:124.0 3:94.0 4:114.0 5:101.0 6:91.0 7:78.0 8:78.0 9:45.0 10:111.0 
0.0900092805674636 1:120.0 2:127.0 3:98.0 4:114.0 5:104.0 6:91.0 7:78.0 8:78.0 9:49.0 10:114.0 
0.06690095602293289 1:120.0 2:127.0 3:94.0 4:117.0 5:104.0 6:98.0 7:78.0 8:81.0 9:49.0 10:114.0 
0.06554508043575397 1:120.0 2:127.0 3:91.0 4:117.0 5:104.0 6:98.0 7:78.0 8:81.0 9:49.0 10:111.0 
0.06672470263314467 1:120.0 2:127.0 3:94.0 4:120.0 5:104.0 6:98.0 7:78.0 8:81.0 9:49.0 10:111.0 
0.0868841140546256 1:120.0 2:134.0 3:94.0 4:117.0 5:104.0 6:98.0 7:78.0 8:78.0 9:49.0 10:107.0 
0.08688516619942122 1:120.0 2:130.0 3:94.0 4:114.0 5:101.0 6:94.0 7:78.0 8:78.0 9:49.0 10:111.0 
0.07653058953375358 1:120.0 2:130.0 3:94.0 4:117.0 5:104.0 6:98.0 7:75.0 8:78.0 9:49.0 10:111.0 
0.05805684218856526 1:117.0 2:130.0 3:91.0 4:117.0 5:101.0 6:98.0 7:75.0 8:78.0 9:49.0 10:111.0 
0.07623732689327656 1:117.0 2:134.0 3:91.0 4:114.0 5:101.0 6:101.0 7:75.0 8:78.0 9:49.0 10:107.0 
0.06211564924932489 1:117.0 2:130.0 3:91.0 4:114.0 5:101.0 6:98.0 7:75.0 8:78.0 9:49.0 10:111.0 
0.07526866840697988 1:117.0 2:134.0 3:94.0 4:114.0 5:101.0 6:101.0 7:78.0 8:78.0 9:49.0 10:107.0 
0.07125739174400271 1:117.0 2:130.0 3:91.0 4:114.0 5:101.0 6:98.0 7:78.0 8:81.0 9:49.0 10:104.0 
0.07230907882798486 1:117.0 2:130.0 3:94.0 4:117.0 5:101.0 6:98.0 7:78.0 8:81.0 9:49.0 10:104.0 
0.07080604480162812 1:117.0 2:127.0 3:88.0 4:114.0 5:101.0 6:101.0 7:78.0 8:85.0 9:49.0 10:107.0 
0.06001535793768621 1:120.0 2:127.0 3:91.0 4:114.0 5:101.0 6:101.0 7:75.0 8:85.0 9:49.0 10:107.0 
0.06371391865544333 1:117.0 2:127.0 3:94.0 4:114.0 5:101.0 6:101.0 7:75.0 8:85.0 9:49.0 10:107.0 
0.05059602534956752 1:117.0 2:124.0 3:91.0 4:114.0 5:101.0 6:98.0 7:78.0 8:85.0 9:49.0 10:107.0 
0.040060242268220525 1:117.0 2:124.0 3:91.0 4:114.0 5:101.0 6:101.0 7:78.0 8:85.0 9:49.0 10:107.0 
0.04867635614486415 1:117.0 2:127.0 3:91.0 4:114.0 5:101.0 6:98.0 7:75.0 8:85.0 9:49.0 10:107.0 
0.08839752893462345 1:114.0 2:127.0 3:91.0 4:114.0 5:104.0 6:101.0 7:81.0 8:85.0 9:49.0 10:104.0 
0.0786611955557775 1:117.0 2:127.0 3:94.0 4:114.0 5:104.0 6:98.0 7:78.0 8:81.0 9:49.0 10:104.0 
0.08540065575602496 1:120.0 2:127.0 3:94.0 4:117.0 5:104.0 6:98.0 7:75.0 8:85.0 9:49.0 10:104.0 
0.05089507153264323 1:120.0 2:127.0 3:91.0 4:117.0 5:101.0 6:98.0 7:78.0 8:88.0 9:49.0 10:107.0 
0.052681040922506917 1:117.0 2:124.0 3:94.0 4:120.0 5:101.0 6:98.0 7:78.0 8:88.0 9:49.0 10:107.0 
0.04757559685643142 1:120.0 2:124.0 3:91.0 4:117.0 5:101.0 6:98.0 7:78.0 8:88.0 9:49.0 10:107.0 
0.07851248415644932 1:117.0 2:127.0 3:94.0 4:120.0 5:101.0 6:98.0 7:78.0 8:88.0 9:49.0 10:111.0 
0.04846234865435334 1:117.0 2:127.0 3:94.0 4:117.0 5:101.0 6:98.0 7:78.0 8:88.0 9:49.0 10:107.0 
0.0802143621782078 1:117.0 2:124.0 3:94.0 4:117.0 5:104.0 6:101.0 7:78.0 8:88.0 9:49.0 10:111.0 
0.06392860744467577 1:120.0 2:124.0 3:94.0 4:117.0 5:104.0 6:101.0 7:78.0 8:88.0 9:49.0 10:107.0 
0.07932246629183498 1:117.0 2:124.0 3:98.0 4:120.0 5:101.0 6:101.0 7:78.0 8:88.0 9:49.0 10:107.0 
0.07219518006670356 1:120.0 2:124.0 3:94.0 4:120.0 5:101.0 6:101.0 7:81.0 8:88.0 9:49.0 10:107.0 
0.07038349103459246 1:117.0 2:124.0 3:94.0 4:117.0 5:101.0 6:101.0 7:78.0 8:88.0 9:49.0 10:104.0 
0.08911695707502815 1:120.0 2:124.0 3:98.0 4:117.0 5:104.0 6:104.0 7:81.0 8:94.0 9:49.0 10:107.0 
0.08895060478839728 1:124.0 2:120.0 3:98.0 4:117.0 5:104.0 6:101.0 7:81.0 8:94.0 9:49.0 10:107.0 
0.08926344903934054 1:120.0 2:120.0 3:98.0 4:120.0 5:104.0 6:101.0 7:81.0 8:91.0 9:49.0 10:104.0 
0.08811201156224238 1:120.0 2:120.0 3:91.0 4:120.0 5:101.0 6:101.0 7:81.0 8:91.0 9:49.0 10:107.0 
0.08687556800786334 1:111.0 2:124.0 3:91.0 4:124.0 5:104.0 6:101.0 7:81.0 8:91.0 9:49.0 10:111.0 
0.09027591200222873 1:107.0 2:124.0 3:91.0 4:124.0 5:101.0 6:101.0 7:85.0 8:91.0 9:49.0 10:107.0 
0.08701418334695823 1:111.0 2:127.0 3:94.0 4:120.0 5:104.0 6:101.0 7:85.0 8:91.0 9:49.0 10:107.0 
0.08312408435239599 1:111.0 2:124.0 3:91.0 4:120.0 5:104.0 6:101.0 7:81.0 8:91.0 9:49.0 10:107.0 
0.0889889444140026 1:111.0 2:127.0 3:91.0 4:117.0 5:104.0 6:101.0 7:81.0 8:88.0 9:45.0 10:107.0 
0.06899820329524892 1:107.0 2:124.0 3:94.0 4:120.0 5:104.0 6:101.0 7:85.0 8:88.0 9:45.0 10:111.0 
0.08662610374177304 1:111.0 2:120.0 3:91.0 4:117.0 5:101.0 6:101.0 7:88.0 8:88.0 9:45.0 10:111.0 
0.07760844962525443 1:111.0 2:124.0 3:94.0 4:117.0 5:101.0 6:101.0 7:85.0 8:88.0 9:45.0 10:111.0 
0.07194119553150252 1:107.0 2:124.0 3:94.0 4:117.0 5:104.0 6:101.0 7:88.0 8:88.0 9:45.0 10:111.0 
0.08394713304225876 1:111.0 2:124.0 3:94.0 4:117.0 5:107.0 6:101.0 7:88.0 8:91.0 9:45.0 10:111.0 
0.06416443065666773 1:111.0 2:124.0 3:91.0 4:120.0 5:104.0 6:101.0 7:85.0 8:91.0 9:45.0 10:111.0 
0.08344867717053683 1:107.0 2:124.0 3:91.0 4:120.0 5:104.0 6:104.0 7:85.0 8:91.0 9:45.0 10:114.0 
0.06689509508041717 1:111.0 2:124.0 3:94.0 4:120.0 5:104.0 6:101.0 7:85.0 8:91.0 9:45.0 10:114.0 
0.07989179488748543 1:111.0 2:127.0 3:91.0 4:120.0 5:101.0 6:101.0 7:88.0 8:91.0 9:45.0 10:114.0 
0.08276250126119222 1:111.0 2:124.0 3:88.0 4:117.0 5:101.0 6:101.0 7:88.0 8:91.0 9:45.0 10:114.0 
0.08627903021643796 1:111.0 2:124.0 3:94.0 4:117.0 5:101.0 6:101.0 7:88.0 8:91.0 9:49.0 10:114.0 
0.07707808075910505 1:107.0 2:127.0 3:94.0 4:114.0 5:104.0 6:101.0 7:88.0 8:91.0 9:49.0 10:114.0 
0.07181361286372158 1:107.0 2:130.0 3:94.0 4:111.0 5:104.0 6:104.0 7:88.0 8:91.0 9:49.0 10:114.0 
0.05127101989842426 1:107.0 2:127.0 3:91.0 4:111.0 5:104.0 6:104.0 7:88.0 8:91.0 9:49.0 10:114.0 
0.07848221987190185 1:107.0 2:130.0 3:91.0 4:111.0 5:104.0 6:101.0 7:88.0 8:91.0 9:49.0 10:117.0 
0.0648484025075517 1:107.0 2:120.0 3:91.0 4:111.0 5:104.0 6:104.0 7:88.0 8:91.0 9:49.0 10:114.0 
0.0632367868090864 1:107.0 2:120.0 3:88.0 4:111.0 5:104.0 6:104.0 7:88.0 8:91.0 9:49.0 10:114.0 
0.04380269558538598 1:107.0 2:127.0 3:88.0 4:111.0 5:107.0 6:104.0 7:88.0 8:91.0 9:49.0 10:114.0 
0.05151200565732931 1:107.0 2:127.0 3:88.0 4:114.0 5:104.0 6:101.0 7:88.0 8:91.0 9:49.0 10:114.0 
0.06475002923318654 1:104.0 2:127.0 3:88.0 4:114.0 5:104.0 6:101.0 7:88.0 8:91.0 9:49.0 10:114.0 
0.08474186428754293 1:107.0 2:124.0 3:85.0 4:111.0 5:107.0 6:101.0 7:88.0 8:91.0 9:49.0 10:114.0 
0.06391725681909492 1:107.0 2:127.0 3:88.0 4:111.0 5:107.0 6:107.0 7:88.0 8:91.0 9:49.0 10:114.0 
0.07614572091862826 1:107.0 2:124.0 3:88.0 4:111.0 5:107.0 6:111.0 7:88.0 8:91.0 9:49.0 10:117.0 
0.0765955370120831 1:104.0 2:127.0 3:88.0 4:111.0 5:107.0 6:111.0 7:88.0 8:91.0 9:49.0 10:117.0 
0.08530639642015064 1:107.0 2:127.0 3:85.0 4:114.0 5:107.0 6:111.0 7:88.0 8:91.0 9:49.0 10:124.0 
0.08379877082613979 1:107.0 2:124.0 3:88.0 4:114.0 5:107.0 6:111.0 7:85.0 8:91.0 9:49.0 10:124.0 
0.07758813636124179 1:111.0 2:127.0 3:91.0 4:111.0 5:107.0 6:111.0 7:85.0 8:91.0 9:49.0 10:124.0 
0.07660273500786974 1:111.0 2:127.0 3:91.0 4:111.0 5:107.0 6:111.0 7:88.0 8:91.0 9:52.0 10:124.0 
0.09022257650669513 1:107.0 2:127.0 3:94.0 4:111.0 5:111.0 6:111.0 7:88.0 8:91.0 9:52.0 10:124.0 
0.09073256013579567 1:111.0 2:117.0 3:94.0 4:107.0 5:107.0 6:114.0 7:88.0 8:91.0 9:52.0 10:124.0 
0.06470583157346904 1:114.0 2:117.0 3:91.0 4:104.0 5:111.0 6:117.0 7:88.0 8:88.0 9:49.0 10:120.0 
0.06292131580501195 1:114.0 2:117.0 3:91.0 4:104.0 5:111.0 6:117.0 7:88.0 8:91.0 9:49.0 10:120.0 
0.08954392812185907 1:111.0 2:120.0 3:91.0 4:107.0 5:107.0 6:117.0 7:88.0 8:91.0 9:49.0 10:120.0 
0.08746334276966705 1:114.0 2:117.0 3:91.0 4:107.0 5:114.0 6:117.0 7:94.0 8:91.0 9:49.0 10:120.0 
0.07660059979150846 1:111.0 2:117.0 3:91.0 4:107.0 5:111.0 6:117.0 7:94.0 8:94.0 9:52.0 10:120.0 
0.08197334394145966 1:111.0 2:117.0 3:91.0 4:111.0 5:114.0 6:117.0 7:94.0 8:94.0 9:52.0 10:120.0 
0.0791801771008929 1:111.0 2:114.0 3:91.0 4:107.0 5:114.0 6:117.0 7:94.0 8:94.0 9:52.0 10:124.0 
0.07639364410117352 1:107.0 2:114.0 3:91.0 4:107.0 5:114.0 6:120.0 7:94.0 8:94.0 9:52.0 10:124.0 
0.08254900706887125 1:107.0 2:111.0 3:91.0 4:107.0 5:114.0 6:120.0 7:94.0 8:94.0 9:52.0 10:120.0 
0.08178291993673575 1:107.0 2:114.0 3:94.0 4:104.0 5:114.0 6:117.0 7:94.0 8:94.0 9:52.0 10:120.0 
0.08410494429181037 1:107.0 2:117.0 3:94.0 4:104.0 5:111.0 6:117.0 7:91.0 8:94.0 9:52.0 10:120.0 
0.07513180759933717 1:111.0 2:120.0 3:98.0 4:107.0 5:114.0 6:117.0 7:91.0 8:94.0 9:55.0 10:124.0 
0.07164421258173825 1:111.0 2:120.0 3:94.0 4:107.0 5:114.0 6:117.0 7:91.0 8:94.0 9:55.0 10:120.0 
0.0569481205368972 1:111.0 2:120.0 3:98.0 4:107.0 5:114.0 6:117.0 7:91.0 8:94.0 9:55.0 10:120.0 
0.08077385168864021 1:114.0 2:120.0 3:98.0 4:107.0 5:117.0 6:117.0 7:94.0 8:94.0 9:58.0 10:120.0 
0.0817220500663054 1:111.0 2:120.0 3:98.0 4:104.0 5:117.0 6:117.0 7:94.0 8:94.0 9:58.0 10:117.0 
0.08267473553283 1:111.0 2:120.0 3:101.0 4:104.0 5:117.0 6:120.0 7:94.0 8:91.0 9:55.0 10:117.0 
0.07914234868662956 1:114.0 2:117.0 3:101.0 4:104.0 5:117.0 6:120.0 7:94.0 8:91.0 9:55.0 10:120.0 
0.08609524348218861 1:117.0 2:117.0 3:101.0 4:104.0 5:114.0 6:120.0 7:91.0 8:91.0 9:55.0 10:120.0 
0.08515362081046679 1:114.0 2:124.0 3:98.0 4:104.0 5:114.0 6:120.0 7:94.0 8:91.0 9:55.0 10:120.0 
0.0877824964269806 1:114.0 2:127.0 3:98.0 4:107.0 5:117.0 6:120.0 7:98.0 8:91.0 9:55.0 10:120.0 
0.08604021868038803 1:114.0 2:124.0 3:98.0 4:104.0 5:117.0 6:120.0 7:98.0 8:91.0 9:58.0 10:117.0 
0.08547166671401768 1:114.0 2:124.0 3:98.0 4:107.0 5:114.0 6:120.0 7:94.0 8:94.0 9:58.0 10:117.0 
0.09024934125303974 1:111.0 2:120.0 3:94.0 4:107.0 5:114.0 6:120.0 7:98.0 8:94.0 9:62.0 10:120.0 
0.08523600759040412 1:111.0 2:120.0 3:94.0 4:107.0 5:114.0 6:120.0 7:94.0 8:91.0 9:58.0 10:120.0 
0.0891420885461715 1:107.0 2:120.0 3:94.0 4:111.0 5:114.0 6:117.0 7:91.0 8:91.0 9:58.0 10:120.0 
0.0903826099633846 1:107.0 2:120.0 3:94.0 4:111.0 5:111.0 6:117.0 7:94.0 8:91.0 9:62.0 10:124.0 
0.09129910599487723 1:107.0 2:117.0 3:94.0 4:111.0 5:111.0 6:120.0 7:94.0 8:98.0 9:62.0 10:124.0 
0.08369374089650411 1:104.0 2:117.0 3:98.0 4:107.0 5:114.0 6:120.0 7:91.0 8:94.0 9:58.0 10:120.0 
0.08796018784002674 1:104.0 2:117.0 3:94.0 4:107.0 5:114.0 6:120.0 7:91.0 8:94.0 9:62.0 10:124.0 
0.08139950878870739 1:107.0 2:117.0 3:98.0 4:107.0 5:114.0 6:120.0 7:91.0 8:94.0 9:58.0 10:124.0 
0.08905574447082792 1:104.0 2:117.0 3:94.0 4:107.0 5:111.0 6:124.0 7:88.0 8:94.0 9:58.0 10:124.0 
0.0896670203600134 1:104.0 2:120.0 3:91.0 4:111.0 5:111.0 6:124.0 7:91.0 8:94.0 9:58.0 10:124.0 
0.07929876331093455 1:104.0 2:120.0 3:91.0 4:114.0 5:114.0 6:120.0 7:88.0 8:91.0 9:58.0 10:127.0 
0.08304707396524602 1:104.0 2:124.0 3:91.0 4:114.0 5:114.0 6:120.0 7:88.0 8:94.0 9:58.0 10:127.0 
0.08417619875395349 1:104.0 2:124.0 3:91.0 4:114.0 5:114.0 6:124.0 7:91.0 8:94.0 9:62.0 10:127.0 
0.08804386993271912 1:104.0 2:124.0 3:88.0 4:111.0 5:117.0 6:127.0 7:88.0 8:94.0 9:62.0 10:127.0 
0.07085138140357189 1:101.0 2:124.0 3:91.0 4:114.0 5:117.0 6:124.0 7:88.0 8:91.0 9:62.0 10:124.0 
0.07425499051160961 1:104.0 2:124.0 3:91.0 4:114.0 5:117.0 6:127.0 7:88.0 8:91.0 9:62.0 10:124.0 
0.08273985861553135 1:101.0 2:124.0 3:94.0 4:114.0 5:114.0 6:124.0 7:88.0 8:94.0 9:62.0 10:124.0 
0.08748601480821588 1:104.0 2:120.0 3:91.0 4:114.0 5:114.0 6:124.0 7:85.0 8:91.0 9:62.0 10:124.0 
0.08354236441870405 1:104.0 2:120.0 3:91.0 4:117.0 5:114.0 6:120.0 7:88.0 8:91.0 9:62.0 10:130.0 
0.07055795618468086 1:101.0 2:120.0 3:94.0 4:114.0 5:114.0 6:120.0 7:88.0 8:91.0 9:62.0 10:130.0 
0.07156583521385373 1:101.0 2:120.0 3:94.0 4:111.0 5:111.0 6:120.0 7:88.0 8:91.0 9:62.0 10:130.0 
0.08279770351657817 1:101.0 2:120.0 3:98.0 4:111.0 5:111.0 6:120.0 7:85.0 8:91.0 9:62.0 10:130.0 
0.08519150164951772 1:101.0 2:120.0 3:98.0 4:111.0 5:111.0 6:120.0 7:88.0 8:98.0 9:65.0 10:127.0 
0.08563512569946136 1:101.0 2:120.0 3:98.0 4:111.0 5:114.0 6:117.0 7:85.0 8:94.0 9:65.0 10:127.0 
0.08668559352773664 1:101.0 2:120.0 3:98.0 4:111.0 5:111.0 6:124.0 7:88.0 8:94.0 9:65.0 10:127.0 
0.07531156677014528 1:104.0 2:120.0 3:98.0 4:114.0 5:114.0 6:120.0 7:88.0 8:91.0 9:65.0 10:127.0 
0.06208007439770041 1:101.0 2:120.0 3:98.0 4:114.0 5:114.0 6:120.0 7:85.0 8:91.0 9:65.0 10:124.0 
0.049703050183845965 1:104.0 2:120.0 3:98.0 4:114.0 5:114.0 6:120.0 7:85.0 8:91.0 9:65.0 10:124.0 
0.08157091723830018 1:104.0 2:120.0 3:94.0 4:114.0 5:111.0 6:120.0 7:88.0 8:98.0 9:65.0 10:124.0 
0.08053783115537269 1:104.0 2:120.0 3:94.0 4:114.0 5:111.0 6:120.0 7:85.0 8:94.0 9:65.0 10:124.0 
0.09021647766199392 1:101.0 2:124.0 3:94.0 4:111.0 5:107.0 6:120.0 7:91.0 8:94.0 9:65.0 10:124.0 
0.08618216898440384 1:104.0 2:124.0 3:94.0 4:117.0 5:107.0 6:120.0 7:88.0 8:98.0 9:65.0 10:124.0 
0.08797147893988366 1:101.0 2:127.0 3:94.0 4:114.0 5:107.0 6:120.0 7:88.0 8:98.0 9:68.0 10:124.0 
0.08250536464988961 1:104.0 2:124.0 3:98.0 4:114.0 5:107.0 6:124.0 7:88.0 8:98.0 9:68.0 10:120.0 
0.08877441656328466 1:104.0 2:124.0 3:98.0 4:114.0 5:104.0 6:120.0 7:91.0 8:98.0 9:68.0 10:124.0 
0.07267888847172915 1:104.0 2:124.0 3:98.0 4:114.0 5:107.0 6:124.0 7:91.0 8:94.0 9:68.0 10:120.0 
0.0894445237343911 1:104.0 2:124.0 3:94.0 4:117.0 5:111.0 6:124.0 7:91.0 8:94.0 9:68.0 10:117.0 
0.08102544062559625 1:104.0 2:124.0 3:94.0 4:114.0 5:111.0 6:120.0 7:91.0 8:98.0 9:68.0 10:120.0 
0.07980869881597391 1:101.0 2:124.0 3:98.0 4:114.0 5:111.0 6:120.0 7:91.0 8:98.0 9:68.0 10:120.0 
0.08715569066335327 1:101.0 2:127.0 3:98.0 4:114.0 5:111.0 6:120.0 7:91.0 8:94.0 9:68.0 10:117.0 
0.08982171768464836 1:104.0 2:127.0 3:94.0 4:114.0 5:114.0 6:120.0 7:91.0 8:94.0 9:68.0 10:124.0 
0.08910362961706952 1:104.0 2:124.0 3:98.0 4:114.0 5:114.0 6:120.0 7:91.0 8:91.0 9:68.0 10:120.0 
0.08937306156258062 1:107.0 2:124.0 3:94.0 4:117.0 5:111.0 6:117.0 7:94.0 8:94.0 9:68.0 10:120.0 
0.09029374989795103 1:107.0 2:127.0 3:91.0 4:117.0 5:111.0 6:120.0 7:91.0 8:91.0 9:68.0 10:120.0 
0.08837390848671922 1:107.0 2:127.0 3:98.0 4:114.0 5:107.0 6:120.0 7:91.0 8:91.0 9:68.0 10:124.0 
0.08040360648664502 1:107.0 2:124.0 3:98.0 4:114.0 5:107.0 6:120.0 7:91.0 8:94.0 9:68.0 10:120.0 
0.07881448304510352 1:104.0 2:124.0 3:98.0 4:111.0 5:107.0 6:124.0 7:94.0 8:98.0 9:68.0 10:120.0 
0.05627767108391507 1:104.0 2:124.0 3:98.0 4:111.0 5:111.0 6:124.0 7:94.0 8:98.0 9:68.0 10:117.0 
0.06523088221255274 1:104.0 2:124.0 3:101.0 4:111.0 5:111.0 6:124.0 7:94.0 8:98.0 9:68.0 10:117.0 
0.08552953944936342 1:104.0 2:120.0 3:98.0 4:111.0 5:107.0 6:120.0 7:94.0 8:98.0 9:68.0 10:117.0 
0.08929009272123345 1:101.0 2:120.0 3:98.0 4:114.0 5:107.0 6:120.0 7:94.0 8:101.0 9:65.0 10:114.0 
0.08387031667089001 1:104.0 2:120.0 3:98.0 4:114.0 5:104.0 6:120.0 7:91.0 8:98.0 9:68.0 10:114.0 
0.08622345730596581 1:104.0 2:124.0 3:94.0 4:117.0 5:107.0 6:120.0 7:91.0 8:98.0 9:68.0 10:111.0 
0.08638721670391669 1:101.0 2:130.0 3:98.0 4:117.0 5:107.0 6:120.0 7:91.0 8:98.0 9:68.0 10:111.0 
0.05837368598065275 1:104.0 2:127.0 3:98.0 4:114.0 5:107.0 6:117.0 7:91.0 8:98.0 9:68.0 10:111.0 
0.04304009103833499 1:104.0 2:127.0 3:98.0 4:114.0 5:107.0 6:120.0 7:91.0 8:98.0 9:68.0 10:111.0 
0.06567374223337347 1:107.0 2:124.0 3:98.0 4:114.0 5:107.0 6:120.0 7:91.0 8:98.0 9:68.0 10:111.0 
0.07174914541629213 1:104.0 2:124.0 3:101.0 4:114.0 5:104.0 6:117.0 7:91.0 8:98.0 9:68.0 10:111.0 
0.08990996720461886 1:104.0 2:120.0 3:101.0 4:114.0 5:104.0 6:117.0 7:88.0 8:94.0 9:68.0 10:111.0 
0.08739844866128366 1:104.0 2:124.0 3:101.0 4:117.0 5:104.0 6:117.0 7:88.0 8:101.0 9:71.0 10:114.0 
0.06798940614381446 1:107.0 2:124.0 3:101.0 4:114.0 5:104.0 6:120.0 7:91.0 8:98.0 9:71.0 10:114.0 
0.06341181768354265 1:107.0 2:127.0 3:101.0 4:114.0 5:104.0 6:117.0 7:94.0 8:98.0 9:71.0 10:114.0 
0.07295712742493277 1:107.0 2:124.0 3:101.0 4:114.0 5:104.0 6:117.0 7:91.0 8:101.0 9:71.0 10:111.0 
0.0661966545311865 1:107.0 2:127.0 3:101.0 4:111.0 5:107.0 6:114.0 7:94.0 8:98.0 9:71.0 10:111.0 
0.054363748113723465 1:107.0 2:127.0 3:101.0 4:111.0 5:107.0 6:117.0 7:94.0 8:98.0 9:71.0 10:111.0 
0.07001499079755907 1:107.0 2:124.0 3:98.0 4:111.0 5:104.0 6:120.0 7:91.0 8:98.0 9:71.0 10:111.0 
0.08168206744104367 1:107.0 2:127.0 3:98.0 4:111.0 5:104.0 6:120.0 7:91.0 8:94.0 9:71.0 10:111.0 
0.07653718142632243 1:104.0 2:127.0 3:98.0 4:117.0 5:104.0 6:117.0 7:94.0 8:94.0 9:71.0 10:111.0 
0.07395642604635866 1:104.0 2:130.0 3:98.0 4:117.0 5:104.0 6:120.0 7:94.0 8:94.0 9:71.0 10:111.0 
0.08081899884891686 1:107.0 2:130.0 3:98.0 4:114.0 5:104.0 6:120.0 7:94.0 8:98.0 9:71.0 10:111.0 
0.0868969276980151 1:107.0 2:130.0 3:98.0 4:114.0 5:101.0 6:117.0 7:94.0 8:94.0 9:71.0 10:114.0 
0.04828333899924869 1:107.0 2:127.0 3:101.0 4:114.0 5:104.0 6:117.0 7:91.0 8:98.0 9:75.0 10:114.0 
0.07613261004798533 1:107.0 2:127.0 3:101.0 4:117.0 5:107.0 6:117.0 7:94.0 8:98.0 9:75.0 10:114.0 
0.07130030238824597 1:107.0 2:130.0 3:98.0 4:117.0 5:104.0 6:114.0 7:94.0 8:98.0 9:75.0 10:114.0 
0.06409146337461308 1:107.0 2:130.0 3:101.0 4:117.0 5:104.0 6:114.0 7:91.0 8:98.0 9:75.0 10:114.0 
0.07688345605098829 1:107.0 2:130.0 3:101.0 4:114.0 5:104.0 6:114.0 7:94.0 8:101.0 9:75.0 10:114.0 
0.05707603211997292 1:107.0 2:130.0 3:101.0 4:114.0 5:107.0 6:117.0 7:91.0 8:98.0 9:75.0 10:114.0 
0.06916197896610671 1:107.0 2:130.0 3:101.0 4:114.0 5:104.0 6:120.0 7:91.0 8:98.0 9:75.0 10:114.0 
0.08810950261433026 1:117.0 2:124.0 3:101.0 4:117.0 5:107.0 6:120.0 7:91.0 8:98.0 9:75.0 10:111.0 
0.08475017323833539 1:120.0 2:124.0 3:101.0 4:114.0 5:104.0 6:120.0 7:91.0 8:101.0 9:75.0 10:114.0 
0.08300500956043916 1:120.0 2:124.0 3:98.0 4:114.0 5:107.0 6:120.0 7:91.0 8:98.0 9:75.0 10:114.0 
0.08849502638542894 1:124.0 2:124.0 3:101.0 4:114.0 5:104.0 6:117.0 7:88.0 8:94.0 9:75.0 10:117.0 
0.07724506759486194 1:120.0 2:124.0 3:101.0 4:114.0 5:104.0 6:120.0 7:88.0 8:94.0 9:71.0 10:117.0 
0.07360731363283368 1:120.0 2:127.0 3:101.0 4:114.0 5:104.0 6:117.0 7:88.0 8:94.0 9:71.0 10:117.0 
0.08846321996552864 1:117.0 2:124.0 3:101.0 4:111.0 5:104.0 6:114.0 7:88.0 8:94.0 9:71.0 10:117.0 
0.08801779168021678 1:120.0 2:124.0 3:101.0 4:114.0 5:107.0 6:114.0 7:85.0 8:94.0 9:71.0 10:114.0 
0.06572472913613112 1:120.0 2:124.0 3:101.0 4:114.0 5:111.0 6:114.0 7:88.0 8:94.0 9:75.0 10:114.0 
0.06637181610101317 1:117.0 2:124.0 3:101.0 4:114.0 5:114.0 6:114.0 7:88.0 8:94.0 9:75.0 10:114.0 
0.05399575904823148 1:120.0 2:124.0 3:101.0 4:117.0 5:114.0 6:117.0 7:88.0 8:94.0 9:75.0 10:111.0 
0.04287870989466369 1:120.0 2:124.0 3:101.0 4:117.0 5:111.0 6:117.0 7:88.0 8:94.0 9:75.0 10:111.0 
0.042029433764794455 1:120.0 2:124.0 3:101.0 4:117.0 5:111.0 6:117.0 7:88.0 8:94.0 9:75.0 10:114.0 
0.057189808123562225 1:117.0 2:124.0 3:101.0 4:117.0 5:114.0 6:117.0 7:88.0 8:94.0 9:75.0 10:114.0 
0.08895775006449225 1:117.0 2:120.0 3:101.0 4:114.0 5:114.0 6:117.0 7:85.0 8:94.0 9:75.0 10:117.0 
0.0899100015937429 1:117.0 2:124.0 3:101.0 4:117.0 5:114.0 6:117.0 7:85.0 8:98.0 9:78.0 10:117.0 
0.09117953805102957 1:114.0 2:120.0 3:94.0 4:114.0 5:114.0 6:117.0 7:88.0 8:98.0 9:78.0 10:114.0 
0.09091719533222825 1:111.0 2:124.0 3:94.0 4:114.0 5:114.0 6:114.0 7:88.0 8:94.0 9:78.0 10:117.0 
0.09151967286193874 1:111.0 2:120.0 3:98.0 4:117.0 5:111.0 6:114.0 7:88.0 8:94.0 9:81.0 10:114.0 
0.08947259957304393 1:107.0 2:120.0 3:107.0 4:117.0 5:111.0 6:114.0 7:88.0 8:94.0 9:81.0 10:117.0 
0.09079910854277817 1:114.0 2:127.0 3:104.0 4:117.0 5:111.0 6:114.0 7:88.0 8:94.0 9:78.0 10:117.0 
0.08254549032633463 1:104.0 2:127.0 3:107.0 4:117.0 5:114.0 6:117.0 7:85.0 8:94.0 9:78.0 10:117.0 
0.07987710919099522 1:107.0 2:124.0 3:107.0 4:117.0 5:111.0 6:117.0 7:85.0 8:94.0 9:78.0 10:117.0 
0.06712842369770217 1:104.0 2:124.0 3:104.0 4:114.0 5:111.0 6:117.0 7:88.0 8:94.0 9:78.0 10:117.0 
0.06749875611484057 1:104.0 2:124.0 3:104.0 4:117.0 5:111.0 6:117.0 7:88.0 8:94.0 9:78.0 10:114.0 
0.07722415035265295 1:104.0 2:124.0 3:104.0 4:114.0 5:114.0 6:117.0 7:88.0 8:91.0 9:78.0 10:114.0 
0.08598543777311096 1:107.0 2:124.0 3:101.0 4:114.0 5:111.0 6:117.0 7:91.0 8:91.0 9:78.0 10:114.0 
0.07805972096390301 1:107.0 2:124.0 3:104.0 4:117.0 5:114.0 6:117.0 7:91.0 8:94.0 9:81.0 10:117.0 
0.08819610632563663 1:107.0 2:127.0 3:104.0 4:117.0 5:117.0 6:117.0 7:88.0 8:98.0 9:78.0 10:117.0 
0.06462067120159282 1:107.0 2:127.0 3:104.0 4:114.0 5:114.0 6:117.0 7:91.0 8:94.0 9:78.0 10:117.0 
0.07847330925709006 1:107.0 2:127.0 3:104.0 4:117.0 5:114.0 6:117.0 7:88.0 8:94.0 9:81.0 10:114.0 
0.08923548621277513 1:107.0 2:127.0 3:104.0 4:114.0 5:114.0 6:124.0 7:91.0 8:98.0 9:81.0 10:114.0 
0.07459559848566533 1:107.0 2:127.0 3:104.0 4:111.0 5:114.0 6:120.0 7:91.0 8:94.0 9:78.0 10:117.0 
0.07606563227120738 1:107.0 2:130.0 3:107.0 4:111.0 5:111.0 6:124.0 7:91.0 8:98.0 9:81.0 10:117.0 
0.08048918066209151 1:107.0 2:130.0 3:104.0 4:111.0 5:111.0 6:124.0 7:91.0 8:94.0 9:81.0 10:117.0 
0.08440905108167099 1:107.0 2:130.0 3:107.0 4:111.0 5:111.0 6:120.0 7:91.0 8:101.0 9:78.0 10:120.0 
0.07649087084141626 1:107.0 2:130.0 3:104.0 4:111.0 5:111.0 6:124.0 7:91.0 8:98.0 9:78.0 10:120.0 
0.08062945217904305 1:107.0 2:130.0 3:104.0 4:114.0 5:111.0 6:120.0 7:91.0 8:98.0 9:78.0 10:117.0 
0.0724632031332765 1:107.0 2:130.0 3:104.0 4:111.0 5:114.0 6:120.0 7:88.0 8:98.0 9:75.0 10:120.0 
0.07448471085264163 1:111.0 2:130.0 3:104.0 4:111.0 5:114.0 6:120.0 7:88.0 8:98.0 9:75.0 10:120.0 
0.08327280758225514 1:111.0 2:127.0 3:101.0 4:111.0 5:114.0 6:120.0 7:88.0 8:94.0 9:75.0 10:117.0 
0.07064544681406582 1:111.0 2:130.0 3:101.0 4:111.0 5:111.0 6:117.0 7:88.0 8:94.0 9:75.0 10:117.0 
0.08504830362715615 1:111.0 2:134.0 3:101.0 4:111.0 5:114.0 6:120.0 7:91.0 8:91.0 9:75.0 10:117.0 
0.0790950274683887 1:111.0 2:134.0 3:101.0 4:111.0 5:111.0 6:117.0 7:91.0 8:94.0 9:75.0 10:117.0 
0.08591454049131586 1:111.0 2:130.0 3:98.0 4:111.0 5:111.0 6:114.0 7:88.0 8:91.0 9:75.0 10:117.0 
0.09120778619642472 1:107.0 2:130.0 3:98.0 4:111.0 5:107.0 6:117.0 7:91.0 8:91.0 9:78.0 10:114.0 
0.08278926144784478 1:107.0 2:130.0 3:101.0 4:111.0 5:114.0 6:117.0 7:88.0 8:91.0 9:75.0 10:114.0 
0.0847067626237472 1:107.0 2:130.0 3:101.0 4:111.0 5:117.0 6:120.0 7:88.0 8:91.0 9:78.0 10:114.0 
0.07062111288544476 1:111.0 2:127.0 3:98.0 4:111.0 5:114.0 6:120.0 7:88.0 8:91.0 9:81.0 10:114.0 
0.07340934439490199 1:111.0 2:127.0 3:98.0 4:111.0 5:114.0 6:117.0 7:88.0 8:91.0 9:81.0 10:111.0 
0.08079702029582969 1:111.0 2:124.0 3:98.0 4:111.0 5:111.0 6:120.0 7:88.0 8:91.0 9:81.0 10:111.0 
0.0903816754663393 1:111.0 2:124.0 3:101.0 4:111.0 5:114.0 6:120.0 7:88.0 8:88.0 9:85.0 10:107.0 
0.08735765495578773 1:111.0 2:127.0 3:101.0 4:107.0 5:114.0 6:124.0 7:88.0 8:88.0 9:85.0 10:111.0 
0.08571840220207894 1:111.0 2:127.0 3:101.0 4:111.0 5:114.0 6:124.0 7:88.0 8:88.0 9:81.0 10:111.0 
0.08937048418528726 1:111.0 2:127.0 3:101.0 4:107.0 5:111.0 6:120.0 7:85.0 8:91.0 9:81.0 10:114.0 
0.09155094328644714 1:111.0 2:127.0 3:111.0 4:107.0 5:114.0 6:120.0 7:85.0 8:91.0 9:85.0 10:114.0 
0.08996875683482985 1:111.0 2:130.0 3:111.0 4:107.0 5:111.0 6:127.0 7:81.0 8:91.0 9:81.0 10:111.0 
0.09109060533975011 1:114.0 2:130.0 3:114.0 4:107.0 5:107.0 6:124.0 7:85.0 8:94.0 9:81.0 10:111.0 
0.09043466598193267 1:114.0 2:127.0 3:101.0 4:104.0 5:111.0 6:124.0 7:85.0 8:94.0 9:81.0 10:107.0 
0.08962190638590012 1:114.0 2:127.0 3:111.0 4:107.0 5:111.0 6:124.0 7:81.0 8:91.0 9:81.0 10:107.0 
0.07553274302573515 1:114.0 2:127.0 3:104.0 4:107.0 5:114.0 6:124.0 7:81.0 8:94.0 9:81.0 10:104.0 
0.06101048287647498 1:114.0 2:127.0 3:104.0 4:104.0 5:114.0 6:124.0 7:81.0 8:91.0 9:81.0 10:104.0 
0.0820593660403986 1:114.0 2:127.0 3:107.0 4:107.0 5:114.0 6:120.0 7:81.0 8:91.0 9:81.0 10:104.0 
0.07478013548439022 1:114.0 2:127.0 3:107.0 4:104.0 5:114.0 6:124.0 7:81.0 8:91.0 9:81.0 10:101.0 
0.07777541089835976 1:111.0 2:130.0 3:104.0 4:107.0 5:114.0 6:124.0 7:81.0 8:88.0 9:78.0 10:104.0 
0.07513543937042083 1:111.0 2:130.0 3:107.0 4:107.0 5:114.0 6:124.0 7:81.0 8:88.0 9:81.0 10:104.0 
0.09000625552930025 1:111.0 2:127.0 3:104.0 4:104.0 5:117.0 6:120.0 7:81.0 8:88.0 9:81.0 10:101.0 
0.09102528547051997 1:111.0 2:127.0 3:114.0 4:104.0 5:117.0 6:120.0 7:81.0 8:91.0 9:81.0 10:101.0 
0.09052803269310739 1:111.0 2:127.0 3:117.0 4:111.0 5:117.0 6:120.0 7:81.0 8:88.0 9:81.0 10:104.0 
0.08376911864145281 1:114.0 2:127.0 3:117.0 4:107.0 5:117.0 6:120.0 7:78.0 8:88.0 9:85.0 10:101.0 
0.08414127898345897 1:114.0 2:127.0 3:117.0 4:111.0 5:117.0 6:117.0 7:78.0 8:88.0 9:85.0 10:101.0 
0.08899017071981713 1:117.0 2:124.0 3:114.0 4:111.0 5:114.0 6:117.0 7:78.0 8:88.0 9:81.0 10:104.0 
0.0772846618743625 1:114.0 2:127.0 3:114.0 4:107.0 5:114.0 6:117.0 7:78.0 8:85.0 9:81.0 10:104.0 
0.07762260379249486 1:117.0 2:127.0 3:114.0 4:107.0 5:114.0 6:114.0 7:78.0 8:85.0 9:81.0 10:104.0 
0.08993541451327552 1:117.0 2:127.0 3:107.0 4:104.0 5:111.0 6:117.0 7:78.0 8:81.0 9:78.0 10:104.0 
0.08492002869351567 1:117.0 2:127.0 3:104.0 4:107.0 5:114.0 6:114.0 7:78.0 8:81.0 9:81.0 10:107.0 
0.051423966132861265 1:117.0 2:127.0 3:104.0 4:111.0 5:111.0 6:114.0 7:78.0 8:81.0 9:81.0 10:107.0 
0.08089436248593518 1:120.0 2:127.0 3:104.0 4:111.0 5:111.0 6:114.0 7:78.0 8:78.0 9:78.0 10:107.0 
0.07221681857476099 1:117.0 2:130.0 3:107.0 4:111.0 5:111.0 6:114.0 7:78.0 8:81.0 9:78.0 10:104.0 
0.08542590464643102 1:117.0 2:130.0 3:107.0 4:111.0 5:107.0 6:111.0 7:78.0 8:78.0 9:78.0 10:104.0 
0.08882106415112029 1:114.0 2:130.0 3:107.0 4:111.0 5:107.0 6:114.0 7:78.0 8:75.0 9:75.0 10:104.0 
0.08352664288173922 1:114.0 2:130.0 3:107.0 4:107.0 5:111.0 6:114.0 7:78.0 8:81.0 9:75.0 10:104.0 
0.08698105751486682 1:114.0 2:134.0 3:107.0 4:107.0 5:111.0 6:114.0 7:81.0 8:81.0 9:78.0 10:104.0 
0.0733788033004602 1:114.0 2:130.0 3:104.0 4:111.0 5:111.0 6:114.0 7:81.0 8:81.0 9:78.0 10:104.0 
0.09065050811754566 1:114.0 2:134.0 3:104.0 4:111.0 5:111.0 6:117.0 7:81.0 8:78.0 9:75.0 10:107.0 
0.0845720172506772 1:117.0 2:130.0 3:104.0 4:111.0 5:107.0 6:117.0 7:78.0 8:81.0 9:78.0 10:107.0 
0.0698542708789528 1:114.0 2:130.0 3:104.0 4:111.0 5:111.0 6:114.0 7:78.0 8:81.0 9:81.0 10:107.0 
0.07062570129042578 1:117.0 2:127.0 3:104.0 4:114.0 5:111.0 6:114.0 7:78.0 8:81.0 9:78.0 10:107.0 
0.0839953470067053 1:114.0 2:130.0 3:104.0 4:114.0 5:107.0 6:114.0 7:81.0 8:81.0 9:78.0 10:107.0 
0.09009345187815265 1:114.0 2:117.0 3:104.0 4:111.0 5:107.0 6:114.0 7:81.0 8:85.0 9:78.0 10:107.0 
0.05724794764925877 1:114.0 2:114.0 3:107.0 4:114.0 5:107.0 6:117.0 7:81.0 8:81.0 9:78.0 10:104.0 
0.08888311495687605 1:114.0 2:117.0 3:107.0 4:114.0 5:107.0 6:120.0 7:81.0 8:85.0 9:78.0 10:107.0 
0.0878287641082307 1:114.0 2:117.0 3:107.0 4:111.0 5:107.0 6:117.0 7:85.0 8:81.0 9:78.0 10:107.0 
0.06419951107415339 1:114.0 2:114.0 3:107.0 4:114.0 5:107.0 6:117.0 7:81.0 8:78.0 9:78.0 10:107.0 
0.08500562153010144 1:114.0 2:117.0 3:111.0 4:114.0 5:107.0 6:117.0 7:81.0 8:78.0 9:75.0 10:104.0 
0.08541072090054175 1:111.0 2:114.0 3:107.0 4:114.0 5:111.0 6:117.0 7:81.0 8:78.0 9:78.0 10:104.0 
0.06874447408780926 1:117.0 2:114.0 3:107.0 4:114.0 5:107.0 6:117.0 7:81.0 8:78.0 9:78.0 10:104.0 
0.08403047365746663 1:114.0 2:117.0 3:107.0 4:117.0 5:111.0 6:120.0 7:78.0 8:78.0 9:75.0 10:104.0 
0.07935286140012876 1:111.0 2:117.0 3:107.0 4:114.0 5:107.0 6:117.0 7:81.0 8:81.0 9:75.0 10:104.0 
0.08917686288780197 1:111.0 2:117.0 3:107.0 4:114.0 5:107.0 6:120.0 7:85.0 8:81.0 9:71.0 10:107.0 
0.08569027842626695 1:114.0 2:120.0 3:107.0 4:114.0 5:107.0 6:117.0 7:81.0 8:81.0 9:71.0 10:107.0 
0.08733833549231501 1:114.0 2:117.0 3:107.0 4:114.0 5:111.0 6:117.0 7:81.0 8:78.0 9:71.0 10:107.0 
0.08876462253125833 1:114.0 2:120.0 3:107.0 4:120.0 5:111.0 6:120.0 7:85.0 8:78.0 9:75.0 10:107.0 
0.08447253772689156 1:114.0 2:117.0 3:107.0 4:120.0 5:114.0 6:120.0 7:81.0 8:78.0 9:75.0 10:104.0 
0.09047800322001764 1:117.0 2:120.0 3:101.0 4:117.0 5:114.0 6:124.0 7:81.0 8:81.0 9:75.0 10:107.0 
0.08982425630792301 1:114.0 2:117.0 3:107.0 4:117.0 5:111.0 6:124.0 7:85.0 8:81.0 9:75.0 10:107.0 
0.0899121365021362 1:114.0 2:117.0 3:98.0 4:117.0 5:117.0 6:124.0 7:81.0 8:81.0 9:71.0 10:107.0 
0.08257138229893174 1:114.0 2:114.0 3:101.0 4:120.0 5:114.0 6:120.0 7:81.0 8:81.0 9:71.0 10:107.0 
0.07961476591583705 1:117.0 2:114.0 3:101.0 4:117.0 5:114.0 6:120.0 7:81.0 8:78.0 9:71.0 10:107.0 
0.08238276019369173 1:114.0 2:111.0 3:101.0 4:117.0 5:111.0 6:120.0 7:81.0 8:78.0 9:71.0 10:107.0 
0.08975146302691128 1:114.0 2:124.0 3:101.0 4:117.0 5:111.0 6:120.0 7:81.0 8:81.0 9:71.0 10:107.0 
0.03837381226849057 1:111.0 2:124.0 3:101.0 4:117.0 5:114.0 6:117.0 7:78.0 8:81.0 9:75.0 10:107.0 
0.06308432294117416 1:111.0 2:124.0 3:101.0 4:117.0 5:114.0 6:117.0 7:78.0 8:78.0 9:75.0 10:107.0 
0.06372694805680079 1:111.0 2:124.0 3:101.0 4:117.0 5:111.0 6:117.0 7:78.0 8:81.0 9:75.0 10:107.0 
0.09007242733502357 1:111.0 2:127.0 3:101.0 4:117.0 5:114.0 6:117.0 7:78.0 8:78.0 9:71.0 10:111.0 
0.09061491464926741 1:107.0 2:124.0 3:98.0 4:117.0 5:111.0 6:117.0 7:81.0 8:75.0 9:71.0 10:111.0 
0.07590599002089915 1:107.0 2:124.0 3:98.0 4:117.0 5:111.0 6:120.0 7:85.0 8:78.0 9:75.0 10:111.0 
0.06021226772268695 1:107.0 2:120.0 3:98.0 4:117.0 5:111.0 6:120.0 7:85.0 8:78.0 9:75.0 10:111.0 
0.07586366320319116 1:107.0 2:120.0 3:94.0 4:117.0 5:111.0 6:120.0 7:85.0 8:78.0 9:75.0 10:111.0 
0.0640513585932035 1:104.0 2:117.0 3:94.0 4:117.0 5:111.0 6:117.0 7:81.0 8:78.0 9:75.0 10:107.0 
0.062384853695027866 1:104.0 2:117.0 3:94.0 4:114.0 5:111.0 6:117.0 7:81.0 8:78.0 9:75.0 10:107.0 
0.08913848209109781 1:104.0 2:114.0 3:94.0 4:114.0 5:114.0 6:117.0 7:81.0 8:75.0 9:78.0 10:107.0 
0.08986789404683482 1:104.0 2:117.0 3:91.0 4:117.0 5:111.0 6:124.0 7:85.0 8:75.0 9:75.0 10:107.0 
0.08685205483778663 1:107.0 2:114.0 3:91.0 4:117.0 5:111.0 6:120.0 7:85.0 8:78.0 9:75.0 10:107.0 
0.08782347791742279 1:107.0 2:111.0 3:94.0 4:120.0 5:111.0 6:120.0 7:85.0 8:81.0 9:75.0 10:107.0 
0.0884299868365494 1:111.0 2:111.0 3:94.0 4:120.0 5:111.0 6:120.0 7:81.0 8:81.0 9:75.0 10:111.0 
0.08945359123532187 1:114.0 2:114.0 3:91.0 4:120.0 5:107.0 6:117.0 7:81.0 8:81.0 9:75.0 10:111.0 
0.08937531784998831 1:114.0 2:111.0 3:94.0 4:120.0 5:114.0 6:117.0 7:81.0 8:81.0 9:75.0 10:107.0 
0.0874657125312801 1:114.0 2:114.0 3:98.0 4:117.0 5:111.0 6:120.0 7:78.0 8:78.0 9:75.0 10:107.0 
0.08939647443784815 1:114.0 2:114.0 3:94.0 4:117.0 5:114.0 6:120.0 7:81.0 8:78.0 9:71.0 10:107.0 
0.08937931438480506 1:114.0 2:117.0 3:98.0 4:120.0 5:111.0 6:120.0 7:81.0 8:78.0 9:75.0 10:111.0 
0.09018351026188243 1:114.0 2:117.0 3:94.0 4:124.0 5:111.0 6:120.0 7:81.0 8:81.0 9:71.0 10:111.0 
0.08883375091778717 1:114.0 2:117.0 3:91.0 4:120.0 5:111.0 6:120.0 7:81.0 8:81.0 9:75.0 10:114.0 
0.08955384175612818 1:111.0 2:114.0 3:94.0 4:130.0 5:111.0 6:117.0 7:81.0 8:85.0 9:71.0 10:114.0 
0.08846102831108366 1:114.0 2:114.0 3:94.0 4:130.0 5:111.0 6:117.0 7:78.0 8:81.0 9:68.0 10:114.0 
0.06190445025489554 1:114.0 2:114.0 3:94.0 4:127.0 5:107.0 6:117.0 7:78.0 8:85.0 9:68.0 10:114.0 
0.0648521065152991 1:114.0 2:114.0 3:94.0 4:127.0 5:107.0 6:117.0 7:78.0 8:85.0 9:68.0 10:117.0 
0.0868852704566303 1:111.0 2:114.0 3:88.0 4:127.0 5:107.0 6:117.0 7:78.0 8:85.0 9:68.0 10:114.0 
0.08980315117834803 1:107.0 2:114.0 3:88.0 4:124.0 5:107.0 6:117.0 7:75.0 8:81.0 9:68.0 10:114.0 
0.07135542161857733 1:107.0 2:111.0 3:88.0 4:127.0 5:107.0 6:117.0 7:78.0 8:85.0 9:68.0 10:117.0 
0.07873745330173648 1:107.0 2:111.0 3:88.0 4:124.0 5:107.0 6:117.0 7:78.0 8:85.0 9:68.0 10:120.0 
0.0842470688876174 1:107.0 2:111.0 3:88.0 4:127.0 5:111.0 6:117.0 7:78.0 8:81.0 9:68.0 10:117.0 
0.08554540845343123 1:104.0 2:111.0 3:88.0 4:127.0 5:114.0 6:117.0 7:81.0 8:81.0 9:68.0 10:120.0 
0.07988989417900944 1:107.0 2:111.0 3:88.0 4:127.0 5:117.0 6:120.0 7:81.0 8:81.0 9:68.0 10:117.0 
0.090270421293415 1:107.0 2:107.0 3:88.0 4:124.0 5:114.0 6:124.0 7:81.0 8:81.0 9:68.0 10:117.0 
0.08391349347328109 1:107.0 2:111.0 3:85.0 4:127.0 5:117.0 6:120.0 7:85.0 8:81.0 9:68.0 10:117.0 
0.08895369883503101 1:104.0 2:111.0 3:85.0 4:124.0 5:114.0 6:120.0 7:81.0 8:78.0 9:68.0 10:117.0 
0.09013375115571626 1:111.0 2:107.0 3:85.0 4:124.0 5:114.0 6:124.0 7:85.0 8:78.0 9:65.0 10:117.0 
0.08356929199945096 1:111.0 2:111.0 3:88.0 4:120.0 5:111.0 6:124.0 7:88.0 8:78.0 9:65.0 10:120.0 
0.07047307860258883 1:107.0 2:107.0 3:85.0 4:120.0 5:111.0 6:124.0 7:88.0 8:78.0 9:68.0 10:117.0 
0.07626831225856717 1:107.0 2:107.0 3:88.0 4:124.0 5:111.0 6:124.0 7:88.0 8:78.0 9:68.0 10:117.0 
0.08510642953935094 1:104.0 2:104.0 3:88.0 4:124.0 5:111.0 6:124.0 7:91.0 8:78.0 9:68.0 10:117.0 
0.09050214342095375 1:104.0 2:111.0 3:88.0 4:124.0 5:111.0 6:120.0 7:91.0 8:78.0 9:68.0 10:117.0 
0.08666140498588654 1:111.0 2:107.0 3:88.0 4:124.0 5:111.0 6:120.0 7:88.0 8:75.0 9:68.0 10:120.0 
0.0874335391371831 1:111.0 2:107.0 3:85.0 4:124.0 5:111.0 6:124.0 7:88.0 8:75.0 9:71.0 10:120.0 
0.08142163005938052 1:111.0 2:111.0 3:88.0 4:120.0 5:111.0 6:120.0 7:88.0 8:78.0 9:68.0 10:120.0 
0.09032913268104159 1:111.0 2:107.0 3:91.0 4:117.0 5:111.0 6:120.0 7:88.0 8:78.0 9:68.0 10:117.0 
0.09131069710061157 1:111.0 2:107.0 3:94.0 4:120.0 5:111.0 6:124.0 7:91.0 8:78.0 9:71.0 10:120.0 
0.0781082020169987 1:107.0 2:104.0 3:85.0 4:120.0 5:111.0 6:124.0 7:88.0 8:78.0 9:68.0 10:120.0 
0.09118341372054828 1:107.0 2:111.0 3:88.0 4:117.0 5:114.0 6:127.0 7:88.0 8:78.0 9:71.0 10:120.0 
0.08942219255256512 1:111.0 2:107.0 3:81.0 4:117.0 5:114.0 6:127.0 7:88.0 8:75.0 9:68.0 10:120.0 
0.07196089714761167 1:114.0 2:111.0 3:81.0 4:117.0 5:114.0 6:127.0 7:88.0 8:78.0 9:65.0 10:120.0 
0.08046475034903955 1:111.0 2:111.0 3:81.0 4:117.0 5:114.0 6:124.0 7:85.0 8:78.0 9:65.0 10:120.0 
0.0731649823389065 1:114.0 2:111.0 3:81.0 4:117.0 5:111.0 6:124.0 7:88.0 8:78.0 9:65.0 10:120.0 
0.08961618940313398 1:111.0 2:111.0 3:85.0 4:114.0 5:111.0 6:127.0 7:88.0 8:75.0 9:65.0 10:120.0 
0.08703297064565307 1:111.0 2:117.0 3:85.0 4:117.0 5:111.0 6:124.0 7:85.0 8:78.0 9:65.0 10:124.0 
0.08734291411118039 1:107.0 2:117.0 3:85.0 4:114.0 5:111.0 6:124.0 7:85.0 8:78.0 9:68.0 10:124.0 
0.08796801868882348 1:111.0 2:117.0 3:85.0 4:114.0 5:111.0 6:124.0 7:85.0 8:75.0 9:68.0 10:120.0 
0.09060910793990135 1:107.0 2:117.0 3:81.0 4:114.0 5:114.0 6:120.0 7:85.0 8:75.0 9:68.0 10:120.0 
0.08255391850655497 1:111.0 2:117.0 3:85.0 4:114.0 5:117.0 6:120.0 7:85.0 8:78.0 9:71.0 10:120.0 
0.08440923030714587 1:111.0 2:117.0 3:85.0 4:117.0 5:120.0 6:120.0 7:85.0 8:75.0 9:71.0 10:120.0 
0.0855141248315125 1:111.0 2:114.0 3:88.0 4:117.0 5:117.0 6:120.0 7:85.0 8:78.0 9:71.0 10:117.0 
0.08764184596807545 1:107.0 2:114.0 3:88.0 4:117.0 5:117.0 6:117.0 7:85.0 8:75.0 9:71.0 10:117.0 
0.08937564461510467 1:111.0 2:111.0 3:88.0 4:114.0 5:120.0 6:120.0 7:85.0 8:71.0 9:71.0 10:120.0 
0.08955787803901083 1:107.0 2:111.0 3:88.0 4:114.0 5:120.0 6:120.0 7:81.0 8:71.0 9:68.0 10:120.0 
0.08897045361078298 1:107.0 2:114.0 3:85.0 4:111.0 5:117.0 6:120.0 7:81.0 8:75.0 9:68.0 10:117.0 
0.06718003662811388 1:104.0 2:114.0 3:85.0 4:111.0 5:124.0 6:117.0 7:85.0 8:75.0 9:68.0 10:117.0 
0.056927271050779396 1:104.0 2:114.0 3:85.0 4:111.0 5:127.0 6:117.0 7:85.0 8:75.0 9:71.0 10:117.0 
0.021504038116941293 1:104.0 2:117.0 3:85.0 4:111.0 5:124.0 6:117.0 7:85.0 8:75.0 9:71.0 10:114.0 
0.060673819093967005 1:101.0 2:114.0 3:85.0 4:111.0 5:127.0 6:120.0 7:85.0 8:75.0 9:71.0 10:114.0 
0.06058893823309495 1:101.0 2:117.0 3:85.0 4:111.0 5:124.0 6:117.0 7:85.0 8:75.0 9:71.0 10:114.0 
0.04459592826683155 1:104.0 2:114.0 3:85.0 4:111.0 5:127.0 6:120.0 7:85.0 8:75.0 9:71.0 10:114.0 
0.08371828302237921 1:104.0 2:117.0 3:88.0 4:111.0 5:127.0 6:120.0 7:85.0 8:75.0 9:68.0 10:114.0 
0.04712238541238872 1:104.0 2:117.0 3:85.0 4:111.0 5:124.0 6:117.0 7:85.0 8:75.0 9:71.0 10:117.0 
0.08238889427364704 1:104.0 2:120.0 3:85.0 4:107.0 5:124.0 6:117.0 7:85.0 8:78.0 9:71.0 10:114.0 
0.07757006861044513 1:104.0 2:117.0 3:85.0 4:107.0 5:124.0 6:117.0 7:85.0 8:75.0 9:71.0 10:111.0 
0.08607171651922868 1:104.0 2:117.0 3:85.0 4:107.0 5:120.0 6:114.0 7:85.0 8:78.0 9:68.0 10:114.0 
0.08440160601362484 1:104.0 2:114.0 3:85.0 4:107.0 5:120.0 6:117.0 7:85.0 8:75.0 9:71.0 10:114.0 
0.07087799218996564 1:104.0 2:114.0 3:88.0 4:111.0 5:117.0 6:117.0 7:81.0 8:75.0 9:68.0 10:114.0 
0.0730563441211698 1:104.0 2:114.0 3:88.0 4:111.0 5:117.0 6:117.0 7:81.0 8:71.0 9:68.0 10:114.0 
0.08814685020041668 1:104.0 2:111.0 3:91.0 4:111.0 5:120.0 6:117.0 7:81.0 8:71.0 9:65.0 10:111.0 
0.0874302408738768 1:101.0 2:111.0 3:88.0 4:111.0 5:120.0 6:117.0 7:78.0 8:71.0 9:65.0 10:114.0 
0.08150514294296635 1:101.0 2:114.0 3:85.0 4:107.0 5:117.0 6:117.0 7:81.0 8:71.0 9:65.0 10:114.0 
0.08466415002360672 1:98.0 2:114.0 3:85.0 4:107.0 5:117.0 6:114.0 7:81.0 8:71.0 9:65.0 10:117.0 
0.06972764428837364 1:101.0 2:114.0 3:85.0 4:107.0 5:120.0 6:114.0 7:78.0 8:78.0 9:65.0 10:117.0 
0.06797508341569006 1:101.0 2:114.0 3:85.0 4:107.0 5:120.0 6:114.0 7:81.0 8:78.0 9:65.0 10:114.0 
0.07101039008140822 1:101.0 2:114.0 3:85.0 4:104.0 5:117.0 6:114.0 7:78.0 8:78.0 9:65.0 10:114.0 
0.06318962887896362 1:101.0 2:114.0 3:85.0 4:107.0 5:117.0 6:114.0 7:78.0 8:75.0 9:65.0 10:114.0 
0.0710743812887012 1:104.0 2:114.0 3:85.0 4:111.0 5:117.0 6:114.0 7:78.0 8:78.0 9:65.0 10:114.0 
0.07431452690141921 1:104.0 2:114.0 3:85.0 4:111.0 5:117.0 6:114.0 7:78.0 8:78.0 9:68.0 10:111.0 
0.07103428876668272 1:104.0 2:114.0 3:88.0 4:111.0 5:114.0 6:114.0 7:75.0 8:81.0 9:68.0 10:111.0 
0.08143890106811136 1:101.0 2:114.0 3:88.0 4:111.0 5:117.0 6:114.0 7:78.0 8:81.0 9:68.0 10:114.0 
0.07683982072304787 1:104.0 2:117.0 3:88.0 4:111.0 5:114.0 6:114.0 7:75.0 8:81.0 9:68.0 10:117.0 
0.07280308271522318 1:104.0 2:114.0 3:88.0 4:111.0 5:114.0 6:114.0 7:78.0 8:85.0 9:68.0 10:114.0 
0.06985972886262862 1:104.0 2:114.0 3:88.0 4:111.0 5:111.0 6:114.0 7:75.0 8:81.0 9:68.0 10:114.0 
0.08301175837282948 1:104.0 2:117.0 3:88.0 4:107.0 5:114.0 6:117.0 7:75.0 8:81.0 9:68.0 10:117.0 
0.08895544580217074 1:111.0 2:117.0 3:88.0 4:111.0 5:114.0 6:117.0 7:75.0 8:85.0 9:68.0 10:114.0 
0.0689949814894969 1:107.0 2:114.0 3:88.0 4:114.0 5:114.0 6:117.0 7:78.0 8:85.0 9:68.0 10:114.0 
0.07694562755443746 1:107.0 2:117.0 3:91.0 4:114.0 5:111.0 6:117.0 7:78.0 8:85.0 9:68.0 10:114.0 
0.07364664699418756 1:107.0 2:114.0 3:91.0 4:111.0 5:111.0 6:117.0 7:81.0 8:85.0 9:68.0 10:114.0 
0.055104640249387785 1:107.0 2:114.0 3:88.0 4:111.0 5:111.0 6:117.0 7:78.0 8:85.0 9:68.0 10:114.0 
0.07637124599092815 1:107.0 2:114.0 3:91.0 4:107.0 5:117.0 6:117.0 7:81.0 8:81.0 9:68.0 10:114.0 
0.07308280841415143 1:107.0 2:117.0 3:91.0 4:107.0 5:114.0 6:114.0 7:78.0 8:81.0 9:68.0 10:114.0 
0.06225135538953053 1:107.0 2:114.0 3:91.0 4:107.0 5:117.0 6:114.0 7:78.0 8:81.0 9:68.0 10:114.0 
0.07489122535169827 1:104.0 2:114.0 3:91.0 4:104.0 5:114.0 6:114.0 7:78.0 8:81.0 9:68.0 10:111.0 
0.06863642447584106 1:107.0 2:114.0 3:91.0 4:104.0 5:114.0 6:114.0 7:81.0 8:81.0 9:68.0 10:111.0 
0.08811055969053788 1:107.0 2:114.0 3:91.0 4:101.0 5:114.0 6:114.0 7:81.0 8:81.0 9:71.0 10:107.0 
0.08450318510105809 1:107.0 2:114.0 3:88.0 4:104.0 5:111.0 6:114.0 7:81.0 8:85.0 9:71.0 10:111.0 
0.08471857894101764 1:104.0 2:117.0 3:88.0 4:104.0 5:111.0 6:117.0 7:81.0 8:85.0 9:71.0 10:111.0 
0.07796595933445022 1:104.0 2:117.0 3:88.0 4:107.0 5:114.0 6:117.0 7:81.0 8:81.0 9:71.0 10:107.0 
0.07777951512116471 1:104.0 2:117.0 3:85.0 4:104.0 5:114.0 6:117.0 7:81.0 8:81.0 9:71.0 10:107.0 
0.08835077826458122 1:104.0 2:107.0 3:88.0 4:107.0 5:114.0 6:117.0 7:81.0 8:81.0 9:71.0 10:111.0 
0.08145356486977429 1:104.0 2:107.0 3:88.0 4:107.0 5:114.0 6:117.0 7:78.0 8:85.0 9:68.0 10:111.0 
0.07852795413366954 1:101.0 2:107.0 3:85.0 4:104.0 5:114.0 6:117.0 7:78.0 8:85.0 9:68.0 10:107.0 
0.06876725780220198 1:104.0 2:107.0 3:88.0 4:104.0 5:114.0 6:117.0 7:78.0 8:85.0 9:68.0 10:107.0 
0.08243631346676067 1:107.0 2:107.0 3:88.0 4:104.0 5:114.0 6:120.0 7:81.0 8:85.0 9:68.0 10:104.0 
0.08122931608722606 1:107.0 2:107.0 3:88.0 4:101.0 5:114.0 6:120.0 7:81.0 8:81.0 9:68.0 10:104.0 
0.08266183834186541 1:104.0 2:107.0 3:88.0 4:101.0 5:117.0 6:120.0 7:85.0 8:81.0 9:68.0 10:104.0 
0.08166585767646017 1:104.0 2:107.0 3:88.0 4:104.0 5:117.0 6:124.0 7:85.0 8:81.0 9:68.0 10:101.0 
0.07230950466837449 1:104.0 2:107.0 3:85.0 4:104.0 5:114.0 6:124.0 7:85.0 8:78.0 9:68.0 10:101.0 
0.07513463045130436 1:104.0 2:107.0 3:85.0 4:101.0 5:114.0 6:124.0 7:85.0 8:78.0 9:71.0 10:101.0 
0.0779829956581356 1:101.0 2:107.0 3:88.0 4:104.0 5:117.0 6:124.0 7:85.0 8:75.0 9:71.0 10:104.0 
0.07524288187959416 1:101.0 2:107.0 3:88.0 4:101.0 5:117.0 6:124.0 7:85.0 8:75.0 9:71.0 10:101.0 
0.08727441758073562 1:101.0 2:107.0 3:91.0 4:101.0 5:117.0 6:120.0 7:81.0 8:78.0 9:71.0 10:101.0 
0.08656247012939283 1:104.0 2:111.0 3:91.0 4:98.0 5:117.0 6:120.0 7:81.0 8:78.0 9:71.0 10:101.0 
0.08555318248572724 1:104.0 2:111.0 3:88.0 4:101.0 5:117.0 6:120.0 7:85.0 8:81.0 9:71.0 10:101.0 
0.09059706087233066 1:104.0 2:114.0 3:91.0 4:104.0 5:117.0 6:120.0 7:81.0 8:81.0 9:71.0 10:98.0 
0.07838339669635036 1:104.0 2:114.0 3:91.0 4:107.0 5:120.0 6:117.0 7:88.0 8:78.0 9:68.0 10:101.0 
0.07781397913430782 1:104.0 2:114.0 3:91.0 4:107.0 5:120.0 6:114.0 7:88.0 8:78.0 9:68.0 10:98.0 
0.08135250479421091 1:107.0 2:114.0 3:88.0 4:107.0 5:117.0 6:114.0 7:88.0 8:78.0 9:71.0 10:94.0 
0.07468755644776587 1:107.0 2:114.0 3:88.0 4:107.0 5:120.0 6:114.0 7:88.0 8:78.0 9:75.0 10:94.0 
0.07410436178901336 1:107.0 2:117.0 3:88.0 4:104.0 5:120.0 6:117.0 7:88.0 8:78.0 9:75.0 10:94.0 
0.067808142646484 1:107.0 2:117.0 3:88.0 4:107.0 5:117.0 6:117.0 7:88.0 8:78.0 9:75.0 10:94.0 
0.08777168764913973 1:107.0 2:117.0 3:85.0 4:107.0 5:117.0 6:117.0 7:91.0 8:78.0 9:75.0 10:98.0 
0.08178576208434918 1:107.0 2:114.0 3:88.0 4:107.0 5:114.0 6:114.0 7:88.0 8:81.0 9:75.0 10:98.0 
0.08762820028612522 1:107.0 2:114.0 3:88.0 4:107.0 5:114.0 6:117.0 7:88.0 8:81.0 9:71.0 10:101.0 
0.08834173888080932 1:104.0 2:114.0 3:85.0 4:111.0 5:114.0 6:114.0 7:91.0 8:81.0 9:75.0 10:98.0 
0.07691810820930346 1:107.0 2:111.0 3:88.0 4:107.0 5:111.0 6:111.0 7:91.0 8:81.0 9:75.0 10:98.0 
0.07257342614341887 1:104.0 2:111.0 3:88.0 4:107.0 5:111.0 6:114.0 7:91.0 8:81.0 9:75.0 10:98.0 
0.08861061292110678 1:104.0 2:114.0 3:88.0 4:104.0 5:111.0 6:114.0 7:94.0 8:81.0 9:75.0 10:101.0 
0.09119636622838967 1:104.0 2:117.0 3:88.0 4:104.0 5:114.0 6:124.0 7:94.0 8:85.0 9:75.0 10:101.0 
0.09005919757493774 1:107.0 2:114.0 3:85.0 4:111.0 5:114.0 6:120.0 7:94.0 8:85.0 9:75.0 10:101.0 
0.07601944858079263 1:104.0 2:117.0 3:88.0 4:111.0 5:114.0 6:120.0 7:91.0 8:81.0 9:71.0 10:101.0 
0.07560069003870334 1:107.0 2:117.0 3:88.0 4:111.0 5:114.0 6:120.0 7:94.0 8:81.0 9:71.0 10:101.0 
0.08661845873901658 1:104.0 2:114.0 3:85.0 4:114.0 5:114.0 6:120.0 7:94.0 8:81.0 9:71.0 10:101.0 
0.08801864313586205 1:117.0 2:114.0 3:85.0 4:114.0 5:117.0 6:120.0 7:94.0 8:88.0 9:75.0 10:101.0 
0.0853299586756111 1:117.0 2:114.0 3:81.0 4:111.0 5:114.0 6:117.0 7:91.0 8:88.0 9:75.0 10:104.0 
0.08883572474047308 1:114.0 2:111.0 3:85.0 4:114.0 5:117.0 6:117.0 7:94.0 8:85.0 9:75.0 10:104.0 
0.07717808183573352 1:114.0 2:111.0 3:81.0 4:114.0 5:117.0 6:117.0 7:91.0 8:88.0 9:71.0 10:104.0 
0.08157825667544955 1:114.0 2:111.0 3:78.0 4:114.0 5:117.0 6:117.0 7:88.0 8:88.0 9:71.0 10:101.0 
0.0657266473630076 1:114.0 2:111.0 3:81.0 4:114.0 5:117.0 6:117.0 7:91.0 8:88.0 9:75.0 10:101.0 
0.0689913448870812 1:114.0 2:114.0 3:81.0 4:114.0 5:114.0 6:117.0 7:91.0 8:88.0 9:75.0 10:101.0 
0.06299124710242837 1:111.0 2:114.0 3:81.0 4:111.0 5:117.0 6:117.0 7:94.0 8:91.0 9:75.0 10:101.0 
0.06507654758898773 1:111.0 2:117.0 3:81.0 4:111.0 5:117.0 6:117.0 7:94.0 8:91.0 9:75.0 10:101.0 
0.0883388999730106 1:114.0 2:117.0 3:81.0 4:117.0 5:114.0 6:114.0 7:94.0 8:91.0 9:75.0 10:101.0 
0.08474159032943401 1:117.0 2:114.0 3:81.0 4:117.0 5:117.0 6:117.0 7:94.0 8:91.0 9:75.0 10:101.0 
0.0861112994630931 1:114.0 2:114.0 3:78.0 4:117.0 5:117.0 6:117.0 7:91.0 8:91.0 9:71.0 10:101.0 
0.0909665787907315 1:114.0 2:114.0 3:88.0 4:120.0 5:114.0 6:117.0 7:94.0 8:94.0 9:78.0 10:101.0 
0.0840298443231029 1:111.0 2:117.0 3:88.0 4:117.0 5:114.0 6:124.0 7:94.0 8:94.0 9:78.0 10:101.0 
0.08264339549867572 1:114.0 2:114.0 3:91.0 4:114.0 5:111.0 6:124.0 7:94.0 8:94.0 9:81.0 10:101.0 
0.07696701846012266 1:114.0 2:114.0 3:88.0 4:117.0 5:111.0 6:124.0 7:94.0 8:94.0 9:78.0 10:101.0 
0.08968673038207081 1:111.0 2:111.0 3:91.0 4:117.0 5:111.0 6:120.0 7:94.0 8:91.0 9:81.0 10:101.0 
0.08901435995494567 1:111.0 2:114.0 3:88.0 4:114.0 5:107.0 6:124.0 7:94.0 8:94.0 9:78.0 10:104.0 
0.08722265538355167 1:107.0 2:114.0 3:85.0 4:117.0 5:111.0 6:124.0 7:91.0 8:94.0 9:78.0 10:104.0 
0.08586793569468765 1:111.0 2:111.0 3:85.0 4:117.0 5:111.0 6:124.0 7:94.0 8:94.0 9:81.0 10:104.0 
0.08753016180895434 1:111.0 2:111.0 3:88.0 4:114.0 5:117.0 6:120.0 7:91.0 8:94.0 9:81.0 10:101.0 
0.07060224333279075 1:111.0 2:107.0 3:91.0 4:120.0 5:114.0 6:120.0 7:88.0 8:91.0 9:81.0 10:101.0 
0.0815631292831297 1:107.0 2:107.0 3:91.0 4:120.0 5:117.0 6:117.0 7:88.0 8:91.0 9:81.0 10:101.0 
0.07025321376682275 1:111.0 2:107.0 3:91.0 4:117.0 5:117.0 6:120.0 7:88.0 8:91.0 9:81.0 10:101.0 
0.07426136583226667 1:107.0 2:107.0 3:91.0 4:117.0 5:114.0 6:120.0 7:88.0 8:91.0 9:81.0 10:101.0 
0.07806350779562582 1:104.0 2:114.0 3:88.0 4:114.0 5:114.0 6:117.0 7:88.0 8:94.0 9:78.0 10:104.0 
0.07675883171126213 1:107.0 2:114.0 3:88.0 4:114.0 5:114.0 6:120.0 7:88.0 8:94.0 9:78.0 10:104.0 
0.09121162752465178 1:111.0 2:111.0 3:91.0 4:111.0 5:111.0 6:117.0 7:88.0 8:94.0 9:81.0 10:107.0 
0.08910600963614768 1:117.0 2:111.0 3:91.0 4:117.0 5:111.0 6:120.0 7:91.0 8:94.0 9:81.0 10:104.0 
0.09041149099235263 1:117.0 2:111.0 3:88.0 4:114.0 5:114.0 6:120.0 7:88.0 8:91.0 9:78.0 10:104.0 
0.09045945337541567 1:114.0 2:114.0 3:91.0 4:111.0 5:117.0 6:124.0 7:88.0 8:91.0 9:78.0 10:104.0 
0.08626215297333673 1:114.0 2:111.0 3:91.0 4:114.0 5:114.0 6:124.0 7:91.0 8:94.0 9:81.0 10:104.0 
0.08641091469611639 1:114.0 2:114.0 3:85.0 4:117.0 5:114.0 6:124.0 7:94.0 8:94.0 9:81.0 10:107.0 
0.08843255117002191 1:114.0 2:117.0 3:85.0 4:117.0 5:117.0 6:124.0 7:94.0 8:91.0 9:78.0 10:107.0 
0.08762679020325848 1:111.0 2:114.0 3:88.0 4:114.0 5:117.0 6:120.0 7:94.0 8:94.0 9:78.0 10:104.0 
0.09020101418169085 1:107.0 2:117.0 3:85.0 4:120.0 5:114.0 6:124.0 7:94.0 8:91.0 9:78.0 10:104.0 
0.09036063812022993 1:107.0 2:117.0 3:88.0 4:117.0 5:117.0 6:120.0 7:91.0 8:94.0 9:75.0 10:101.0 
0.0898534346551278 1:104.0 2:114.0 3:85.0 4:117.0 5:114.0 6:120.0 7:91.0 8:94.0 9:81.0 10:101.0 
0.07814082736520782 1:107.0 2:114.0 3:81.0 4:117.0 5:114.0 6:120.0 7:91.0 8:94.0 9:81.0 10:107.0 
0.07761781635324161 1:107.0 2:114.0 3:81.0 4:114.0 5:114.0 6:120.0 7:91.0 8:94.0 9:78.0 10:107.0 
0.08930554444090505 1:107.0 2:120.0 3:85.0 4:114.0 5:114.0 6:120.0 7:94.0 8:94.0 9:81.0 10:107.0 
0.08994329600323814 1:104.0 2:117.0 3:85.0 4:117.0 5:117.0 6:120.0 7:91.0 8:94.0 9:78.0 10:111.0 
0.0843244137085058 1:107.0 2:120.0 3:85.0 4:114.0 5:114.0 6:117.0 7:91.0 8:98.0 9:78.0 10:107.0 
0.0848271790720625 1:107.0 2:120.0 3:85.0 4:117.0 5:117.0 6:117.0 7:91.0 8:98.0 9:81.0 10:107.0 
0.08422279110360487 1:104.0 2:117.0 3:85.0 4:124.0 5:117.0 6:117.0 7:91.0 8:98.0 9:78.0 10:107.0 
0.08425636833672351 1:107.0 2:117.0 3:81.0 4:124.0 5:117.0 6:117.0 7:91.0 8:98.0 9:78.0 10:107.0 
0.09081412121354748 1:107.0 2:114.0 3:81.0 4:120.0 5:114.0 6:117.0 7:94.0 8:94.0 9:75.0 10:111.0 
0.09116457699598651 1:111.0 2:117.0 3:88.0 4:124.0 5:117.0 6:120.0 7:91.0 8:98.0 9:75.0 10:107.0 
0.08881911162468459 1:107.0 2:117.0 3:88.0 4:120.0 5:114.0 6:120.0 7:91.0 8:94.0 9:75.0 10:111.0 
0.0905093805176656 1:107.0 2:114.0 3:85.0 4:117.0 5:117.0 6:117.0 7:91.0 8:94.0 9:71.0 10:111.0 
0.08988261622019866 1:104.0 2:114.0 3:88.0 4:120.0 5:117.0 6:117.0 7:88.0 8:91.0 9:75.0 10:111.0 
0.07793594458402398 1:104.0 2:117.0 3:88.0 4:120.0 5:114.0 6:114.0 7:88.0 8:94.0 9:78.0 10:111.0 
0.08575870053461476 1:107.0 2:117.0 3:85.0 4:124.0 5:114.0 6:114.0 7:88.0 8:91.0 9:78.0 10:111.0 
0.06654594823990943 1:107.0 2:117.0 3:88.0 4:120.0 5:111.0 6:114.0 7:88.0 8:94.0 9:78.0 10:111.0 
0.07962061071488719 1:111.0 2:117.0 3:88.0 4:120.0 5:111.0 6:117.0 7:88.0 8:94.0 9:78.0 10:111.0 
0.0748616673496 1:111.0 2:117.0 3:88.0 4:120.0 5:111.0 6:114.0 7:88.0 8:91.0 9:75.0 10:111.0 
0.08494386360779688 1:111.0 2:114.0 3:88.0 4:117.0 5:114.0 6:114.0 7:88.0 8:91.0 9:75.0 10:111.0 
0.08322216043859659 1:107.0 2:114.0 3:88.0 4:124.0 5:111.0 6:114.0 7:88.0 8:91.0 9:75.0 10:111.0 
0.0840323741358841 1:111.0 2:114.0 3:88.0 4:124.0 5:114.0 6:114.0 7:85.0 8:91.0 9:75.0 10:111.0 
0.07493549648930295 1:111.0 2:114.0 3:85.0 4:124.0 5:114.0 6:114.0 7:88.0 8:91.0 9:71.0 10:111.0 
0.07759184015297793 1:114.0 2:114.0 3:85.0 4:127.0 5:111.0 6:114.0 7:88.0 8:91.0 9:71.0 10:111.0 
0.08136540664779918 1:111.0 2:117.0 3:85.0 4:127.0 5:111.0 6:114.0 7:88.0 8:88.0 9:71.0 10:111.0 
0.08941759816464717 1:111.0 2:117.0 3:85.0 4:127.0 5:107.0 6:111.0 7:85.0 8:91.0 9:71.0 10:111.0 
0.08238529457799515 1:111.0 2:114.0 3:85.0 4:127.0 5:114.0 6:111.0 7:88.0 8:91.0 9:68.0 10:111.0 
0.08673996761713915 1:111.0 2:117.0 3:81.0 4:127.0 5:114.0 6:111.0 7:88.0 8:88.0 9:68.0 10:107.0 
0.08723742227687875 1:107.0 2:114.0 3:81.0 4:127.0 5:111.0 6:111.0 7:88.0 8:88.0 9:68.0 10:107.0 
0.08952624076204507 1:111.0 2:120.0 3:81.0 4:127.0 5:111.0 6:111.0 7:85.0 8:91.0 9:65.0 10:107.0 
0.0891850189541517 1:107.0 2:117.0 3:81.0 4:127.0 5:111.0 6:107.0 7:85.0 8:88.0 9:65.0 10:107.0 
0.09113064986889063 1:107.0 2:120.0 3:81.0 4:124.0 5:107.0 6:114.0 7:81.0 8:91.0 9:65.0 10:107.0 
0.06478472011172187 1:107.0 2:120.0 3:88.0 4:124.0 5:107.0 6:114.0 7:81.0 8:91.0 9:68.0 10:107.0 
0.04917533829776227 1:107.0 2:120.0 3:88.0 4:124.0 5:107.0 6:111.0 7:81.0 8:91.0 9:68.0 10:107.0 
0.07690939780299767 1:107.0 2:120.0 3:88.0 4:127.0 5:104.0 6:111.0 7:81.0 8:91.0 9:68.0 10:107.0 
0.08414308131540565 1:107.0 2:117.0 3:88.0 4:127.0 5:104.0 6:107.0 7:81.0 8:91.0 9:68.0 10:111.0 
0.08829971561705711 1:107.0 2:120.0 3:88.0 4:127.0 5:111.0 6:107.0 7:81.0 8:91.0 9:65.0 10:111.0 
0.08173486113259776 1:104.0 2:117.0 3:88.0 4:124.0 5:107.0 6:107.0 7:81.0 8:91.0 9:68.0 10:111.0 
0.08667950170225547 1:107.0 2:117.0 3:88.0 4:124.0 5:111.0 6:111.0 7:81.0 8:91.0 9:68.0 10:111.0 
0.08813932112713684 1:104.0 2:117.0 3:88.0 4:124.0 5:111.0 6:107.0 7:85.0 8:91.0 9:65.0 10:111.0 
0.0637941125254679 1:104.0 2:120.0 3:88.0 4:120.0 5:107.0 6:114.0 7:85.0 8:91.0 9:65.0 10:111.0 
0.08989629050720782 1:104.0 2:117.0 3:88.0 4:117.0 5:111.0 6:117.0 7:85.0 8:91.0 9:65.0 10:111.0 
0.06286548108780896 1:107.0 2:120.0 3:88.0 4:120.0 5:107.0 6:114.0 7:85.0 8:91.0 9:65.0 10:111.0 
0.08473056537861856 1:107.0 2:117.0 3:88.0 4:120.0 5:107.0 6:114.0 7:85.0 8:88.0 9:62.0 10:107.0 
0.08579158564405573 1:107.0 2:117.0 3:88.0 4:117.0 5:107.0 6:111.0 7:88.0 8:88.0 9:65.0 10:107.0 
0.08589801518162571 1:111.0 2:117.0 3:88.0 4:120.0 5:107.0 6:111.0 7:85.0 8:88.0 9:65.0 10:107.0 
0.08949466591022198 1:111.0 2:107.0 3:88.0 4:120.0 5:104.0 6:114.0 7:85.0 8:85.0 9:62.0 10:107.0 
0.07646807542185602 1:107.0 2:107.0 3:88.0 4:117.0 5:107.0 6:114.0 7:81.0 8:88.0 9:62.0 10:107.0 
0.07759912991841145 1:107.0 2:107.0 3:88.0 4:117.0 5:107.0 6:111.0 7:81.0 8:85.0 9:62.0 10:107.0 
0.07596565987550025 1:107.0 2:104.0 3:88.0 4:117.0 5:104.0 6:117.0 7:85.0 8:88.0 9:62.0 10:111.0 
0.05747152919398424 1:107.0 2:107.0 3:88.0 4:117.0 5:104.0 6:114.0 7:85.0 8:88.0 9:62.0 10:111.0 
0.08184861283524103 1:107.0 2:107.0 3:88.0 4:117.0 5:104.0 6:114.0 7:85.0 8:85.0 9:58.0 10:111.0 
0.08936750340218874 1:114.0 2:107.0 3:91.0 4:120.0 5:101.0 6:114.0 7:88.0 8:88.0 9:62.0 10:111.0 
0.08743659943626093 1:111.0 2:104.0 3:91.0 4:117.0 5:104.0 6:114.0 7:88.0 8:85.0 9:62.0 10:111.0 
0.08611704743847103 1:111.0 2:107.0 3:88.0 4:117.0 5:104.0 6:111.0 7:88.0 8:88.0 9:65.0 10:111.0 
0.07813895623330895 1:111.0 2:107.0 3:88.0 4:117.0 5:104.0 6:114.0 7:85.0 8:88.0 9:62.0 10:114.0 
0.08601270005146677 1:107.0 2:107.0 3:88.0 4:120.0 5:104.0 6:111.0 7:85.0 8:85.0 9:65.0 10:114.0 
0.06511415047349023 1:107.0 2:107.0 3:88.0 4:117.0 5:107.0 6:111.0 7:81.0 8:85.0 9:65.0 10:114.0 
0.07836985983056904 1:107.0 2:107.0 3:88.0 4:120.0 5:107.0 6:111.0 7:81.0 8:88.0 9:62.0 10:114.0 
0.09117216530250044 1:111.0 2:104.0 3:88.0 4:120.0 5:107.0 6:107.0 7:78.0 8:85.0 9:62.0 10:111.0 
0.07742847029309755 1:107.0 2:107.0 3:88.0 4:117.0 5:107.0 6:114.0 7:78.0 8:85.0 9:65.0 10:114.0 
0.07858719518423501 1:107.0 2:104.0 3:88.0 4:117.0 5:104.0 6:114.0 7:81.0 8:88.0 9:62.0 10:114.0 
0.08312448801560664 1:107.0 2:107.0 3:88.0 4:117.0 5:107.0 6:114.0 7:81.0 8:91.0 9:65.0 10:114.0 
0.08396689271371949 1:111.0 2:107.0 3:88.0 4:114.0 5:107.0 6:111.0 7:81.0 8:88.0 9:65.0 10:114.0 
0.08764572552553962 1:111.0 2:104.0 3:88.0 4:114.0 5:104.0 6:111.0 7:81.0 8:91.0 9:65.0 10:117.0 
0.0762032054582315 1:111.0 2:107.0 3:88.0 4:117.0 5:104.0 6:107.0 7:81.0 8:91.0 9:62.0 10:120.0 
0.0775853463242207 1:114.0 2:107.0 3:88.0 4:117.0 5:104.0 6:107.0 7:78.0 8:88.0 9:65.0 10:120.0 
0.07208741758239129 1:111.0 2:107.0 3:88.0 4:117.0 5:104.0 6:107.0 7:78.0 8:88.0 9:62.0 10:117.0 
0.09041658936231023 1:111.0 2:107.0 3:91.0 4:120.0 5:101.0 6:104.0 7:78.0 8:85.0 9:58.0 10:117.0 
0.08033578311949846 1:111.0 2:107.0 3:91.0 4:120.0 5:104.0 6:107.0 7:78.0 8:88.0 9:62.0 10:120.0 
0.07165404638452127 1:114.0 2:104.0 3:88.0 4:117.0 5:104.0 6:107.0 7:81.0 8:88.0 9:62.0 10:120.0 
0.09034426044437266 1:111.0 2:104.0 3:85.0 4:117.0 5:101.0 6:104.0 7:78.0 8:88.0 9:58.0 10:117.0 
0.07090723725934944 1:111.0 2:101.0 3:88.0 4:117.0 5:104.0 6:104.0 7:81.0 8:88.0 9:62.0 10:120.0 
0.075664276012613 1:111.0 2:101.0 3:88.0 4:117.0 5:104.0 6:104.0 7:85.0 8:88.0 9:62.0 10:120.0 
0.09145065598551183 1:111.0 2:114.0 3:88.0 4:117.0 5:101.0 6:107.0 7:88.0 8:91.0 9:58.0 10:120.0 
0.0898054570514274 1:114.0 2:107.0 3:88.0 4:117.0 5:101.0 6:107.0 7:85.0 8:88.0 9:58.0 10:117.0 
0.08637168119594824 1:111.0 2:104.0 3:88.0 4:117.0 5:98.0 6:107.0 7:88.0 8:88.0 9:62.0 10:117.0 
0.08419526998331922 1:111.0 2:104.0 3:88.0 4:117.0 5:98.0 6:104.0 7:88.0 8:85.0 9:58.0 10:120.0 
0.08185450846013687 1:111.0 2:104.0 3:85.0 4:117.0 5:98.0 6:107.0 7:88.0 8:88.0 9:58.0 10:120.0 
0.09074387898786318 1:107.0 2:101.0 3:88.0 4:120.0 5:101.0 6:107.0 7:88.0 8:88.0 9:58.0 10:120.0 
0.08812613581146339 1:104.0 2:101.0 3:88.0 4:124.0 5:98.0 6:104.0 7:88.0 8:85.0 9:55.0 10:117.0 
0.0843382247729344 1:101.0 2:104.0 3:88.0 4:124.0 5:101.0 6:104.0 7:85.0 8:85.0 9:58.0 10:117.0 
0.08468891917941196 1:101.0 2:104.0 3:85.0 4:124.0 5:101.0 6:104.0 7:85.0 8:85.0 9:55.0 10:114.0 
0.08802642374973096 1:104.0 2:101.0 3:88.0 4:120.0 5:98.0 6:107.0 7:85.0 8:85.0 9:52.0 10:117.0 
0.0861917942683425 1:107.0 2:104.0 3:88.0 4:120.0 5:98.0 6:107.0 7:85.0 8:81.0 9:52.0 10:114.0 
0.08406376413996253 1:107.0 2:101.0 3:88.0 4:124.0 5:101.0 6:107.0 7:85.0 8:81.0 9:52.0 10:117.0 
0.08229263618804333 1:107.0 2:104.0 3:88.0 4:124.0 5:98.0 6:104.0 7:85.0 8:81.0 9:52.0 10:117.0 
0.09013535473287476 1:104.0 2:104.0 3:88.0 4:120.0 5:104.0 6:104.0 7:88.0 8:85.0 9:52.0 10:114.0 
0.09022096081079778 1:104.0 2:107.0 3:88.0 4:124.0 5:104.0 6:107.0 7:88.0 8:88.0 9:55.0 10:114.0 
0.08642811976559203 1:107.0 2:107.0 3:88.0 4:120.0 5:107.0 6:111.0 7:85.0 8:85.0 9:55.0 10:111.0 
0.08905346043297874 1:107.0 2:107.0 3:88.0 4:117.0 5:104.0 6:107.0 7:85.0 8:85.0 9:55.0 10:114.0 
0.08803294513540816 1:107.0 2:111.0 3:91.0 4:120.0 5:107.0 6:111.0 7:88.0 8:85.0 9:55.0 10:114.0 
0.08777511637303936 1:107.0 2:111.0 3:91.0 4:124.0 5:104.0 6:111.0 7:91.0 8:85.0 9:55.0 10:111.0 
0.08697905134324396 1:107.0 2:111.0 3:88.0 4:124.0 5:101.0 6:111.0 7:88.0 8:81.0 9:55.0 10:111.0 
0.08626975859428465 1:111.0 2:111.0 3:91.0 4:124.0 5:101.0 6:111.0 7:91.0 8:81.0 9:55.0 10:111.0 
0.09019428177032579 1:111.0 2:111.0 3:94.0 4:124.0 5:101.0 6:107.0 7:91.0 8:78.0 9:55.0 10:107.0 
0.09078123961824003 1:111.0 2:111.0 3:94.0 4:120.0 5:104.0 6:107.0 7:88.0 8:81.0 9:58.0 10:107.0 
0.09034375959043511 1:104.0 2:111.0 3:91.0 4:120.0 5:104.0 6:107.0 7:88.0 8:81.0 9:55.0 10:114.0 
0.08534462975100107 1:104.0 2:111.0 3:94.0 4:127.0 5:107.0 6:107.0 7:85.0 8:81.0 9:55.0 10:117.0 
0.08992096383841491 1:104.0 2:107.0 3:91.0 4:127.0 5:107.0 6:104.0 7:85.0 8:81.0 9:55.0 10:114.0 
0.09108031361635771 1:104.0 2:107.0 3:91.0 4:124.0 5:107.0 6:107.0 7:85.0 8:85.0 9:55.0 10:120.0 
0.07673225191733722 1:104.0 2:107.0 3:91.0 4:127.0 5:114.0 6:107.0 7:81.0 8:85.0 9:55.0 10:117.0 
0.08994409749978094 1:107.0 2:107.0 3:91.0 4:124.0 5:114.0 6:107.0 7:85.0 8:85.0 9:58.0 10:117.0 
0.09070311115882534 1:104.0 2:111.0 3:91.0 4:124.0 5:114.0 6:111.0 7:85.0 8:81.0 9:58.0 10:117.0 
0.08439674944004832 1:107.0 2:111.0 3:88.0 4:124.0 5:111.0 6:111.0 7:81.0 8:85.0 9:62.0 10:117.0 
0.06465008956838253 1:104.0 2:111.0 3:88.0 4:127.0 5:114.0 6:111.0 7:78.0 8:85.0 9:58.0 10:117.0 
0.07121135484050455 1:107.0 2:111.0 3:88.0 4:127.0 5:111.0 6:111.0 7:81.0 8:85.0 9:58.0 10:117.0 
0.09133484359380514 1:104.0 2:107.0 3:88.0 4:127.0 5:107.0 6:107.0 7:78.0 8:81.0 9:58.0 10:117.0 
0.0831220145485011 1:104.0 2:107.0 3:91.0 4:130.0 5:114.0 6:107.0 7:78.0 8:85.0 9:58.0 10:117.0 
0.0750833336606142 1:107.0 2:107.0 3:88.0 4:127.0 5:114.0 6:111.0 7:78.0 8:85.0 9:58.0 10:117.0 
0.03320869905785812 1:107.0 2:111.0 3:88.0 4:127.0 5:114.0 6:111.0 7:78.0 8:85.0 9:58.0 10:117.0 
0.08835883171720416 1:107.0 2:114.0 3:88.0 4:127.0 5:117.0 6:107.0 7:78.0 8:85.0 9:58.0 10:117.0 
0.08361413953276825 1:107.0 2:114.0 3:91.0 4:124.0 5:117.0 6:107.0 7:78.0 8:81.0 9:55.0 10:117.0 
0.0844783425523675 1:107.0 2:111.0 3:91.0 4:120.0 5:114.0 6:107.0 7:78.0 8:81.0 9:55.0 10:120.0 
0.07552832024566464 1:107.0 2:111.0 3:91.0 4:124.0 5:117.0 6:104.0 7:78.0 8:81.0 9:55.0 10:120.0 
0.08646585353464048 1:104.0 2:107.0 3:91.0 4:124.0 5:117.0 6:104.0 7:75.0 8:81.0 9:55.0 10:120.0 
0.07858895564143487 1:104.0 2:111.0 3:94.0 4:127.0 5:114.0 6:104.0 7:78.0 8:81.0 9:55.0 10:117.0 
0.07606017762141551 1:107.0 2:107.0 3:91.0 4:124.0 5:114.0 6:107.0 7:78.0 8:81.0 9:55.0 10:120.0 
0.08068889652036554 1:107.0 2:107.0 3:94.0 4:127.0 5:114.0 6:107.0 7:81.0 8:81.0 9:55.0 10:120.0 
0.08355428125319087 1:104.0 2:107.0 3:94.0 4:124.0 5:117.0 6:107.0 7:81.0 8:85.0 9:55.0 10:120.0 
0.08836277731011705 1:107.0 2:107.0 3:98.0 4:127.0 5:114.0 6:104.0 7:81.0 8:85.0 9:55.0 10:120.0 
0.07891710421948889 1:104.0 2:111.0 3:94.0 4:127.0 5:117.0 6:104.0 7:81.0 8:85.0 9:55.0 10:120.0 
0.0787228785373914 1:101.0 2:111.0 3:98.0 4:127.0 5:117.0 6:104.0 7:78.0 8:85.0 9:55.0 10:120.0 
0.0791277777486063 1:101.0 2:111.0 3:98.0 4:127.0 5:114.0 6:104.0 7:78.0 8:81.0 9:55.0 10:120.0 
0.05801863283388803 1:104.0 2:111.0 3:94.0 4:127.0 5:114.0 6:107.0 7:78.0 8:85.0 9:55.0 10:117.0 
0.07108876255494112 1:101.0 2:111.0 3:94.0 4:127.0 5:114.0 6:107.0 7:78.0 8:85.0 9:55.0 10:120.0 
0.06626958851052986 1:107.0 2:111.0 3:94.0 4:127.0 5:111.0 6:107.0 7:78.0 8:85.0 9:55.0 10:120.0 
0.06376901304698385 1:104.0 2:111.0 3:98.0 4:130.0 5:111.0 6:104.0 7:78.0 8:85.0 9:55.0 10:120.0 
0.05816963080920784 1:104.0 2:111.0 3:98.0 4:130.0 5:111.0 6:107.0 7:78.0 8:85.0 9:55.0 10:120.0 
0.09013689441087441 1:107.0 2:111.0 3:101.0 4:130.0 5:107.0 6:111.0 7:78.0 8:85.0 9:55.0 10:120.0 
0.0889273610338292 1:107.0 2:111.0 3:98.0 4:134.0 5:111.0 6:111.0 7:78.0 8:81.0 9:55.0 10:120.0 
0.0848808449486878 1:101.0 2:111.0 3:98.0 4:130.0 5:107.0 6:111.0 7:78.0 8:81.0 9:55.0 10:117.0 
0.0644210830238619 1:101.0 2:111.0 3:98.0 4:130.0 5:111.0 6:111.0 7:75.0 8:81.0 9:55.0 10:120.0 
0.07592416873603391 1:101.0 2:111.0 3:98.0 4:130.0 5:114.0 6:111.0 7:75.0 8:81.0 9:55.0 10:117.0 
0.08551134021981649 1:104.0 2:114.0 3:94.0 4:130.0 5:114.0 6:114.0 7:75.0 8:81.0 9:55.0 10:120.0 
0.080657955170778 1:101.0 2:114.0 3:98.0 4:127.0 5:111.0 6:114.0 7:75.0 8:78.0 9:55.0 10:120.0 
0.07574031234775436 1:104.0 2:111.0 3:98.0 4:127.0 5:111.0 6:114.0 7:75.0 8:81.0 9:55.0 10:120.0 
0.08553936629799998 1:104.0 2:114.0 3:94.0 4:134.0 5:111.0 6:114.0 7:78.0 8:81.0 9:55.0 10:120.0 
0.07570958040437825 1:104.0 2:114.0 3:98.0 4:130.0 5:111.0 6:114.0 7:78.0 8:81.0 9:55.0 10:117.0 
0.07042980802587279 1:101.0 2:114.0 3:98.0 4:127.0 5:111.0 6:111.0 7:78.0 8:81.0 9:55.0 10:117.0 
0.054772737757828434 1:104.0 2:114.0 3:98.0 4:127.0 5:111.0 6:111.0 7:81.0 8:81.0 9:55.0 10:120.0 
0.06554167367000069 1:104.0 2:114.0 3:101.0 4:127.0 5:111.0 6:111.0 7:81.0 8:81.0 9:55.0 10:120.0 
0.0817216205589994 1:104.0 2:114.0 3:91.0 4:127.0 5:107.0 6:111.0 7:81.0 8:81.0 9:52.0 10:117.0 
0.07850226997576382 1:104.0 2:114.0 3:94.0 4:127.0 5:107.0 6:107.0 7:81.0 8:81.0 9:52.0 10:117.0 
0.0829522329835164 1:104.0 2:114.0 3:98.0 4:127.0 5:107.0 6:111.0 7:81.0 8:85.0 9:52.0 10:117.0 
0.07319652937299803 1:104.0 2:114.0 3:94.0 4:124.0 5:107.0 6:111.0 7:81.0 8:85.0 9:52.0 10:117.0 
0.08645029746760974 1:104.0 2:111.0 3:94.0 4:127.0 5:104.0 6:107.0 7:81.0 8:85.0 9:55.0 10:117.0 
0.07897270012056662 1:104.0 2:111.0 3:94.0 4:124.0 5:111.0 6:111.0 7:81.0 8:85.0 9:55.0 10:120.0 
0.06727162281248872 1:107.0 2:111.0 3:94.0 4:127.0 5:111.0 6:111.0 7:78.0 8:85.0 9:55.0 10:120.0 
0.08165688815662492 1:107.0 2:111.0 3:94.0 4:124.0 5:107.0 6:111.0 7:78.0 8:88.0 9:55.0 10:120.0 
0.07527642195821155 1:104.0 2:111.0 3:94.0 4:124.0 5:107.0 6:111.0 7:81.0 8:88.0 9:55.0 10:117.0 
0.08858266932344866 1:104.0 2:107.0 3:94.0 4:124.0 5:107.0 6:114.0 7:81.0 8:85.0 9:58.0 10:117.0 
0.0813197130746065 1:104.0 2:107.0 3:98.0 4:120.0 5:107.0 6:111.0 7:81.0 8:85.0 9:58.0 10:117.0 
0.0856476606437847 1:107.0 2:107.0 3:98.0 4:120.0 5:111.0 6:107.0 7:81.0 8:85.0 9:58.0 10:117.0 
0.08106807851896447 1:104.0 2:107.0 3:98.0 4:117.0 5:107.0 6:107.0 7:81.0 8:85.0 9:58.0 10:117.0 
0.09078751465377133 1:107.0 2:104.0 3:91.0 4:117.0 5:107.0 6:111.0 7:81.0 8:88.0 9:58.0 10:120.0 
0.08375816322057056 1:104.0 2:104.0 3:94.0 4:124.0 5:111.0 6:107.0 7:78.0 8:88.0 9:58.0 10:120.0 
0.08285739012177734 1:107.0 2:104.0 3:94.0 4:120.0 5:111.0 6:107.0 7:78.0 8:88.0 9:58.0 10:120.0 
0.08335717735594361 1:104.0 2:107.0 3:98.0 4:120.0 5:111.0 6:107.0 7:81.0 8:91.0 9:58.0 10:117.0 
0.05417127880910377 1:104.0 2:107.0 3:98.0 4:120.0 5:107.0 6:107.0 7:81.0 8:91.0 9:58.0 10:120.0 
0.07229011927502593 1:104.0 2:107.0 3:98.0 4:124.0 5:107.0 6:104.0 7:78.0 8:91.0 9:58.0 10:120.0 
0.06461086213080275 1:104.0 2:104.0 3:98.0 4:120.0 5:107.0 6:107.0 7:81.0 8:91.0 9:58.0 10:120.0 
0.07606807243318736 1:101.0 2:107.0 3:98.0 4:124.0 5:104.0 6:104.0 7:78.0 8:91.0 9:58.0 10:120.0 
0.08710724420171512 1:101.0 2:104.0 3:94.0 4:124.0 5:104.0 6:104.0 7:78.0 8:91.0 9:58.0 10:117.0 
0.07626076159564832 1:107.0 2:104.0 3:94.0 4:124.0 5:104.0 6:107.0 7:78.0 8:91.0 9:58.0 10:117.0 
0.07561307530047368 1:107.0 2:107.0 3:98.0 4:127.0 5:104.0 6:104.0 7:78.0 8:91.0 9:58.0 10:117.0 
0.07165456720736701 1:107.0 2:107.0 3:98.0 4:127.0 5:104.0 6:107.0 7:78.0 8:88.0 9:58.0 10:117.0 
0.042925678810079755 1:107.0 2:107.0 3:94.0 4:124.0 5:104.0 6:107.0 7:78.0 8:88.0 9:58.0 10:117.0 
0.06293651371747344 1:107.0 2:107.0 3:94.0 4:124.0 5:104.0 6:107.0 7:78.0 8:88.0 9:58.0 10:114.0 
0.06671508018523073 1:107.0 2:107.0 3:91.0 4:124.0 5:104.0 6:107.0 7:81.0 8:88.0 9:62.0 10:114.0 
0.07555607257389549 1:107.0 2:107.0 3:91.0 4:124.0 5:107.0 6:107.0 7:81.0 8:88.0 9:62.0 10:117.0 
0.0866307276867116 1:107.0 2:107.0 3:94.0 4:127.0 5:104.0 6:107.0 7:85.0 8:88.0 9:62.0 10:117.0 
0.08174782564427907 1:107.0 2:107.0 3:91.0 4:124.0 5:104.0 6:104.0 7:85.0 8:88.0 9:62.0 10:114.0 
0.08968882265138148 1:107.0 2:107.0 3:91.0 4:124.0 5:104.0 6:104.0 7:81.0 8:94.0 9:62.0 10:114.0 
0.0714273913052792 1:107.0 2:111.0 3:94.0 4:120.0 5:104.0 6:107.0 7:81.0 8:91.0 9:65.0 10:117.0 
0.07302362862481693 1:107.0 2:111.0 3:94.0 4:120.0 5:104.0 6:107.0 7:85.0 8:91.0 9:65.0 10:117.0 
0.08397118302920042 1:111.0 2:111.0 3:91.0 4:120.0 5:107.0 6:107.0 7:85.0 8:94.0 9:65.0 10:117.0 
0.061343776395953176 1:111.0 2:111.0 3:94.0 4:120.0 5:104.0 6:107.0 7:81.0 8:94.0 9:65.0 10:120.0 
0.06889814810753753 1:111.0 2:111.0 3:94.0 4:120.0 5:104.0 6:107.0 7:85.0 8:94.0 9:65.0 10:120.0 
0.08849226035727535 1:107.0 2:111.0 3:94.0 4:120.0 5:107.0 6:111.0 7:81.0 8:94.0 9:65.0 10:120.0 
0.028816041081996147 1:111.0 2:111.0 3:94.0 4:124.0 5:104.0 6:107.0 7:78.0 8:94.0 9:65.0 10:117.0 
0.05926474711933716 1:111.0 2:111.0 3:94.0 4:124.0 5:104.0 6:107.0 7:78.0 8:94.0 9:65.0 10:120.0 
