svm_type c_svc
kernel_type rbf
gamma 8
nr_class 2
total_sv 4784
rho 0.440102
label 0 1
nr_sv 2233 2551
SV
2 1:-0.550562 2:-0.626126 3:-0.727483 4:-0.724138 5:-0.676991 6:-0.698113 
2 1:-0.532584 2:-0.490991 3:-0.635104 4:-0.733333 5:-0.654867 6:-0.639413 
2 1:-0.703371 2:-0.644144 3:-0.621247 4:-0.747126 5:-0.734513 6:0.144654 
1.356540825728156 1:0.653933 2:0.121622 3:0.658199 4:-0.126437 5:-0.128319 6:-0.303983 
2 1:0.155056 3:-0.0531178 4:-0.0712644 5:-0.0707965 6:-0.0943396 
2 1:-0.186517 2:-0.0900901 3:0.704388 4:-0.186207 5:-0.163717 6:-0.266247 
0.4490572689724293 1:-0.00224719 2:-0.274775 3:0.630485 4:-0.218391 5:-0.30531 6:-0.354298 
2 1:-0.523596 2:-0.427928 3:0.154734 4:-0.678161 5:-0.778761 6:0.144654 
2 1:0.164045 2:0.671171 3:0.00230947 4:-0.172414 5:-0.274336 6:-0.194969 
2 1:-0.307865 2:-0.0945946 3:-0.187067 4:-0.190805 5:-0.154867 6:-0.274633 
1.092410661079076 1:-0.0606742 2:-0.184685 3:-0.154734 4:-0.328736 5:0.836283 6:0.756813 
2 1:0.226966 2:0.837838 3:0.0946882 4:0.0436782 5:-0.0752212 6:-0.0691824 
2 1:-0.532584 2:-0.531532 3:-0.685912 4:-0.714943 5:-0.668142 6:-0.731656 
2 1:0.878652 2:0.121622 3:0.113164 4:0.0344828 5:0.0309735 6:-0.0859539 
2 1:-0.52809 2:-0.527027 3:-0.602771 4:-0.586207 5:-0.721239 6:-0.69392 
2 1:0.119101 2:0.783784 3:0.0300231 4:-0.0252874 5:-0.0663717 6:-0.174004 
2 1:-0.159551 2:-0.121622 3:-0.145497 4:-0.264368 5:-0.207965 6:-0.266247 
0.0202976829964981 1:-0.0921348 2:-0.0810811 3:-0.205543 4:-0.154023 5:0.853982 6:0.773585 
2 1:-0.0202247 2:-0.13964 3:-0.0161663 4:-0.273563 5:-0.185841 6:-0.232704 
0.6443788917551069 1:-0.546067 2:-0.518018 3:-0.524249 4:-0.829885 5:0.190265 6:0.144654 
2 1:-0.532584 2:-0.599099 3:-0.588915 4:-0.737931 5:-0.70354 6:-0.714885 
1.743592226044196 1:0.680899 2:0.666667 3:0.113164 4:-0.222989 5:-0.199115 6:-0.291405 
2 1:0.667416 2:-0.0585586 3:-0.0854503 4:-0.0942529 5:-0.19469 6:-0.257862 
1.918593434619373 1:0.689888 2:-0.0540541 3:-0.145497 4:-0.0482759 5:-0.159292 6:-0.320755 
2 1:0.00674157 2:-0.0765766 3:0.667436 4:-0.0896552 5:-0.225664 6:-0.232704 
2 1:-0.047191 2:-0.0990991 3:-0.108545 4:-0.177011 5:-0.0840708 6:-0.249476 
2 1:0.622472 2:-0.18018 3:-0.205543 4:-0.241379 5:-0.230088 6:-0.324948 
0.3233907936115107 1:0.626966 2:0.612613 3:0.630485 4:-0.278161 5:-0.287611 6:-0.345912 
1.382962938837656 1:-0.105618 2:0.144144 3:-0.0115473 4:-0.126437 5:0.827434 6:0.748428 
1.978615670081766 1:-0.523596 2:-0.545045 3:-0.524249 4:-0.636782 5:-0.721239 6:-0.72327 
1.606628658953065 1:-0.164045 2:-0.0900901 3:0.122402 4:0.908046 5:-0.247788 6:-0.308176 
2 1:0.011236 2:0.621622 3:-0.113164 4:-0.163218 5:-0.190265 6:-0.333333 
2 1:-0.0202247 2:-0.00900901 3:-0.0808314 4:-0.209195 5:-0.252212 6:0.622642 
2 1:-0.510112 2:-0.599099 3:-0.542725 4:-0.664368 5:-0.690265 6:-0.672956 
2 1:-0.478652 2:-0.653153 3:-0.524249 4:-0.774713 5:-0.69469 6:-0.714885 
1.289308534330117 1:-0.0741573 2:-0.117117 3:0.639723 4:-0.167816 5:-0.309735 6:-0.278826 
1.848295849675211 1:-0.195506 2:-0.144144 3:0.505774 4:-0.333333 5:-0.420354 6:-0.425577 
2 1:-0.0426966 2:-0.162162 3:-0.0993072 4:-0.204598 5:-0.216814 6:-0.278826 
1.364240701592687 1:0.235955 2:0.887387 3:0.0715935 4:-0.0114943 5:0.915929 6:0.832285 
1.561108850640893 1:-0.523596 2:0.148649 3:0.154734 4:-0.714943 5:-0.769912 6:-0.744235 
2 1:-0.0516854 2:-0.121622 3:-0.237875 4:-0.218391 5:-0.19469 6:-0.312369 
2 1:-0.0606742 2:-0.0900901 3:-0.177829 4:-0.273563 5:0.800885 6:-0.303983 
2 1:-0.649438 2:-0.509009 3:-0.741339 4:-0.797701 5:-0.69469 6:-0.710692 
2 1:0.267416 2:0.882883 3:0.0438799 4:0.0666667 5:-0.0575221 6:-0.048218 
0.008265088832622692 1:0.231461 2:0.135135 3:0.773672 4:0.0114943 5:-0.159292 6:-0.127883 
0.5218237617020676 1:-0.537079 2:-0.490991 3:-0.778291 4:-0.710345 5:-0.778761 6:0.144654 
0.3695330911012368 1:-0.591011 2:-0.599099 3:-0.801386 4:-0.848276 5:0.190265 6:0.144654 
2 1:0.81573 2:0.126126 3:0.0438799 4:0.0528736 5:-0.0442478 6:-0.115304 
2 1:0.950562 2:0.243243 3:0.117783 4:0.0804598 5:0.0663717 6:0.0356394 
2 1:-0.541573 2:-0.63964 3:-0.65358 4:-0.751724 5:-0.685841 6:-0.681342 
2 1:-0.0247191 2:-0.0945946 3:-0.13164 4:-0.186207 5:-0.212389 6:-0.24109 
2 1:0.689888 2:-0.0990991 3:-0.0438799 4:-0.0988506 5:-0.154867 6:-0.266247 
0.9080870364671129 1:-0.617978 2:-0.644144 3:-0.598152 4:-0.687356 5:-0.716814 6:-0.740042 
0.0004834116063120973 1:0.164045 2:-0.463964 3:-0.362587 4:-0.811494 5:-0.641593 6:-0.761006 
2 1:0.0337079 2:-0.018018 3:0.00692841 4:-0.158621 5:-0.0973451 6:-0.157233 
2 1:-0.496629 2:-0.504505 3:-0.528868 4:-0.673563 5:-0.699115 6:-0.714885 
0.4497131151627102 1:-0.235955 2:0.472973 3:-0.154734 4:-0.397701 5:-0.40708 6:-0.530398 
0.7648540902865245 1:-0.0741573 2:0.54955 3:-0.205543 4:-0.195402 5:-0.261062 6:-0.404612 
2 1:0.0786517 2:0.0855856 3:0.0300231 4:-0.0988506 5:-0.0619469 6:-0.0943396 
2 1:-0.78427 2:-0.522523 3:-0.584296 4:-0.577011 5:-0.672566 6:-0.802935 
2 1:0.0561798 2:0.657658 3:0.676674 4:-0.112644 5:-0.199115 6:-0.224319 
0.7982736177629353 1:-0.537079 2:-0.495495 3:-0.584296 4:-0.737931 5:-0.792035 6:0.144654 
1.391789489658835 1:0.559551 2:-0.0630631 3:-0.145497 4:-0.342529 5:-0.323009 6:0.513627 
2 1:0.105618 2:0.144144 3:-0.0577367 4:-0.0896552 5:-0.0353982 6:-0.115304 
1.061507638237261 1:0.00224719 2:0.747748 3:0.0254042 4:-0.0666667 5:-0.150442 6:-0.18239 
2 1:0.0921348 2:0.0675676 3:0.117783 4:0.0114943 5:-0.0221239 6:-0.0859539 
0.002209625847732981 1:0.703371 2:0.689189 3:0.709007 4:-0.112644 5:-0.159292 6:-0.266247 
2 1:-0.460674 2:-0.599099 3:-0.510393 4:-0.687356 5:-0.659292 6:-0.727463 
2 1:-0.564045 2:-0.657658 3:-0.658199 4:-0.806897 5:-0.641593 6:-0.781971 
0.587854248344751 1:0.71236 2:0.698198 3:0.0715935 4:-0.0712644 5:-0.150442 6:-0.262055 
2 1:0.0921348 2:0.144144 3:0.0993072 4:0.00229885 5:0.00442478 6:-0.081761 
1.539301432836336 1:0.824719 2:0.810811 3:0.833718 4:-0.0298851 5:-0.0929204 6:-0.136268 
2 1:-0.0921348 2:0.0630631 3:-0.0300231 4:-0.0896552 5:-0.0840708 6:-0.174004 
1.066949415221793 1:0.685393 2:-0.135135 3:-0.0300231 4:-0.190805 5:-0.128319 6:-0.27044 
2 1:0.114607 2:0.0765766 3:-0.0438799 4:-0.181609 5:-0.283186 6:-0.425577 
2 1:-0.559551 2:-0.617117 3:-0.672055 4:-0.627586 5:-0.699115 6:-0.761006 
2 1:-0.568539 2:-0.738739 3:-0.681293 4:-0.691954 5:-0.734513 6:-0.740042 
2 1:-0.141573 2:0.527027 3:-0.140878 4:-0.213793 5:-0.119469 6:-0.132075 
2 1:0.550562 2:-0.130631 3:-0.0993072 4:-0.135632 5:-0.079646 6:-0.140461 
2 1:-0.474157 2:-0.608108 3:-0.547344 4:-0.742529 5:-0.544248 6:-0.651992 
2 1:0.582022 2:-0.175676 3:-0.0993072 4:-0.112644 5:-0.0663717 6:-0.106918 
2 1:0.0741573 2:0.0720721 3:-0.0808314 4:-0.0712644 5:-0.0884956 6:-0.0901468 
2 1:-0.496629 2:-0.608108 3:-0.630485 4:-0.632184 5:-0.557522 6:-0.60587 
2 1:0.0337079 2:0.702703 3:0.0623557 4:0.701149 5:0.132743 6:0.0440252 
2 1:0.622472 2:-0.225225 3:-0.0900693 4:-0.0988506 5:-0.00442478 6:-0.111111 
2 1:-0.451685 2:-0.68018 3:-0.598152 4:-0.613793 5:-0.561947 6:-0.807128 
2 1:0.0292135 2:-0.0675676 3:0.56582 4:-0.213793 5:-0.181416 6:-0.308176 
2 1:0.164045 2:-0.545045 3:-0.56582 4:-0.567816 5:-0.725664 6:-0.719078 
2 1:-0.0606742 2:-0.175676 3:-0.284065 4:-0.177011 5:-0.230088 6:-0.245283 
2 1:-0.474157 2:-0.72973 3:-0.612009 4:-0.641379 5:-0.668142 6:-0.698113 
2 1:-0.582022 2:-0.626126 3:-0.644342 4:-0.622989 5:-0.668142 6:-0.744235 
2 1:0.0247191 2:-0.0810811 3:0.00692841 4:-0.0988506 5:-0.110619 6:-0.0943396 
2 1:-0.617978 2:-0.612613 3:-0.755196 4:-0.71954 5:-0.716814 6:-0.719078 
2 1:-0.0921348 2:-0.225225 3:-0.0669746 4:-0.0436782 5:-0.0707965 6:-0.165618 
2 1:-0.258427 2:-0.0855856 3:0.00692841 4:-0.172414 5:-0.0973451 6:-0.148847 
2 1:-0.532584 2:-0.743243 3:-0.690531 4:-0.714943 5:-0.721239 6:-0.740042 
2 1:0.00224719 2:-0.0135135 3:-0.0254042 4:-0.121839 5:-0.106195 6:-0.165618 
2 1:-0.676404 2:-0.648649 3:-0.584296 4:-0.618391 5:-0.628319 6:-0.727463 
0.9255115021567801 1:0.137079 2:0.13964 3:-0.0577367 4:-0.0298851 5:-0.190265 6:0.740042 
2 1:-0.182022 2:-0.198198 3:-0.214781 4:-0.195402 5:-0.234513 6:-0.287212 
2 1:-0.483146 2:-0.509009 3:-0.575058 4:-0.645977 5:-0.69469 6:-0.727463 
2 1:0.586517 2:-0.0765766 3:-0.034642 4:-0.190805 5:-0.265487 6:-0.291405 
2 1:0.617978 2:-0.00900901 3:-0.0161663 4:-0.195402 5:-0.216814 6:-0.24109 
2 1:-0.150562 2:-0.144144 3:-0.17321 4:-0.232184 5:-0.185841 6:-0.257862 
2 1:-0.249438 2:-0.130631 3:-0.0808314 4:-0.227586 5:-0.176991 6:-0.224319 
2 1:-0.658427 2:-0.666667 3:-0.727483 4:-0.76092 5:-0.707965 6:-0.756813 
2 1:-0.546067 2:-0.707207 3:-0.713626 4:-0.678161 5:-0.668142 6:-0.798742 
2 1:0.0426966 2:-0.108108 3:-0.0115473 4:-0.121839 5:-0.0929204 6:-0.136268 
2 1:0.0337079 2:0.0720721 3:-0.00230947 4:-0.149425 5:-0.039823 6:-0.0985325 
2 1:-0.047191 2:-0.0495495 3:-0.0577367 4:-0.0712644 5:-0.0840708 6:-0.169811 
2 1:-0.591011 2:-0.540541 3:-0.616628 4:-0.678161 5:-0.668142 6:-0.765199 
2 1:0.110112 2:0.0135135 3:-0.0254042 4:-0.177011 5:-0.0575221 6:-0.127883 
2 1:0.321348 2:0.315315 3:0.284065 4:0.278161 5:0.185841 6:0.119497 
2 1:-0.047191 2:-0.112613 3:-0.127021 4:-0.2 5:-0.19469 6:-0.262055 
2 1:0.739326 2:0.0405405 3:0.745958 4:-0.0758621 5:-0.132743 6:-0.203354 
0.502243352819397 1:-0.195506 2:0.490991 3:-0.127021 4:-0.383908 5:-0.362832 6:-0.404612 
2 1:-0.537079 2:-0.599099 3:-0.538106 4:-0.641379 5:-0.659292 6:-0.706499 
2 1:0.213483 2:0.144144 3:-0.0300231 4:0.016092 5:0.0265487 6:-0.0524109 
1.723006642535983 1:-0.573034 2:0.148649 3:-0.385681 4:-0.710345 5:-0.646018 6:-0.710692 
2 1:0.123596 2:-0.0540541 3:-0.117783 4:-0.0850575 5:-0.176991 6:-0.0859539 
2 1:-0.667416 2:-0.662162 3:-0.667436 4:-0.710345 5:-0.69469 6:-0.765199 
2 1:-0.505618 2:-0.518018 3:-0.621247 4:-0.71954 5:-0.663717 6:-0.69392 
0.4187166867829355 1:0.626966 2:-0.126126 3:0.630485 4:-0.177011 5:-0.265487 6:-0.354298 
2 1:-0.119101 2:-0.0540541 3:-0.196305 4:-0.227586 5:-0.225664 6:-0.262055 
2 1:-0.748315 2:-0.698198 3:-0.644342 4:-0.691954 5:-0.654867 6:-0.756813 
2 1:-0.725843 2:-0.698198 3:-0.801386 4:-0.816092 5:0.190265 6:0.144654 
2 1:0.716854 2:0.0585586 3:-0.0900693 4:-0.0804598 5:-0.146018 6:-0.174004 
2 1:-0.483146 2:-0.608108 3:-0.56582 4:-0.710345 5:-0.721239 6:-0.698113 
2 1:-0.577528 2:-0.662162 3:-0.510393 4:-0.664368 5:-0.69469 6:-0.731656 
2 1:-0.442697 2:0.148649 3:-0.598152 4:-0.705747 5:-0.646018 6:-0.794549 
2 1:-0.483146 2:-0.472973 3:-0.551963 4:-0.645977 5:-0.672566 6:-0.735849 
2 1:0.011236 2:0.0720721 3:-0.0623557 4:-0.0574713 5:-0.0752212 6:-0.127883 
2 1:0.00224719 2:0.0900901 3:-0.0207852 4:-0.112644 5:-0.0486726 6:-0.140461 
2 1:0.164045 2:-0.527027 3:-0.561201 4:-0.632184 5:-0.654867 6:-0.719078 
2 1:-0.474157 2:-0.540541 3:-0.376443 4:-0.393103 5:-0.460177 6:-0.589099 
2 1:-0.653933 2:-0.522523 3:-0.510393 4:-0.544828 5:-0.522124 6:-0.660377 
2 1:-0.483146 2:-0.581081 3:-0.635104 4:-0.650575 5:-0.579646 6:-0.559748 
2 1:-0.101124 2:-0.220721 3:0.538106 4:-0.213793 5:-0.0973451 6:-0.224319 
2 1:-0.0651685 2:-0.0495495 3:-0.0946882 4:-0.213793 5:-0.110619 6:-0.157233 
2 1:-0.159551 2:-0.211712 3:-0.163972 4:-0.126437 5:-0.106195 6:-0.148847 
2 1:-0.00674157 2:0.603604 3:0.621247 4:0.6 5:0.637168 6:0.568134 
2 1:-0.496629 2:-0.518018 3:-0.515012 4:-0.6 5:-0.5 6:-0.542977 
2 1:0.0921348 2:0.00900901 3:0.0669746 4:0.517241 5:0.0442478 6:0.492662 
2 1:0.0337079 2:0.788288 3:0.103926 4:0.0666667 5:0.0486726 6:0.127883 
1.275685484402939 1:0.208989 2:0.815315 3:0.145497 4:0.0758621 5:-0.0353982 6:-0.119497 
2 1:-0.370787 2:0.148649 3:0.154734 4:-0.586207 5:-0.429204 6:-0.51782 
2 1:-0.537079 2:-0.666667 3:-0.741339 4:-0.733333 5:-0.70354 6:-0.714885 
2 1:-0.595506 2:-0.554054 3:-0.690531 4:-0.77931 5:-0.668142 6:-0.710692 
2 1:0.12809 2:0.0585586 3:0.0115473 4:-0.0758621 5:-0.00442478 6:-0.106918 
2 1:-0.00224719 2:0.00900901 3:-0.0762125 4:-0.0758621 5:-0.0176991 6:-0.119497 
2 1:-0.667416 2:-0.662162 3:-0.612009 4:-0.618391 5:-0.548673 6:-0.593291 
2 1:-0.101124 2:-0.202703 3:-0.117783 4:-0.177011 5:-0.269912 6:-0.224319 
2 1:-0.52809 2:-0.662162 3:-0.727483 4:-0.724138 5:-0.641593 6:-0.660377 
2 1:-0.469663 2:-0.608108 3:-0.722864 4:-0.747126 5:-0.659292 6:-0.727463 
2 1:-0.519101 2:-0.738739 3:-0.672055 4:-0.756322 5:-0.721239 6:-0.698113 
2 1:0.123596 2:0.0135135 3:0.0993072 4:-0.016092 5:-0.0353982 6:-0.0733753 
2 1:0.141573 2:0.0135135 3:0.0438799 4:0.016092 5:-0.0132743 6:-0.0104822 
2 1:0.0382022 2:0.0045045 3:-0.0254042 4:0.0482759 5:0.0265487 6:-0.12369 
2 1:-0.0876404 2:-0.0945946 3:-0.039261 4:-0.121839 5:-0.0530973 6:-0.169811 
2 1:0.0292135 2:0.0540541 3:0.0531178 4:-0.0712644 5:-0.00442478 6:-0.148847 
2 1:0.685393 2:0.0405405 3:-0.0254042 4:-0.149425 5:-0.106195 6:-0.169811 
2 1:0.119101 2:0.117117 3:0.163972 4:0.112644 5:0.0929204 6:0.144654 
2 1:-0.550562 2:-0.698198 3:-0.593533 4:-0.632184 5:-0.716814 6:-0.752621 
2 1:-0.0247191 2:-0.135135 3:-0.0254042 4:-0.0344828 5:-0.0309735 6:-0.0733753 
2 1:0.0292135 2:0.0315315 3:0.0623557 4:0.149425 5:0.0353982 6:0.0104822 
2 1:0.011236 2:-0.0405405 3:0.0300231 4:-0.0114943 5:0.0309735 6:-0.081761 
2 1:-0.555056 2:-0.779279 3:-0.482679 4:-0.609195 5:-0.566372 6:-0.584906 
2 1:0.0876404 2:0.0855856 3:0.13164 4:0.0850575 5:0.0486726 6:0.0566038 
2 1:-0.649438 2:-0.581081 3:-0.644342 4:-0.710345 5:-0.650442 6:-0.57652 
2 1:0.0651685 2:-0.0045045 3:0.0577367 4:-0.0252874 5:0.0663717 6:-0.0943396 
2 1:-0.550562 2:-0.693694 3:-0.699769 4:-0.691954 5:-0.743363 6:-0.69392 
2 1:-0.101124 2:-0.0225225 3:-0.0762125 4:-0.0298851 5:-0.0486726 6:-0.144654 
1.952259988019046 1:-0.469663 2:0.148649 3:-0.727483 4:-0.682759 5:-0.765487 6:-0.668763 
2 1:-0.74382 2:-0.684685 3:-0.764434 4:-0.678161 5:-0.707965 6:-0.685535 
2 1:0.110112 2:0.0630631 3:0.0762125 4:0.0758621 5:0.0176991 6:-0.119497 
2 1:-0.047191 2:-0.018018 3:-0.0531178 4:-0.0206897 5:-0.0132743 6:-0.119497 
2 1:-0.186517 2:0.0315315 3:-0.0207852 4:-0.00229885 5:-0.0663717 6:-0.140461 
2 1:0.105618 2:0.0135135 3:0.0531178 4:0.00689655 5:-0.0353982 6:-0.0272537 
2 1:-0.492135 2:-0.567568 3:-0.676674 4:-0.696552 5:-0.738938 6:-0.685535 
2 1:0.0247191 2:-0.0675676 3:-0.150115 4:-0.103448 5:-0.10177 6:-0.165618 
2 1:-0.244944 2:-0.108108 3:-0.196305 4:-0.218391 5:-0.181416 6:-0.278826 
2 1:-0.555056 2:0.148649 3:-0.736721 4:-0.747126 5:-0.69469 6:-0.677149 
2 1:-0.622472 2:-0.626126 3:-0.727483 4:-0.774713 5:-0.712389 6:-0.719078 
2 1:0.119101 2:0.045045 3:0.2194 4:-0.00229885 5:-0.0619469 6:-0.0440252 
2 1:0.0966292 2:0.112613 3:0.0900693 4:-0.0666667 5:-0.0176991 6:-0.0691824 
2 1:0.119101 2:0.0675676 3:0.136259 4:0.0114943 5:0.0353982 6:-0.111111 
0.2615254231759426 1:-0.0426966 2:0.702703 3:0.0762125 4:-0.0942529 5:-0.137168 6:-0.224319 
0.5161684993531273 1:0.105618 2:0.0945946 3:0.644342 4:-0.324138 5:-0.20354 6:-0.236897 
0.9290437995477956 1:0.164045 2:-0.608108 3:-0.639723 4:-0.687356 5:-0.730088 6:-0.689727 
2 1:0.217978 2:0.036036 3:0.039261 4:-0.0298851 6:-0.0607966 
2 1:-0.011236 2:-0.036036 3:-0.0531178 4:0.016092 5:-0.0707965 6:-0.132075 
0.1529413089761532 1:-0.649438 2:-0.373874 3:0.154734 4:-0.825287 5:-0.818584 6:-0.735849 
2 1:0.110112 2:0.144144 3:0.0623557 4:0.00229885 5:-0.0221239 6:-0.081761 
2 1:-0.568539 2:0.148649 3:-0.487298 4:-0.664368 5:-0.676991 6:-0.698113 
2 1:0.105618 2:-0.0675676 3:0.0715935 4:0.00689655 5:-0.0132743 6:-0.0314465 
2 1:-0.0202247 2:-0.0585586 3:-0.00230947 4:-0.126437 5:-0.115044 6:-0.207547 
2 1:-0.658427 2:-0.693694 3:-0.69515 4:-0.618391 5:-0.699115 6:-0.790356 
2 1:-0.573034 2:-0.531532 3:-0.796767 4:-0.797701 5:-0.610619 6:-0.752621 
2 1:-0.00224719 2:-0.027027 3:-0.0854503 4:-0.0896552 5:-0.106195 6:-0.102725 
2 1:0.0786517 2:0.0135135 3:0.0254042 4:-0.0574713 5:-0.0752212 6:-0.0943396 
0.6409105215213753 1:-0.694382 2:-0.545045 3:-0.556582 4:-0.857471 5:0.190265 6:-0.849057 
2 1:-0.0202247 2:0.0225225 3:-0.039261 4:-0.0850575 5:-0.0707965 6:-0.174004 
2 1:-0.505618 2:-0.59009 3:-0.672055 4:-0.728736 5:-0.707965 6:-0.72327 
2 1:-0.496629 2:-0.576577 3:-0.538106 4:-0.622989 5:-0.721239 6:-0.727463 
2 1:0.0921348 2:0.130631 3:-0.0438799 4:-0.00229885 5:-0.0575221 6:-0.0146751 
2 1:0.81573 2:0.0045045 3:0.0623557 4:-0.016092 5:-0.110619 6:-0.111111 
2 1:-0.48764 2:-0.585586 3:-0.584296 4:-0.71954 5:-0.734513 6:-0.698113 
0.3481067584705714 1:-0.48764 2:-0.355856 3:0.154734 4:-0.857471 5:-0.70354 6:-0.874214 
2 1:0.0786517 2:0.783784 3:0.163972 4:0.0436782 5:-0.0752212 6:-0.132075 
0.8493164026960499 1:-0.0741573 2:0.545045 3:-0.307159 4:-0.388506 5:-0.331858 6:-0.341719 
2 1:0.0561798 2:0.68018 3:0.699769 4:-0.163218 5:-0.0973451 6:-0.215933 
2 1:-0.191011 2:0.815315 3:0.136259 4:0.016092 5:-0.137168 6:-0.0901468 
0.3434203728633204 1:-0.510112 2:-0.5 3:-0.588915 4:-0.747126 5:-0.676991 6:-0.727463 
0.2484486623935442 1:-0.451685 2:-0.378378 3:-0.533487 4:-0.682759 5:-0.69469 6:-0.702306 
2 1:0.0741573 2:0.117117 3:0.0623557 4:-0.0850575 5:-0.0353982 6:-0.0901468 
2 1:0.694382 2:-0.144144 3:-0.034642 4:-0.108046 5:-0.238938 6:-0.12369 
2 1:-0.447191 2:-0.477477 3:-0.556582 4:-0.577011 5:-0.553097 6:-0.681342 
2 1:0.2 2:0.824324 3:0.00692841 4:-0.00689655 5:0.0840708 6:0.00209644 
2 1:-0.501124 2:-0.378378 3:-0.593533 4:-0.664368 5:-0.610619 6:-0.735849 
2 1:0.164045 2:-0.518018 3:-0.575058 4:-0.622989 5:-0.579646 6:-0.815514 
2 1:-0.577528 2:-0.54955 3:-0.685912 4:-0.811494 5:-0.659292 6:-0.706499 
2 1:0.748315 2:0.0945946 3:0.034642 4:-0.163218 5:-0.0663717 6:-0.203354 
2 1:0.164045 2:-0.5 3:-0.551963 4:-0.622989 5:-0.699115 6:-0.710692 
2 1:0.105618 2:0.617117 3:-0.0254042 4:-0.222989 5:-0.20354 6:-0.245283 
2 1:-0.865169 2:-0.527027 3:-0.667436 4:-0.774713 5:-0.743363 6:-0.69392 
2 1:-0.0247191 2:-0.0720721 3:-0.0669746 4:-0.108046 5:-0.123894 6:-0.148847 
2 1:0.173034 2:-0.00900901 3:-0.0715935 4:0.0712644 5:0.0309735 6:-0.106918 
2 1:0.626966 2:-0.301802 3:-0.159353 4:-0.296552 5:-0.261062 6:-0.249476 
2 1:0.114607 2:0.157658 3:0.13164 4:0.108046 5:0.0132743 6:-0.0440252 
2 1:0.114607 2:-0.0945946 3:-0.0854503 4:-0.121839 5:-0.0840708 6:-0.148847 
2 1:-0.123596 2:-0.0585586 3:-0.0900693 4:-0.2 5:-0.19469 6:-0.203354 
2 1:0.119101 2:-0.22973 3:-0.0900693 4:-0.158621 5:-0.119469 6:0.744235 
1.261094253266614 1:0.164045 2:-0.504505 3:0.154734 4:-0.701149 5:-0.69469 6:-0.706499 
2 1:0.0292135 2:-0.018018 3:-0.0531178 4:-0.103448 5:-0.0265487 6:-0.207547 
2 1:0.182022 2:0.130631 3:0.034642 4:0.00689655 5:0.00884956 6:-0.0272537 
2 1:-0.0516854 2:-0.0810811 3:-0.0808314 4:-0.190805 5:-0.181416 6:-0.165618 
0.6085428834172838 1:-0.182022 2:0.675676 3:-0.034642 4:-0.218391 5:-0.19469 6:-0.253669 
2 1:-0.0202247 2:0.0630631 3:-0.0531178 4:-0.158621 5:-0.123894 6:-0.136268 
2 1:0.0157303 2:0.617117 3:-0.0207852 4:-0.135632 5:-0.0707965 6:-0.161426 
0.7127810493544489 1:0.52809 2:-0.162162 3:-0.279446 4:-0.278161 5:-0.367257 6:-0.412998 
2 1:-0.45618 2:-0.522523 3:-0.65358 4:-0.691954 5:-0.716814 6:-0.677149 
0.3094118121642824 1:-0.469663 2:0.148649 3:-0.662818 4:-0.687356 5:-0.69469 6:-0.744235 
2 1:-0.469663 2:-0.554054 3:-0.65358 4:-0.710345 5:-0.641593 6:-0.769392 
2 1:0.213483 2:-0.0855856 3:0.0993072 4:-0.0206897 5:0.0353982 6:-0.0943396 
2 1:-0.564045 2:-0.59009 3:-0.575058 4:-0.714943 5:-0.650442 6:-0.740042 
2 1:-0.0157303 2:-0.018018 3:-0.0993072 4:-0.172414 5:-0.172566 6:-0.194969 
2 1:-0.653933 2:-0.576577 3:-0.648961 4:-0.65977 5:-0.730088 6:-0.727463 
1.64004908155907 1:-0.406742 2:-0.193694 3:-0.187067 4:-0.213793 5:-0.247788 6:-0.287212 
2 1:0.164045 2:-0.468468 3:-0.699769 4:-0.756322 5:-0.628319 6:-0.685535 
1.111539627398557 1:-0.0561798 2:-0.0765766 3:-0.113164 4:-0.154023 5:-0.20354 6:-0.262055 
2 1:-0.168539 2:-0.027027 3:-0.0946882 4:-0.190805 5:-0.154867 6:-0.232704 
2 1:0.0876404 2:0.112613 3:-0.00230947 4:-0.0666667 5:-0.0353982 6:-0.115304 
2 1:-0.101124 2:0.648649 3:0.00230947 4:-0.213793 5:-0.176991 6:-0.21174 
2 1:-0.626966 2:-0.554054 3:-0.616628 4:-0.765517 5:-0.699115 6:-0.727463 
2 1:-0.0741573 2:-0.0990991 3:-0.224018 4:-0.181609 5:-0.243363 6:-0.194969 
2 1:-0.132584 2:-0.243243 3:-0.17321 4:-0.167816 5:-0.176991 6:-0.24109 
2 1:-0.00674157 2:-0.0900901 3:-0.182448 4:-0.172414 5:-0.190265 6:-0.207547 
2 1:-0.204494 2:-0.103604 3:-0.228637 4:-0.218391 5:-0.216814 6:-0.283019 
2 1:0.123596 2:0.621622 3:-0.210162 4:-0.154023 5:-0.269912 6:-0.291405 
2 1:-0.0202247 2:0.72973 3:-0.0438799 4:-0.126437 5:-0.0486726 6:-0.278826 
2 1:0.793258 2:0.036036 3:0.0531178 4:-0.0528736 5:-0.0619469 6:-0.15304 
0.5442566592788572 1:-0.105618 2:-0.243243 3:-0.182448 4:-0.273563 5:-0.345133 6:-0.220126 
2 1:-0.0561798 2:0.612613 3:-0.13164 4:-0.232184 5:-0.243363 6:-0.291405 
2 1:-0.231461 2:-0.31982 3:-0.237875 4:-0.227586 5:-0.265487 6:-0.295597 
2 1:0.011236 2:-0.211712 3:-0.13164 4:-0.2 5:-0.154867 6:-0.278826 
2 1:-0.123596 2:-0.112613 3:-0.108545 4:-0.236782 5:-0.190265 6:-0.266247 
2 1:-0.164045 2:-0.148649 3:-0.0762125 4:-0.108046 5:-0.141593 6:-0.161426 
2 1:0.2 2:0.117117 3:0.0900693 4:-0.0758621 5:-0.0132743 6:0.00209644 
2 1:-0.626966 2:-0.59009 3:-0.676674 4:-0.627586 5:-0.641593 6:-0.660377 
2 1:-0.047191 2:-0.0135135 3:-0.0577367 4:-0.0988506 5:-0.0752212 6:-0.257862 
2 1:0.00674157 2:-0.018018 3:-0.0115473 4:-0.016092 5:-0.0619469 6:-0.106918 
2 1:-0.608989 2:-0.608108 3:-0.60739 4:-0.668966 5:-0.650442 6:-0.698113 
2 1:-0.474157 2:-0.581081 3:-0.644342 4:-0.682759 5:-0.690265 6:-0.685535 
2 1:-0.595506 2:-0.594595 3:-0.630485 4:-0.765517 5:-0.597345 6:-0.761006 
2 1:-0.137079 2:-0.157658 3:-0.224018 4:-0.14023 5:-0.110619 6:-0.190776 
2 1:-0.0831461 2:-0.0765766 3:-0.196305 4:-0.144828 5:-0.190265 6:-0.136268 
2 1:-0.644944 2:-0.833333 3:-0.736721 4:-0.714943 5:-0.721239 6:-0.710692 
2 1:-0.0292135 3:-0.0993072 4:-0.117241 5:-0.110619 6:-0.194969 
2 1:-0.555056 2:-0.698198 3:-0.662818 4:-0.696552 5:-0.699115 6:-0.748428 
2 1:-0.0382022 2:0.0225225 3:0.00692841 4:-0.213793 5:-0.0663717 6:-0.174004 
2 1:0.680899 2:0.666667 3:0.0161663 4:-0.0390805 5:-0.176991 6:-0.236897 
2 1:-0.604494 2:-0.603604 3:-0.533487 4:-0.636782 5:-0.712389 6:-0.672956 
2 1:-0.6 2:-0.518018 3:-0.718245 4:-0.691954 5:-0.615044 6:-0.706499 
2 1:-0.644944 2:-0.657658 3:-0.625866 4:-0.751724 5:-0.743363 6:-0.706499 
2 1:-0.640449 2:-0.662162 3:-0.690531 4:-0.737931 5:-0.699115 6:-0.756813 
2 1:-0.0337079 2:-0.126126 3:-0.145497 4:-0.241379 5:-0.216814 6:-0.283019 
2 1:-0.110112 2:0.018018 3:-0.187067 4:-0.0942529 5:-0.150442 6:-0.190776 
2 1:-0.761798 2:-0.653153 3:-0.745958 4:-0.788506 5:-0.70354 6:-0.731656 
1.470478610621142 1:-0.114607 2:-0.0810811 3:-0.0762125 4:-0.126437 5:-0.172566 6:-0.274633 
2 1:-0.0696629 2:-0.00900901 3:-0.0161663 4:-0.0114943 5:-0.0132743 6:-0.0775681 
2 1:0.0606742 2:0.0675676 3:-0.00692841 4:0.0252874 5:0.00884956 6:-0.081761 
2 1:0.658427 3:-0.122402 4:-0.144828 5:-0.190265 6:-0.257862 
2 1:0.649438 2:-0.0045045 3:0.00692841 4:-0.213793 5:-0.137168 6:-0.194969 
2 1:0.74382 2:0.0855856 3:-0.0531178 4:-0.126437 5:-0.0176991 6:-0.081761 
2 1:-0.617978 2:-0.657658 3:-0.65358 4:-0.678161 5:-0.628319 6:-0.63522 
2 1:0.00674157 2:-0.0135135 3:-0.136259 4:0.0252874 5:-0.0752212 6:-0.081761 
2 1:0.626966 2:-0.0405405 3:0.00230947 4:-0.0436782 5:-0.0309735 6:-0.0733753 
2 1:0.222472 2:0.711712 3:0.0946882 4:0.710345 5:0.039823 6:0.0272537 
2 1:0.0921348 2:0.0135135 3:-0.00692841 4:0.00689655 5:0.0929204 6:0.0272537 
2 1:0.0426966 2:-0.045045 3:-0.150115 4:-0.131034 5:-0.0132743 6:-0.111111 
2 1:-0.689888 2:-0.815315 3:-0.672055 4:-0.590805 5:-0.579646 6:-0.597484 
2 1:-0.0202247 2:-0.045045 3:-0.0300231 4:0.0666667 5:-0.039823 6:-0.0398323 
2 1:-0.00224719 2:-0.00900901 3:0.528868 4:-0.0712644 5:0.548673 6:0.484277 
2 1:0.191011 2:0.148649 3:0.177829 4:0.181609 5:0.69469 6:0.127883 
2 1:-0.388764 2:-0.536036 3:-0.561201 4:-0.558621 5:-0.433628 6:-0.522013 
2 1:0.011236 2:-0.0540541 3:-0.0854503 4:-0.117241 5:-0.0221239 6:-0.12369 
2 1:0.662921 2:-0.045045 3:-0.177829 4:-0.016092 5:0.0663717 6:0.610063 
2 1:0.173034 2:0.126126 3:0.182448 4:0.177011 5:0.150442 6:0.127883 
2 1:0.0786517 2:0.045045 3:-0.0115473 4:-0.00229885 5:0.0619469 6:0.0356394 
2 1:0.0157303 2:-0.234234 3:-0.108545 4:-0.0804598 5:-0.123894 6:-0.127883 
2 1:-0.0786517 2:-0.157658 3:-0.122402 4:-0.00689655 5:0.0929204 6:-0.0230608 
2 1:-0.779775 2:-0.54955 3:-0.815242 4:-0.595402 5:-0.526549 6:-0.60587 
2 1:0.164045 2:-0.630631 3:-0.759815 4:-0.581609 5:-0.60177 6:-0.656184 
2 1:0.114607 2:0.018018 3:0.0207852 4:-0.0712644 5:-0.0353982 6:-0.12369 
0.643176575819239 1:0.105618 2:-0.00900901 3:-0.0438799 4:-0.0758621 5:0.853982 6:0.773585 
2 1:-0.0247191 2:-0.0765766 3:-0.0254042 4:-0.144828 5:-0.0929204 6:-0.24109 
2 1:0.0292135 2:0.0315315 3:0.0207852 4:-0.112644 5:-0.0884956 6:-0.048218 
2 1:-0.267416 2:-0.0810811 3:-0.17321 4:-0.250575 5:-0.199115 6:-0.253669 
2 1:0.0741573 2:-0.0810811 3:-0.108545 4:-0.167816 5:-0.0619469 6:-0.24109 
2 1:-0.0382022 2:0.0135135 3:0.0438799 4:-0.016092 5:-0.0309735 6:-0.169811 
2 1:-0.0696629 2:-0.027027 3:0.0115473 4:-0.126437 5:-0.00884956 6:-0.236897 
2 1:0.0696629 2:0.743243 3:-0.0207852 4:-0.00229885 5:0.0176991 6:0.00209644 
2 1:-0.231461 2:-0.0630631 3:-0.0715935 4:-0.108046 5:-0.123894 6:0.0104822 
2 1:0.0876404 3:0.0438799 4:-0.0298851 5:0.0840708 6:-0.00628931 
2 1:0.164045 2:-0.117117 3:-0.00692841 4:-0.0344828 5:0.0752212 6:0.0566038 
2 1:-0.0966292 2:0.567568 3:-0.168591 4:-0.121839 5:-0.163717 6:-0.127883 
2 1:0.0202247 2:0.662162 3:-0.108545 4:-0.0298851 5:-0.0530973 6:-0.115304 
2 1:-0.635955 2:-0.554054 3:-0.593533 4:-0.577011 5:-0.597345 6:-0.57652 
2 1:-0.537079 2:-0.522523 3:-0.515012 4:-0.590805 5:-0.610619 6:-0.57652 
2 1:-0.110112 2:-0.0135135 3:0.0300231 4:-0.0758621 5:-0.0486726 6:-0.106918 
2 1:-0.694382 2:-0.621622 3:-0.612009 4:-0.710345 5:-0.743363 6:-0.702306 
2 1:0.0921348 2:0.157658 3:-0.0669746 4:-0.00229885 5:-0.0132743 6:-0.0398323 
2 1:-0.217978 2:-0.0135135 3:-0.0438799 4:-0.126437 5:-0.115044 6:-0.148847 
2 1:0.0337079 2:-0.027027 3:-0.0300231 4:-0.0666667 5:-0.0929204 6:-0.157233 
2 1:-0.0337079 2:0.0045045 3:0.0762125 4:-0.0758621 5:-0.0530973 6:-0.0985325 
2 1:0.0382022 2:-0.121622 3:-0.0946882 4:-0.108046 5:-0.115044 6:-0.215933 
2 1:0.011236 2:0.135135 3:0.00692841 4:-0.0574713 5:-0.0575221 6:-0.0566038 
2 1:0.186517 2:-0.0315315 3:-0.0207852 4:-0.016092 5:0.039823 6:-0.048218 
2 1:0.231461 2:0.148649 3:0.0161663 4:-0.0758621 5:-0.039823 6:-0.00628931 
2 1:-0.469663 2:-0.662162 3:-0.65358 4:-0.705747 5:-0.681416 6:-0.727463 
2 1:-0.573034 2:-0.653153 3:-0.639723 4:-0.710345 5:-0.690265 6:-0.714885 
2 1:0.186517 2:0.0945946 3:0.0715935 4:-0.0114943 5:-0.00442478 6:-0.0649895 
2 1:0.0382022 2:-0.0720721 3:-0.108545 4:-0.144828 5:-0.168142 6:-0.186583 
2 1:-0.00224719 2:0.0315315 3:0.0161663 4:-0.135632 5:-0.123894 6:-0.115304 
2 1:-0.555056 2:0.148649 3:0.154734 4:-0.581609 5:-0.526549 6:-0.748428 
2 1:0.12809 2:0.0855856 3:-0.034642 4:-0.0482759 5:-0.0176991 6:-0.127883 
2 1:0.119101 2:0.0945946 3:0.856813 4:-0.0528736 5:-0.0309735 6:-0.0649895 
0.3432742801219829 1:-0.577528 2:-0.585586 3:-0.575058 4:-0.77931 5:-0.663717 6:-0.752621 
1.542961118504487 1:0.0921348 2:0.274775 3:0.815242 4:-0.0114943 5:-0.110619 6:-0.115304 
2 1:-0.532584 2:-0.5 3:-0.542725 4:-0.673563 5:-0.654867 6:-0.756813 
2 1:0.123596 2:0.797297 3:-0.0115473 4:-0.0574713 5:-0.0530973 6:-0.178197 
0.09214514250279593 1:-0.0606742 2:0.788288 3:0.274827 4:0.0804598 5:-0.172566 6:-0.136268 
0.1774520614588226 1:-0.523596 2:-0.626126 3:0.154734 4:-0.806897 5:-0.79646 6:-0.748428 
0.2691159241354902 1:-0.141573 2:-0.234234 3:-0.13164 4:-0.42069 5:-0.323009 6:-0.54717 
2 1:0.0606742 2:0.0945946 3:-0.0577367 4:-0.0252874 5:-0.0309735 6:-0.12369 
2 1:0.141573 2:0.018018 3:0.0484988 4:-0.0804598 5:0.039823 6:-0.115304 
2 1:0.2 2:0.891892 3:0.26097 4:-0.00689655 5:0.0309735 6:-0.00209644 
2 1:-0.182022 2:-0.0810811 3:-0.0531178 4:-0.0528736 5:-0.0707965 6:-0.0901468 
2 1:0.0426966 2:0.0540541 3:-0.039261 4:-0.0850575 5:-0.0353982 6:-0.136268 
2 1:-0.734831 2:-0.594595 3:-0.681293 4:-0.714943 5:-0.721239 6:-0.740042 
2 1:0.00224719 2:0.0225225 3:-0.0254042 4:-0.0206897 5:-0.0929204 6:-0.15304 
2 1:-0.613483 2:-0.666667 3:-0.575058 4:-0.705747 5:-0.734513 6:0.144654 
2 1:0.0876404 2:0.13964 3:0.039261 4:-0.0528736 5:-0.00884956 6:-0.0859539 
2 1:-0.685393 2:-0.599099 3:-0.722864 4:-0.816092 5:-0.663717 6:-0.761006 
2 1:-0.00224719 2:-0.0585586 3:0.00692841 4:-0.204598 5:0.738938 6:-0.224319 
0.8037502681872909 1:0.164045 2:-0.315315 3:0.154734 4:-0.687356 5:-0.712389 6:-0.740042 
2 1:-0.00224719 2:0.0630631 3:-0.0254042 4:-0.108046 5:-0.0707965 6:-0.161426 
2 1:-0.0426966 2:-0.0990991 3:-0.191686 4:-0.273563 5:-0.292035 6:-0.190776 
0.1126334291220784 1:0.222472 2:0.725225 3:0.745958 4:-0.0850575 5:-0.146018 6:-0.249476 
2 1:0.0921348 2:0.851351 3:0.191686 4:0.0206897 5:0.0176991 6:-0.081761 
2 1:-0.555056 2:-0.779279 3:-0.672055 4:-0.816092 5:-0.668142 6:-0.761006 
2 1:0.0247191 2:0.0855856 3:0.0577367 4:-0.135632 5:-0.0442478 6:-0.0943396 
2 1:-0.0157303 2:-0.252252 3:0.00692841 4:-0.126437 5:-0.163717 6:-0.186583 
2 1:-0.0876404 2:-0.018018 3:-0.0438799 4:-0.144828 5:-0.0884956 6:-0.136268 
2 1:-0.559551 2:-0.518018 3:-0.510393 4:-0.765517 5:-0.672566 6:-0.714885 
2 1:-0.474157 2:-0.594595 3:-0.621247 4:-0.71954 5:-0.69469 6:-0.710692 
2 1:0.0157303 2:-0.121622 3:-0.00692841 4:-0.0850575 5:-0.0707965 6:0.672956 
2 1:-0.101124 2:-0.0495495 3:-0.113164 4:-0.264368 5:-0.265487 6:-0.18239 
0.2440806662033461 1:-0.339326 2:0.148649 3:0.154734 4:-0.802299 5:-0.79646 6:-0.811321 
0.731693764725452 1:0.114607 2:0.045045 3:-0.039261 4:-0.0896552 5:-0.119469 6:0.756813 
1.632209687964058 1:-0.451685 2:0.148649 3:-0.371824 4:-0.701149 5:-0.681416 6:-0.702306 
2 1:-0.0921348 2:-0.108108 3:-0.274827 4:-0.31954 5:-0.283186 6:-0.215933 
2 1:0.0696629 2:0.576577 3:0.0715935 4:-0.121839 5:-0.0265487 6:0.542977 
2 1:-0.110112 2:-0.0405405 3:-0.122402 4:-0.016092 5:0.641593 6:-0.0104822 
2 1:0.114607 2:0.027027 3:0.0300231 4:0.0206897 5:0.0663717 6:0.0272537 
2 1:0.12809 2:0.045045 3:0.0484988 4:-0.0390805 5:-0.00884956 6:-0.00209644 
2 1:0.0786517 2:-0.036036 3:-0.0115473 4:-0.0896552 5:-0.0265487 6:-0.0943396 
2 1:0.0292135 2:0.0315315 3:-0.0484988 4:-0.0206897 5:0.0442478 6:-0.0398323 
2 1:0.613483 2:0.599099 3:0.616628 4:-0.103448 5:-0.00884956 6:-0.0649895 
2 1:0.52809 2:-0.0990991 3:-0.154734 4:-0.167816 5:-0.0884956 6:-0.148847 
2 1:-0.541573 2:-0.59009 3:-0.524249 4:-0.521839 5:-0.486726 6:-0.51782 
2 1:-0.0786517 2:-0.0045045 3:-0.122402 4:-0.0390805 5:-0.0486726 6:-0.224319 
2 1:-0.573034 2:-0.662162 3:-0.709007 4:-0.701149 5:-0.59292 6:-0.643606 
2 1:-0.0741573 2:-0.0765766 3:-0.00692841 4:-0.195402 5:-0.150442 6:-0.165618 
2 1:0.0337079 2:-0.0855856 3:-0.034642 4:-0.0850575 5:-0.154867 6:-0.136268 
0.451347813775092 1:-0.123596 2:-0.22973 3:-0.288684 4:-0.282759 5:-0.20354 6:-0.480084 
2 1:0.047191 2:-0.018018 3:-0.0438799 4:-0.0942529 5:-0.039823 6:-0.0398323 
2 1:0.0921348 2:0.594595 3:0.612009 4:-0.0482759 5:-0.119469 6:-0.161426 
2 1:-0.123596 2:-0.13964 3:-0.242494 4:-0.25977 5:-0.207965 6:-0.316562 
2 1:0.730337 2:0.716216 3:0.00692841 4:-0.0436782 5:-0.0221239 6:-0.144654 
2 1:-0.011236 2:-0.045045 3:-0.127021 4:-0.117241 5:-0.110619 6:-0.236897 
2 1:-0.451685 2:-0.545045 3:-0.542725 4:0.135632 5:-0.429204 6:-0.496855 
2 1:0.608989 2:-0.0495495 3:-0.136259 4:-0.227586 5:-0.168142 6:-0.253669 
2 1:0.0247191 2:-0.0855856 3:0.039261 4:-0.218391 5:-0.128319 6:-0.165618 
2 1:-0.0561798 2:0.0540541 3:0.0623557 4:-0.0804598 5:-0.0442478 6:-0.144654 
2 1:-0.67191 2:-0.693694 3:-0.773672 4:-0.696552 5:-0.761062 6:-0.69392 
2 1:0.047191 2:-0.0045045 3:-0.0531178 4:-0.0666667 5:-0.0752212 6:-0.144654 
2 1:-0.0516854 2:0.747748 3:0.769053 4:0.00229885 5:-0.0442478 6:-0.203354 
2 1:0.011236 2:0.0540541 3:0.0762125 4:0.0482759 5:-0.0265487 6:-0.119497 
2 1:-0.289888 2:-0.0720721 3:-0.0762125 4:-0.149425 5:-0.10177 6:-0.203354 
2 1:-0.141573 2:-0.0675676 3:-0.113164 4:-0.218391 5:-0.137168 6:-0.283019 
2 1:-0.613483 2:-0.617117 3:-0.722864 4:-0.806897 5:-0.663717 6:-0.786164 
0.2216315047792912 1:-0.523596 2:-0.545045 3:0.154734 4:-0.793103 5:-0.765487 6:-0.685535 
2 1:-0.0157303 2:-0.0495495 3:-0.0715935 4:-0.163218 5:-0.185841 6:-0.178197 
2 1:-0.0426966 2:-0.121622 3:-0.145497 4:-0.255172 5:-0.300885 6:0.580713 
2 1:0.00674157 2:0.0135135 3:0.136259 4:-0.0896552 5:-0.154867 6:0.744235 
1.265326109033839 1:0.81573 2:0.801802 3:0.0762125 4:0.0206897 5:-0.154867 6:-0.140461 
1.234788844505983 1:-0.465169 2:-0.576577 3:-0.662818 4:-0.852874 5:-0.681416 6:-0.72327 
2 1:-0.0741573 2:-0.144144 3:-0.196305 4:-0.172414 5:-0.225664 6:-0.295597 
0.6170172083541102 1:-0.510112 2:-0.801802 3:-0.713626 4:-0.816092 5:-0.734513 6:-0.727463 
2 1:0.011236 2:-0.0630631 3:-0.145497 4:-0.117241 5:-0.137168 6:-0.253669 
2 1:-0.662921 2:-0.527027 3:-0.593533 4:-0.678161 5:-0.730088 6:-0.698113 
2 1:0.132584 2:0.797297 3:0.00230947 4:-0.0528736 5:-0.0840708 6:-0.106918 
2 1:-0.604494 2:-0.657658 3:-0.732102 4:-0.811494 5:-0.685841 6:-0.752621 
2 1:-0.0606742 2:-0.135135 3:-0.0207852 4:-0.149425 5:-0.0929204 6:-0.312369 
0.4965236261741919 1:0.537079 2:-0.306306 3:-0.177829 4:-0.397701 5:-0.39823 6:-0.387841 
2 1:-0.00224719 2:0.0585586 3:-0.182448 4:-0.0528736 5:-0.0929204 6:-0.0901468 
2 1:-0.0831461 2:0.117117 3:0.0623557 4:-0.0390805 5:0.00442478 6:-0.178197 
2 1:-0.546067 2:-0.774775 3:-0.672055 4:-0.668966 5:-0.69469 6:-0.698113 
2 1:0.0157303 2:-0.130631 3:-0.163972 4:-0.172414 5:-0.154867 6:-0.174004 
2 1:-0.0606742 2:-0.0900901 3:-0.224018 4:-0.2 5:-0.30531 6:0.622642 
2 1:-0.577528 2:-0.603604 3:-0.741339 4:-0.793103 5:-0.707965 6:-0.727463 
2 1:-0.0516854 2:-0.0630631 3:0.0531178 4:-0.0712644 5:-0.0884956 6:-0.161426 
2 1:0.0426966 2:-0.117117 3:-0.0669746 4:-0.195402 5:-0.172566 6:-0.224319 
2 1:-0.186517 2:-0.0810811 3:-0.159353 4:-0.135632 5:-0.19469 6:-0.215933 
2 1:-0.0337079 2:-0.0315315 3:-0.0207852 4:-0.126437 5:-0.0884956 6:-0.207547 
2 1:0.0921348 2:-0.0810811 3:-0.196305 4:-0.126437 5:-0.172566 6:-0.165618 
2 1:-0.604494 2:-0.612613 3:-0.648961 4:-0.724138 5:-0.769912 6:-0.681342 
1.726907055470021 1:0.191011 2:0.337838 3:0.819861 4:-0.112644 5:-0.0752212 6:0.748428 
2 1:0.483146 2:-0.045045 3:0.482679 4:0.462069 5:-0.20354 6:-0.266247 
2 1:0.676404 2:0.036036 3:0.681293 4:0.65977 5:-0.0575221 6:-0.207547 
2 1:0.164045 2:-0.689189 3:-0.658199 4:-0.714943 5:-0.623894 6:-0.769392 
0.2766525305555266 1:-0.137079 2:0.572072 3:0.588915 4:-0.268966 5:-0.287611 6:-0.505241 
2 1:0.725843 2:0.184685 3:-0.0808314 4:-0.181609 5:-0.172566 6:0.668763 
2 1:0.132584 2:0.0585586 3:0.034642 4:-0.00229885 5:-0.0176991 6:-0.0524109 
2 1:0.716854 2:0.702703 3:-0.0623557 4:-0.0988506 5:-0.106195 6:-0.253669 
2 1:0.164045 2:-0.626126 3:-0.681293 4:-0.65977 5:-0.69469 6:-0.706499 
2 1:0.00224719 2:-0.148649 3:-0.159353 4:-0.236782 5:-0.154867 6:-0.337526 
0.3709068616768638 1:0.595506 2:-0.0990991 3:0.598152 4:-0.291954 5:-0.29646 6:-0.513627 
2 1:0.231461 2:0.837838 3:0.127021 4:-0.0298851 5:-0.0132743 6:-0.0566038 
2 1:-0.146067 2:-0.207207 3:-0.13164 4:-0.245977 5:-0.190265 6:-0.266247 
2 1:-0.0202247 2:-0.130631 3:-0.0854503 4:-0.0344828 5:-0.199115 6:-0.127883 
2 1:0.00674157 2:-0.135135 3:-0.103926 4:-0.14023 5:-0.163717 6:-0.236897 
1.290443561692455 1:0.240449 2:0.126126 3:0.034642 4:-0.154023 5:-0.212389 6:-0.29979 
2 1:0.0382022 2:0.0765766 3:0.0808314 4:-0.0344828 5:-0.0884956 6:-0.0607966 
2 1:0.0606742 2:0.234234 3:0.0808314 4:0.121839 5:-0.0309735 6:-0.0356394 
1.052637546048298 1:-0.460674 2:0.148649 3:-0.551963 4:-0.673563 5:-0.712389 6:-0.72327 
2 1:0.694382 2:0.68018 3:0.699769 4:0.0206897 5:-0.137168 6:-0.32914 
2 1:-0.595506 2:0.148649 3:0.154734 4:-0.485057 5:-0.504425 6:-0.597484 
2 1:0.191011 2:0.148649 3:0.0577367 4:0.0528736 5:0.0929204 6:-0.0398323 
2 1:0.0651685 2:-0.157658 3:-0.034642 4:-0.0114943 5:-0.0575221 6:-0.148847 
2 1:0.2 2:0.171171 3:0.177829 4:0.687356 5:0.0973451 6:0.0272537 
2 1:-0.047191 2:-0.0900901 3:0.0300231 4:-0.0850575 5:0.0132743 6:-0.0230608 
2 1:0.047191 2:0.0675676 3:0.0762125 4:0.062069 5:0.628319 6:-0.0440252 
2 1:0.146067 2:0.0630631 3:-0.0161663 4:-0.0712644 5:0.0176991 6:-0.0104822 
2 1:-0.240449 2:-0.220721 3:-0.362587 4:-0.172414 5:-0.0707965 6:-0.140461 
2 1:0.45618 2:-0.0675676 3:-0.168591 4:0.43908 5:-0.0176991 6:0.417191 
2 1:0.631461 2:-0.0945946 3:0.635104 4:-0.0206897 5:0.650442 6:-0.0607966 
2 1:0.613483 2:-0.00900901 3:-0.0669746 4:-0.0390805 5:0.632743 6:0.563941 
2 1:-0.00224719 2:-0.036036 3:0.51963 4:0.498851 5:0.0707965 6:0.475891 
2 1:0.011236 2:-0.045045 3:-0.113164 4:0.471264 5:-0.0132743 6:0.450734 
2 1:0.047191 2:-0.036036 3:-0.140878 4:0.489655 5:0.0132743 6:-0.144654 
2 1:0.0651685 2:0.396396 3:-0.0207852 4:-0.103448 5:-0.0707965 6:-0.190776 
2 1:-0.451685 2:0.148649 3:-0.644342 4:-0.613793 5:-0.561947 6:-0.597484 
2 1:-0.532584 2:-0.5 3:-0.510393 4:-0.6 5:-0.446903 6:-0.48847 
2 1:0.0561798 2:0.0810811 3:-0.0854503 4:0.0482759 5:-0.0176991 6:-0.111111 
2 1:-0.644944 2:-0.666667 3:-0.625866 4:-0.724138 5:-0.610619 6:-0.72327 
2 1:0.182022 2:0.0675676 3:0.0484988 4:0.00229885 5:0.747788 6:0.0188679 
2 1:0.0516854 2:0.0045045 3:0.0715935 4:0.0390805 5:0.0884956 6:-0.00209644 
2 1:0.164045 2:-0.630631 3:-0.588915 4:-0.701149 5:-0.681416 6:-0.72327 
2 1:-0.159551 2:-0.184685 3:-0.177829 4:-0.227586 5:-0.252212 6:-0.215933 
2 1:-0.48764 2:-0.653153 3:-0.709007 4:-0.682759 5:-0.699115 6:-0.731656 
2 1:0.186517 2:-0.027027 3:-0.0115473 4:-0.0528736 5:0.0176991 6:-0.0733753 
2 1:-0.510112 2:-0.576577 3:-0.662818 4:-0.521839 5:-0.606195 6:-0.538784 
0.4188616147119497 1:-0.047191 2:-0.144144 3:-0.0900693 4:-0.154023 5:-0.0752212 6:0.823899 
2 1:0.101124 2:-0.00900901 3:0.034642 4:-0.0206897 5:0.0663717 6:-0.0188679 
2 1:0.721348 2:-0.0540541 3:-0.113164 4:-0.0988506 5:-0.0442478 6:-0.0607966 
2 1:-0.573034 2:-0.617117 3:-0.676674 4:-0.645977 5:-0.557522 6:-0.601677 
1.828586884259982 1:0.164045 2:-0.657658 3:-0.528868 4:-0.650575 5:-0.725664 6:-0.714885 
2 1:-0.114607 2:-0.13964 3:0.00692841 4:-0.00229885 5:-0.0707965 6:-0.102725 
2 1:0.155056 2:0.0765766 3:-0.0207852 4:-0.0758621 5:-0.00884956 6:-0.12369 
2 1:-0.0561798 2:-0.0675676 3:-0.214781 4:-0.103448 5:-0.0884956 6:-0.178197 
2 1:0.0966292 2:0.036036 3:-0.034642 4:0.00689655 5:-0.039823 6:-0.081761 
2 1:-0.0337079 2:-0.027027 3:-0.0762125 4:-0.117241 5:-0.0752212 6:-0.165618 
2 1:-0.0876404 2:-0.027027 3:0.0254042 4:-0.0574713 5:-0.079646 6:-0.18239 
2 1:-0.0157303 2:-0.018018 3:0.0993072 4:-0.0482759 5:-0.0309735 6:-0.174004 
2 1:0.101124 2:-0.00900901 3:0.0669746 4:-0.131034 5:-0.207965 6:-0.0440252 
2 1:0.119101 2:0.135135 3:0.0623557 4:-0.0252874 5:-0.039823 6:-0.0649895 
1.585877019676938 1:0.613483 2:0.599099 3:-0.0993072 4:-0.232184 5:-0.287611 6:-0.337526 
2 1:-0.0696629 2:0.657658 3:-0.108545 4:-0.131034 5:-0.243363 6:-0.194969 
0.9297876453021676 1:-0.617978 2:-0.752252 3:-0.639723 4:-0.687356 5:-0.681416 6:-0.811321 
2 1:0.775281 2:0.112613 3:0.0715935 4:-0.0482759 5:-0.0663717 6:-0.18239 
2 1:0.0966292 2:-0.0225225 3:0.0254042 4:-0.117241 5:-0.0530973 6:-0.0985325 
2 1:-0.00224719 2:-0.175676 3:-0.103926 4:-0.213793 5:-0.207965 6:-0.190776 
1.841467189948493 1:-0.0876404 2:-0.0675676 3:-0.0207852 4:-0.273563 5:-0.207965 6:-0.190776 
2 1:-0.00674157 2:0.0315315 3:-0.0484988 4:-0.0712644 5:-0.0442478 6:-0.15304 
2 1:0.150562 2:0.0720721 3:-0.0669746 4:-0.0436782 5:-0.0884956 6:-0.048218 
2 1:0.00224719 2:0.027027 3:0.00230947 4:-0.0482759 5:-0.0840708 6:-0.127883 
0.8659082295790063 1:0.222472 2:0.144144 3:-0.0438799 4:-0.0114943 5:-0.0752212 6:0.815514 
2 1:0.0921348 2:0.774775 3:0.0115473 4:-0.0436782 5:-0.168142 6:-0.119497 
1.814717101746013 1:0.27191 2:0.189189 3:0.321016 4:0.0666667 5:0.181416 6:-0.0943396 
2 1:0.0337079 2:0.121622 3:0.0854503 4:-0.0114943 5:-0.0309735 6:-0.0691824 
0.03534202575190749 1:0.67191 2:-0.148649 3:-0.316397 4:-0.167816 5:-0.283186 6:-0.320755 
2 1:0.213483 2:0.220721 3:1 4:0.0804598 5:1 6:0.0230608 
2 1:-0.0157303 2:-0.0495495 3:-0.0115473 4:-0.163218 5:-0.115044 6:-0.18239 
0.8479100844809642 1:0.88764 2:0.234234 3:0.0115473 4:-0.0528736 5:-0.0132743 6:-0.169811 
2 1:0.011236 2:0.108108 3:-0.0623557 4:0.0344828 5:-0.079646 6:-0.0943396 
2 1:-0.0606742 2:-0.0045045 3:-0.0484988 4:0.0528736 5:-0.0353982 6:-0.132075 
0.5718267153219445 1:0.204494 2:-0.0045045 3:-0.0762125 4:0.0436782 5:0.0752212 6:-0.24109 
2 1:-0.946067 2:-0.612613 3:-0.676674 4:-0.728736 5:-0.738938 6:-0.761006 
2 1:-0.0157303 2:0.018018 3:-0.0808314 4:-0.186207 5:-0.0929204 6:-0.215933 
2 1:-0.182022 2:-0.0720721 3:-0.228637 4:-0.241379 5:-0.238938 6:-0.278826 
1.810544273032517 1:0.694382 2:-0.0495495 3:-0.0900693 4:-0.172414 5:-0.309735 6:0.639413 
2 1:-0.0516854 2:0.567568 3:-0.214781 4:-0.310345 5:-0.243363 6:-0.345912 
0.8966246208179693 1:0.114607 2:0.576577 3:-0.0993072 4:-0.190805 5:-0.243363 6:-0.350105 
2 1:0.235955 2:0.211712 3:0.288684 4:0.0850575 5:0.159292 6:0.0398323 
2 1:-0.0382022 2:-0.112613 3:-0.256351 4:-0.181609 5:-0.168142 6:-0.283019 
0.2827844393811219 1:-0.011236 2:0.581081 3:0.598152 4:-0.25977 5:-0.318584 6:-0.291405 
2 1:-0.577528 2:-0.635135 3:-0.750577 4:-0.77931 5:-0.721239 6:-0.72327 
0.1327836498008857 1:0.0292135 2:-0.027027 3:-0.122402 4:-0.232184 5:-0.261062 6:-0.463312 
2 1:-0.370787 2:-0.675676 3:-0.533487 4:-0.737931 5:-0.685841 6:-0.668763 
2 1:-0.011236 2:0.0225225 3:-0.00230947 4:-0.0482759 5:-0.0840708 6:-0.119497 
2 1:0.757303 2:0.743243 3:-0.127021 4:-0.126437 5:-0.123894 6:-0.194969 
2 1:-0.0696629 2:-0.112613 3:-0.0623557 4:-0.112644 5:-0.123894 6:-0.186583 
2 1:-0.761798 2:-0.630631 3:-0.727483 4:-0.774713 5:-0.716814 6:-0.731656 
2 1:0.71236 2:0.036036 3:-0.0993072 4:-0.135632 5:-0.163717 6:0.656184 
2 1:0.150562 2:0.18018 3:0.0854503 4:0.062069 5:0.0221239 6:-0.0607966 
2 1:-0.568539 2:-0.54955 3:-0.588915 4:-0.687356 5:-0.721239 6:-0.689727 
0.3322663156853493 1:0.0561798 2:0.148649 3:-0.136259 4:-0.190805 5:-0.110619 6:-0.136268 
0.7719368790234127 1:-0.788764 2:-0.644144 3:-0.644342 4:-0.756322 5:-0.716814 6:0.144654 
2 1:-0.0516854 2:-0.0630631 3:-0.0623557 4:-0.135632 5:-0.0619469 6:-0.21174 
1.05091514558279 1:-0.496629 2:-0.734234 3:-0.778291 4:-0.889655 5:-0.761062 6:-0.903564 
1.829413954518609 1:-0.0157303 2:0.216216 3:0.815242 4:-0.0482759 5:-0.0221239 6:-0.169811 
2 1:0.775281 2:0.0585586 3:-0.0254042 4:-0.0436782 5:-0.0619469 6:-0.161426 
2 1:0.0831461 2:-0.175676 3:-0.145497 4:-0.103448 5:-0.20354 6:-0.144654 
2 1:0.757303 2:0.743243 3:0.0207852 4:-0.177011 5:-0.141593 6:-0.144654 
2 1:0.132584 2:0.0585586 3:0.0623557 4:-0.0942529 5:-0.00884956 6:-0.048218 
2 1:0.0741573 2:-0.0675676 3:0.0669746 4:-0.0390805 5:-0.0486726 6:-0.0859539 
2 1:0.0202247 2:0.662162 3:-0.136259 4:-0.149425 5:-0.154867 6:-0.257862 
2 1:-0.0516854 2:-0.216216 3:-0.17321 4:-0.241379 5:-0.247788 6:-0.29979 
2 1:0.0247191 3:-0.140878 4:-0.131034 5:-0.0973451 6:-0.203354 
2 1:-0.00674157 2:0.0315315 3:0.0623557 4:-0.0298851 5:-0.00442478 6:-0.136268 
2 1:0.0337079 2:-0.018018 3:0.00692841 4:-0.167816 5:-0.225664 6:0.647799 
2 1:0.0292135 2:0.689189 3:-0.0438799 4:-0.0114943 5:-0.123894 6:-0.190776 
1.150530694295704 1:0.00674157 2:-0.0495495 3:-0.039261 4:-0.255172 5:-0.415929 6:-0.471698 
1.028893348425827 1:-0.195506 2:-0.225225 3:-0.344111 4:-0.42069 5:-0.380531 6:-0.408805 
2 1:-0.159551 2:-0.153153 3:-0.163972 4:-0.213793 5:-0.252212 6:-0.295597 
2 1:-0.604494 2:-0.608108 3:-0.575058 4:-0.705747 5:-0.681416 6:-0.69392 
2 1:-0.0921348 2:-0.18018 3:-0.140878 4:-0.190805 5:-0.247788 6:-0.274633 
0.3280568570869892 1:-0.730337 2:0.148649 3:0.154734 4:-0.737931 5:-0.734513 6:-0.886792 
0.4347918127219033 1:0.0696629 2:0.783784 3:0.806005 4:-0.0390805 5:-0.0575221 6:-0.140461 
1.619161349732087 1:0.0157303 2:-0.027027 3:-0.0207852 4:-0.0850575 5:-0.358407 6:-0.375262 
1.661723910993726 1:0.0831461 2:0.045045 3:0.0300231 4:-0.195402 5:-0.243363 6:-0.396226 
2 1:0.0516854 2:-0.027027 3:-0.26097 4:-0.278161 5:-0.159292 6:-0.245283 
2 1:0.0786517 2:-0.0495495 3:-0.0623557 4:-0.103448 5:-0.0973451 6:-0.144654 
1.616769659732147 1:0.0382022 2:0.135135 3:0.685912 4:-0.241379 5:-0.265487 6:0.626834 
2 1:0.244944 2:0.112613 3:0.122402 4:0.0298851 5:0.0353982 6:0.0104822 
2 1:-0.577528 2:-0.594595 3:-0.676674 4:-0.655172 5:0.190265 6:-0.865828 
2 1:0.613483 2:-0.0810811 3:-0.103926 4:-0.177011 5:-0.252212 6:-0.291405 
2 1:-0.132584 2:-0.0315315 3:-0.187067 4:-0.172414 5:-0.274336 6:-0.203354 
2 1:0.0966292 2:0.0900901 3:0.0438799 4:-0.14023 5:-0.340708 6:-0.379455 
2 1:-0.0157303 2:-0.018018 3:-0.0715935 4:-0.14023 5:-0.141593 6:-0.207547 
2 1:-0.159551 2:-0.0630631 3:-0.256351 4:-0.186207 5:-0.181416 6:-0.283019 
2 1:0.0157303 2:0.0765766 3:0.0808314 4:-0.0666667 5:-0.0530973 6:-0.102725 
2 1:-0.52809 2:-0.630631 3:-0.787529 4:-0.793103 5:-0.699115 6:-0.744235 
2 1:-0.159551 2:-0.238739 3:-0.228637 4:-0.245977 5:-0.176991 6:-0.287212 
2 1:-0.280899 2:0.689189 3:-0.0161663 4:-0.209195 5:-0.176991 6:-0.178197 
1.02283095720309 1:-0.182022 2:-0.121622 3:-0.117783 4:-0.236782 5:-0.292035 6:-0.215933 
2 1:-0.0516854 2:-0.0675676 3:-0.136259 4:-0.167816 5:-0.176991 6:-0.283019 
2 1:-0.0202247 2:0.0720721 3:0.0207852 4:-0.0528736 5:-0.0309735 6:-0.15304 
2 1:-0.0157303 2:-0.0675676 3:-0.233256 4:-0.167816 5:-0.212389 6:-0.24109 
0.2404951108085697 1:-0.635955 2:-0.720721 3:-0.625866 4:-0.921839 5:0.190265 6:-0.849057 
2 1:-0.0651685 2:-0.144144 3:-0.140878 4:-0.190805 5:-0.176991 6:-0.249476 
2 1:0.0337079 2:-0.279279 3:-0.2194 4:-0.204598 5:-0.256637 6:-0.236897 
0.3881388037437942 1:0.164045 2:0.148649 3:0.154734 4:-0.687356 5:-0.761062 6:-0.874214 
2 1:-0.451685 2:-0.585586 3:-0.491917 4:-0.613793 5:-0.641593 6:-0.740042 
0.9274717405577233 1:0.164045 2:-0.617117 3:-0.681293 4:-0.806897 5:-0.827434 6:0.144654 
0.3338928919430504 1:0.0786517 2:0.130631 3:0.039261 4:-0.158621 5:0.818584 6:0.740042 
2 1:-0.0966292 2:-0.036036 3:-0.13164 4:-0.172414 5:-0.19469 6:-0.236897 
0.9902852384664395 1:-0.48764 2:-0.18018 3:-0.154734 4:-0.301149 5:-0.469027 6:-0.350105 
2 1:0.105618 2:-0.0135135 3:-0.0254042 4:-0.0390805 5:-0.0265487 6:-0.157233 
0.5980717363957198 1:-0.685393 2:-0.738739 3:-0.750577 4:-0.926437 5:0.190265 6:-0.974843 
2 1:-0.267416 2:-0.22973 3:-0.297921 4:-0.305747 5:-0.300885 6:-0.358491 
2 1:0.721348 2:0.175676 3:0.177829 4:0.0298851 5:0.0884956 6:0.0314465 
2 1:0.0292135 2:0.0045045 3:0.69515 4:0.00689655 5:0.0530973 6:-0.081761 
2 1:0.0921348 2:0.0135135 3:-0.0854503 4:-0.0758621 5:0.0309735 6:-0.0943396 
2 1:-0.0382022 2:-0.121622 3:0.0254042 4:0.0298851 5:0.00442478 6:-0.0733753 
2 1:0.0696629 2:0.0630631 3:0.140878 4:0.112644 5:0.132743 6:0.0188679 
2 1:-0.375281 2:-0.355856 3:-0.593533 4:-0.494253 5:-0.451327 6:-0.425577 
2 1:0.752809 2:0.738739 3:0.759815 4:0.0850575 5:0.132743 6:0.0566038 
2 1:-0.6 2:-0.585586 3:-0.528868 4:-0.641379 5:-0.464602 6:-0.492662 
2 1:0.0157303 2:-0.036036 3:0.103926 4:0.508046 5:0.039823 6:0.0607966 
2 1:-0.204494 2:0.581081 3:-0.0207852 4:0.577011 5:0.615044 6:-0.0566038 
2 1:-0.123596 2:-0.166667 3:-0.0993072 4:-0.117241 5:-0.00884956 6:-0.157233 
2 1:-0.0382022 2:0.657658 3:0.0531178 4:-0.0436782 5:0.0176991 6:0.0440252 
2 1:0.164045 2:-0.536036 3:-0.598152 4:-0.549425 5:-0.504425 6:-0.60587 
2 1:0.0426966 2:0.0630631 3:0.0762125 4:-0.00229885 5:0.0752212 6:-0.0104822 
2 1:0.559551 2:-0.0720721 3:0.561201 4:-0.0528736 5:0.579646 6:-0.111111 
2 1:0.0741573 2:0.027027 3:0.0669746 4:-0.0114943 5:0.00442478 6:-0.0398323 
2 1:0.0876404 2:-0.0540541 3:0.0854503 4:-0.0528736 5:0.0752212 6:-0.0607966 
2 1:0.0876404 2:-0.0630631 3:-0.127021 4:-0.0804598 5:-0.00884956 6:-0.0440252 
2 1:-0.011236 2:-0.0855856 3:-0.0484988 4:-0.0206897 5:-0.00884956 6:-0.0943396 
2 1:0.622472 2:0.608108 3:-0.0115473 4:0.0712644 5:-0.0221239 6:-0.0524109 
2 1:0.164045 2:-0.0495495 3:-0.113164 4:-0.131034 5:0.584071 6:-0.12369 
2 1:-0.0876404 2:-0.112613 3:-0.0254042 4:-0.117241 6:-0.0398323 
2 1:0.0202247 2:-0.0045045 3:-0.0161663 4:0.108046 5:0.154867 6:-0.00628931 
2 1:-0.537079 2:-0.554054 3:-0.542725 4:-0.627586 5:-0.5 6:-0.51782 
2 1:-0.0426966 2:-0.0495495 3:-0.103926 4:-0.177011 5:-0.137168 6:-0.190776 
2 1:0.150562 2:-0.108108 3:0.0438799 4:-0.0712644 5:-0.0132743 6:-0.081761 
2 1:0.0202247 2:-0.0630631 3:0.65358 4:-0.0850575 5:-0.0176991 6:-0.0398323 
2 1:0.164045 2:-0.662162 3:-0.616628 4:-0.701149 5:-0.650442 6:-0.643606 
2 1:-0.011236 2:-0.00900901 3:-0.13164 4:-0.250575 5:-0.0973451 6:-0.157233 
2 1:0.698876 2:-0.18018 3:-0.13164 4:-0.154023 5:-0.0619469 6:-0.132075 
2 1:0.047191 2:-0.0315315 3:-0.0300231 4:-0.0528736 5:-0.00442478 6:0.0272537 
2 1:0.173034 2:0.0720721 3:0.0577367 4:0.0804598 5:0.0973451 6:0.0901468 
2 1:-0.339326 2:-0.54955 3:-0.491917 4:-0.402299 5:-0.442478 6:-0.526205 
2 1:-0.591011 2:-0.644144 3:-0.630485 4:-0.609195 5:-0.707965 6:-0.685535 
2 1:-0.0966292 2:-0.0765766 3:-0.0669746 4:0.434483 5:-0.199115 6:-0.15304 
2 1:0.703371 2:0.689189 3:0.0300231 4:0.687356 5:0.0530973 6:-0.0188679 
2 1:0.523596 2:0.509009 3:-0.168591 4:-0.154023 5:-0.0752212 6:-0.161426 
2 1:0.0876404 2:0.18018 3:0.704388 4:0.112644 5:0.716814 6:0.0188679 
2 1:0.0831461 2:0.0765766 3:0.0254042 4:0.0850575 5:0.659292 6:-0.0104822 
2 1:0.0966292 2:-0.0990991 3:0.0715935 4:-0.0436782 5:-0.0486726 6:-0.119497 
2 1:0.0606742 2:0.207207 3:0.759815 4:0.112644 5:0.769912 6:0.106918 
2 1:-0.0876404 2:0.518018 3:0.533487 4:0.512644 5:-0.0619469 6:-0.106918 
2 1:0.680899 2:0.666667 3:0.0300231 4:-0.0758621 5:0.699115 6:-0.0188679 
2 1:0.0202247 2:-0.045045 3:-0.103926 4:-0.135632 5:-0.0486726 6:-0.174004 
2 1:-0.0426966 2:0.13964 3:-0.0623557 4:-0.0298851 5:0.039823 6:-0.0943396 
2 1:0.793258 2:0.779279 3:0.145497 4:0.103448 5:0.146018 6:0.00628931 
2 1:-0.730337 2:-0.472973 3:-0.570439 4:0.135632 5:-0.442478 6:-0.48847 
2 1:0.0516854 2:0.0990991 3:0.113164 4:0.108046 5:0.00884956 6:-0.0985325 
2 1:-0.45618 2:-0.576577 3:-0.621247 4:-0.710345 5:-0.730088 6:-0.643606 
2 1:0.132584 2:0.027027 3:0.0808314 4:-0.0482759 5:0.0132743 6:-0.0859539 
2 1:0.0337079 2:-0.144144 3:0.0115473 4:-0.0666667 5:-0.0619469 6:-0.115304 
2 1:0.258427 2:0.0810811 3:0.0207852 4:0.0666667 5:0.0221239 6:-0.0440252 
2 1:0.348315 2:0.193694 3:0.140878 4:0.121839 5:0.0707965 6:0.0230608 
2 1:0.047191 3:-0.0438799 4:-0.117241 5:-0.132743 6:-0.12369 
2 1:-0.595506 2:-0.648649 3:-0.672055 4:-0.751724 5:-0.756637 6:-0.672956 
2 1:0.0247191 3:0.00230947 4:-0.121839 5:-0.0575221 6:-0.136268 
2 1:0.0876404 2:0.0135135 3:-0.0115473 4:-0.0804598 5:-0.110619 6:-0.0901468 
2 1:0.011236 2:-0.0630631 3:0.0669746 4:-0.0114943 5:0.0132743 6:-0.12369 
2 1:0.716854 2:0.702703 3:0.00692841 4:-0.0252874 5:-0.0929204 6:-0.119497 
2 1:0.0292135 2:0.0135135 3:-0.0207852 4:-0.186207 5:-0.0486726 6:-0.0943396 
2 1:0.0426966 2:0.0945946 3:-0.039261 4:-0.062069 5:0.039823 6:-0.00209644 
2 1:-0.52809 2:-0.635135 3:-0.690531 4:-0.586207 5:-0.5 6:-0.534591 
2 1:0.101124 2:0.752252 3:-0.039261 4:-0.0252874 5:0.0663717 6:0.0356394 
2 1:-0.514607 2:-0.567568 3:-0.667436 4:-0.668966 5:-0.50885 6:-0.63522 
2 1:0.141573 2:0.00900901 3:0.191686 4:0.158621 5:0.159292 6:0.081761 
2 1:-0.226966 2:-0.0135135 3:-0.0115473 4:-0.0528736 5:0.00442478 6:-0.00628931 
2 1:-0.474157 2:-0.653153 3:-0.528868 4:-0.531034 5:-0.632743 6:-0.555556 
2 1:0.0606742 3:-0.117783 4:-0.117241 5:-0.0884956 6:-0.0943396 
2 1:0.730337 2:0.716216 3:0.034642 4:0.0114943 5:0.0929204 6:0.0985325 
2 1:0.0651685 2:0.657658 3:-0.0762125 4:-0.0574713 5:-0.0353982 6:-0.0566038 
2 1:0.591011 2:-0.121622 3:-0.154734 4:-0.227586 5:-0.185841 6:-0.174004 
2 1:0.00224719 3:-0.0946882 4:-0.195402 5:-0.119469 6:-0.232704 
2 1:0.0157303 2:-0.0225225 3:0.0900693 4:0.0114943 5:-0.0619469 6:-0.081761 
2 1:-0.631461 2:-0.684685 3:-0.56582 4:-0.714943 5:-0.668142 6:-0.748428 
2 1:-0.662921 2:-0.657658 3:-0.685912 4:-0.71954 5:-0.734513 6:-0.710692 
2 1:-0.505618 2:-0.725225 3:-0.745958 4:-0.733333 5:-0.730088 6:-0.714885 
2 1:0.159551 2:0.036036 3:-0.039261 4:-0.0482759 5:-0.00884956 6:-0.0272537 
2 1:-0.501124 2:-0.513514 3:-0.685912 4:-0.710345 5:-0.588496 6:-0.710692 
2 1:-0.608989 2:-0.662162 3:-0.690531 4:-0.696552 5:-0.69469 6:-0.69392 
2 1:-0.582022 2:-0.671171 3:-0.676674 4:-0.696552 5:-0.792035 6:-0.660377 
2 1:0.235955 2:0.130631 3:-0.0762125 4:-0.0666667 5:0.0265487 6:-0.0607966 
1.083429837738424 1:0.860674 2:0.112613 3:0.0900693 4:-0.0436782 5:-0.0929204 6:-0.0566038 
2 1:0.0651685 2:0.0810811 3:0.136259 4:0.0712644 5:0.0309735 6:-0.0775681 
2 1:-0.523596 2:-0.707207 3:-0.764434 4:-0.696552 5:-0.761062 6:-0.593291 
2 1:0.0157303 2:-0.135135 3:-0.0438799 4:-0.131034 5:-0.132743 6:-0.048218 
2 1:0.168539 2:0.144144 3:0.0715935 4:0.0252874 5:-0.119469 6:0.0188679 
2 1:0.114607 2:0.0495495 3:0.0669746 4:0.0758621 5:0.00442478 6:-0.106918 
2 1:0.2 2:0.0405405 3:0.0808314 4:0.0758621 5:-0.0309735 6:-0.0440252 
2 1:-0.00674157 2:-0.00900901 3:-0.0715935 4:-0.0758621 5:-0.0707965 6:-0.15304 
2 1:0.132584 2:0.157658 3:0.0300231 4:-0.0114943 5:-0.0309735 6:-0.0440252 
2 1:0.0247191 2:0.0225225 3:-0.0161663 4:0.0252874 5:-0.0176991 6:-0.0440252 
2 1:0.0426966 3:-0.0808314 4:-0.0344828 5:-0.0663717 6:-0.0901468 
2 1:-0.253933 2:-0.0720721 3:0.0254042 4:-0.0574713 5:-0.0575221 6:-0.140461 
2 1:-0.00224719 2:0.112613 3:0.0808314 4:0.016092 5:-0.0176991 6:-0.0188679 
2 1:0.0966292 2:-0.0135135 3:0.034642 4:-0.0390805 6:-0.127883 
2 1:-0.00224719 2:0.121622 3:0.0484988 4:-0.00689655 5:-0.079646 6:-0.0314465 
2 1:0.0966292 2:-0.0990991 3:-0.0484988 4:-0.0758621 5:-0.123894 6:-0.111111 
2 1:0.137079 2:-0.00900901 3:0.0993072 4:0.00689655 5:-0.0575221 6:-0.0566038 
2 1:0.132584 2:0.0855856 3:0.0577367 4:0.0482759 5:-0.00442478 6:-0.106918 
2 1:0.123596 2:0.0855856 3:0.103926 4:0.0942529 5:0.0663717 6:-0.048218 
2 1:-0.011236 2:-0.0045045 3:-0.0623557 4:-0.131034 5:-0.168142 6:-0.140461 
2 1:0.0921348 2:0.22973 3:0.200924 4:0.062069 5:0.159292 6:-0.0104822 
2 1:0.155056 2:0.135135 3:0.145497 4:0.0574713 5:-0.00884956 6:-0.0524109 
2 1:0.0696629 2:0.0540541 3:-0.00230947 4:0.0114943 5:-0.079646 6:0.00628931 
2 1:0.0202247 2:0.0990991 3:0.205543 4:-0.0804598 5:0.0442478 6:-0.0649895 
2 1:0.838202 2:0.824324 3:0.177829 4:0.0712644 5:0.154867 6:0.0272537 
2 1:-0.155056 2:0.0315315 3:-0.0900693 4:0.0298851 5:-0.00442478 6:0.00628931 
2 1:0.285393 2:0.400901 3:0.242494 4:0.944828 5:0.358407 6:0.228512 
2 1:-0.0966292 2:0.527027 3:0.542725 4:0.521839 5:-0.0840708 6:-0.132075 
2 1:0.00674157 2:0.148649 3:-0.0946882 4:0.00229885 5:-0.0176991 6:0.0272537 
2 1:0.101124 2:0.0630631 3:-0.13164 4:-0.0528736 5:0.0663717 6:-0.0188679 
2 1:0.298876 2:0.382883 3:0.200924 4:0.273563 5:0.243363 6:0.287212 
2 1:0.307865 2:0.927928 3:0.163972 4:0.222989 5:0.331858 6:0.274633 
2 1:0.226966 2:0.171171 3:0.214781 4:0.154023 5:0.920354 6:0.220126 
2 1:0.182022 2:0.112613 3:0.0669746 4:0.788506 5:0.146018 6:0.0901468 
2 1:0.0741573 2:0.711712 3:-0.034642 4:0.710345 5:0.0929204 6:0.0566038 
2 1:-0.613483 2:-0.599099 3:-0.722864 4:-0.613793 5:-0.584071 6:-0.526205 
2 1:0.78427 2:0.77027 3:0.136259 4:0.131034 5:0.199115 6:0.72327 
2 1:0.0382022 2:0.234234 3:0.154734 4:0.177011 5:0.278761 6:0.0146751 
2 1:0.0921348 2:0.86036 3:0.108545 4:-0.00229885 5:0.0929204 6:0.00628931 
2 1:-0.411236 2:-0.594595 3:-0.616628 4:-0.701149 5:-0.734513 6:-0.677149 
1.135013596913569 1:0.213483 2:-0.234234 3:-0.200924 4:-0.314943 5:-0.207965 6:-0.29979 
2 1:0.689888 2:-0.121622 3:-0.224018 4:-0.204598 5:-0.159292 6:-0.228512 
2 1:-0.0426966 2:-0.045045 3:-0.039261 4:-0.0712644 5:-0.154867 6:-0.115304 
2 1:0.253933 2:0.0900901 3:0.0762125 4:0.0850575 5:0.079646 6:-0.0398323 
2 1:0.0876404 2:0.027027 3:-0.0531178 4:-0.0850575 5:-0.0265487 6:-0.157233 
2 1:0.213483 2:0.144144 3:0.0577367 4:0.0298851 5:0.115044 6:0.0104822 
2 1:0.146067 2:0.0945946 3:0.0623557 4:0.0942529 5:0.110619 6:-0.0859539 
2 1:0.0966292 2:-0.0810811 3:-0.00230947 4:-0.0528736 5:-0.039823 6:-0.0607966 
2 1:0.0606742 2:0.0045045 3:-0.205543 4:-0.062069 5:-0.0752212 6:-0.203354 
2 1:0.12809 2:0.103604 3:0.00230947 4:-0.0344828 5:-0.0840708 6:-0.0566038 
2 1:-0.182022 2:0.0675676 3:0.0438799 4:0.00229885 5:-0.039823 6:-0.0901468 
2 1:-0.0247191 2:-0.117117 3:-0.0531178 4:-0.0988506 5:-0.0929204 6:-0.190776 
2 1:0.0516854 2:0.0900901 3:0.0623557 4:0.0666667 5:0.00442478 6:-0.127883 
2 1:0.0741573 2:0.0135135 3:0.0300231 4:0.0252874 5:0.0663717 6:-0.0146751 
2 1:0.186517 2:-0.0045045 3:-0.0715935 4:0.0482759 5:-0.00442478 6:-0.0398323 
2 1:0.0292135 2:0.0135135 3:0.0808314 4:0.00689655 5:-0.0486726 6:-0.127883 
2 1:-0.0157303 2:0.0810811 3:0.039261 4:-0.0942529 5:-0.0442478 6:-0.111111 
2 1:0.231461 2:0.135135 3:0.0531178 4:-0.016092 5:0.039823 6:-0.0566038 
2 1:0.164045 2:0.252252 3:0.150115 4:0.0528736 5:0.0265487 6:0.0356394 
2 1:-0.258427 2:0.0225225 3:-0.039261 4:-0.0528736 5:-0.0973451 6:-0.136268 
2 1:0.105618 2:-0.036036 3:-0.200924 4:-0.016092 5:-0.141593 6:-0.0943396 
2 1:0.12809 2:0.0225225 3:-0.168591 4:0.016092 5:0.0221239 6:-0.111111 
2 1:-0.0157303 2:0.0045045 3:-0.0161663 4:-0.0666667 5:-0.110619 6:-0.119497 
2 1:0.34382 2:0.234234 3:0.034642 4:0.172414 5:0.039823 6:0.0188679 
2 1:0.88764 2:0.045045 3:0.108545 4:0.0252874 5:0.0221239 6:-0.0356394 
2 1:-0.0337079 2:0.036036 3:-0.0115473 4:-0.0942529 5:-0.0575221 6:-0.15304 
2 1:0.0966292 2:-0.0225225 3:-0.0808314 4:-0.0482759 5:0.00884956 6:-0.102725 
2 1:0.0606742 2:0.117117 3:0.00230947 4:0.0206897 5:0.0176991 6:-0.132075 
2 1:0.0426966 2:-0.364865 3:-0.214781 4:-0.227586 5:-0.247788 6:-0.27044 
2 1:0.119101 2:-0.0045045 3:-0.108545 4:-0.00229885 5:-0.110619 6:-0.111111 
2 1:-0.047191 2:-0.0495495 3:-0.0762125 4:-0.121839 5:-0.150442 6:-0.232704 
1.527068421057088 1:-0.0606742 2:-0.0900901 3:-0.159353 4:-0.250575 5:-0.278761 6:-0.220126 
2 1:0.182022 2:0.135135 3:0.0577367 4:0.0482759 5:0.00442478 6:-0.0607966 
2 1:-0.244944 2:-0.0630631 3:-0.0438799 4:-0.135632 5:-0.106195 6:-0.161426 
2 1:-0.0516854 2:0.0540541 3:-0.0715935 4:-0.0712644 5:-0.0884956 6:-0.190776 
2 1:-0.011236 2:0.0900901 3:-0.0207852 4:-0.0666667 5:-0.00442478 6:-0.18239 
2 1:0.0202247 2:-0.166667 3:-0.039261 4:-0.108046 5:-0.119469 6:-0.174004 
2 1:0.146067 2:-0.00900901 3:0.0900693 4:-0.0390805 5:-0.00442478 6:-0.106918 
2 1:0.155056 2:0.153153 3:0.0900693 4:-0.0298851 5:0.0221239 6:-0.0314465 
2 1:0.0382022 2:0.108108 3:0.0808314 4:0.00689655 5:0.00884956 6:-0.0440252 
2 1:-0.00674157 2:-0.0495495 3:-0.0438799 4:-0.163218 5:-0.0707965 6:-0.295597 
2 1:0.316854 2:0.189189 3:0.0854503 4:0.186207 5:0.0442478 6:0.0901468 
2 1:-0.0157303 2:0.0585586 3:-0.0207852 4:-0.0206897 5:-0.0353982 6:-0.102725 
2 1:0.168539 2:0.130631 3:0.17321 4:0.0988506 5:0.0707965 6:0.0188679 
2 1:-0.0292135 2:0.0720721 3:-0.0531178 4:-0.135632 5:-0.159292 6:-0.12369 
2 1:-0.617978 2:-0.653153 3:-0.750577 4:-0.770115 5:-0.716814 6:-0.731656 
2 1:0.298876 2:0.310811 3:0.224018 4:0.126437 5:0.0530973 6:0.081761 
2 1:-0.00224719 2:0.0720721 3:-0.0438799 4:-0.062069 5:-0.0265487 6:-0.106918 
2 1:-0.595506 2:-0.779279 3:-0.69515 4:-0.797701 5:-0.761062 6:-0.698113 
2 1:0.0337079 2:0.103604 3:0.145497 4:0.016092 5:0.0442478 6:-0.0649895 
2 1:0.011236 2:0.018018 3:-0.0115473 4:-0.0804598 5:-0.0486726 6:-0.199161 
2 1:-0.00224719 2:-0.036036 3:-0.0762125 4:-0.172414 5:-0.0619469 6:-0.119497 
2 1:0.0516854 2:0.0135135 3:0.0762125 4:-0.00229885 5:-0.150442 6:-0.0524109 
2 1:0.0741573 2:0.0945946 3:0.0715935 4:-0.0252874 5:0.00884956 6:-0.0859539 
2 1:0.0292135 2:-0.0630631 3:0.0161663 4:-0.0436782 5:-0.132743 6:-0.119497 
2 1:-0.132584 2:-0.0315315 3:-0.237875 4:-0.213793 5:-0.163717 6:-0.228512 
2 1:-0.173034 2:-0.117117 3:-0.168591 4:-0.222989 5:-0.172566 6:-0.303983 
2 1:0.235955 2:0.121622 3:0.0115473 4:0.0988506 5:0.0442478 6:-0.0314465 
2 1:0.132584 2:-0.027027 3:0.0577367 4:0.0298851 5:-0.0752212 6:-0.0733753 
2 1:0.173034 2:0.148649 3:0.0808314 4:0.0804598 6:0.0440252 
2 1:-0.0337079 2:0.108108 3:0.034642 4:-0.135632 5:-0.0575221 6:-0.0775681 
2 1:-0.0157303 2:0.0630631 3:-0.0623557 4:-0.0850575 5:-0.0752212 6:-0.081761 
2 1:0.195506 2:0.247748 3:0.200924 4:0.149425 5:0.119469 6:0.0272537 
2 1:0.0426966 2:0.144144 3:0.163972 4:0.0390805 5:0.0884956 6:0.0230608 
2 1:-0.047191 2:0.0990991 3:-0.034642 4:-0.0436782 5:-0.115044 6:-0.0859539 
2 1:-0.0337079 2:-0.0900901 3:-0.251732 4:-0.195402 5:-0.185841 6:-0.291405 
2 1:0.307865 2:0.0495495 3:0.168591 4:0.0850575 5:0.039823 6:0.0440252 
2 1:0.105618 2:0.135135 3:0.0715935 4:-0.00229885 5:0.0221239 6:-0.081761 
0.4835168608114374 1:0.146067 2:0.0405405 3:0.0254042 4:-0.131034 5:-0.0132743 6:-0.119497 
2 1:0.0606742 2:-0.0855856 3:-0.0715935 4:-0.14023 5:-0.115044 6:-0.178197 
2 1:0.119101 2:0.171171 3:0.154734 4:-0.00689655 5:0.0221239 6:-0.0314465 
2 1:0.0696629 2:0.036036 3:-0.034642 4:-0.103448 5:-0.0619469 6:-0.0607966 
2 1:0.0337079 2:-0.0765766 3:0.0115473 4:0.0114943 5:-0.0575221 6:-0.18239 
2 1:-0.00224719 2:0.0585586 3:0.0438799 4:0.0712644 5:0.0221239 6:-0.194969 
2 1:0.0157303 2:-0.0990991 3:-0.00230947 4:-0.131034 5:-0.154867 6:-0.136268 
2 1:0.213483 2:-0.027027 3:0.117783 4:0.135632 5:-0.00442478 6:-0.0607966 
2 1:0.132584 2:0.0675676 3:0.150115 4:0.0390805 5:0.00442478 6:-0.0901468 
2 1:0.0606742 2:-0.0225225 3:-0.0900693 4:0.0436782 5:-0.159292 6:-0.0943396 
2 1:0.0876404 2:0.0045045 3:0.0254042 4:0.00229885 5:-0.0486726 6:-0.0859539 
1.219284178352288 1:-0.577528 2:-0.698198 3:-0.639723 4:-0.783908 5:0.190265 6:-0.828092 
2 1:0.0696629 2:-0.018018 3:0.00230947 4:-0.117241 5:-0.0752212 6:-0.140461 
2 1:-0.608989 2:-0.626126 3:-0.662818 4:-0.664368 5:-0.615044 6:-0.672956 
2 1:0.047191 2:-0.0315315 3:0.00692841 4:-0.0988506 5:-0.0619469 6:0.731656 
2 1:0.141573 2:0.0315315 3:0.163972 4:0.016092 5:-0.0132743 6:-0.0607966 
2 1:0.011236 2:0.0405405 3:0.0808314 4:-0.00689655 5:-0.0265487 6:-0.106918 
2 1:0.208989 2:0.00900901 3:-0.00230947 4:0.0666667 5:-0.0132743 6:-0.0733753 
2 1:0.101124 2:-0.0720721 3:-0.00692841 4:-0.0666667 5:0.00442478 6:-0.0104822 
2 1:-0.00224719 2:0.702703 3:0.0900693 4:0.0528736 5:0.0973451 6:-0.0188679 
2 1:0.0247191 2:-0.0540541 3:-0.0438799 4:-0.149425 5:-0.0752212 6:0.559748 
2 1:0.164045 2:-0.513514 3:-0.672055 4:-0.508046 5:-0.544248 6:-0.572327 
2 1:-0.626966 2:-0.635135 3:-0.570439 4:-0.498851 5:-0.460177 6:-0.534591 
2 1:0.12809 2:0.0675676 3:0.108545 4:0.112644 5:0.800885 6:0.0901468 
2 1:0.105618 2:0.0630631 3:0.0669746 4:0.112644 5:0.176991 6:0.081761 
2 1:-0.626966 2:-0.743243 3:-0.588915 4:-0.590805 5:-0.50885 6:-0.551363 
2 1:0.71236 2:0.0630631 3:-0.0623557 4:0.00229885 5:0.0884956 6:-0.0146751 
2 1:-0.0741573 2:-0.121622 3:-0.039261 4:-0.149425 5:-0.00884956 6:-0.0691824 
2 1:-0.0292135 2:-0.0225225 3:-0.117783 4:-0.0482759 5:-0.0530973 6:-0.106918 
2 1:0.31236 2:0.824324 3:-0.0300231 4:0.0712644 5:0.0752212 6:-0.0440252 
2 1:0.411236 2:0.117117 3:0.205543 4:0.144828 5:0.163717 6:-0.0524109 
2 1:0.213483 2:0.202703 3:0.0207852 4:0.108046 5:0.0221239 6:-0.0649895 
2 1:0.0337079 2:-0.0045045 3:0.0254042 4:-0.0390805 5:-0.0663717 6:-0.144654 
2 1:0.0696629 2:0.171171 3:0.103926 4:0.0850575 5:-0.0176991 6:-0.0440252 
2 1:0.186517 2:0.126126 3:0.196305 4:0.0298851 5:0.119469 6:-0.0649895 
2 1:0.0247191 2:-0.0045045 3:-0.108545 4:-0.0114943 5:-0.0221239 6:-0.119497 
2 1:-0.101124 2:-0.0855856 3:-0.0623557 4:-0.0436782 5:-0.10177 6:-0.190776 
1.251777855316265 1:0.0561798 2:0.0135135 3:0.0300231 4:0.0528736 5:-0.0973451 6:-0.102725 
2 1:0.0247191 2:0.0045045 3:-0.034642 4:0.00229885 5:-0.0575221 6:-0.140461 
2 1:-0.168539 2:-0.027027 3:-0.0808314 4:-0.103448 5:-0.181416 6:-0.157233 
2 1:-0.0651685 2:0.157658 3:-0.0762125 4:-0.112644 5:-0.0132743 6:-0.119497 
2 1:0.182022 2:0.153153 3:0.103926 4:0.062069 5:-0.0132743 6:-0.0146751 
2 1:0.119101 2:0.027027 3:0.0438799 4:-0.0896552 5:-0.0619469 6:-0.0566038 
2 1:0.182022 2:-0.0855856 3:0.00230947 4:-0.0206897 5:-0.0884956 6:-0.0398323 
2 1:-0.0966292 2:-0.27027 3:-0.0438799 4:-0.0896552 5:-0.163717 6:-0.333333 
2 1:-0.635955 2:-0.581081 3:-0.658199 4:-0.682759 5:-0.730088 6:-0.714885 
1.435912104342089 1:-0.31236 2:-0.130631 3:-0.0854503 4:-0.195402 5:-0.176991 6:-0.228512 
2 1:-0.0651685 2:-0.0765766 3:0.0115473 4:-0.0712644 5:-0.0752212 6:-0.12369 
2 1:0.0292135 2:-0.027027 3:-0.0300231 4:-0.0712644 5:-0.106195 6:-0.0859539 
2 1:0.0966292 2:0.130631 3:0.0946882 4:-0.062069 5:0.0221239 6:-0.048218 
0.7758532001049139 1:-0.635955 2:-0.747748 3:0.154734 4:-0.770115 5:-0.814159 6:-0.769392 
2 1:0.101124 2:0.00900901 3:-0.00692841 4:-0.126437 5:-0.0840708 6:-0.0985325 
2 1:-0.12809 2:0.0990991 3:0.0300231 4:-0.131034 5:0.0309735 6:-0.119497 
2 1:0.0831461 2:0.126126 3:-0.0438799 4:-0.0114943 5:-0.0442478 6:-0.0901468 
2 1:0.0292135 2:0.126126 3:0.00692841 4:0.00689655 5:0.00442478 6:-0.115304 
2 1:0.132584 2:0.0675676 3:0.117783 4:0.0896552 5:-0.00884956 6:-0.0607966 
2 1:-0.0247191 2:-0.0990991 3:-0.0854503 4:-0.0482759 5:-0.0973451 6:-0.249476 
2 1:-0.0966292 2:-0.126126 3:0.0300231 4:-0.117241 5:-0.0929204 6:-0.18239 
2 1:-0.0696629 2:-0.0990991 3:-0.0531178 4:-0.0482759 5:-0.123894 6:-0.140461 
2 1:0.240449 2:0.252252 3:0.163972 4:0.0344828 5:0.0619469 6:-0.00209644 
2 1:-0.123596 2:0.0855856 3:0.00230947 4:-0.0574713 5:-0.039823 6:-0.144654 
2 1:-0.213483 2:-0.0135135 3:-0.127021 4:-0.112644 5:-0.132743 6:-0.15304 
2 1:0.0606742 2:-0.036036 3:0.039261 4:-0.0528736 5:-0.0752212 6:-0.0649895 
2 1:0.0876404 2:0.036036 3:-0.039261 4:-0.0666667 5:-0.0973451 6:-0.115304 
2 1:0.047191 2:0.00900901 3:0.127021 4:-0.0344828 5:-0.0442478 6:-0.0901468 
2 1:0.132584 2:-0.0315315 3:0.0531178 4:-0.0252874 5:-0.0575221 6:-0.0985325 
2 1:-0.0426966 2:-0.0405405 3:-0.0993072 4:-0.0666667 5:-0.154867 6:-0.111111 
2 1:0.0157303 2:0.0990991 3:-0.0254042 4:-0.0666667 5:-0.0973451 6:-0.0943396 
2 1:0.105618 2:-0.0405405 3:-0.0115473 4:-0.108046 5:-0.0486726 6:-0.136268 
2 1:0.0157303 2:-0.0585586 3:0.00692841 4:-0.0298851 5:-0.0619469 6:-0.199161 
2 1:0.217978 2:0.144144 3:-0.00230947 4:-0.0528736 5:-0.0442478 6:0.773585 
2 1:0.0876404 2:-0.018018 3:-0.159353 4:-0.126437 5:-0.119469 6:-0.178197 
2 1:0.141573 2:-0.036036 3:0.00230947 4:-0.0298851 5:-0.0442478 6:-0.0985325 
2 1:0.0651685 3:0.0300231 4:-0.112644 5:-0.0530973 6:0.727463 
2 1:0.694382 2:0.0585586 3:0.699769 4:-0.154023 5:-0.283186 6:0.639413 
2 1:0.0966292 2:-0.202703 3:-0.0623557 4:-0.0574713 5:-0.0575221 6:-0.106918 
2 1:-0.649438 2:-0.603604 3:-0.547344 4:-0.636782 5:-0.712389 6:-0.710692 
2 1:0.159551 2:0.189189 3:0.00230947 4:-0.0298851 5:0.0619469 6:-0.0733753 
2 1:0.146067 2:0.189189 3:0.0946882 4:0.144828 5:0.0486726 6:-0.00209644 
2 1:-0.0382022 2:-0.171171 3:0.0484988 4:0.00689655 5:-0.0265487 6:-0.169811 
2 1:0.869663 2:0.027027 3:0.034642 4:-0.00689655 5:-0.0265487 6:-0.081761 
2 1:-0.195506 2:-0.121622 3:-0.233256 4:-0.222989 5:-0.190265 6:-0.262055 
2 1:0.011236 2:0.00900901 3:0.0300231 4:-0.0712644 5:-0.0752212 6:-0.144654 
2 1:0.0157303 2:0.13964 3:0.0808314 4:-0.0206897 5:-0.0221239 6:-0.081761 
1.54080047183226 1:0.802247 2:0.261261 3:0.265589 4:-0.0804598 5:-0.110619 6:-0.127883 
2 1:0.047191 2:-0.00900901 3:-0.103926 4:-0.062069 5:-0.0575221 6:-0.140461 
2 1:0.177528 2:0.0495495 3:0.13164 4:0.0528736 5:-0.0265487 6:-0.0272537 
2 1:0.307865 2:0.211712 3:0.163972 4:0.135632 5:0.0840708 6:0.0733753 
2 1:-0.0247191 2:-0.0630631 3:-0.0900693 4:-0.108046 5:-0.221239 6:-0.111111 
2 1:-0.011236 2:0.0540541 3:-0.0808314 4:-0.0988506 5:-0.0530973 6:-0.21174 
0.4333996805207251 1:0.186517 2:-0.0720721 3:0.154734 4:-0.00229885 5:-0.106195 6:0.807128 
2 1:0.0696629 2:0.0585586 3:-0.0300231 4:-0.00229885 5:-0.0132743 6:-0.12369 
2 1:0.0337079 2:0.117117 3:0.145497 4:0.016092 5:-0.0132743 6:-0.0733753 
2 1:0.0337079 2:-0.0585586 3:0.0161663 4:0.0528736 5:-0.0221239 6:-0.119497 
2 1:-0.617978 2:-0.756757 3:-0.718245 4:-0.774713 5:-0.672566 6:-0.761006 
2 1:-0.168539 2:-0.193694 3:-0.205543 4:-0.287356 5:-0.269912 6:-0.320755 
2 1:-0.150562 2:-0.0405405 3:-0.122402 4:-0.0436782 5:-0.128319 6:-0.178197 
2 1:-0.626966 2:-0.666667 3:-1 4:-0.816092 5:-0.79646 6:-0.752621 
2 1:-0.173034 2:0.0135135 3:-0.150115 4:-0.0666667 5:-0.137168 6:-0.178197 
2 1:0.0247191 2:0.0810811 3:-0.0207852 4:-0.0114943 5:-0.0442478 6:-0.132075 
2 1:0.0337079 2:0.045045 3:-0.177829 4:-0.103448 5:-0.10177 6:-0.194969 
2 1:0.0292135 2:-0.0540541 3:-0.0715935 4:-0.209195 5:-0.141593 6:-0.169811 
0.9965813299761136 1:0.0876404 2:-0.184685 3:-0.0115473 4:-0.016092 5:-0.119469 6:-0.119497 
2 1:-0.204494 2:-0.13964 3:-0.0484988 4:-0.117241 5:-0.128319 6:-0.174004 
2 1:0.0876404 2:0.108108 3:0.0715935 4:-0.016092 5:-0.0176991 6:-0.0566038 
2 1:0.276404 2:0.0765766 3:0.113164 4:0.0206897 5:0.0530973 6:-0.00628931 
2 1:-0.011236 2:-0.0765766 3:-0.163972 4:-0.333333 5:-0.19469 6:-0.232704 
2 1:-0.0516854 2:-0.0405405 3:-0.108545 4:-0.112644 5:-0.168142 6:-0.12369 
2 1:-0.0561798 2:-0.0495495 3:-0.0900693 4:-0.0850575 5:-0.128319 6:-0.228512 
2 1:0.0382022 2:0.0405405 3:0.0993072 4:0.0482759 5:0.00884956 6:-0.0314465 
2 1:0.047191 2:0.0810811 3:-0.0484988 4:-0.0988506 5:-0.0265487 6:-0.115304 
2 1:-0.865169 2:-0.716216 3:-0.704388 4:-0.77931 5:-0.707965 6:-0.786164 
2 1:-0.0382022 2:-0.0810811 3:0.127021 4:-0.00229885 5:-0.0442478 6:-0.0440252 
2 1:0.0202247 2:-0.0045045 3:0.0254042 4:-0.00689655 5:-0.00442478 6:-0.0691824 
2 1:0.00674157 2:0.0045045 3:0.0254042 4:0.00229885 5:-0.0929204 6:-0.106918 
2 1:0.0876404 2:0.148649 3:0.145497 4:0.149425 6:-0.0524109 
2 1:0.294382 2:-0.0540541 3:0.0993072 4:0.103448 5:0.0309735 6:-0.0188679 
2 1:0.0831461 2:0.0540541 3:-0.0854503 4:-0.0436782 5:-0.119469 6:-0.0985325 
2 1:0.0202247 2:0.148649 3:0.0531178 4:0.0390805 5:-0.0442478 6:-0.0440252 
2 1:0.0382022 2:-0.0315315 3:0.113164 4:-0.00689655 5:-0.039823 6:-0.0943396 
2 1:0.164045 2:-0.027027 3:0.154734 4:0.135632 5:0.0221239 6:-0.0775681 
2 1:0.00674157 2:-0.0765766 3:-0.0946882 4:-0.0436782 5:-0.128319 6:-0.119497 
2 1:0.101124 2:-0.0765766 3:0.0161663 4:0.00689655 5:-0.0442478 6:-0.106918 
2 1:0.0966292 2:-0.220721 3:-0.127021 4:-0.135632 5:-0.137168 6:-0.178197 
2 1:0.0651685 2:0.0045045 3:0.0300231 4:0.0758621 5:-0.0442478 6:-0.0566038 
1.213169333433238 1:0.0921348 2:-0.0540541 3:-0.00230947 4:0.0436782 5:0.00442478 6:-0.207547 
2 1:-0.0786517 2:0.018018 3:-0.039261 4:-0.108046 5:-0.0353982 6:-0.18239 
2 1:0.146067 2:-0.162162 3:-0.0762125 4:-0.126437 5:-0.0530973 6:-0.140461 
2 1:0.186517 2:0.0540541 3:0.0531178 4:-0.00229885 5:0.0221239 6:-0.106918 
2 1:-0.2 2:0.0495495 3:0.122402 4:0.0114943 5:0.00442478 6:-0.0859539 
0.3577301040008268 1:0.0741573 2:-0.207207 3:-0.039261 4:-0.163218 5:-0.221239 6:-0.148847 
2 1:-0.00674157 2:-0.0495495 3:-0.0161663 4:-0.0942529 5:-0.106195 6:-0.148847 
2 1:0.0247191 2:-0.103604 3:-0.122402 4:-0.135632 5:-0.163717 6:-0.0859539 
2 1:0.011236 2:-0.0045045 3:0.0669746 4:-0.0390805 5:-0.0486726 6:-0.157233 
2 1:0.0876404 2:-0.112613 3:-0.0762125 4:-0.14023 5:-0.132743 6:-0.161426 
2 1:0.182022 2:0.144144 3:0.140878 4:0.00229885 5:0.0176991 6:0.0104822 
1.085971337988726 1:-0.0831461 2:-0.0585586 3:-0.039261 4:-0.144828 5:-0.238938 6:-0.157233 
2 1:-0.0516854 2:0.036036 3:-0.200924 4:-0.167816 5:-0.181416 6:-0.215933 
2 1:0.011236 2:-0.112613 3:-0.0161663 4:-0.0436782 5:-0.0530973 6:-0.245283 
2 1:0.0247191 2:-0.13964 3:-0.0900693 4:-0.0298851 5:-0.115044 6:-0.148847 
2 1:0.0382022 2:0.13964 3:-0.0900693 4:-0.0390805 5:-0.0884956 6:-0.0859539 
2 1:0.0337079 2:-0.036036 3:-0.039261 4:-0.0482759 5:-0.0840708 6:-0.111111 
2 1:0.123596 2:0.0855856 3:0.0808314 4:-0.0574713 5:-0.0221239 6:-0.0230608 
2 1:-0.0516854 2:-0.0405405 3:0.117783 4:0.0574713 5:-0.0707965 6:-0.12369 
2 1:0.12809 2:0.112613 3:0.0993072 4:0.0206897 5:0.00884956 6:-0.0691824 
2 1:0.0786517 2:0.175676 3:0.0531178 4:-0.0114943 5:0.0176991 6:-0.0691824 
2 1:-0.604494 2:-0.815315 3:-0.778291 4:-0.797701 5:-0.716814 6:-0.765199 
2 1:0.0831461 2:-0.0540541 3:0.0484988 4:-0.0574713 5:-0.0132743 6:-0.102725 
2 1:0.0741573 2:0.0225225 3:0.117783 4:-0.0344828 5:-0.0530973 6:-0.081761 
2 1:-0.12809 2:-0.162162 3:-0.00230947 4:-0.163218 5:-0.146018 6:-0.186583 
2 1:-0.0382022 2:0.0540541 3:-0.150115 4:-0.0712644 5:-0.0752212 6:-0.194969 
2 1:0.0921348 2:0.103604 3:0.103926 4:0.00229885 5:0.0132743 6:-0.0566038 
2 1:0.0382022 2:-0.018018 3:-0.210162 4:-0.158621 5:-0.132743 6:-0.194969 
2 1:0.0157303 2:-0.0900901 3:-0.039261 4:-0.0850575 5:-0.0486726 6:-0.144654 
2 1:0.00224719 2:-0.045045 3:-0.034642 4:0.00229885 5:-0.0530973 6:-0.199161 
2 1:0.0247191 2:0.0135135 3:0.0161663 4:-0.062069 5:-0.106195 6:-0.0985325 
2 1:0.101124 2:-0.135135 3:-0.103926 4:-0.062069 5:-0.0575221 6:-0.0607966 
2 1:-0.541573 2:-0.54955 3:-0.69515 4:-0.737931 5:-0.707965 6:0.144654 
2 1:-0.595506 2:-0.68018 3:-0.676674 4:-0.742529 5:-0.712389 6:-0.719078 
2 1:0.0606742 2:-0.0990991 3:-0.214781 4:-0.112644 5:-0.181416 6:-0.199161 
2 1:0.0651685 2:-0.0540541 3:-0.034642 4:-0.0666667 5:-0.0442478 6:0.735849 
2 1:-0.011236 2:0.0765766 3:0.034642 4:0.0436782 5:-0.0840708 6:-0.0524109 
2 1:-0.0876404 2:0.0720721 3:-0.0900693 4:-0.0804598 5:-0.0752212 6:-0.144654 
2 1:-0.0202247 2:0.103604 3:0.108545 4:0.062069 5:0.0575221 6:0.00209644 
2 1:0.0786517 2:-0.0540541 3:-0.00230947 4:-0.016092 5:-0.146018 6:-0.0649895 
2 1:0.0876404 2:0.0585586 3:-0.0715935 4:-0.0482759 5:-0.0752212 6:-0.12369 
2 1:0.177528 2:0.112613 3:0.163972 4:0.0666667 5:0.0575221 6:0.0104822 
2 1:0.047191 2:-0.045045 3:-0.034642 4:-0.0482759 5:-0.132743 6:-0.132075 
2 1:0.0696629 2:-0.036036 3:0.0946882 4:-0.016092 5:-0.0752212 6:-0.0859539 
2 1:-0.119101 2:-0.0630631 3:-0.0531178 4:-0.177011 5:-0.137168 6:-0.194969 
2 1:-0.676404 2:-0.774775 3:-0.713626 4:-0.622989 5:-0.70354 6:-0.790356 
2 1:-0.725843 2:-0.887387 3:-0.82448 4:-0.76092 5:-0.89823 6:-0.802935 
2 1:-0.0516854 2:-0.0765766 3:-0.0900693 4:-0.0850575 5:-0.146018 6:-0.207547 
2 1:-0.734831 2:-0.599099 3:-0.690531 4:-0.788506 5:-0.685841 6:-0.727463 
1.832112553179203 1:0.262921 2:0.036036 3:0.0577367 4:0.016092 5:-0.0309735 6:0.861635 
2 1:-0.00224719 2:0.036036 3:-0.0900693 4:-0.0482759 5:-0.0663717 6:-0.12369 
2 1:-0.0382022 2:-0.036036 3:-0.0300231 4:-0.0942529 5:-0.176991 6:-0.148847 
2 1:0.0696629 2:-0.0585586 3:-0.039261 4:-0.117241 5:-0.146018 6:-0.140461 
2 1:-0.685393 2:-0.765766 3:-0.759815 4:-0.65977 5:-0.809735 6:-0.702306 
2 1:-0.330337 2:-0.301802 3:-0.26097 4:-0.347126 5:-0.323009 6:-0.375262 
2 1:0.276404 2:0.0630631 3:-0.00692841 4:0.0574713 5:0.0176991 6:-0.081761 
2 1:0.182022 2:-0.0720721 3:0.034642 4:0.149425 5:-0.115044 6:-0.0230608 
2 1:0.0966292 2:0.189189 3:0.182448 4:0.236782 5:0.132743 6:0.0901468 
2 1:-0.0786517 2:0.0720721 3:-0.034642 4:0.0114943 5:0.00884956 6:-0.0649895 
2 1:0.0831461 2:0.112613 3:0.103926 4:0.108046 5:0.0663717 6:-0.0146751 
2 1:-0.0382022 2:-0.027027 3:-0.0438799 4:-0.0850575 5:-0.0619469 6:-0.228512 
2 1:0.0696629 2:0.103604 3:0.154734 4:0.0988506 5:0.106195 6:-0.0775681 
2 1:0.0606742 2:0.0855856 3:0.168591 4:0.0252874 5:0.00884956 6:-0.00628931 
2 1:0.101124 2:0.0045045 3:0.0161663 4:0.016092 5:-0.0353982 6:-0.0985325 
2 1:-0.00674157 2:0.0585586 3:0.0207852 4:-0.0344828 5:-0.0707965 6:-0.0649895 
2 1:0.0382022 2:-0.036036 3:0.00692841 4:0.00229885 5:-0.0707965 6:-0.0985325 
2 1:0.132584 2:0.0720721 3:0.0438799 4:0.0988506 5:-0.0752212 6:-0.0398323 
2 1:0.0426966 2:-0.144144 3:0.039261 4:0.0758621 5:0.0663717 6:0.0398323 
2 1:0.213483 2:0.202703 3:0.168591 4:0.14023 5:0.0973451 6:0.0104822 
2 1:-0.132584 2:0.0720721 3:0.0577367 4:-0.0390805 5:-0.0884956 6:-0.0356394 
2 1:-0.0426966 2:0.027027 3:0.0484988 4:0.00229885 5:0.0132743 6:-0.0230608 
2 1:-0.119101 2:0.0045045 3:-0.0854503 4:-0.2 5:-0.110619 6:-0.174004 
2 1:-0.101124 2:-0.166667 3:-0.0669746 4:-0.121839 5:-0.115044 6:-0.169811 
2 1:-0.226966 2:-0.0315315 3:-0.117783 4:-0.0896552 5:0.818584 6:-0.165618 
2 1:0.244944 2:0.27027 3:0.187067 4:0.0988506 5:0.0707965 6:-0.00628931 
2 1:0.105618 2:-0.0045045 3:0.150115 4:0.112644 6:-0.081761 
2 1:0.0157303 2:-0.0900901 3:0.0115473 4:0.103448 5:-0.0840708 6:-0.144654 
2 1:0.191011 2:0.144144 3:0.182448 4:0.0804598 5:0.0530973 6:-0.0398323 
2 1:-0.0157303 2:-0.0540541 3:-0.127021 4:-0.0574713 5:-0.141593 6:-0.186583 
2 1:0.0157303 2:0.0495495 3:0.0808314 4:-0.062069 5:-0.0486726 6:-0.115304 
2 1:-0.0561798 2:-0.045045 3:-0.0484988 4:-0.0850575 5:-0.0929204 6:-0.12369 
2 1:0.00674157 2:0.130631 3:0.136259 4:0.0528736 5:0.0530973 6:-0.0356394 
2 1:-0.0606742 2:0.126126 3:0.0207852 4:0.112644 5:0.00884956 6:-0.140461 
2 1:0.0966292 2:0.157658 3:0.145497 4:0.016092 5:0.0309735 6:0.00209644 
2 1:0.0382022 3:0.0254042 4:-0.0436782 5:-0.150442 6:-0.0859539 
2 1:0.191011 2:0.0990991 3:-0.0993072 4:-0.0206897 5:-0.0221239 6:-0.0985325 
2 1:0.0292135 2:0.045045 3:-0.0531178 4:0.0252874 5:-0.0132743 6:-0.165618 
2 1:0.0831461 2:-0.018018 3:-0.00692841 4:-0.112644 5:-0.0840708 6:-0.132075 
2 1:-0.0292135 2:-0.0855856 3:-0.0715935 4:-0.0988506 5:-0.0707965 6:-0.194969 
2 1:0.2 2:0.234234 3:0.113164 4:0.126437 5:0.0486726 6:-0.0146751 
2 1:-0.00224719 2:-0.0045045 3:0.00692841 4:0.00229885 5:0.00884956 6:-0.127883 
2 1:0.141573 2:0.130631 3:0.00230947 4:-0.00229885 5:-0.0309735 6:-0.0733753 
2 1:0.0202247 2:-0.0045045 3:0.00230947 4:-0.0804598 5:-0.0309735 6:-0.140461 
2 1:-0.137079 2:0.0315315 3:-0.200924 4:-0.016092 5:-0.141593 6:-0.203354 
2 1:0.123596 2:0.0720721 3:0.127021 4:-0.0252874 5:0.00442478 6:0.823899 
2 1:0.105618 2:0.027027 3:0.0161663 4:-0.108046 5:0.0309735 6:-0.081761 
2 1:0.0696629 3:-0.0531178 4:-0.112644 5:-0.079646 6:-0.148847 
2 1:0.0651685 2:-0.0765766 3:-0.242494 4:-0.177011 5:-0.172566 6:-0.186583 
2 1:0.146067 3:0.0438799 4:-0.0344828 5:-0.0884956 6:-0.0649895 
2 1:-0.860674 2:-0.648649 3:-0.648961 4:-0.733333 5:-0.752212 6:-0.714885 
2 1:-0.123596 2:-0.121622 3:-0.0854503 4:-0.144828 5:-0.119469 6:-0.178197 
2 1:0.676404 2:-0.0405405 3:-0.311778 4:-0.209195 5:-0.207965 6:-0.194969 
2 1:-0.0651685 2:-0.184685 3:-0.196305 4:-0.154023 5:-0.278761 6:-0.236897 
1.315720738965436 1:-0.0606742 2:-0.211712 3:-0.13164 4:-0.149425 5:-0.234513 6:-0.29979 
2 1:0.105618 2:-0.117117 3:-0.17321 4:-0.0896552 5:-0.20354 6:0.731656 
2 1:0.146067 2:-0.121622 3:-0.0900693 4:-0.154023 5:-0.0530973 6:-0.174004 
2 1:0.164045 2:0.045045 3:0.0669746 4:0.0206897 5:-0.0929204 6:-0.0440252 
2 1:-0.00674157 2:0.117117 3:0.127021 4:-0.0574713 5:-0.0707965 6:0.819706 
2 1:0.226966 2:-0.045045 3:-0.034642 4:-0.108046 5:-0.0707965 6:-0.0691824 
2 1:0.114607 2:0.0135135 3:-0.0623557 4:-0.0298851 5:-0.0840708 6:-0.081761 
2 1:0.0786517 2:0.22973 3:0.168591 4:0.112644 5:0.039823 6:-0.0188679 
2 1:-0.132584 2:-0.0225225 3:-0.0254042 4:-0.0114943 5:-0.0929204 6:-0.0859539 
2 1:-0.011236 2:-0.13964 3:0.00692841 4:-0.016092 5:-0.0663717 6:-0.157233 
2 1:0.0696629 2:-0.0900901 3:0.0300231 4:0.062069 5:-0.0442478 6:-0.0859539 
2 1:-0.0337079 2:-0.0585586 3:-0.0900693 4:-0.0942529 5:-0.19469 6:-0.186583 
2 1:0.150562 2:-0.0225225 3:-0.0484988 4:0.0390805 5:0.0353982 6:0.0104822 
2 1:0.0157303 2:-0.0135135 3:0.0254042 4:-0.0574713 5:-0.141593 6:-0.0440252 
2 1:0.0202247 2:-0.027027 3:0.00692841 4:0.0712644 5:-0.0663717 6:-0.140461 
2 1:0.0561798 2:0.0810811 3:0.0115473 4:-0.0114943 5:0.00884956 6:-0.0398323 
2 1:0.240449 2:0.148649 3:0.159353 4:0.0390805 5:0.0265487 6:0.0230608 
2 1:0.164045 2:0.121622 3:0.205543 4:0.108046 5:0.0663717 6:-0.0607966 
2 1:-0.047191 2:-0.148649 3:-0.0808314 4:-0.0574713 5:-0.19469 6:-0.228512 
2 1:-0.047191 2:0.117117 3:0.0623557 4:0.0850575 5:-0.0575221 6:0.819706 
2 1:0.0831461 2:0.175676 3:0.117783 4:-0.0390805 5:0.039823 6:-0.00209644 
2 1:0.146067 2:0.121622 3:0.0300231 4:0.016092 5:-0.0221239 6:-0.0859539 
2 1:0.0382022 2:0.0630631 3:-0.0161663 4:0.0436782 5:0.0221239 6:-0.0901468 
2 1:0.0786517 2:-0.036036 3:-0.0207852 4:-0.0574713 5:-0.10177 6:-0.115304 
2 1:-0.564045 2:-0.788288 3:-0.718245 4:-0.691954 5:-0.734513 6:-0.752621 
2 1:0.159551 2:0.117117 3:-0.0993072 4:0.0298851 5:-0.00884956 6:-0.0649895 
2 1:0.0516854 2:-0.0225225 3:0.0484988 4:-0.016092 5:-0.0840708 6:-0.102725 
2 1:0.0921348 2:-0.225225 3:-0.0715935 4:-0.016092 5:-0.141593 6:-0.119497 
2 1:0.0606742 2:-0.126126 3:-0.0161663 4:0.016092 5:-0.0530973 6:-0.174004 
2 1:-0.047191 2:-0.121622 3:-0.0300231 4:-0.0252874 5:-0.106195 6:-0.119497 
2 1:-0.110112 2:-0.0855856 3:-0.247113 4:-0.126437 5:-0.137168 6:-0.295597 
2 1:0.811236 2:0.045045 3:-0.136259 4:-0.0988506 5:-0.10177 6:-0.136268 
2 1:0.177528 2:0.144144 3:0.0531178 4:-0.0252874 5:0.039823 6:-0.0943396 
2 1:0.222472 2:0.153153 3:-0.0762125 4:-0.0114943 5:-0.0486726 6:-0.0398323 
2 1:0.361798 2:0.256757 3:0.0484988 4:0.144828 5:0.146018 6:-0.0104822 
2 1:-0.0247191 2:-0.0900901 3:-0.0438799 4:-0.0206897 5:-0.0663717 6:-0.127883 
2 1:0.321348 2:0.369369 3:0.205543 4:0.149425 5:0.0884956 6:0.102725 
2 1:0.0831461 2:-0.018018 3:-0.0207852 4:0.0528736 5:0.0353982 6:-0.132075 
2 1:0.119101 2:-0.018018 3:-0.0623557 4:-0.0528736 5:-0.163717 6:-0.081761 
2 1:0.105618 2:0.045045 3:0.0531178 4:0.00689655 5:-0.0221239 6:-0.0733753 
2 1:0.011236 3:-0.0484988 4:-0.167816 5:-0.123894 6:-0.186583 
2 1:-0.608989 2:-0.572072 3:-0.704388 4:-0.76092 5:-0.69469 6:-0.731656 
2 1:0.0786517 2:-0.0585586 3:-0.0207852 4:-0.0206897 5:-0.110619 6:-0.12369 
2 1:-0.011236 2:-0.0045045 3:-0.0946882 4:-0.0666667 5:-0.0707965 6:-0.157233 
2 1:0.0651685 2:0.0720721 3:0.00692841 4:-0.0942529 5:-0.0265487 6:-0.119497 
2 1:0.155056 2:0.0810811 3:-0.0254042 4:0.0252874 5:0.0265487 6:-0.0314465 
2 1:0.0921348 2:-0.036036 3:0.0115473 4:-0.0666667 5:0.0265487 6:-0.15304 
2 1:0.0337079 2:-0.0405405 3:0.0115473 4:-0.0988506 5:-0.0929204 6:-0.136268 
2 1:0.0651685 2:0.13964 3:0.0623557 4:0.0206897 5:0.039823 6:-0.148847 
2 1:0.182022 2:0.247748 3:0.0808314 4:0.144828 5:0.0619469 6:0.0230608 
2 1:-0.0516854 2:0.0990991 3:0.0300231 4:-0.121839 5:-0.0486726 6:-0.106918 
2 1:0.213483 2:0.121622 3:0.0438799 4:0.062069 5:0.0265487 6:-0.0356394 
2 1:0.137079 2:0.144144 3:0.0715935 4:0.00689655 5:-0.0265487 6:-0.0398323 
2 1:-0.047191 2:0.148649 3:0.0669746 4:0.0804598 5:0.0752212 6:-0.0230608 
2 1:0.0786517 2:-0.0945946 3:-0.17321 4:-0.0988506 5:-0.141593 6:-0.203354 
2 1:0.168539 2:0.211712 3:0.117783 4:0.0942529 5:0.0176991 6:-0.048218 
2 1:0.114607 2:0.0990991 3:0.0115473 4:-0.0298851 5:-0.0442478 6:-0.0943396 
2 1:0.0831461 2:0.0630631 3:-0.17321 4:-0.0758621 5:-0.0752212 6:-0.144654 
2 1:0.0337079 2:0.130631 3:-0.117783 4:-0.0666667 5:-0.0884956 6:-0.0943396 
2 1:0.874157 2:0.126126 3:0.0623557 4:0.108046 5:0.0530973 6:-0.12369 
2 1:0.793258 2:0.0855856 3:-0.00230947 4:-0.0942529 5:-0.0884956 6:-0.136268 
2 1:-0.707865 2:-0.648649 3:-0.699769 4:-0.682759 5:-0.654867 6:-0.731656 
2 1:-0.0157303 2:-0.0630631 3:-0.103926 4:-0.0758621 5:-0.123894 6:-0.111111 
1.816631601654479 1:0.164045 2:-0.545045 3:-0.690531 4:-0.595402 5:0.190265 6:-0.823899 
2 1:-0.011236 2:-0.0765766 3:-0.127021 4:-0.0988506 5:-0.123894 6:-0.236897 
2 1:-0.577528 2:-0.693694 3:-0.621247 4:-0.714943 5:-0.663717 6:-0.773585 
2 1:-0.110112 2:-0.036036 3:-0.00692841 4:-0.0574713 5:-0.0840708 6:-0.0985325 
1.113705144690382 1:0.164045 2:-0.5 3:-0.681293 4:-0.71954 5:-0.654867 6:-0.748428 
2 1:-0.48764 2:-0.572072 3:-0.630485 4:-0.678161 5:-0.725664 6:-0.647799 
2 1:-0.0247191 2:0.103604 3:-0.0623557 4:-0.0850575 5:-0.0840708 6:-0.144654 
2 1:0.159551 2:-0.0720721 3:-0.0715935 4:-0.0252874 5:-0.119469 6:-0.0691824 
2 1:0.0831461 2:0.0135135 3:-0.0161663 4:-0.0482759 5:-0.0575221 6:-0.132075 
2 1:-0.0966292 2:-0.126126 3:-0.311778 4:-0.158621 5:-0.199115 6:-0.303983 
2 1:0.0786517 2:0.108108 3:0.0854503 4:0.0206897 5:0.0353982 6:-0.111111 
2 1:-0.0157303 2:0.117117 3:-0.136259 4:-0.0804598 5:-0.0973451 6:-0.0901468 
2 1:-0.52809 2:-0.576577 3:-0.65358 4:-0.687356 5:-0.637168 6:-0.752621 
2 1:0.78427 2:-0.108108 3:-0.039261 4:-0.0850575 5:-0.0707965 6:-0.140461 
2 1:0.123596 2:0.036036 3:-0.0161663 4:-0.14023 5:-0.0309735 6:-0.0691824 
2 1:-0.474157 2:-0.527027 3:-0.764434 4:-0.678161 5:-0.712389 6:-0.714885 
2 1:0.101124 2:0.0225225 3:-0.034642 4:-0.112644 5:-0.0619469 6:-0.127883 
2 1:0.213483 2:0.175676 3:0.182448 4:0.144828 5:0.0973451 6:0.0272537 
2 1:-0.662921 2:-0.626126 3:-0.741339 4:-0.710345 5:-0.676991 6:-0.677149 
2 1:0.316854 2:0.108108 3:0.187067 4:0.149425 5:0.0929204 6:0.0188679 
2 1:0.0516854 2:-0.0495495 3:-0.13164 4:-0.222989 5:-0.0840708 6:-0.18239 
2 1:0.0876404 2:0.0945946 3:0.00692841 4:-0.0482759 5:-0.00442478 6:-0.0524109 
2 1:0.249438 2:0.234234 3:0.13164 4:0.0574713 5:0.0221239 6:0.00628931 
2 1:-0.496629 2:-0.513514 3:-0.676674 4:-0.701149 5:-0.743363 6:-0.677149 
2 1:-0.280899 2:-0.162162 3:0.0115473 4:-0.135632 5:-0.0929204 6:-0.21174 
2 1:0.00224719 2:-0.00900901 3:0.0946882 4:-0.00229885 5:-0.00884956 6:-0.0524109 
2 1:0.793258 2:0.779279 3:0.0623557 4:0.016092 5:-0.0929204 6:-0.174004 
2 1:-0.505618 2:-0.707207 3:-0.658199 4:-0.678161 5:-0.725664 6:-0.672956 
2 1:0.235955 2:0.148649 3:0.242494 4:0.222989 5:0.0530973 6:0.0146751 
2 1:0.0831461 2:-0.0225225 3:-0.039261 4:-0.00229885 5:-0.0707965 6:-0.132075 
2 1:0.141573 2:0.157658 3:0.145497 4:0.0712644 5:0.0530973 6:-0.00209644 
1.385394417774515 1:-0.469663 2:-0.63964 3:-0.639723 4:-0.687356 5:-0.646018 6:-0.802935 
2 1:-0.0382022 2:-0.108108 3:-0.034642 4:-0.0574713 5:-0.0530973 6:-0.178197 
2 1:0.137079 2:0.0945946 3:-0.00692841 4:-0.0436782 5:0.0265487 6:-0.0691824 
2 1:0.204494 2:0.157658 3:0.228637 4:0.112644 5:-0.0265487 6:0.0440252 
2 1:-0.667416 2:-0.792793 3:-0.681293 4:-0.613793 5:-0.676991 6:-0.72327 
2 1:0.141573 2:0.0315315 3:0.0254042 4:-0.0390805 5:0.0530973 6:-0.0398323 
2 1:0.595506 2:0.581081 3:-0.0577367 4:-0.112644 5:-0.132743 6:-0.161426 
2 1:-0.505618 2:-0.581081 3:-0.672055 4:-0.590805 5:-0.544248 6:-0.496855 
2 1:0.12809 2:0.00900901 3:0.0762125 4:-0.0344828 5:-0.0309735 6:-0.0566038 
2 1:-0.465169 2:-0.608108 3:-0.685912 4:-0.627586 5:-0.513274 6:-0.589099 
2 1:-0.604494 2:-0.563063 3:-0.718245 4:-0.678161 5:-0.681416 6:-0.727463 
2 1:-0.74382 2:-0.765766 3:-0.810624 4:-0.82069 5:-0.716814 6:-0.828092 
2 1:-0.0247191 2:0.198198 3:0.177829 4:0.135632 5:0.0619469 6:-0.0901468 
2 1:0.0831461 2:-0.027027 3:-0.117783 4:-0.0712644 5:-0.0530973 6:-0.194969 
2 1:0.0831461 2:0.0945946 3:0.00230947 4:-0.00229885 5:0.0221239 6:-0.190776 
2 1:0.0382022 2:-0.0855856 3:-0.0715935 4:-0.186207 5:-0.163717 6:-0.190776 
2 1:0.182022 2:0.184685 3:0.0946882 4:0.103448 5:0.00442478 6:-0.0440252 
2 1:-0.217978 2:0.0630631 3:-0.00692841 4:-0.0528736 5:-0.10177 6:-0.0985325 
2 1:-0.676404 2:-0.653153 3:-0.65358 4:-0.595402 5:-0.628319 6:-0.748428 
2 1:0.0337079 2:0.13964 3:0.00692841 4:-0.0896552 5:0.00884956 6:-0.081761 
2 1:0.0516854 2:-0.018018 3:0.0438799 4:-0.0574713 5:0.00442478 6:-0.220126 
2 1:0.0921348 2:0.00900901 3:0.0254042 4:0.0482759 5:-0.0176991 6:-0.148847 
2 1:0.2 2:-0.00900901 3:0.0669746 4:-0.0758621 5:-0.0442478 6:-0.048218 
2 1:-0.141573 2:-0.135135 3:-0.103926 4:-0.121839 5:-0.110619 6:-0.245283 
2 1:0.047191 2:0.0675676 3:-0.0854503 4:-0.0850575 5:-0.110619 6:-0.111111 
2 1:0.105618 2:0.103604 3:0.00692841 4:0.0252874 5:0.0309735 6:-0.106918 
2 1:0.0786517 2:0.0900901 3:0.034642 4:-0.0114943 5:-0.0663717 6:-0.0440252 
2 1:0.757303 2:0.0810811 3:-0.0161663 4:-0.0482759 5:-0.137168 6:-0.144654 
2 1:-0.626966 2:-0.635135 3:-0.644342 4:-0.724138 5:-0.743363 6:-0.710692 
2 1:0.00674157 2:-0.036036 3:-0.0808314 4:-0.0758621 5:-0.0752212 6:-0.0985325 
2 1:0.217978 2:0.18018 3:0.159353 4:0.0482759 5:0.119469 6:-0.0104822 
2 1:0.110112 2:-0.0900901 3:-0.113164 4:-0.0942529 5:0.0442478 6:-0.0775681 
0.2288045961565117 1:0.0382022 2:0.193694 3:0.150115 4:0.117241 5:-0.0176991 6:-0.0607966 
2 1:0.235955 2:-0.121622 3:0.0484988 4:0.0528736 5:-0.00884956 6:-0.0314465 
2 1:0.0426966 2:-0.0900901 3:-0.233256 4:-0.062069 5:-0.115044 6:-0.144654 
2 1:0.150562 2:-0.0990991 3:-0.0254042 4:-0.016092 5:0.00442478 6:-0.144654 
2 1:-0.640449 2:-0.810811 3:-0.759815 4:-0.788506 5:-0.787611 6:-0.698113 
2 1:0.101124 2:-0.103604 3:-0.0715935 4:-0.135632 5:-0.119469 6:-0.18239 
2 1:0.150562 2:-0.045045 3:-0.0715935 4:-0.149425 5:-0.0353982 6:-0.178197 
2 1:-0.0382022 2:-0.202703 3:-0.0900693 4:-0.0574713 5:0.628319 6:-0.136268 
2 1:0.676404 2:0.662162 3:-0.0715935 4:-0.0436782 5:0.0132743 6:-0.115304 
2 1:0.119101 2:0.112613 3:0.0623557 4:0.108046 5:0.778761 6:0.0649895 
2 1:-0.510112 2:-0.540541 3:-0.602771 4:0.135632 5:-0.482301 6:-0.589099 
2 1:-0.0876404 2:-0.0135135 3:-0.0207852 4:-0.0114943 5:0.132743 6:0.00209644 
2 1:0.00674157 2:-0.036036 3:-0.159353 4:-0.112644 5:0.40708 6:0.350105 
2 1:0.582022 2:0.567568 3:-0.103926 4:-0.0574713 5:0.00442478 6:-0.0859539 
2 1:0.173034 2:0.171171 3:0.187067 4:0.0528736 5:0.106195 6:0.0649895 
2 1:-0.262921 2:-0.162162 3:0.0484988 4:0.370115 5:-0.150442 6:0.358491 
2 1:-0.0876404 2:-0.0990991 3:0.381062 4:-0.158621 5:-0.207965 6:-0.21174 
2 1:0.137079 2:0.148649 3:0.13164 4:0.0528736 5:0.190265 6:0.0901468 
2 1:-0.0876404 2:-0.0720721 3:-0.140878 4:-0.190805 5:-0.110619 6:-0.186583 
2 1:0.110112 2:-0.036036 3:-0.0531178 4:-0.0528736 5:-0.0265487 6:-0.0733753 
2 1:-0.52809 2:-0.59009 3:-0.713626 4:-0.788506 5:-0.632743 6:-0.689727 
2 1:-0.0876404 2:0.545045 3:-0.288684 4:-0.264368 5:-0.216814 6:-0.303983 
2 1:-0.00224719 2:-0.22973 3:-0.177829 4:-0.167816 5:-0.278761 6:-0.207547 
2 1:0.047191 2:-0.0990991 3:0.0531178 4:0.016092 5:-0.0973451 6:-0.081761 
2 1:-0.649438 2:-0.720721 3:-0.681293 4:-0.636782 5:-0.752212 6:-0.681342 
2 1:0.168539 2:0.0855856 3:0.0762125 4:-0.0206897 5:-0.0353982 6:0.00628931 
2 1:-0.474157 2:-0.608108 3:-0.667436 4:-0.650575 5:-0.641593 6:-0.660377 
2 1:-0.541573 2:-0.545045 3:-0.699769 4:-0.65977 5:-0.650442 6:-0.601677 
2 1:-0.676404 2:-0.693694 3:-0.621247 4:-0.6 5:-0.734513 6:-0.719078 
2 1:0.12809 2:0.0720721 3:0.163972 4:-0.0344828 5:0.039823 6:-0.115304 
2 1:-0.635955 2:-0.522523 3:-0.570439 4:-0.609195 5:-0.659292 6:-0.668763 
2 1:0.141573 2:0.788288 3:-0.0207852 4:0.0298851 5:-0.00884956 6:-0.132075 
2 1:-0.514607 2:-0.621622 3:-0.542725 4:-0.682759 5:-0.654867 6:-0.735849 
2 1:0.00224719 2:-0.0315315 3:-0.0715935 4:-0.135632 5:-0.0663717 6:-0.178197 
2 1:-0.00674157 2:0.135135 3:0.0577367 4:0.0298851 5:-0.0840708 6:-0.0733753 
2 1:0.186517 2:0.0495495 3:0.0715935 4:0.0482759 5:0.00442478 6:-0.0440252 
2 1:0.0696629 2:-0.036036 3:0.0715935 4:-0.0390805 5:-0.0619469 6:-0.102725 
2 1:0.0786517 2:0.184685 3:-0.0300231 4:0.0896552 5:0.0353982 6:-0.0524109 
2 1:0.114607 2:0.0045045 3:0.0808314 4:0.0528736 5:-0.0353982 6:-0.0691824 
2 1:0.0426966 2:-0.283784 3:-0.00692841 4:-0.0390805 5:-0.146018 6:-0.140461 
1.916138616823033 1:0.231461 2:0.0855856 3:0.0300231 4:-0.016092 5:-0.039823 6:-0.0398323 
2 1:-0.0921348 2:-0.027027 3:-0.0808314 4:-0.0712644 5:-0.0221239 6:-0.190776 
2 1:-0.505618 2:-0.594595 3:-0.639723 4:-0.701149 5:-0.650442 6:-0.748428 
2 1:0.173034 2:0.184685 3:0.140878 4:0.0942529 5:0.0619469 6:-0.0146751 
2 1:0.0921348 2:0.0855856 3:0.0762125 4:0.0252874 5:0.0530973 6:-0.0524109 
2 1:0.141573 2:0.171171 3:-0.0161663 4:0.0252874 5:-0.0176991 6:-0.0314465 
2 1:0.0382022 2:-0.0765766 3:-0.168591 4:-0.0942529 5:-0.119469 6:-0.140461 
2 1:0.119101 2:0.0540541 3:0.039261 4:-0.0758621 5:0.0176991 6:-0.111111 
2 1:0.0876404 3:-0.0254042 4:-0.0206897 5:0.00884956 6:-0.174004 
2 1:-0.0606742 2:-0.22973 3:-0.122402 4:-0.213793 5:-0.146018 6:-0.232704 
2 1:0.253933 2:0.13964 3:0.154734 4:0.112644 5:0.110619 6:-0.0775681 
2 1:0.0337079 2:-0.0900901 3:-0.140878 4:-0.144828 5:-0.110619 6:-0.224319 
2 1:-0.0516854 2:0.0630631 3:-0.0484988 4:-0.0804598 5:-0.0840708 6:0.794549 
2 1:-0.047191 2:-0.0225225 3:-0.034642 4:-0.0804598 5:-0.141593 6:-0.169811 
2 1:-0.240449 2:0.00900901 3:-0.0577367 4:-0.0666667 5:-0.106195 6:-0.161426 
2 1:-0.0292135 2:0.126126 3:0.0161663 4:0.0344828 5:-0.0486726 6:-0.106918 
2 1:0.0382022 2:-0.045045 3:-0.17321 4:-0.117241 5:-0.150442 6:-0.157233 
2 1:-0.00674157 2:0.0765766 3:-0.0484988 4:0.0988506 5:0.0132743 6:-0.00209644 
2 1:0.12809 2:0.036036 3:0.039261 4:0.0528736 5:-0.0309735 6:0.786164 
2 1:0.0247191 3:-0.0669746 4:-0.0436782 5:-0.0309735 6:-0.220126 
2 1:0.0516854 2:-0.130631 3:-0.0715935 4:-0.0942529 5:-0.123894 6:-0.169811 
2 1:0.195506 2:-0.0585586 3:0.0762125 4:0.0712644 5:-0.0221239 6:-0.0356394 
2 1:-0.141573 2:-0.018018 3:-0.187067 4:-0.181609 5:-0.314159 6:-0.178197 
2 1:-0.0876404 2:-0.0495495 3:-0.0900693 4:-0.172414 5:-0.172566 6:-0.228512 
2 1:-0.0606742 2:0.0765766 3:0.0669746 4:-0.0298851 5:-0.0221239 6:-0.0985325 
2 1:-0.191011 2:-0.0540541 3:-0.0808314 4:-0.0206897 5:0.0176991 6:-0.127883 
2 1:0.0696629 2:0.202703 3:0.0207852 4:-0.00229885 5:0.902655 6:-0.132075 
2 1:0.141573 2:0.144144 3:0.117783 4:0.0528736 5:0.0575221 6:-0.0859539 
2 1:0.137079 2:0.0630631 3:0.150115 4:0.062069 5:0.0619469 6:-0.0314465 
2 1:0.105618 2:0.202703 3:0.0484988 4:0.108046 5:0.0530973 6:-0.0566038 
2 1:-0.0157303 2:-0.0675676 3:-0.0207852 4:-0.0528736 5:-0.0530973 6:-0.132075 
2 1:-0.0741573 2:0.0585586 3:-0.00230947 4:-0.062069 5:-0.0530973 6:-0.15304 
2 1:-0.667416 2:-0.693694 3:-0.672055 4:-0.728736 5:-0.756637 6:-0.685535 
2 1:-0.0157303 2:0.0045045 3:-0.117783 4:-0.0666667 5:-0.0663717 6:-0.21174 
2 1:-0.114607 2:-0.144144 3:-0.0993072 4:-0.154023 5:-0.252212 6:-0.253669 
2 1:-0.0831461 2:-0.0855856 3:-0.140878 4:-0.149425 5:-0.0752212 6:-0.249476 
2 1:-0.0157303 2:-0.0045045 3:-0.0854503 4:-0.0896552 5:-0.0840708 6:-0.12369 
2 1:0.047191 2:0.0225225 3:-0.0161663 4:-0.0942529 5:-0.0530973 6:-0.102725 
2 1:0.0157303 2:-0.0855856 3:-0.127021 4:-0.103448 5:-0.10177 6:-0.253669 
1.421350001240295 1:-0.0202247 2:0.027027 3:0.00230947 4:-0.0942529 5:-0.283186 6:-0.408805 
2 1:-0.0516854 2:-0.036036 3:-0.0900693 4:-0.0114943 5:-0.0973451 6:-0.18239 
2 1:0.146067 2:0.0045045 3:0.0946882 4:-0.2 5:-0.0973451 6:-0.0566038 
2 1:0.119101 2:0.0855856 3:0.145497 4:0.0666667 5:0.10177 6:0.00209644 
2 1:0.047191 3:0.0207852 4:-0.0804598 5:-0.0884956 6:-0.111111 
2 1:0.0561798 2:-0.0495495 3:0.0808314 4:0.016092 5:-0.0663717 6:-0.102725 
2 1:-0.546067 2:-0.585586 3:-0.741339 4:-0.737931 5:-0.663717 6:-0.710692 
2 1:-0.546067 2:-0.666667 3:-0.538106 4:-0.641379 5:-0.668142 6:-0.752621 
2 1:-0.0382022 2:-0.0585586 3:-0.0993072 4:-0.149425 5:-0.172566 6:-0.245283 
2 1:-0.00674157 2:0.806306 3:0.182448 4:-0.00689655 5:0.00442478 6:-0.207547 
2 1:-0.532584 2:-0.702703 3:-0.635104 4:-0.76092 5:-0.681416 6:-0.756813 
2 1:-0.0426966 2:-0.0675676 3:-0.0207852 4:-0.177011 5:-0.287611 6:-0.102725 
2 1:0.0876404 2:-0.130631 3:-0.0669746 4:-0.0712644 5:-0.0530973 6:-0.169811 
2 1:-0.45618 2:-0.612613 3:-0.644342 4:-0.641379 5:-0.712389 6:-0.702306 
2 1:0.110112 2:0.0135135 3:0.0854503 4:0.0206897 5:0.0176991 6:-0.0314465 
2 1:-0.0651685 2:0.0810811 3:0.00692841 4:-0.0390805 5:-0.0619469 6:-0.0733753 
2 1:-0.0202247 2:-0.0585586 3:-0.0854503 4:-0.0298851 5:-0.0884956 6:-0.119497 
2 1:-0.155056 2:-0.157658 3:-0.163972 4:-0.204598 5:-0.274336 6:0.57652 
2 1:0.123596 2:0.00900901 3:0.0531178 4:-0.0712644 5:-0.0309735 6:-0.0398323 
2 1:0.110112 2:0.0405405 3:-0.0254042 4:-0.195402 5:-0.0752212 6:-0.115304 
2 1:0.0876404 2:0.130631 3:0.0669746 4:0.00229885 6:-0.119497 
0.7609215218649881 1:0.12809 2:0.234234 3:0.145497 4:0.0574713 5:0.0221239 6:-0.0649895 
1.005040990050233 1:0.0247191 2:-0.0900901 3:-0.0161663 4:-0.163218 5:-0.132743 6:-0.21174 
2 1:0.173034 2:0.00900901 3:0.108545 4:0.0114943 5:0.0663717 6:-0.0188679 
2 1:-0.460674 2:-0.581081 3:-0.625866 4:-0.65977 5:-0.70354 6:-0.731656 
2 1:0.0606742 2:0.036036 3:0.034642 4:0.0114943 5:-0.00884956 6:-0.0356394 
2 1:0.0696629 2:-0.0315315 3:-0.0946882 4:-0.0758621 5:-0.10177 6:-0.161426 
2 1:0.707865 2:0.693694 3:-0.034642 4:-0.0114943 5:-0.176991 6:-0.245283 
2 1:0.164045 2:-0.5 3:-0.56582 4:-0.76092 5:-0.659292 6:-0.706499 
2 1:0.119101 2:-0.0855856 3:-0.0715935 4:0.00689655 5:0.845133 6:-0.140461 
2 1:0.0516854 2:0.0630631 3:0.0161663 4:0.108046 5:0.00884956 6:-0.0356394 
2 1:-0.137079 2:-0.0945946 3:-0.122402 4:-0.0896552 5:-0.154867 6:-0.203354 
2 1:0.159551 2:0.0225225 3:-0.0207852 4:-0.0896552 5:-0.0309735 6:-0.0901468 
1.340976410607373 1:0.159551 2:0.0765766 3:-0.0854503 4:-0.0114943 5:-0.0265487 6:-0.12369 
2 1:-0.0337079 2:-0.405405 3:-0.182448 4:-0.222989 5:-0.323009 6:-0.24109 
2 1:0.119101 2:-0.0495495 3:-0.0161663 4:0.0482759 5:-0.0840708 6:-0.0859539 
2 1:0.0651685 2:0.0675676 3:0.856813 4:0.0390805 5:-0.039823 6:-0.0901468 
2 1:-0.0606742 2:-0.0495495 3:-0.0808314 4:-0.195402 5:-0.172566 6:-0.207547 
2 1:-0.608989 2:-0.635135 3:-0.644342 4:-0.728736 5:-0.70354 6:-0.714885 
2 1:-0.577528 2:-0.617117 3:-0.875289 4:-0.774713 5:-0.721239 6:-0.735849 
2 1:-0.235955 2:-0.220721 3:-0.127021 4:-0.213793 5:-0.261062 6:-0.24109 
2 1:-0.0651685 2:-0.0045045 3:0.0300231 4:-0.062069 5:-0.0884956 6:-0.132075 
2 1:0.114607 2:-0.018018 3:0.0438799 4:0.0436782 5:0.0353982 6:-0.0272537 
1.818651330102034 1:0.164045 2:-0.756757 3:-0.718245 4:-0.705747 5:-0.738938 6:-0.731656 
2 1:0.0202247 2:0.0495495 3:0.0438799 4:-0.0758621 5:-0.0530973 6:-0.12369 
2 1:0.285393 2:0.108108 3:0.145497 4:0.0712644 5:0.0752212 6:-0.00628931 
2 1:0.0786517 2:0.103604 3:-0.0115473 4:-0.0712644 5:-0.0575221 6:-0.102725 
2 1:-0.649438 2:-0.734234 3:-0.713626 4:-0.76092 5:-0.752212 6:-0.672956 
1.14737241375765 1:0.141573 2:0.774775 3:0.796767 4:-0.0528736 5:-0.137168 6:-0.111111 
2 1:0.105618 2:0.0135135 3:0.0438799 4:-0.112644 5:-0.0619469 6:-0.0943396 
2 1:-0.0337079 2:0.0495495 3:-0.0207852 4:-0.103448 5:-0.146018 6:-0.0775681 
2 1:-0.442697 2:-0.666667 3:-0.709007 4:-0.701149 5:-0.721239 6:-0.714885 
2 1:-0.523596 2:-0.792793 3:-0.745958 4:-0.834483 5:-0.699115 6:-0.756813 
2 1:-0.505618 2:-0.599099 3:-0.579677 4:-0.641379 5:-0.787611 6:-0.651992 
2 1:-0.48764 2:-0.666667 3:-0.718245 4:-0.710345 5:-0.676991 6:-0.706499 
2 1:-0.0651685 2:-0.153153 3:-0.187067 4:-0.241379 5:-0.225664 6:-0.291405 
2 1:-0.496629 2:-0.545045 3:-0.625866 4:-0.655172 5:-0.632743 6:-0.689727 
2 1:0.191011 2:0.225225 3:0.265589 4:0.135632 5:0.0663717 6:-0.0146751 
2 1:0.119101 2:0.0855856 3:-0.0115473 4:-0.062069 5:0.0353982 6:-0.048218 
2 1:-0.689888 2:-0.644144 3:-0.658199 4:-0.696552 5:-0.69469 6:-0.668763 
2 1:0.123596 3:0.113164 4:0.0758621 5:0.0575221 6:-0.106918 
2 1:-0.523596 2:-0.648649 3:-0.588915 4:-0.770115 5:-0.659292 6:-0.639413 
2 1:0.0202247 2:-0.00900901 3:-0.0715935 4:-0.177011 5:-0.0929204 6:-0.111111 
2 1:0.011236 2:-0.202703 3:0.034642 4:-0.0252874 5:-0.123894 6:-0.111111 
2 1:-0.546067 2:-0.509009 3:-0.690531 4:-0.793103 5:-0.668142 6:-0.651992 
2 1:0.0921348 2:0.0630631 3:-0.0207852 4:0.0206897 5:-0.0929204 6:-0.0859539 
2 1:0.105618 2:0.103604 3:0.0207852 4:0.0252874 5:-0.0353982 6:-0.048218 
2 1:0.0696629 2:0.148649 3:0.034642 4:0.117241 5:0.0132743 6:-0.0943396 
2 1:-0.519101 2:-0.594595 3:-0.672055 4:-0.737931 5:-0.659292 6:-0.727463 
2 1:0.164045 2:0.846847 3:0.87067 4:0.108046 5:-0.0221239 6:-0.0775681 
