svm_type c_svc
kernel_type rbf
gamma 8
nr_class 2
total_sv 16004
rho -3.52037
label 0 1
nr_sv 8000 8004
SV
32 1:-0.427786 2:0.517988 3:-0.490661 4:0.402584 
32 1:-0.427763 2:0.518005 3:-0.490659 4:0.402585 
32 1:-0.427713 2:0.518059 3:-0.490607 4:0.402622 
32 1:-0.427765 2:0.518022 3:-0.490182 4:0.403083 
32 1:-0.427627 2:0.518074 3:-0.357542 4:0.446646 
32 1:-0.427755 2:0.518033 3:-0.490227 4:0.402776 
32 1:-0.42772 2:0.51807 3:-0.490576 4:0.402682 
32 1:-0.427749 2:0.518049 3:-0.490659 4:0.402582 
32 1:-0.427749 2:0.51804 3:-0.490599 4:0.402678 
32 1:-0.427768 2:0.518011 3:-0.490484 4:0.402873 
32 1:-0.353235 2:0.581596 3:-0.490579 4:0.402659 
32 1:-0.427732 2:0.518051 3:-0.490553 4:0.402676 
32 1:-0.427719 2:0.518069 3:-0.490534 4:0.402721 
32 1:-0.427738 2:0.518058 3:-0.467954 4:0.440187 
32 1:-0.427688 2:0.518104 3:-0.490682 4:0.402562 
32 1:-0.427803 2:0.517949 3:-0.476813 4:0.427473 
32 1:-0.427763 2:0.518011 3:-0.490668 4:0.402563 
32 1:-0.427778 2:0.518025 3:-0.461061 4:0.412335 
32 1:-0.454386 2:0.493429 3:-0.514362 4:0.379857 
32 1:-0.374366 2:0.563454 3:-0.490669 4:0.40258 
32 1:-0.427633 2:0.518105 3:-0.490626 4:0.402609 
32 1:-0.427715 2:0.518056 3:-0.490731 4:0.402544 
32 1:-0.427705 2:0.518148 3:-0.490653 4:0.4026 
32 1:-0.427045 2:0.518543 3:-0.49069 4:0.402565 
32 1:-0.294876 2:0.608594 3:-0.490625 4:0.402613 
32 1:-0.42764 2:0.518118 3:-0.490712 4:0.402547 
32 1:-0.425159 2:0.518991 3:-0.490462 4:0.402665 
32 1:-0.427659 2:0.518091 3:-0.490686 4:0.402572 
32 1:-0.427597 2:0.518108 3:-0.490728 4:0.402555 
32 1:-0.427542 2:0.518343 3:-0.49066 4:0.402585 
32 1:-0.427698 2:0.518312 3:-0.490635 4:0.402705 
32 1:-0.427583 2:0.518242 3:-0.490594 4:0.402671 
32 1:-0.427776 2:0.517986 3:-0.490648 4:0.402609 
32 1:-0.427371 2:0.51841 3:-0.490612 4:0.402635 
32 1:-0.427418 2:0.518145 3:-0.489504 4:0.402988 
32 1:-0.42778 2:0.51802 3:-0.490513 4:0.402668 
32 1:-0.427589 2:0.518122 3:-0.490364 4:0.402754 
32 1:-0.427686 2:0.51813 3:-0.490616 4:0.402651 
32 1:-0.42772 2:0.518063 3:-0.490566 4:0.402673 
32 1:-0.427683 2:0.518094 3:-0.489873 4:0.403283 
32 1:-0.427727 2:0.518047 3:-0.490588 4:0.402626 
32 1:-0.427625 2:0.518113 3:-0.490487 4:0.402699 
32 1:-0.364734 2:0.55617 3:-0.49058 4:0.402638 
32 1:-0.427752 2:0.518036 3:-0.490493 4:0.402844 
32 1:-0.427631 2:0.518077 3:-0.352297 4:0.454131 
32 1:-0.427634 2:0.518123 3:-0.490564 4:0.402662 
32 1:-0.427784 2:0.517997 3:-0.490665 4:0.40258 
32 1:-0.42775 2:0.518045 3:-0.490617 4:0.402702 
32 1:-0.427756 2:0.518029 3:-0.490637 4:0.40262 
32 1:-0.427734 2:0.518043 3:-0.396231 4:0.450931 
32 1:-0.427749 2:0.518052 3:-0.490659 4:0.402583 
32 1:-0.427674 2:0.518101 3:-0.417864 4:0.46645 
32 1:-0.357631 2:0.58535 3:-0.490751 4:0.402497 
32 1:-0.455288 2:0.462558 3:-0.515165 4:0.351332 
32 1:-0.42747 2:0.518537 3:-0.490655 4:0.402595 
32 1:-0.427646 2:0.518624 3:-0.490641 4:0.40268 
32 1:-0.42769 2:0.518112 3:-0.490666 4:0.402578 
32 1:-0.427626 2:0.518269 3:-0.490674 4:0.402557 
32 1:-0.427667 2:0.518116 3:-0.49065 4:0.402597 
32 1:-0.427599 2:0.518129 3:-0.490697 4:0.402564 
32 1:-0.427777 2:0.518025 3:-0.490618 4:0.402604 
32 1:-0.378431 2:0.575564 3:-0.49067 4:0.402575 
32 1:-0.427651 2:0.518119 3:-0.49061 4:0.402631 
32 1:-0.427761 2:0.518022 3:-0.490643 4:0.402612 
32 1:-0.15919 2:0.57248 3:-0.490525 4:0.402618 
32 1:-0.427647 2:0.518432 3:-0.490657 4:0.402592 
32 1:-0.427696 2:0.518094 3:-0.490651 4:0.402597 
32 1:-0.427453 2:0.518188 3:-0.490667 4:0.402584 
32 1:-0.427866 2:0.517981 3:-0.490614 4:0.402611 
32 1:-0.427775 2:0.518017 3:-0.490633 4:0.402609 
32 1:-0.427709 2:0.518113 3:-0.490539 4:0.402805 
32 1:-0.340735 2:0.577508 3:-0.490624 4:0.402613 
32 1:-0.34128 2:0.584516 3:-0.490651 4:0.402595 
32 1:-0.42767 2:0.518059 3:-0.490653 4:0.402591 
32 1:-0.427666 2:0.518089 3:-0.490652 4:0.402593 
32 1:-0.427727 2:0.518062 3:-0.490588 4:0.402668 
32 1:-0.427709 2:0.518178 3:-0.490488 4:0.403155 
32 1:-0.340015 2:0.589577 3:-0.490637 4:0.402607 
32 1:-0.427733 2:0.518155 3:-0.490626 4:0.402778 
32 1:-0.427755 2:0.518032 3:-0.490616 4:0.402656 
32 1:-0.427688 2:0.518084 3:-0.403516 4:0.4728 
32 1:-0.3688 2:0.60133 3:-0.490637 4:0.40262 
32 1:-0.42776 2:0.51803 3:-0.490759 4:0.402528 
32 1:-0.427707 2:0.518169 3:-0.490658 4:0.402586 
32 1:-0.427784 2:0.517999 3:-0.490599 4:0.402658 
32 1:-0.427735 2:0.51815 3:-0.490653 4:0.402617 
32 1:-0.320982 2:0.575215 3:-0.39561 4:0.455432 
32 1:-0.336392 2:0.596652 3:-0.490684 4:0.402566 
32 1:-0.427645 2:0.518101 3:-0.490703 4:0.40256 
32 1:-0.427658 2:0.51807 3:-0.490488 4:0.402657 
32 1:-0.427678 2:0.518289 3:-0.490658 4:0.402586 
32 1:-0.340048 2:0.586175 3:-0.490596 4:0.402639 
32 1:-0.353622 2:0.599471 3:-0.490632 4:0.402619 
32 1:-0.427696 2:0.518085 3:-0.490644 4:0.402602 
32 1:-0.360586 2:0.581355 3:-0.490628 4:0.402618 
32 1:-0.427749 2:0.518044 3:-0.490663 4:0.402576 
32 1:-0.427724 2:0.518099 3:-0.490635 4:0.40264 
32 1:-0.427702 2:0.518101 3:-0.490627 4:0.40263 
32 1:-0.427574 2:0.518231 3:-0.490562 4:0.402698 
32 1:-0.427609 2:0.518096 3:-0.490652 4:0.402592 
32 1:-0.364185 2:0.583072 3:-0.490677 4:0.402568 
32 1:-0.427746 2:0.51804 3:-0.490668 4:0.402581 
32 1:-0.427726 2:0.518079 3:-0.49067 4:0.402568 
32 1:-0.427737 2:0.518046 3:-0.490616 4:0.402623 
32 1:-0.427773 2:0.518021 3:-0.490666 4:0.402584 
32 1:-0.427482 2:0.518339 3:-0.490699 4:0.402541 
32 1:-0.374983 2:0.569459 3:-0.490602 4:0.402646 
32 1:-0.427752 2:0.518043 3:-0.490649 4:0.402634 
32 1:-0.427714 2:0.518057 3:-0.490631 4:0.402606 
32 1:-0.427769 2:0.51798 3:-0.490677 4:0.402518 
32 1:-0.427692 2:0.518053 3:-0.490672 4:0.402585 
32 1:-0.427674 2:0.518139 3:-0.49065 4:0.402599 
32 1:-0.336156 2:0.551527 3:-0.490538 4:0.402635 
32 1:-0.427795 2:0.517992 3:-0.424748 4:0.47248 
32 1:-0.427686 2:0.518076 3:-0.360418 4:0.486998 
32 1:-0.374591 2:0.569683 3:-0.443292 4:0.450359 
32 1:-0.42776 2:0.518032 3:-0.358146 4:0.430934 
32 1:-0.427734 2:0.51806 3:-0.490603 4:0.402664 
32 1:-0.255848 2:0.597 3:-0.4895 4:0.403142 
32 1:-0.427729 2:0.518096 3:-0.490509 4:0.402975 
32 1:-0.427741 2:0.518042 3:-0.490623 4:0.402612 
32 1:-0.427738 2:0.518053 3:-0.4906 4:0.402662 
32 1:-0.427748 2:0.518042 3:-0.4906 4:0.402679 
32 1:-0.427728 2:0.518055 3:-0.490612 4:0.40263 
32 1:-0.427558 2:0.5181 3:-0.490689 4:0.402579 
32 1:-0.427582 2:0.518135 3:-0.490635 4:0.402604 
32 1:-0.427721 2:0.518257 3:-0.490653 4:0.402621 
32 1:-0.427622 2:0.518139 3:-0.490666 4:0.402582 
32 1:-0.388548 2:0.560007 3:-0.490597 4:0.402657 
32 1:-0.427522 2:0.518142 3:-0.490653 4:0.402592 
32 1:-0.42776 2:0.518016 3:-0.490687 4:0.402507 
32 1:-0.427697 2:0.518243 3:-0.490646 4:0.402633 
32 1:-0.427726 2:0.518127 3:-0.490639 4:0.402653 
32 1:-0.427759 2:0.518018 3:-0.490621 4:0.402709 
32 1:-0.372113 2:0.587184 3:-0.490576 4:0.402695 
32 1:-0.427738 2:0.518038 3:-0.490195 4:0.402753 
32 1:-0.373582 2:0.597431 3:-0.490601 4:0.402675 
32 1:-0.427704 2:0.518217 3:-0.490658 4:0.402588 
32 1:-0.427711 2:0.518139 3:-0.490668 4:0.402563 
32 1:-0.427733 2:0.518075 3:-0.490656 4:0.402591 
32 1:-0.427704 2:0.518149 3:-0.490664 4:0.402573 
32 1:-0.427679 2:0.518093 3:-0.490677 4:0.402574 
32 1:-0.427709 2:0.518084 3:-0.490709 4:0.402529 
32 1:-0.427614 2:0.518113 3:-0.490591 4:0.402629 
32 1:-0.427696 2:0.518126 3:-0.490661 4:0.402583 
32 1:-0.427715 2:0.518098 3:-0.490659 4:0.402587 
32 1:-0.427754 2:0.518031 3:-0.49066 4:0.402578 
32 1:-0.42771 2:0.518081 3:-0.490651 4:0.402597 
32 1:-0.427681 2:0.518091 3:-0.490715 4:0.402542 
32 1:-0.427817 2:0.517973 3:-0.490674 4:0.402574 
32 1:-0.427721 2:0.518084 3:-0.490633 4:0.402628 
32 1:-0.427715 2:0.518107 3:-0.490659 4:0.402587 
32 1:-0.427717 2:0.518045 3:-0.490701 4:0.402575 
32 1:-0.427827 2:0.517979 3:-0.490716 4:0.402544 
32 1:-0.427793 2:0.517988 3:-0.490664 4:0.402581 
32 1:-0.42771 2:0.518257 3:-0.490657 4:0.402588 
32 1:-0.427769 2:0.518007 3:-0.490672 4:0.402562 
32 1:-0.427757 2:0.518031 3:-0.490669 4:0.402581 
32 1:-0.427714 2:0.518091 3:-0.490697 4:0.40253 
32 1:-0.427844 2:0.517954 3:-0.490746 4:0.402508 
32 1:-0.427665 2:0.518069 3:-0.490592 4:0.402617 
32 1:-0.427754 2:0.518034 3:-0.490657 4:0.40259 
32 1:-0.427752 2:0.518043 3:-0.490659 4:0.402581 
32 1:-0.427762 2:0.518027 3:-0.490684 4:0.402568 
32 1:-0.427794 2:0.517999 3:-0.490662 4:0.402586 
32 1:-0.427763 2:0.517992 3:-0.490656 4:0.402596 
32 1:-0.427766 2:0.51797 3:-0.490664 4:0.402551 
32 1:-0.427789 2:0.517995 3:-0.49066 4:0.402587 
32 1:-0.427748 2:0.518047 3:-0.490654 4:0.402599 
32 1:-0.427764 2:0.517991 3:-0.490655 4:0.402599 
32 1:-0.427797 2:0.517998 3:-0.490777 4:0.402488 
32 1:-0.427761 2:0.517997 3:-0.490665 4:0.402543 
32 1:-0.42774 2:0.518112 3:-0.49063 4:0.402742 
32 1:-0.427721 2:0.518063 3:-0.490394 4:0.402841 
32 1:-0.427771 2:0.517993 3:-0.490698 4:0.402487 
32 1:-0.427789 2:0.517973 3:-0.490689 4:0.402532 
32 1:-0.427851 2:0.517997 3:-0.490783 4:0.402541 
32 1:-0.427799 2:0.518016 3:-0.490693 4:0.402576 
32 1:-0.427641 2:0.518206 3:-0.490625 4:0.402641 
32 1:-0.4277 2:0.518111 3:-0.49066 4:0.402585 
32 1:-0.427777 2:0.518009 3:-0.490676 4:0.402568 
32 1:-0.427778 2:0.518018 3:-0.490676 4:0.402578 
32 1:-0.427751 2:0.518048 3:-0.490658 4:0.402586 
32 1:-0.427654 2:0.518214 3:-0.490652 4:0.4026 
32 1:-0.427686 2:0.518147 3:-0.447979 4:0.476828 
32 1:-0.427739 2:0.518036 3:-0.373383 4:0.426321 
32 1:-0.395877 2:0.563657 3:-0.49053 4:0.402778 
32 1:-0.385829 2:0.531293 3:-0.490872 4:0.402519 
32 1:-0.429187 2:0.51625 3:-0.491906 4:0.400977 
32 1:-0.430131 2:0.51705 3:-0.492798 4:0.401671 
32 1:-0.427842 2:0.518005 3:-0.490718 4:0.40257 
32 1:-0.428005 2:0.517836 3:-0.478573 4:0.412463 
32 1:-0.427754 2:0.517576 3:-0.490644 4:0.418592 
32 1:-0.429605 2:0.517167 3:-0.492304 4:0.40179 
32 1:-0.42925 2:0.517575 3:-0.439956 4:0.418698 
32 1:-0.427755 2:0.517024 3:-0.490644 4:0.420091 
32 1:-0.427881 2:0.517875 3:-0.490741 4:0.402481 
32 1:-0.428128 2:0.517688 3:-0.490975 4:0.402286 
32 1:-0.427755 2:0.517419 3:-0.490658 4:0.401995 
32 1:-0.376541 2:0.536563 3:-0.492214 4:0.402005 
32 1:-0.43492 2:0.503037 3:-0.497057 4:0.388687 
32 1:-0.428045 2:0.517848 3:-0.490924 4:0.402413 
32 1:-0.405333 2:0.527667 3:-0.490936 4:0.402465 
32 1:-0.45763 2:0.507422 3:-0.517248 4:0.392786 
32 1:-0.427786 2:0.51799 3:-0.478335 4:0.419925 
32 1:-0.428274 2:0.51765 3:-0.491111 4:0.402242 
32 1:-0.415675 2:0.528592 3:-0.490681 4:0.402568 
32 1:-0.373661 2:0.546246 3:-0.442512 4:0.428657 
32 1:-0.427793 2:0.518013 3:-0.490687 4:0.402574 
32 1:-0.310054 2:0.605946 3:-0.490699 4:0.402557 
32 1:-0.427689 2:0.518045 3:-0.490692 4:0.402583 
32 1:-0.377566 2:0.564299 3:-0.490598 4:0.402647 
32 1:-0.330782 2:0.59466 3:-0.404211 4:0.473501 
32 1:-0.427663 2:0.518121 3:-0.490572 4:0.402675 
32 1:-0.427712 2:0.518087 3:-0.490613 4:0.402648 
32 1:-0.427586 2:0.518516 3:-0.49061 4:0.402731 
32 1:-0.427712 2:0.518179 3:-0.490637 4:0.402662 
32 1:-0.427757 2:0.518029 3:-0.490658 4:0.402589 
32 1:-0.427762 2:0.518005 3:-0.490659 4:0.402581 
32 1:-0.427708 2:0.518144 3:-0.490632 4:0.402651 
2.259276929867826 1:-0.155087 2:0.604431 3:-0.490573 4:0.402617 
32 1:-0.427512 2:0.518816 3:-0.49066 4:0.402579 
32 1:-0.427752 2:0.518039 3:-0.490648 4:0.402622 
32 1:-0.37698 2:0.591839 3:-0.49064 4:0.402615 
32 1:-0.427777 2:0.518008 3:-0.490672 4:0.402573 
32 1:-0.427759 2:0.518028 3:-0.49066 4:0.402587 
32 1:-0.427747 2:0.518043 3:-0.490622 4:0.40264 
32 1:-0.427737 2:0.518083 3:-0.49069 4:0.402488 
32 1:-0.427837 2:0.517864 3:-0.490693 4:0.402515 
32 1:-0.427722 2:0.518091 3:-0.490628 4:0.402645 
32 1:-0.427729 2:0.518065 3:-0.490609 4:0.402654 
32 1:-0.427754 2:0.518033 3:-0.490669 4:0.402568 
32 1:-0.427718 2:0.518099 3:-0.490608 4:0.402685 
32 1:-0.427752 2:0.518036 3:-0.452175 4:0.478262 
32 1:-0.427802 2:0.517857 3:-0.490653 4:0.402604 
32 1:-0.427727 2:0.518047 3:-0.490685 4:0.402576 
32 1:-0.427709 2:0.518047 3:-0.490618 4:0.402602 
32 1:-0.42765 2:0.518165 3:-0.490582 4:0.402688 
32 1:-0.42772 2:0.518044 3:-0.411694 4:0.429524 
32 1:-0.427541 2:0.518068 3:-0.245504 4:0.44432 
32 1:-0.427738 2:0.518133 3:-0.490659 4:0.40258 
32 1:-0.427714 2:0.518092 3:-0.490618 4:0.40265 
32 1:-0.427768 2:0.518012 3:-0.490639 4:0.402618 
32 1:-0.427733 2:0.518064 3:-0.49062 4:0.402647 
32 1:-0.427752 2:0.518036 3:-0.455778 4:0.453402 
32 1:-0.427731 2:0.518044 3:-0.398566 4:0.446436 
32 1:-0.349389 2:0.605529 3:-0.490673 4:0.402572 
32 1:-0.427712 2:0.518142 3:-0.490659 4:0.402584 
32 1:-0.42763 2:0.518493 3:-0.490671 4:0.402535 
32 1:-0.481014 2:0.448974 3:-0.538057 4:0.338788 
32 1:-0.427709 2:0.518064 3:-0.490597 4:0.402633 
32 1:-0.427722 2:0.518046 3:-0.490513 4:0.402648 
32 1:-0.427717 2:0.518109 3:-0.490661 4:0.402581 
32 1:-0.306054 2:0.557371 3:-0.490626 4:0.4026 
32 1:-0.427705 2:0.518083 3:-0.490636 4:0.402613 
32 1:-0.427737 2:0.518044 3:-0.490663 4:0.402586 
32 1:-0.427724 2:0.518095 3:-0.490637 4:0.402632 
32 1:-0.427717 2:0.518123 3:-0.46192 4:0.475643 
32 1:-0.427686 2:0.518142 3:-0.490669 4:0.402571 
32 1:-0.427411 2:0.518633 3:-0.490625 4:0.402647 
32 1:-0.427005 2:0.518156 3:-0.490569 4:0.402605 
32 1:-0.42783 2:0.518021 3:-0.490681 4:0.402586 
32 1:-0.427737 2:0.518123 3:-0.490657 4:0.402593 
32 1:-0.427748 2:0.518069 3:-0.490658 4:0.402587 
32 1:-0.4277 2:0.518094 3:-0.490649 4:0.4026 
32 1:-0.427706 2:0.518101 3:-0.490715 4:0.402505 
32 1:-0.427708 2:0.518057 3:-0.490655 4:0.402591 
32 1:-0.427762 2:0.518021 3:-0.490643 4:0.402614 
32 1:-0.42775 2:0.518039 3:-0.490644 4:0.402611 
32 1:-0.427756 2:0.518022 3:-0.490641 4:0.402682 
32 1:-0.427682 2:0.518119 3:-0.490649 4:0.4026 
32 1:-0.427698 2:0.518093 3:-0.490645 4:0.402603 
32 1:-0.392906 2:0.553042 3:-0.490631 4:0.402617 
32 1:-0.427662 2:0.518112 3:-0.490564 4:0.402673 
32 1:-0.42775 2:0.518035 3:-0.454555 4:0.420292 
32 1:-0.427697 2:0.518062 3:-0.490661 4:0.402588 
32 1:-0.427671 2:0.51808 3:-0.490658 4:0.402589 
32 1:-0.427717 2:0.518131 3:-0.490652 4:0.402604 
32 1:-0.33954 2:0.550936 3:-0.490671 4:0.402584 
32 1:-0.427748 2:0.518038 3:-0.490656 4:0.402591 
32 1:-0.427747 2:0.518047 3:-0.49059 4:0.402732 
32 1:-0.427676 2:0.518055 3:-0.490554 4:0.40262 
32 1:-0.427676 2:0.518082 3:-0.490548 4:0.402661 
32 1:-0.427517 2:0.518117 3:-0.490682 4:0.402581 
32 1:-0.427784 2:0.517996 3:-0.490676 4:0.402566 
32 1:-0.427734 2:0.51807 3:-0.490664 4:0.402577 
32 1:-0.427571 2:0.518161 3:-0.490654 4:0.402592 
32 1:-0.427735 2:0.518109 3:-0.490663 4:0.402566 
32 1:-0.427679 2:0.518127 3:-0.490627 4:0.40263 
32 1:-0.427723 2:0.518054 3:-0.490657 4:0.40259 
32 1:-0.427723 2:0.518065 3:-0.490673 4:0.402573 
32 1:-0.410037 2:0.57566 3:-0.490682 4:0.402507 
32 1:-0.427748 2:0.518038 3:-0.490663 4:0.402585 
32 1:-0.427725 2:0.518091 3:-0.490639 4:0.402628 
32 1:-0.427672 2:0.518089 3:-0.490655 4:0.402591 
32 1:-0.427791 2:0.518009 3:-0.49069 4:0.402567 
32 1:-0.428356 2:0.517663 3:-0.49118 4:0.402256 
32 1:-0.427727 2:0.518068 3:-0.490654 4:0.402594 
32 1:-0.427759 2:0.51803 3:-0.490761 4:0.402527 
32 1:-0.427737 2:0.518051 3:-0.490663 4:0.402584 
32 1:-0.427712 2:0.518094 3:-0.490672 4:0.402567 
32 1:-0.427758 2:0.518031 3:-0.490655 4:0.402591 
32 1:-0.427764 2:0.518027 3:-0.490567 4:0.402649 
32 1:-0.427731 2:0.518086 3:-0.490658 4:0.402589 
32 1:-0.427765 2:0.518026 3:-0.490649 4:0.402595 
32 1:-0.427768 2:0.517975 3:-0.490651 4:0.402616 
32 1:-0.427762 2:0.518013 3:-0.490671 4:0.402554 
32 1:-0.427707 2:0.518116 3:-0.490641 4:0.402619 
32 1:-0.427741 2:0.518046 3:-0.490639 4:0.402608 
32 1:-0.42778 2:0.517997 3:-0.490672 4:0.402568 
32 1:-0.427827 2:0.517998 3:-0.490654 4:0.402591 
32 1:-0.427784 2:0.518002 3:-0.490691 4:0.402554 
32 1:-0.427757 2:0.518028 3:-0.490672 4:0.402566 
32 1:-0.428429 2:0.517621 3:-0.491359 4:0.402145 
32 1:-0.427785 2:0.517955 3:-0.490689 4:0.402506 
32 1:-0.42782 2:0.517956 3:-0.490707 4:0.40253 
32 1:-0.42774 2:0.518045 3:-0.490668 4:0.40258 
32 1:-0.427711 2:0.518055 3:-0.490598 4:0.40262 
32 1:-0.427761 2:0.518015 3:-0.490666 4:0.402564 
32 1:-0.427728 2:0.518076 3:-0.490649 4:0.402604 
32 1:-0.428002 2:0.517933 3:-0.49088 4:0.402497 
32 1:-0.427738 2:0.518054 3:-0.490661 4:0.402584 
32 1:-0.427689 2:0.518109 3:-0.490651 4:0.402598 
32 1:-0.427741 2:0.518061 3:-0.490645 4:0.402618 
32 1:-0.427728 2:0.518091 3:-0.490661 4:0.402582 
32 1:-0.42774 2:0.518051 3:-0.490646 4:0.402605 
32 1:-0.427688 2:0.518135 3:-0.490677 4:0.402559 
32 1:-0.427762 2:0.517989 3:-0.490655 4:0.402604 
32 1:-0.427769 2:0.518007 3:-0.490667 4:0.402572 
32 1:-0.427812 2:0.518003 3:-0.490671 4:0.402582 
32 1:-0.427714 2:0.518146 3:-0.490622 4:0.402694 
32 1:-0.427786 2:0.518012 3:-0.490646 4:0.402597 
32 1:-0.366302 2:0.565071 3:-0.490617 4:0.402621 
32 1:-0.427763 2:0.518028 3:-0.490678 4:0.402578 
32 1:-0.427786 2:0.518012 3:-0.490632 4:0.402607 
32 1:-0.427567 2:0.518502 3:-0.490701 4:0.402477 
32 1:-0.427705 2:0.518078 3:-0.490688 4:0.402561 
32 1:-0.427759 2:0.518024 3:-0.490664 4:0.402578 
32 1:-0.427868 2:0.51796 3:-0.490744 4:0.402531 
32 1:-0.427779 2:0.518018 3:-0.49067 4:0.402582 
32 1:-0.427812 2:0.517947 3:-0.490721 4:0.402492 
32 1:-0.427817 2:0.517934 3:-0.490666 4:0.402575 
32 1:-0.427739 2:0.518047 3:-0.490656 4:0.402591 
32 1:-0.427754 2:0.518034 3:-0.490665 4:0.402575 
32 1:-0.427755 2:0.51803 3:-0.490637 4:0.402655 
32 1:-0.427769 2:0.518016 3:-0.490649 4:0.4026 
32 1:-0.42774 2:0.518043 3:-0.490661 4:0.402587 
32 1:-0.427676 2:0.518128 3:-0.490627 4:0.402627 
32 1:-0.398476 2:0.574172 3:-0.490553 4:0.402797 
32 1:-0.427762 2:0.517993 3:-0.490625 4:0.402755 
32 1:-0.437989 2:0.492967 3:-0.490663 4:0.402575 
32 1:-0.428064 2:0.517598 3:-0.490953 4:0.402159 
32 1:-0.403893 2:0.549171 3:-0.469418 4:0.431362 
32 1:-0.42776 2:0.518028 3:-0.481419 4:0.411216 
32 1:-0.42774 2:0.51804 3:-0.439821 4:0.428622 
32 1:-0.427754 2:0.518033 3:-0.490637 4:0.402642 
32 1:-0.427761 2:0.518026 3:-0.432406 4:0.462391 
32 1:-0.427741 2:0.518049 3:-0.490648 4:0.402602 
32 1:-0.427565 2:0.518182 3:-0.490111 4:0.403037 
32 1:-0.42786 2:0.517999 3:-0.490156 4:0.402757 
32 1:-0.427744 2:0.518054 3:-0.49066 4:0.402584 
32 1:-0.427653 2:0.518276 3:-0.490648 4:0.402613 
32 1:-0.427812 2:0.51801 3:-0.490696 4:0.402573 
32 1:-0.427649 2:0.518104 3:-0.490691 4:0.402566 
32 1:-0.427663 2:0.518074 3:-0.490602 4:0.402616 
32 1:-0.427586 2:0.518363 3:-0.490614 4:0.402678 
32 1:-0.268295 2:0.595056 3:-0.490628 4:0.402605 
32 1:-0.427698 2:0.518127 3:-0.49066 4:0.402585 
32 1:-0.427714 2:0.518116 3:-0.490646 4:0.402615 
32 1:-0.427739 2:0.518061 3:-0.490659 4:0.402586 
32 1:-0.42774 2:0.518049 3:-0.490652 4:0.402596 
32 1:-0.427493 2:0.5183 3:-0.490658 4:0.402589 
32 1:-0.427696 2:0.518076 3:-0.490656 4:0.402591 
32 1:-0.42778 2:0.518018 3:-0.490582 4:0.402637 
32 1:-0.427771 2:0.518007 3:-0.490674 4:0.402564 
32 1:-0.427722 2:0.518078 3:-0.490694 4:0.402537 
32 1:-0.427745 2:0.518048 3:-0.490662 4:0.402582 
32 1:-0.427946 2:0.517921 3:-0.490814 4:0.402495 
32 1:-0.427772 2:0.517996 3:-0.490678 4:0.402546 
32 1:-0.42778 2:0.517934 3:-0.490669 4:0.402541 
32 1:-0.427698 2:0.518118 3:-0.490656 4:0.402592 
32 1:-0.427738 2:0.518049 3:-0.49067 4:0.402576 
32 1:-0.427782 2:0.518026 3:-0.490726 4:0.402572 
32 1:-0.427742 2:0.518047 3:-0.490665 4:0.402581 
32 1:-0.427751 2:0.518047 3:-0.490658 4:0.402585 
32 1:-0.427597 2:0.518087 3:-0.490679 4:0.402582 
32 1:-0.427757 2:0.518031 3:-0.490613 4:0.402623 
32 1:-0.48396 2:0.452015 3:-0.540681 4:0.341596 
32 1:-0.427797 2:0.517994 3:-0.490708 4:0.402542 
32 1:-0.427804 2:0.51797 3:-0.49072 4:0.402507 
32 1:-0.427766 2:0.518024 3:-0.490696 4:0.402559 
32 1:-0.427786 2:0.517986 3:-0.490675 4:0.402563 
32 1:-0.427757 2:0.518026 3:-0.490659 4:0.402586 
32 1:-0.427759 2:0.518023 3:-0.490682 4:0.402537 
32 1:-0.42779 2:0.517997 3:-0.490674 4:0.402572 
32 1:-0.427792 2:0.517992 3:-0.490626 4:0.402625 
32 1:-0.427686 2:0.518106 3:-0.490634 4:0.402616 
32 1:-0.427826 2:0.517993 3:-0.490724 4:0.402551 
32 1:-0.427853 2:0.517979 3:-0.490722 4:0.402554 
32 1:-0.4278 2:0.518016 3:-0.490716 4:0.402567 
32 1:-0.427839 2:0.517989 3:-0.490743 4:0.402543 
32 1:-0.427784 2:0.517995 3:-0.490716 4:0.40251 
32 1:-0.427793 2:0.51798 3:-0.490672 4:0.402568 
32 1:-0.427711 2:0.5181 3:-0.490649 4:0.402603 
32 1:-0.427695 2:0.518051 3:-0.490582 4:0.402614 
32 1:-0.427789 2:0.518005 3:-0.490663 4:0.402585 
32 1:-0.427948 2:0.517915 3:-0.490797 4:0.402501 
32 1:-0.427719 2:0.518105 3:-0.490658 4:0.402589 
32 1:-0.427747 2:0.518086 3:-0.490658 4:0.402579 
32 1:-0.427708 2:0.518055 3:-0.490624 4:0.402606 
32 1:-0.427749 2:0.518044 3:-0.490646 4:0.402615 
32 1:-0.427743 2:0.518042 3:-0.490687 4:0.402565 
32 1:-0.427733 2:0.518055 3:-0.490627 4:0.402622 
32 1:-0.427747 2:0.518038 3:-0.490671 4:0.40258 
32 1:-0.427775 2:0.518024 3:-0.490694 4:0.402573 
32 1:-0.427812 2:0.517983 3:-0.490716 4:0.402537 
32 1:-0.427763 2:0.518024 3:-0.490664 4:0.402582 
32 1:-0.427744 2:0.518041 3:-0.490662 4:0.402586 
32 1:-0.427757 2:0.518027 3:-0.490659 4:0.402586 
32 1:-0.42775 2:0.518054 3:-0.490662 4:0.402559 
32 1:-0.427768 2:0.518025 3:-0.490665 4:0.402585 
32 1:-0.427759 2:0.518015 3:-0.490654 4:0.4026 
32 1:-0.42778 2:0.51802 3:-0.490667 4:0.402584 
32 1:-0.427761 2:0.518001 3:-0.490649 4:0.402626 
32 1:-0.428053 2:0.517906 3:-0.490932 4:0.402468 
32 1:-0.427759 2:0.518024 3:-0.49069 4:0.402531 
32 1:-0.427741 2:0.518087 3:-0.490649 4:0.402626 
32 1:-0.427741 2:0.518044 3:-0.490668 4:0.402581 
32 1:-0.427724 2:0.518061 3:-0.490642 4:0.402604 
32 1:-0.427813 2:0.517959 3:-0.490699 4:0.402535 
32 1:-0.427781 2:0.517967 3:-0.490683 4:0.402523 
32 1:-0.42769 2:0.518074 3:-0.490696 4:0.402564 
32 1:-0.427744 2:0.518076 3:-0.490657 4:0.402592 
32 1:-0.427729 2:0.518083 3:-0.490636 4:0.402634 
32 1:-0.427775 2:0.517954 3:-0.490672 4:0.402532 
32 1:-0.4277 2:0.518052 3:-0.490662 4:0.402588 
32 1:-0.560018 2:0.457462 3:-0.608464 4:0.346585 
32 1:-0.42781 2:0.518012 3:-0.490737 4:0.402559 
32 1:-0.427757 2:0.518022 3:-0.490666 4:0.402557 
32 1:-0.427841 2:0.517963 3:-0.490631 4:0.402612 
32 1:-0.427745 2:0.51804 3:-0.49062 4:0.402619 
32 1:-0.427754 2:0.518033 3:-0.490631 4:0.402648 
32 1:-0.427753 2:0.518035 3:-0.490658 4:0.402586 
32 1:-0.427716 2:0.518121 3:-0.490642 4:0.402626 
32 1:-0.42775 2:0.518043 3:-0.490635 4:0.402639 
32 1:-0.386325 2:0.559428 3:-0.453743 4:0.440879 
32 1:-0.397514 2:0.58194 3:-0.49066 4:0.402583 
32 1:-0.371883 2:0.586436 3:-0.490674 4:0.402569 
32 1:-0.427592 2:0.518211 3:-0.49064 4:0.402609 
32 1:-0.427693 2:0.518136 3:-0.49068 4:0.40255 
32 1:-0.427802 2:0.517957 3:-0.490766 4:0.402411 
32 1:-0.427775 2:0.517976 3:-0.490657 4:0.40259 
32 1:-0.427753 2:0.518033 3:-0.490662 4:0.402588 
32 1:-0.4277 2:0.518057 3:-0.490656 4:0.40259 
32 1:-0.427744 2:0.518053 3:-0.490642 4:0.402623 
32 1:-0.427481 2:0.518402 3:-0.490642 4:0.402611 
32 1:-0.427817 2:0.517995 3:-0.490605 4:0.402623 
32 1:-0.427794 2:0.517981 3:-0.490692 4:0.402543 
32 1:-0.427751 2:0.518035 3:-0.490649 4:0.402597 
32 1:-0.427759 2:0.518033 3:-0.49066 4:0.40259 
32 1:-0.427765 2:0.518022 3:-0.49065 4:0.402597 
32 1:-0.427863 2:0.518033 3:-0.475038 4:0.402605 
32 1:-0.427757 2:0.518033 3:-0.490651 4:0.40259 
32 1:-0.42772 2:0.518059 3:-0.490652 4:0.402594 
32 1:-0.427766 2:0.518028 3:-0.49068 4:0.402581 
32 1:-0.427749 2:0.518041 3:-0.49071 4:0.402512 
32 1:-0.427254 2:0.518605 3:-0.490646 4:0.402603 
32 1:-0.427618 2:0.518134 3:-0.490635 4:0.402607 
32 1:-0.42771 2:0.5181 3:-0.490604 4:0.402672 
32 1:-0.427673 2:0.518115 3:-0.490558 4:0.402694 
32 1:-0.427649 2:0.518206 3:-0.490661 4:0.402583 
32 1:-0.427804 2:0.517848 3:-0.490708 4:0.402393 
32 1:-0.427725 2:0.518081 3:-0.490591 4:0.402704 
32 1:-0.427752 2:0.518035 3:-0.490678 4:0.402564 
32 1:-0.427702 2:0.518181 3:-0.490613 4:0.402722 
32 1:-0.427786 2:0.517972 3:-0.490672 4:0.402559 
32 1:-0.427763 2:0.518025 3:-0.490626 4:0.402619 
32 1:-0.427775 2:0.517996 3:-0.490563 4:0.402761 
32 1:-0.427757 2:0.518027 3:-0.49058 4:0.40275 
32 1:-0.427589 2:0.518091 3:-0.490586 4:0.402616 
32 1:-0.427741 2:0.518038 3:-0.489762 4:0.402963 
32 1:-0.427693 2:0.518098 3:-0.490562 4:0.402695 
32 1:-0.427759 2:0.518017 3:-0.490637 4:0.402663 
32 1:-0.427398 2:0.518079 3:-0.49089 4:0.402559 
32 1:-0.427683 2:0.518199 3:-0.490658 4:0.402588 
32 1:-0.427733 2:0.518076 3:-0.49066 4:0.402584 
32 1:-0.427783 2:0.517968 3:-0.490654 4:0.402597 
32 1:-0.427819 2:0.517981 3:-0.490693 4:0.40256 
32 1:-0.427796 2:0.517959 3:-0.49075 4:0.402421 
32 1:-0.42775 2:0.518039 3:-0.490643 4:0.402609 
32 1:-0.427709 2:0.518215 3:-0.490643 4:0.402648 
32 1:-0.427846 2:0.517878 3:-0.490756 4:0.402416 
32 1:-0.42777 2:0.517962 3:-0.49066 4:0.402578 
32 1:-0.427779 2:0.517999 3:-0.490671 4:0.402569 
32 1:-0.427761 2:0.517993 3:-0.49067 4:0.402509 
32 1:-0.427782 2:0.518018 3:-0.490646 4:0.402596 
32 1:-0.427798 2:0.518002 3:-0.490732 4:0.402536 
32 1:-0.42792 2:0.51791 3:-0.490849 4:0.402442 
32 1:-0.427735 2:0.518052 3:-0.490674 4:0.402573 
32 1:-0.427814 2:0.517912 3:-0.49071 4:0.402479 
32 1:-0.427805 2:0.517914 3:-0.490711 4:0.402458 
32 1:-0.427782 2:0.517985 3:-0.490663 4:0.40258 
32 1:-0.427741 2:0.518056 3:-0.490742 4:0.402437 
32 1:-0.42778 2:0.518011 3:-0.490686 4:0.402563 
32 1:-0.427741 2:0.518069 3:-0.490649 4:0.402614 
32 1:-0.427771 2:0.518003 3:-0.490678 4:0.40255 
32 1:-0.42753 2:0.518211 3:-0.490573 4:0.402659 
32 1:-0.427752 2:0.518038 3:-0.490673 4:0.402532 
32 1:-0.427839 2:0.517833 3:-0.490712 4:0.402455 
32 1:-0.427815 2:0.517943 3:-0.490695 4:0.402531 
32 1:-0.42793 2:0.517924 3:-0.490809 4:0.402493 
32 1:-0.530729 2:0.445269 3:-0.582309 4:0.335361 
32 1:-0.427836 2:0.517647 3:-0.49071 4:0.402332 
32 1:-0.427765 2:0.518009 3:-0.490672 4:0.402556 
32 1:-0.427769 2:0.518002 3:-0.490675 4:0.402552 
32 1:-0.427768 2:0.518015 3:-0.490665 4:0.402579 
32 1:-0.427814 2:0.517981 3:-0.490703 4:0.402548 
32 1:-0.427756 2:0.518031 3:-0.490648 4:0.402596 
32 1:-0.512824 2:0.453543 3:-0.566397 4:0.342986 
32 1:-0.427939 2:0.517928 3:-0.490862 4:0.402469 
32 1:-0.427717 2:0.518123 3:-0.49065 4:0.402607 
32 1:-0.427757 2:0.518026 3:-0.490655 4:0.402596 
32 1:-0.42785 2:0.517887 3:-0.490767 4:0.402416 
32 1:-0.427713 2:0.518068 3:-0.490627 4:0.402617 
32 1:-0.427796 2:0.517868 3:-0.490688 4:0.402464 
32 1:-0.427788 2:0.517992 3:-0.490684 4:0.402556 
32 1:-0.427757 2:0.518007 3:-0.490653 4:0.40263 
32 1:-0.427696 2:0.518073 3:-0.490663 4:0.402585 
32 1:-0.427801 2:0.517988 3:-0.4907 4:0.402547 
32 1:-0.427813 2:0.517963 3:-0.490733 4:0.402496 
32 1:-0.427832 2:0.517977 3:-0.490745 4:0.402525 
32 1:-0.427775 2:0.517997 3:-0.490659 4:0.402586 
32 1:-0.427763 2:0.518017 3:-0.490662 4:0.40258 
32 1:-0.427818 2:0.517879 3:-0.490731 4:0.402406 
32 1:-0.42777 2:0.517975 3:-0.490656 4:0.402593 
32 1:-0.427759 2:0.518027 3:-0.490636 4:0.402616 
32 1:-0.427721 2:0.518061 3:-0.490678 4:0.402572 
32 1:-0.42772 2:0.518065 3:-0.490689 4:0.402559 
32 1:-0.427742 2:0.518047 3:-0.490677 4:0.402566 
32 1:-0.427917 2:0.517946 3:-0.490779 4:0.402522 
32 1:-0.427776 2:0.51802 3:-0.490715 4:0.402556 
32 1:-0.427842 2:0.517942 3:-0.49073 4:0.402511 
32 1:-0.427684 2:0.51805 3:-0.490734 4:0.402571 
32 1:-0.53081 2:0.429914 3:-0.582391 4:0.321163 
32 1:-0.427852 2:0.517761 3:-0.490746 4:0.402331 
32 1:-0.427819 2:0.517941 3:-0.490721 4:0.402496 
32 1:-0.427793 2:0.518 3:-0.490699 4:0.402552 
32 1:-0.427803 2:0.518019 3:-0.49072 4:0.402572 
32 1:-0.428519 2:0.516624 3:-0.491333 4:0.401297 
32 1:-0.427786 2:0.517996 3:-0.490667 4:0.402578 
32 1:-0.42776 2:0.518019 3:-0.490655 4:0.402596 
32 1:-0.427777 2:0.518005 3:-0.490677 4:0.402564 
32 1:-0.427751 2:0.518036 3:-0.490688 4:0.402559 
32 1:-0.427824 2:0.517936 3:-0.49072 4:0.402498 
32 1:-0.427769 2:0.517965 3:-0.490662 4:0.402567 
32 1:-0.428046 2:0.517763 3:-0.490914 4:0.402344 
32 1:-0.427793 2:0.51798 3:-0.49067 4:0.402571 
32 1:-0.427821 2:0.517867 3:-0.490724 4:0.402417 
32 1:-0.427859 2:0.51797 3:-0.490748 4:0.402533 
32 1:-0.42774 2:0.518042 3:-0.490654 4:0.402592 
32 1:-0.427798 2:0.517939 3:-0.490692 4:0.402513 
32 1:-0.427745 2:0.518041 3:-0.490715 4:0.402541 
32 1:-0.427771 2:0.518004 3:-0.490657 4:0.40259 
32 1:-0.427757 2:0.518028 3:-0.490674 4:0.402558 
32 1:-0.427784 2:0.51799 3:-0.490666 4:0.402576 
32 1:-0.42776 2:0.518 3:-0.490661 4:0.40257 
32 1:-0.427796 2:0.517965 3:-0.490672 4:0.402564 
32 1:-0.427788 2:0.517993 3:-0.49073 4:0.4025 
32 1:-0.427754 2:0.518032 3:-0.490671 4:0.402557 
32 1:-0.427776 2:0.51801 3:-0.490684 4:0.402561 
32 1:-0.427778 2:0.51801 3:-0.490682 4:0.402565 
32 1:-0.42783 2:0.517877 3:-0.49067 4:0.402562 
32 1:-0.427734 2:0.518095 3:-0.490662 4:0.402575 
32 1:-0.427733 2:0.518051 3:-0.490633 4:0.402612 
32 1:-0.427795 2:0.517958 3:-0.490688 4:0.402531 
32 1:-0.427727 2:0.518063 3:-0.490653 4:0.402594 
32 1:-0.42788 2:0.517769 3:-0.490756 4:0.402375 
32 1:-0.4278 2:0.517859 3:-0.490683 4:0.402489 
32 1:-0.427795 2:0.517946 3:-0.490694 4:0.402509 
32 1:-0.427764 2:0.518023 3:-0.490696 4:0.402547 
32 1:-0.427753 2:0.518044 3:-0.490672 4:0.402444 
32 1:-0.427843 2:0.517961 3:-0.490723 4:0.402535 
32 1:-0.427827 2:0.517975 3:-0.490722 4:0.402536 
32 1:-0.427758 2:0.517972 3:-0.490657 4:0.402585 
32 1:-0.415357 2:0.551738 3:-0.47962 4:0.433738 
32 1:-0.463264 2:0.508133 3:-0.522224 4:0.393454 
32 1:-0.42774 2:0.518033 3:-0.49059 4:0.40259 
32 1:-0.427755 2:0.518032 3:-0.490644 4:0.402604 
32 1:-0.429725 2:0.517344 3:-0.492277 4:0.402002 
32 1:-0.431364 2:0.516554 3:-0.493894 4:0.401213 
32 1:-0.453599 2:0.506655 3:-0.513601 4:0.392104 
32 1:-0.466856 2:0.498435 3:-0.490658 4:0.40259 
32 1:-0.427763 2:0.518019 3:-0.49067 4:0.402568 
32 1:-0.428003 2:0.518033 3:-0.490895 4:0.40259 
32 1:-0.428246 2:0.518033 3:-0.46123 4:0.402605 
32 1:-0.428875 2:0.517679 3:-0.491644 4:0.402267 
32 1:-0.41697 2:0.528705 3:-0.48106 4:0.41245 
32 1:-0.427757 2:0.518031 3:-0.490628 4:0.402611 
32 1:-0.427727 2:0.518051 3:-0.490669 4:0.402582 
32 1:-0.427682 2:0.518191 3:-0.49066 4:0.402583 
32 1:-0.427935 2:0.516838 3:-0.490857 4:0.401218 
32 1:-0.426885 2:0.520616 3:-0.490677 4:0.402528 
32 1:-0.373311 2:0.597178 3:-0.490665 4:0.402579 
32 1:-0.427684 2:0.518131 3:-0.490628 4:0.402633 
32 1:-0.33787 2:0.608224 3:-0.490617 4:0.402632 
32 1:-0.427705 2:0.518056 3:-0.490701 4:0.402569 
32 1:-0.490702 2:0.437599 3:-0.546685 4:0.328273 
32 1:-0.427723 2:0.518059 3:-0.490694 4:0.402559 
32 1:-0.427994 2:0.517922 3:-0.490793 4:0.402525 
32 1:-0.427743 2:0.518076 3:-0.490656 4:0.402595 
32 1:-0.427839 2:0.517955 3:-0.49073 4:0.40252 
32 1:-0.427754 2:0.518033 3:-0.49066 4:0.402577 
32 1:-0.472625 2:0.450063 3:-0.530594 4:0.33979 
32 1:-0.427794 2:0.517968 3:-0.490698 4:0.40252 
32 1:-0.427782 2:0.517998 3:-0.490702 4:0.402532 
32 1:-0.427744 2:0.518046 3:-0.490665 4:0.402579 
32 1:-0.427691 2:0.518106 3:-0.490629 4:0.402624 
32 1:-0.427823 2:0.517987 3:-0.490728 4:0.402541 
32 1:-0.427802 2:0.517959 3:-0.490726 4:0.402481 
32 1:-0.42791 2:0.51794 3:-0.49076 4:0.402527 
32 1:-0.4276 2:0.518068 3:-0.49058 4:0.402608 
32 1:-0.427751 2:0.518037 3:-0.490659 4:0.402587 
32 1:-0.427756 2:0.51803 3:-0.490642 4:0.402611 
32 1:-0.427766 2:0.518015 3:-0.490677 4:0.40256 
32 1:-0.42777 2:0.518019 3:-0.490664 4:0.402584 
32 1:-0.427792 2:0.517963 3:-0.490695 4:0.402518 
32 1:-0.427818 2:0.517927 3:-0.49074 4:0.402447 
32 1:-0.427785 2:0.517875 3:-0.490679 4:0.402474 
32 1:-0.4278 2:0.517989 3:-0.490705 4:0.402543 
32 1:-0.427673 2:0.518056 3:-0.490732 4:0.402568 
32 1:-0.427774 2:0.517997 3:-0.490657 4:0.402589 
32 1:-0.427762 2:0.518018 3:-0.490664 4:0.402576 
32 1:-0.427678 2:0.518117 3:-0.490686 4:0.402557 
32 1:-0.427779 2:0.518003 3:-0.490684 4:0.402556 
32 1:-0.427774 2:0.518004 3:-0.490684 4:0.40255 
32 1:-0.427779 2:0.517949 3:-0.490664 4:0.402564 
32 1:-0.427756 2:0.518029 3:-0.490663 4:0.402576 
32 1:-0.427792 2:0.517993 3:-0.490677 4:0.402568 
32 1:-0.427711 2:0.518114 3:-0.490663 4:0.402579 
32 1:-0.427742 2:0.518061 3:-0.490618 4:0.402685 
32 1:-0.427808 2:0.517976 3:-0.490681 4:0.402564 
32 1:-0.427804 2:0.518026 3:-0.490886 4:0.402556 
32 1:-0.427744 2:0.518062 3:-0.490684 4:0.402509 
32 1:-0.427529 2:0.518066 3:-0.4906 4:0.402598 
32 1:-0.427746 2:0.518048 3:-0.490658 4:0.402588 
32 1:-0.427768 2:0.518012 3:-0.490665 4:0.402578 
32 1:-0.427464 2:0.518094 3:-0.490595 4:0.402603 
32 1:-0.427652 2:0.51816 3:-0.490595 4:0.40267 
32 1:-0.427745 2:0.518042 3:-0.490719 4:0.402525 
32 1:-0.427715 2:0.518061 3:-0.490675 4:0.402576 
32 1:-0.427563 2:0.518085 3:-0.490586 4:0.40261 
32 1:-0.427788 2:0.517984 3:-0.490709 4:0.402513 
32 1:-0.427758 2:0.518005 3:-0.490656 4:0.402598 
32 1:-0.427687 2:0.51816 3:-0.490665 4:0.402574 
32 1:-0.427697 2:0.518107 3:-0.490637 4:0.402617 
32 1:-0.427781 2:0.517988 3:-0.490682 4:0.402546 
32 1:-0.427762 2:0.518016 3:-0.490651 4:0.402602 
32 1:-0.427827 2:0.517969 3:-0.490702 4:0.402549 
32 1:-0.428015 2:0.517855 3:-0.490937 4:0.402392 
32 1:-0.427762 2:0.518028 3:-0.490647 4:0.402597 
32 1:-0.427791 2:0.517972 3:-0.490696 4:0.402522 
32 1:-0.427742 2:0.518067 3:-0.490644 4:0.40263 
32 1:-0.427811 2:0.517857 3:-0.490699 4:0.402457 
32 1:-0.427794 2:0.517974 3:-0.490724 4:0.402488 
32 1:-0.427773 2:0.518019 3:-0.490651 4:0.402595 
32 1:-0.427742 2:0.518052 3:-0.49061 4:0.402666 
32 1:-0.427749 2:0.518067 3:-0.490672 4:0.402492 
32 1:-0.427747 2:0.518055 3:-0.490656 4:0.402594 
32 1:-0.427716 2:0.518069 3:-0.490648 4:0.402599 
32 1:-0.42783 2:0.517897 3:-0.490733 4:0.402449 
32 1:-0.42773 2:0.518053 3:-0.490653 4:0.402593 
32 1:-0.427834 2:0.517838 3:-0.490747 4:0.402364 
32 1:-0.427761 2:0.518027 3:-0.49068 4:0.402568 
32 1:-0.427773 2:0.517985 3:-0.490683 4:0.402521 
32 1:-0.42777 2:0.518001 3:-0.490648 4:0.402609 
32 1:-0.427838 2:0.517974 3:-0.490725 4:0.40254 
32 1:-0.427794 2:0.518021 3:-0.490773 4:0.402552 
32 1:-0.427699 2:0.518099 3:-0.490671 4:0.402573 
32 1:-0.427754 2:0.518033 3:-0.490664 4:0.402583 
32 1:-0.427747 2:0.518068 3:-0.490659 4:0.402581 
32 1:-0.428547 2:0.517122 3:-0.491338 4:0.401779 
32 1:-0.427696 2:0.518064 3:-0.490584 4:0.40263 
32 1:-0.427798 2:0.518005 3:-0.490701 4:0.40256 
32 1:-0.427825 2:0.517928 3:-0.490719 4:0.402496 
32 1:-0.427728 2:0.518067 3:-0.490648 4:0.402602 
32 1:-0.42775 2:0.518036 3:-0.490707 4:0.402556 
32 1:-0.427763 2:0.518011 3:-0.49067 4:0.402558 
32 1:-0.427747 2:0.518097 3:-0.490645 4:0.402703 
32 1:-0.522371 2:0.431095 3:-0.574946 4:0.322192 
32 1:-0.427765 2:0.518023 3:-0.490681 4:0.402566 
32 1:-0.427763 2:0.51801 3:-0.490646 4:0.402622 
32 1:-0.547075 2:0.468016 3:-0.596874 4:0.35637 
32 1:-0.427802 2:0.517923 3:-0.49069 4:0.402512 
32 1:-0.427805 2:0.517988 3:-0.490668 4:0.40258 
32 1:-0.427809 2:0.517952 3:-0.490677 4:0.402559 
32 1:-0.427735 2:0.518068 3:-0.490658 4:0.402588 
32 1:-0.427731 2:0.518039 3:-0.490705 4:0.402576 
32 1:-0.427746 2:0.51806 3:-0.490666 4:0.402559 
32 1:-0.427713 2:0.51811 3:-0.490661 4:0.402582 
32 1:-0.42781 2:0.517865 3:-0.490702 4:0.402449 
32 1:-0.427786 2:0.517973 3:-0.490675 4:0.402555 
32 1:-0.427821 2:0.517974 3:-0.490642 4:0.402604 
32 1:-0.427756 2:0.518028 3:-0.490662 4:0.402573 
32 1:-0.42778 2:0.517959 3:-0.490684 4:0.40251 
32 1:-0.42772 2:0.518044 3:-0.490721 4:0.402569 
32 1:-0.427823 2:0.51797 3:-0.4907 4:0.402549 
32 1:-0.531336 2:0.428542 3:-0.582871 4:0.319886 
32 1:-0.427752 2:0.518039 3:-0.490672 4:0.402551 
32 1:-0.427774 2:0.517993 3:-0.490678 4:0.402546 
32 1:-0.427764 2:0.517984 3:-0.490663 4:0.40256 
32 1:-0.427901 2:0.517737 3:-0.490753 4:0.402389 
32 1:-0.427771 2:0.518014 3:-0.490679 4:0.402564 
32 1:-0.427747 2:0.518039 3:-0.490686 4:0.402564 
32 1:-0.427778 2:0.517973 3:-0.49067 4:0.402557 
32 1:-0.427783 2:0.518001 3:-0.490683 4:0.402559 
32 1:-0.427743 2:0.518077 3:-0.490665 4:0.402556 
32 1:-0.427752 2:0.518042 3:-0.490655 4:0.402604 
32 1:-0.427783 2:0.517831 3:-0.490684 4:0.402398 
32 1:-0.427817 2:0.517963 3:-0.490686 4:0.402557 
32 1:-0.427769 2:0.517995 3:-0.490693 4:0.402495 
32 1:-0.427747 2:0.518065 3:-0.490673 4:0.402508 
32 1:-0.427931 2:0.51784 3:-0.490803 4:0.402425 
32 1:-0.428048 2:0.517764 3:-0.490903 4:0.402357 
32 1:-0.427803 2:0.517849 3:-0.490699 4:0.402426 
32 1:-0.427773 2:0.517971 3:-0.490668 4:0.402551 
32 1:-0.427781 2:0.517984 3:-0.490677 4:0.402552 
32 1:-0.427811 2:0.517958 3:-0.490731 4:0.40249 
32 1:-0.460543 2:0.445323 3:-0.519861 4:0.335363 
32 1:-0.427793 2:0.517985 3:-0.490688 4:0.40255 
32 1:-0.427705 2:0.518052 3:-0.490803 4:0.402531 
32 1:-0.427906 2:0.517625 3:-0.490829 4:0.402112 
32 1:-0.427772 2:0.518018 3:-0.490703 4:0.40255 
32 1:-0.427768 2:0.518006 3:-0.490677 4:0.402549 
32 1:-0.427873 2:0.517748 3:-0.490767 4:0.402316 
32 1:-0.427759 2:0.518022 3:-0.490664 4:0.402576 
32 1:-0.427823 2:0.517969 3:-0.490686 4:0.402562 
32 1:-0.427759 2:0.518027 3:-0.490668 4:0.402578 
32 1:-0.427797 2:0.517929 3:-0.49069 4:0.402509 
32 1:-0.427755 2:0.518031 3:-0.490666 4:0.402575 
32 1:-0.427762 2:0.518012 3:-0.49066 4:0.402581 
32 1:-0.427808 2:0.517929 3:-0.490705 4:0.402493 
32 1:-0.427772 2:0.51802 3:-0.490652 4:0.402594 
32 1:-0.427718 2:0.518047 3:-0.490704 4:0.402571 
32 1:-0.427842 2:0.517928 3:-0.490755 4:0.402469 
32 1:-0.427724 2:0.518062 3:-0.490635 4:0.402612 
32 1:-0.427766 2:0.517974 3:-0.490644 4:0.402657 
32 1:-0.427798 2:0.517902 3:-0.4907 4:0.402459 
32 1:-0.427813 2:0.518006 3:-0.490718 4:0.402561 
32 1:-0.427768 2:0.518013 3:-0.490681 4:0.402553 
32 1:-0.427775 2:0.518006 3:-0.490673 4:0.402568 
32 1:-0.628775 2:0.288968 3:-0.669553 4:0.190972 
32 1:-0.427786 2:0.517969 3:-0.490685 4:0.402532 
32 1:-0.427785 2:0.517987 3:-0.490672 4:0.402567 
32 1:-0.427767 2:0.51799 3:-0.490661 4:0.402576 
32 1:-0.427945 2:0.517835 3:-0.490785 4:0.402453 
32 1:-0.427784 2:0.517925 3:-0.490679 4:0.402507 
32 1:-0.427754 2:0.518033 3:-0.490696 4:0.402553 
32 1:-0.632292 2:0.411306 3:-0.672748 4:0.303957 
32 1:-0.427722 2:0.518087 3:-0.49065 4:0.402602 
32 1:-0.427795 2:0.517955 3:-0.490684 4:0.402536 
32 1:-0.427747 2:0.518051 3:-0.490684 4:0.40252 
32 1:-0.488195 2:0.254566 3:-0.544479 4:0.159039 
32 1:-0.427856 2:0.517847 3:-0.49078 4:0.402358 
32 1:-0.427765 2:0.517983 3:-0.490658 4:0.402587 
32 1:-0.427916 2:0.517731 3:-0.490807 4:0.402299 
32 1:-0.427843 2:0.517277 3:-0.490736 4:0.401894 
32 1:-0.427913 2:0.517775 3:-0.490782 4:0.402378 
32 1:-0.427765 2:0.517994 3:-0.490647 4:0.402627 
32 1:-0.427844 2:0.51795 3:-0.490746 4:0.402505 
32 1:-0.427755 2:0.51803 3:-0.490665 4:0.402572 
32 1:-0.427789 2:0.517997 3:-0.490631 4:0.402617 
32 1:-0.427806 2:0.517886 3:-0.490703 4:0.402455 
32 1:-0.553768 2:0.434616 3:-0.602775 4:0.325544 
32 1:-0.427779 2:0.517888 3:-0.490703 4:0.40232 
32 1:-0.427729 2:0.518058 3:-0.490676 4:0.40257 
32 1:-0.427789 2:0.517987 3:-0.490695 4:0.402538 
32 1:-0.458037 2:0.458684 3:-0.517632 4:0.347712 
32 1:-0.427755 2:0.51803 3:-0.490663 4:0.402575 
32 1:-0.427806 2:0.517998 3:-0.490695 4:0.402564 
32 1:-0.427919 2:0.517788 3:-0.490833 4:0.402319 
32 1:-0.427778 2:0.517944 3:-0.490682 4:0.402495 
32 1:-0.427805 2:0.517929 3:-0.490683 4:0.402536 
32 1:-0.427806 2:0.517862 3:-0.490704 4:0.402431 
32 1:-0.427795 2:0.517895 3:-0.490721 4:0.402367 
32 1:-0.42769 2:0.51816 3:-0.490704 4:0.402493 
32 1:-0.385181 2:0.551029 3:-0.490663 4:0.402585 
32 1:-0.427851 2:0.517911 3:-0.490733 4:0.402491 
32 1:-0.42785 2:0.51785 3:-0.490743 4:0.40242 
32 1:-0.427761 2:0.518019 3:-0.490681 4:0.402543 
32 1:-0.427772 2:0.517895 3:-0.490669 4:0.402493 
32 1:-0.427782 2:0.518003 3:-0.490711 4:0.402529 
32 1:-0.427819 2:0.517826 3:-0.490724 4:0.402367 
32 1:-0.427691 2:0.518187 3:-0.490679 4:0.402535 
32 1:-0.427962 2:0.517966 3:-0.490812 4:0.402538 
32 1:-0.427783 2:0.517992 3:-0.490683 4:0.402551 
32 1:-0.427708 2:0.5182 3:-0.490663 4:0.402569 
32 1:-0.427789 2:0.518007 3:-0.490719 4:0.402542 
32 1:-0.427739 2:0.518081 3:-0.490657 4:0.402591 
32 1:-0.427833 2:0.5165 3:-0.490729 4:0.401135 
32 1:-0.42776 2:0.518005 3:-0.490662 4:0.402561 
32 1:-0.427823 2:0.5178 3:-0.490705 4:0.402422 
32 1:-0.427771 2:0.517986 3:-0.490676 4:0.402534 
32 1:-0.427763 2:0.517963 3:-0.490664 4:0.402534 
32 1:-0.427827 2:0.517679 3:-0.490735 4:0.402198 
32 1:-0.42775 2:0.51804 3:-0.490642 4:0.402618 
32 1:-0.427722 2:0.518082 3:-0.490669 4:0.402572 
32 1:-0.427757 2:0.518032 3:-0.490687 4:0.402582 
32 1:-0.427756 2:0.518031 3:-0.490671 4:0.402574 
32 1:-0.42777 2:0.518 3:-0.490672 4:0.402557 
32 1:-0.415679 2:0.558191 3:-0.490996 4:0.401418 
32 1:-0.427754 2:0.517984 3:-0.490657 4:0.402487 
32 1:-0.42777 2:0.517984 3:-0.490684 4:0.402506 
32 1:-0.427785 2:0.517937 3:-0.490677 4:0.402527 
32 1:-0.427895 2:0.517849 3:-0.490789 4:0.402411 
32 1:-0.427762 2:0.518019 3:-0.49069 4:0.402525 
32 1:-0.427757 2:0.518023 3:-0.490657 4:0.402591 
32 1:-0.483451 2:0.43714 3:-0.540224 4:0.327857 
32 1:-0.427756 2:0.518012 3:-0.490663 4:0.402521 
32 1:-0.427732 2:0.518056 3:-0.490682 4:0.402563 
32 1:-0.427921 2:0.517876 3:-0.490807 4:0.402444 
32 1:-0.469194 2:0.457925 3:-0.5276 4:0.346963 
32 1:-0.428026 2:0.517668 3:-0.491143 4:0.401913 
32 1:-0.485612 2:0.434835 3:-0.542159 4:0.325712 
32 1:-0.427788 2:0.517986 3:-0.490715 4:0.402506 
32 1:-0.42783 2:0.517773 3:-0.490726 4:0.402346 
32 1:-0.427746 2:0.518071 3:-0.490663 4:0.402562 
32 1:-0.427754 2:0.518033 3:-0.490649 4:0.402602 
32 1:-0.42776 2:0.518022 3:-0.490656 4:0.402592 
32 1:-0.427774 2:0.517859 3:-0.490676 4:0.402415 
32 1:-0.499159 2:0.441712 3:-0.554224 4:0.332059 
32 1:-0.439191 2:0.476979 3:-0.500834 4:0.36467 
32 1:-0.427766 2:0.518008 3:-0.490668 4:0.402566 
32 1:-0.427793 2:0.518013 3:-0.490688 4:0.402573 
32 1:-0.427745 2:0.518059 3:-0.490666 4:0.40256 
32 1:-0.427751 2:0.51804 3:-0.490647 4:0.402613 
32 1:-0.427742 2:0.518047 3:-0.490668 4:0.402576 
32 1:-0.427765 2:0.518005 3:-0.490675 4:0.402541 
32 1:-0.427702 2:0.518129 3:-0.490659 4:0.402586 
32 1:-0.427766 2:0.518029 3:-0.4908 4:0.402541 
32 1:-0.427773 2:0.517989 3:-0.490678 4:0.402539 
32 1:-0.427752 2:0.518041 3:-0.490661 4:0.402573 
32 1:-0.427765 2:0.517961 3:-0.490667 4:0.402522 
32 1:-0.427771 2:0.518015 3:-0.490666 4:0.40258 
32 1:-0.427776 2:0.517985 3:-0.490673 4:0.402554 
32 1:-0.427687 2:0.518064 3:-0.490689 4:0.402575 
32 1:-0.427736 2:0.518062 3:-0.49067 4:0.402569 
32 1:-0.427865 2:0.517892 3:-0.482587 4:0.413267 
32 1:-0.427853 2:0.517776 3:-0.490756 4:0.402322 
32 1:-0.36901 2:0.528974 3:-0.490749 4:0.402572 
32 1:-0.427765 2:0.518028 3:-0.490666 4:0.402585 
32 1:-0.427751 2:0.518036 3:-0.49066 4:0.402587 
32 1:-0.427992 2:0.517896 3:-0.490873 4:0.402461 
32 1:-0.428309 2:0.517496 3:-0.491156 4:0.402089 
32 1:-0.39288 2:0.535065 3:-0.492317 4:0.401748 
32 1:-0.428474 2:0.516001 3:-0.4913 4:0.400706 
32 1:-0.428003 2:0.517918 3:-0.490873 4:0.402487 
32 1:-0.427402 2:0.51815 3:-0.402122 4:0.433175 
32 1:-0.427649 2:0.518205 3:-0.490664 4:0.402578 
32 1:-0.397334 2:0.59574 3:-0.490647 4:0.402618 
32 1:-0.428354 2:0.517233 3:-0.491259 4:0.401758 
32 1:-0.429739 2:0.516528 3:-0.492458 4:0.401173 
32 1:-0.427712 2:0.518097 3:-0.490662 4:0.402581 
32 1:-0.427792 2:0.51795 3:-0.490715 4:0.402459 
32 1:-0.427787 2:0.517978 3:-0.490665 4:0.402576 
32 1:-0.427749 2:0.518052 3:-0.49068 4:0.402504 
32 1:-0.427776 2:0.518025 3:-0.490672 4:0.402584 
32 1:-0.42771 2:0.518156 3:-0.490621 4:0.402695 
32 1:-0.427832 2:0.517902 3:-0.490716 4:0.402487 
32 1:-0.427811 2:0.517933 3:-0.490711 4:0.402493 
32 1:-0.427737 2:0.518073 3:-0.490664 4:0.402574 
32 1:-0.427749 2:0.518046 3:-0.490688 4:0.402506 
32 1:-0.427745 2:0.518099 3:-0.49065 4:0.402644 
32 1:-0.486955 2:0.45276 3:-0.54333 4:0.342303 
32 1:-0.427905 2:0.517944 3:-0.490756 4:0.402529 
32 1:-0.427913 2:0.51791 3:-0.490777 4:0.402493 
32 1:-0.427834 2:0.517956 3:-0.490553 4:0.402694 
32 1:-0.42786 2:0.517574 3:-0.490758 4:0.402137 
32 1:-0.427758 2:0.518015 3:-0.490665 4:0.402551 
32 1:-0.427984 2:0.517953 3:-0.490867 4:0.402513 
32 1:-0.427794 2:0.518003 3:-0.49069 4:0.402564 
32 1:-0.427803 2:0.517955 3:-0.490773 4:0.402398 
32 1:-0.427847 2:0.517935 3:-0.490742 4:0.402497 
32 1:-0.470796 2:0.445288 3:-0.528947 4:0.335412 
32 1:-0.427796 2:0.518002 3:-0.490698 4:0.402558 
32 1:-0.427705 2:0.518061 3:-0.490651 4:0.402594 
32 1:-0.427814 2:0.518002 3:-0.490724 4:0.402554 
32 1:-0.427773 2:0.518004 3:-0.490694 4:0.402529 
32 1:-0.427806 2:0.517876 3:-0.490679 4:0.402522 
32 1:-0.428019 2:0.517873 3:-0.490894 4:0.402441 
32 1:-0.427908 2:0.517855 3:-0.490775 4:0.402448 
32 1:-0.427762 2:0.518013 3:-0.490676 4:0.402539 
32 1:-0.427756 2:0.518016 3:-0.490671 4:0.402492 
32 1:-0.427748 2:0.518047 3:-0.490636 4:0.402639 
32 1:-0.427809 2:0.517958 3:-0.490667 4:0.402575 
32 1:-0.427783 2:0.517988 3:-0.490706 4:0.402511 
32 1:-0.506317 2:0.484499 3:-0.560588 4:0.371604 
32 1:-0.427952 2:0.517774 3:-0.490693 4:0.402541 
32 1:-0.427746 2:0.518047 3:-0.490661 4:0.402582 
32 1:-0.42797 2:0.517874 3:-0.490837 4:0.402452 
32 1:-0.42773 2:0.518104 3:-0.490654 4:0.402598 
32 1:-0.427787 2:0.517986 3:-0.49069 4:0.402541 
32 1:-0.427848 2:0.517719 3:-0.490755 4:0.402249 
32 1:-0.427762 2:0.518025 3:-0.490672 4:0.402574 
32 1:-0.427795 2:0.517984 3:-0.490765 4:0.402457 
32 1:-0.427759 2:0.518026 3:-0.490667 4:0.402576 
32 1:-0.427806 2:0.517969 3:-0.490691 4:0.402547 
32 1:-0.427907 2:0.517604 3:-0.490786 4:0.402215 
32 1:-0.427781 2:0.517984 3:-0.490722 4:0.402466 
32 1:-0.427795 2:0.517945 3:-0.490694 4:0.402507 
32 1:-0.42784 2:0.517838 3:-0.490726 4:0.402427 
32 1:-0.427753 2:0.518038 3:-0.490654 4:0.402609 
32 1:-0.427839 2:0.517907 3:-0.490717 4:0.402497 
32 1:-0.42772 2:0.518063 3:-0.490715 4:0.402537 
32 1:-0.427733 2:0.518115 3:-0.490655 4:0.402598 
32 1:-0.427883 2:0.517852 3:-0.490779 4:0.402412 
32 1:-0.427786 2:0.517894 3:-0.490678 4:0.402498 
32 1:-0.427693 2:0.518123 3:-0.490645 4:0.402607 
32 1:-0.427827 2:0.517625 3:-0.490731 4:0.402156 
32 1:-0.427832 2:0.517796 3:-0.490755 4:0.402281 
32 1:-0.481565 2:0.45846 3:-0.538555 4:0.347544 
32 1:-0.427731 2:0.518064 3:-0.490639 4:0.402616 
32 1:-0.427715 2:0.518065 3:-0.490739 4:0.402522 
32 1:-0.427754 2:0.517991 3:-0.490657 4:0.402528 
32 1:-0.427759 2:0.518025 3:-0.490645 4:0.40261 
32 1:-0.427906 2:0.517564 3:-0.490812 4:0.402095 
32 1:-0.427739 2:0.518131 3:-0.490655 4:0.402606 
32 1:-0.427781 2:0.517973 3:-0.490673 4:0.402554 
32 1:-0.427784 2:0.517899 3:-0.490658 4:0.402588 
32 1:-0.428154 2:0.517051 3:-0.490984 4:0.401756 
32 1:-0.428535 2:0.512956 3:-0.480073 4:0.474057 
32 1:-0.415286 2:0.575213 3:-0.479543 4:0.455502 
32 1:-0.427732 2:0.518181 3:-0.490666 4:0.402531 
32 1:-0.427787 2:0.51796 3:-0.490698 4:0.402497 
32 1:-0.427876 2:0.517952 3:-0.490729 4:0.40254 
32 1:-0.427761 2:0.518015 3:-0.490674 4:0.402546 
32 1:-0.42784 2:0.517953 3:-0.490702 4:0.402547 
32 1:-0.42772 2:0.518059 3:-0.490661 4:0.402587 
32 1:-0.427774 2:0.518011 3:-0.490668 4:0.402577 
32 1:-0.427773 2:0.518025 3:-0.490657 4:0.40259 
32 1:-0.427826 2:0.518012 3:-0.490826 4:0.40254 
32 1:-0.427854 2:0.517912 3:-0.490751 4:0.402471 
32 1:-0.427791 2:0.517994 3:-0.490682 4:0.402563 
32 1:-0.42772 2:0.518058 3:-0.490656 4:0.402591 
32 1:-0.427838 2:0.517978 3:-0.490742 4:0.402533 
32 1:-0.427781 2:0.518 3:-0.490704 4:0.40253 
32 1:-0.427805 2:0.517831 3:-0.490703 4:0.402402 
32 1:-0.427799 2:0.517994 3:-0.490699 4:0.402552 
32 1:-0.427751 2:0.518039 3:-0.490656 4:0.402594 
32 1:-0.453524 2:0.449463 3:-0.513586 4:0.339255 
32 1:-0.428532 2:0.517744 3:-0.49132 4:0.402334 
32 1:-0.427764 2:0.518009 3:-0.490692 4:0.402502 
32 1:-0.427775 2:0.517977 3:-0.490684 4:0.402516 
32 1:-0.427742 2:0.518075 3:-0.490638 4:0.402661 
32 1:-0.427869 2:0.517843 3:-0.49073 4:0.402465 
32 1:-0.427779 2:0.517982 3:-0.490668 4:0.402567 
32 1:-0.427876 2:0.517935 3:-0.490726 4:0.402532 
32 1:-0.42774 2:0.518054 3:-0.490631 4:0.40263 
32 1:-0.427841 2:0.517849 3:-0.490721 4:0.40245 
32 1:-0.427703 2:0.518068 3:-0.490691 4:0.402566 
32 1:-0.427734 2:0.51806 3:-0.490679 4:0.402559 
32 1:-0.42776 2:0.518019 3:-0.490671 4:0.402558 
32 1:-0.427751 2:0.518037 3:-0.490668 4:0.402576 
32 1:-0.427769 2:0.517964 3:-0.490671 4:0.40252 
32 1:-0.427778 2:0.517996 3:-0.490683 4:0.402548 
32 1:-0.427752 2:0.518038 3:-0.49065 4:0.40261 
32 1:-0.427798 2:0.517948 3:-0.490717 4:0.402469 
32 1:-0.42776 2:0.517997 3:-0.490667 4:0.402527 
32 1:-0.427809 2:0.517997 3:-0.490702 4:0.402559 
32 1:-0.427731 2:0.518134 3:-0.490658 4:0.402587 
32 1:-0.427834 2:0.517966 3:-0.490707 4:0.402547 
32 1:-0.427898 2:0.517836 3:-0.490753 4:0.402454 
32 1:-0.427764 2:0.51801 3:-0.490675 4:0.402545 
32 1:-0.427762 2:0.518028 3:-0.490789 4:0.402503 
32 1:-0.427718 2:0.518074 3:-0.490658 4:0.402589 
32 1:-0.427774 2:0.517974 3:-0.490693 4:0.402482 
32 1:-0.427726 2:0.5181 3:-0.490661 4:0.40258 
32 1:-0.427763 2:0.518012 3:-0.490674 4:0.40255 
32 1:-0.427777 2:0.518015 3:-0.490611 4:0.402629 
32 1:-0.427787 2:0.518012 3:-0.490682 4:0.402573 
32 1:-0.479816 2:0.450987 3:-0.537002 4:0.340633 
32 1:-0.42781 2:0.517956 3:-0.490712 4:0.402511 
32 1:-0.447845 2:0.447865 3:-0.508529 4:0.337794 
32 1:-0.427903 2:0.517571 3:-0.490725 4:0.402369 
32 1:-0.428527 2:0.51614 3:-0.49135 4:0.400828 
32 1:-0.428009 2:0.517647 3:-0.49094 4:0.402144 
32 1:-0.427728 2:0.51805 3:-0.490723 4:0.402545 
32 1:-0.427807 2:0.518007 3:-0.490707 4:0.402564 
32 1:-0.427832 2:0.517878 3:-0.490728 4:0.402444 
32 1:-0.427733 2:0.518077 3:-0.490659 4:0.402585 
32 1:-0.427796 2:0.517897 3:-0.490683 4:0.402503 
32 1:-0.427772 2:0.517929 3:-0.490666 4:0.402535 
32 1:-0.482553 2:0.451596 3:-0.539401 4:0.341243 
32 1:-0.466449 2:0.46743 3:-0.52513 4:0.355792 
32 1:-0.405826 2:0.573709 3:-0.490632 4:0.402655 
32 1:-0.427731 2:0.518087 3:-0.490653 4:0.402601 
32 1:-0.427739 2:0.59012 3:-0.490657 4:0.402403 
32 1:-0.461272 2:0.444215 3:-0.520514 4:0.334331 
32 1:-0.427748 2:0.518043 3:-0.490607 4:0.402672 
32 1:-0.427791 2:0.518001 3:-0.490747 4:0.402509 
32 1:-0.428199 2:0.517648 3:-0.49113 4:0.402164 
32 1:-0.428067 2:0.517076 3:-0.490986 4:0.401547 
32 1:-0.427779 2:0.517934 3:-0.490678 4:0.402501 
32 1:-0.427812 2:0.517954 3:-0.490685 4:0.40255 
32 1:-0.427888 2:0.51792 3:-0.490709 4:0.402544 
32 1:-0.444812 2:0.47825 3:-0.505836 4:0.365838 
32 1:-0.427772 2:0.517913 3:-0.490679 4:0.402438 
32 1:-0.427792 2:0.517985 3:-0.49065 4:0.4026 
32 1:-0.427766 2:0.517974 3:-0.490661 4:0.40257 
32 1:-0.427788 2:0.518008 3:-0.490668 4:0.402581 
32 1:-0.427826 2:0.517865 3:-0.490743 4:0.402381 
32 1:-0.427856 2:0.51798 3:-0.490728 4:0.402551 
32 1:-0.427778 2:0.517999 3:-0.490682 4:0.402554 
32 1:-0.427776 2:0.517904 3:-0.490689 4:0.402396 
32 1:-0.427811 2:0.517948 3:-0.490698 4:0.402527 
32 1:-0.42787 2:0.517761 3:-0.490755 4:0.402352 
32 1:-0.427762 2:0.518025 3:-0.490695 4:0.402549 
32 1:-0.427971 2:0.517857 3:-0.490826 4:0.402447 
32 1:-0.427749 2:0.518063 3:-0.490654 4:0.402606 
32 1:-0.427762 2:0.518012 3:-0.490663 4:0.402575 
32 1:-0.427781 2:0.517976 3:-0.490756 4:0.402373 
32 1:-0.427825 2:0.517922 3:-0.490763 4:0.402417 
32 1:-0.427775 2:0.51793 3:-0.490668 4:0.402535 
32 1:-0.427799 2:0.517968 3:-0.490706 4:0.402516 
32 1:-0.427779 2:0.517972 3:-0.49066 4:0.402582 
32 1:-0.4278 2:0.517565 3:-0.490659 4:0.402572 
32 1:-0.427765 2:0.517988 3:-0.490644 4:0.402645 
32 1:-0.427762 2:0.518002 3:-0.490672 4:0.402533 
32 1:-0.427887 2:0.517385 3:-0.490784 4:0.401945 
32 1:-0.427854 2:0.517646 3:-0.490745 4:0.402237 
32 1:-0.4277 2:0.518076 3:-0.490673 4:0.402577 
32 1:-0.428527 2:0.51767 3:-0.491495 4:0.402182 
32 1:-0.427764 2:0.517993 3:-0.490655 4:0.402597 
32 1:-0.427739 2:0.596276 3:-0.490658 4:0.399605 
32 1:-0.42774 2:0.518059 3:-0.490627 4:0.402649 
32 1:-0.446306 2:0.453549 3:-0.507177 4:0.342984 
32 1:-0.427776 2:0.517972 3:-0.490676 4:0.402536 
32 1:-0.46858 2:0.45942 3:-0.527011 4:0.348409 
32 1:-0.427786 2:0.518014 3:-0.490705 4:0.40256 
32 1:-0.42786 2:0.517775 3:-0.490754 4:0.402343 
32 1:-0.427768 2:0.517978 3:-0.490671 4:0.402532 
32 1:-0.427826 2:0.517891 3:-0.490736 4:0.402429 
32 1:-0.428156 2:0.511554 3:-0.491032 4:0.396314 
32 1:-0.427761 2:0.517938 3:-0.490663 4:0.402508 
32 1:-0.4278 2:0.518002 3:-0.490659 4:0.402589 
32 1:-0.427731 2:0.518072 3:-0.490672 4:0.402564 
32 1:-0.427776 2:0.517959 3:-0.490709 4:0.402407 
32 1:-0.827469 2:0.373623 3:-0.846433 4:0.269159 
32 1:-0.427769 2:0.518018 3:-0.490701 4:0.402543 
32 1:-0.427835 2:0.517764 3:-0.490718 4:0.402379 
32 1:-0.427808 2:0.517955 3:-0.490692 4:0.402538 
32 1:-0.427811 2:0.517968 3:-0.490712 4:0.402525 
32 1:-0.427841 2:0.517971 3:-0.490744 4:0.402526 
32 1:-0.427716 2:0.51812 3:-0.49067 4:0.402559 
32 1:-0.427929 2:0.517765 3:-0.490832 4:0.402312 
32 1:-0.427775 2:0.518006 3:-0.49069 4:0.402546 
32 1:-0.489485 2:0.436348 3:-0.545634 4:0.327071 
32 1:-0.427773 2:0.518004 3:-0.490677 4:0.402557 
32 1:-0.427764 2:0.518029 3:-0.490721 4:0.402561 
32 1:-0.427793 2:0.517917 3:-0.490697 4:0.402466 
32 1:-0.427735 2:0.518117 3:-0.490659 4:0.402579 
32 1:-0.427912 2:0.517992 3:-0.490737 4:0.402568 
32 1:-0.428029 2:0.516675 3:-0.490893 4:0.401382 
32 1:-0.427785 2:0.517793 3:-0.490675 4:0.402447 
32 1:-0.427772 2:0.518006 3:-0.490707 4:0.402511 
32 1:-0.427756 2:0.518021 3:-0.490658 4:0.402582 
32 1:-0.427784 2:0.518009 3:-0.490714 4:0.402542 
32 1:-0.427844 2:0.517798 3:-0.490729 4:0.402396 
32 1:-0.427741 2:0.518049 3:-0.490676 4:0.402567 
32 1:-0.427759 2:0.518004 3:-0.490664 4:0.402545 
32 1:-0.42781 2:0.517944 3:-0.490682 4:0.402549 
32 1:-0.427749 2:0.518049 3:-0.490676 4:0.402531 
32 1:-0.44048 2:0.480501 3:-0.501981 4:0.367923 
32 1:-0.427674 2:0.51812 3:-0.490661 4:0.402585 
32 1:-0.427911 2:0.517892 3:-0.49073 4:0.402522 
32 1:-0.427806 2:0.518001 3:-0.490713 4:0.402554 
32 1:-0.427752 2:0.518038 3:-0.490646 4:0.402629 
32 1:-0.428 2:0.517759 3:-0.490846 4:0.402372 
32 1:-0.427762 2:0.518015 3:-0.490681 4:0.40253 
32 1:-0.427749 2:0.518047 3:-0.49066 4:0.402581 
32 1:-0.42778 2:0.517521 3:-0.487589 4:0.465669 
32 1:-0.427774 2:0.517961 3:-0.490661 4:0.402574 
32 1:-0.427862 2:0.517848 3:-0.490776 4:0.402378 
32 1:-0.427832 2:0.518 3:-0.490733 4:0.402557 
32 1:-0.427902 2:0.517588 3:-0.49078 4:0.402206 
32 1:-0.427763 2:0.517994 3:-0.490682 4:0.402479 
32 1:-0.427815 2:0.517975 3:-0.490725 4:0.402523 
32 1:-0.479 2:0.451395 3:-0.536291 4:0.34099 
32 1:-0.427757 2:0.518028 3:-0.490669 4:0.402571 
32 1:-0.427771 2:0.517914 3:-0.490673 4:0.402473 
32 1:-0.427796 2:0.518004 3:-0.490693 4:0.402564 
32 1:-0.427765 2:0.51801 3:-0.490667 4:0.402569 
32 1:-0.427771 2:0.518001 3:-0.490696 4:0.402511 
32 1:-0.427812 2:0.517974 3:-0.490725 4:0.402517 
32 1:-0.427781 2:0.517943 3:-0.490674 4:0.40253 
32 1:-0.427767 2:0.517943 3:-0.490662 4:0.402557 
32 1:-0.42781 2:0.517924 3:-0.490712 4:0.402479 
32 1:-0.427724 2:0.518049 3:-0.490668 4:0.402584 
32 1:-0.427785 2:0.518013 3:-0.490693 4:0.402566 
32 1:-0.42775 2:0.51805 3:-0.490658 4:0.402587 
32 1:-0.427813 2:0.517959 3:-0.490688 4:0.402549 
32 1:-0.427781 2:0.517987 3:-0.490696 4:0.40252 
32 1:-0.427801 2:0.517953 3:-0.490718 4:0.402483 
32 1:-0.427735 2:0.518081 3:-0.490637 4:0.402644 
32 1:-0.427869 2:0.517653 3:-0.490787 4:0.402144 
32 1:-0.427781 2:0.517975 3:-0.490654 4:0.402596 
32 1:-0.427853 2:0.517821 3:-0.490746 4:0.402392 
32 1:-0.427804 2:0.517988 3:-0.490702 4:0.402549 
32 1:-0.42775 2:0.518084 3:-0.49067 4:0.402411 
32 1:-0.42777 2:0.517961 3:-0.490674 4:0.402508 
0.2270337796242761 1:-0.53592 2:0.280501 3:-0.586831 4:0.183348 
32 1:-0.503669 2:0.45046 3:-0.55816 4:0.340216 
32 1:-0.427731 2:0.518086 3:-0.490653 4:0.402601 
32 1:-0.427761 2:0.518024 3:-0.490654 4:0.402595 
32 1:-0.427761 2:0.518021 3:-0.490666 4:0.402574 
32 1:-0.427733 2:0.518072 3:-0.490622 4:0.402657 
32 1:-0.427826 2:0.518002 3:-0.4907 4:0.402571 
32 1:-0.427768 2:0.517989 3:-0.490673 4:0.402537 
32 1:-0.42775 2:0.518058 3:-0.49063 4:0.402768 
32 1:-0.464541 2:0.457948 3:-0.523452 4:0.346986 
32 1:-0.430107 2:0.51767 3:-0.49283 4:0.402242 
32 1:-0.427749 2:0.518114 3:-0.49066 4:0.402542 
32 1:-0.427795 2:0.517911 3:-0.490677 4:0.402528 
32 1:-0.427812 2:0.51801 3:-0.490647 4:0.402594 
32 1:-0.427754 2:0.518033 3:-0.490712 4:0.402542 
32 1:-0.42774 2:0.518089 3:-0.490661 4:0.402575 
32 1:-0.427772 2:0.518006 3:-0.490712 4:0.402506 
32 1:-0.427752 2:0.518042 3:-0.490713 4:0.402361 
32 1:-0.427691 2:0.518104 3:-0.490633 4:0.402618 
32 1:-0.443327 2:0.470747 3:-0.504528 4:0.358869 
32 1:-0.427879 2:0.517932 3:-0.490748 4:0.402514 
32 1:-0.427759 2:0.51802 3:-0.490649 4:0.402613 
32 1:-0.545481 2:0.437768 3:-0.595431 4:0.328436 
32 1:-0.427857 2:0.517935 3:-0.49073 4:0.402517 
32 1:-0.427734 2:0.518059 3:-0.49065 4:0.402599 
32 1:-0.427779 2:0.517981 3:-0.490673 4:0.402556 
32 1:-0.42778 2:0.517985 3:-0.490681 4:0.402545 
32 1:-0.427767 2:0.517985 3:-0.490687 4:0.402471 
32 1:-0.427781 2:0.518018 3:-0.490609 4:0.402618 
32 1:-0.427679 2:0.518159 3:-0.490707 4:0.402502 
32 1:-0.427774 2:0.518012 3:-0.490724 4:0.40252 
32 1:-0.427807 2:0.517982 3:-0.490725 4:0.402522 
32 1:-0.427795 2:0.517911 3:-0.49068 4:0.402518 
32 1:-0.427732 2:0.518117 3:-0.490678 4:0.402506 
32 1:-0.427803 2:0.517983 3:-0.490704 4:0.40254 
32 1:-0.42777 2:0.517978 3:-0.490688 4:0.402477 
32 1:-0.427803 2:0.518006 3:-0.49071 4:0.402559 
32 1:-0.427755 2:0.518033 3:-0.490695 4:0.402582 
32 1:-0.428029 2:0.517852 3:-0.490928 4:0.402405 
32 1:-0.427614 2:0.518169 3:-0.490627 4:0.40262 
32 1:-0.427765 2:0.518029 3:-0.490672 4:0.402584 
32 1:-0.42775 2:0.518047 3:-0.490717 4:0.402391 
32 1:-0.427717 2:0.518092 3:-0.490632 4:0.402631 
32 1:-0.427801 2:0.517913 3:-0.490703 4:0.402467 
32 1:-0.427759 2:0.518018 3:-0.490649 4:0.402615 
32 1:-0.427786 2:0.517932 3:-0.490665 4:0.402565 
32 1:-0.427744 2:0.518043 3:-0.490679 4:0.402569 
32 1:-0.427834 2:0.517865 3:-0.490735 4:0.402421 
32 1:-0.427776 2:0.518018 3:-0.490686 4:0.402569 
32 1:-0.427795 2:0.517961 3:-0.49069 4:0.402529 
32 1:-0.427773 2:0.518004 3:-0.4907 4:0.402522 
32 1:-0.427769 2:0.518012 3:-0.490656 4:0.402592 
32 1:-0.427848 2:0.517932 3:-0.490762 4:0.402473 
32 1:-0.427671 2:0.518111 3:-0.490757 4:0.402493 
32 1:-0.427802 2:0.517869 3:-0.49069 4:0.402471 
32 1:-0.427781 2:0.517973 3:-0.490675 4:0.402549 
32 1:-0.427844 2:0.517939 3:-0.490734 4:0.402506 
32 1:-0.427745 2:0.518052 3:-0.490709 4:0.402469 
32 1:-0.427822 2:0.517859 3:-0.490716 4:0.402435 
32 1:-0.42786 2:0.517769 3:-0.490748 4:0.402356 
32 1:-0.427944 2:0.517924 3:-0.490774 4:0.40252 
32 1:-0.427733 2:0.51814 3:-0.49066 4:0.402575 
32 1:-0.427788 2:0.517925 3:-0.490697 4:0.402458 
32 1:-0.427784 2:0.518005 3:-0.490677 4:0.40257 
32 1:-0.427755 2:0.518031 3:-0.490655 4:0.402593 
32 1:-0.427828 2:0.517937 3:-0.490718 4:0.402508 
32 1:-0.42777 2:0.51797 3:-0.49065 4:0.402618 
32 1:-0.427754 2:0.518033 3:-0.490668 4:0.402564 
32 1:-0.427745 2:0.518072 3:-0.490653 4:0.402609 
32 1:-0.427747 2:0.518055 3:-0.490662 4:0.402573 
32 1:-0.427722 2:0.518076 3:-0.490702 4:0.402527 
32 1:-0.427614 2:0.518716 3:-0.490664 4:0.402554 
32 1:-0.427774 2:0.518002 3:-0.490677 4:0.402558 
32 1:-0.427704 2:0.518134 3:-0.490646 4:0.402613 
32 1:-0.427722 2:0.518057 3:-0.490706 4:0.402553 
32 1:-0.427852 2:0.517842 3:-0.49077 4:0.40236 
32 1:-0.427796 2:0.517906 3:-0.490703 4:0.402445 
32 1:-0.427728 2:0.518059 3:-0.490655 4:0.402592 
32 1:-0.427746 2:0.518062 3:-0.490661 4:0.402575 
32 1:-0.427752 2:0.518051 3:-0.490695 4:0.402216 
32 1:-0.427844 2:0.51796 3:-0.490749 4:0.402513 
32 1:-0.427683 2:0.518093 3:-0.490636 4:0.402608 
32 1:-0.427789 2:0.517897 3:-0.490684 4:0.402484 
32 1:-0.478941 2:0.474341 3:-0.536213 4:0.362223 
32 1:-0.427718 2:0.5181 3:-0.490662 4:0.40258 
32 1:-0.428243 2:0.517774 3:-0.491044 4:0.402377 
32 1:-0.427787 2:0.517983 3:-0.490703 4:0.402516 
32 1:-0.427753 2:0.518034 3:-0.490658 4:0.402589 
32 1:-0.427719 2:0.518083 3:-0.490713 4:0.402506 
32 1:-0.427731 2:0.518069 3:-0.49072 4:0.402489 
32 1:-0.427774 2:0.518009 3:-0.490687 4:0.402552 
32 1:-0.427792 2:0.517975 3:-0.490689 4:0.402538 
32 1:-0.427888 2:0.517824 3:-0.490757 4:0.402429 
32 1:-0.427801 2:0.51794 3:-0.490691 4:0.402521 
32 1:-0.427772 2:0.517975 3:-0.490673 4:0.402534 
32 1:-0.427774 2:0.518004 3:-0.49067 4:0.40257 
32 1:-0.427732 2:0.518071 3:-0.490712 4:0.402491 
32 1:-0.427761 2:0.518024 3:-0.490673 4:0.40257 
32 1:-0.427759 2:0.518026 3:-0.49064 4:0.402614 
32 1:-0.427927 2:0.517957 3:-0.490848 4:0.402503 
32 1:-0.427862 2:0.517899 3:-0.490755 4:0.402465 
32 1:-0.427803 2:0.517977 3:-0.4907 4:0.402539 
32 1:-0.427748 2:0.518108 3:-0.490662 4:0.402527 
32 1:-0.427765 2:0.518021 3:-0.490616 4:0.402637 
32 1:-0.427753 2:0.518034 3:-0.490648 4:0.402597 
32 1:-0.427768 2:0.518019 3:-0.490648 4:0.402599 
32 1:-0.427686 2:0.518091 3:-0.490689 4:0.402561 
32 1:-0.427951 2:0.517943 3:-0.490808 4:0.402518 
32 1:-0.427683 2:0.518075 3:-0.49068 4:0.402576 
32 1:-0.427797 2:0.518007 3:-0.490705 4:0.40256 
32 1:-0.427657 2:0.518106 3:-0.49062 4:0.402619 
32 1:-0.485909 2:0.444216 3:-0.542439 4:0.33436 
32 1:-0.427807 2:0.517978 3:-0.490673 4:0.402573 
32 1:-0.427764 2:0.518005 3:-0.490668 4:0.402557 
32 1:-0.427777 2:0.517916 3:-0.490675 4:0.402495 
32 1:-0.427793 2:0.517919 3:-0.490699 4:0.40246 
32 1:-0.427758 2:0.518029 3:-0.490672 4:0.402572 
32 1:-0.427763 2:0.518021 3:-0.490668 4:0.402575 
32 1:-0.427967 2:0.517919 3:-0.490864 4:0.402475 
32 1:-0.427907 2:0.51788 3:-0.490815 4:0.402425 
32 1:-0.427768 2:0.518019 3:-0.490774 4:0.402469 
32 1:-0.427764 2:0.518019 3:-0.490647 4:0.402604 
32 1:-0.427801 2:0.518009 3:-0.490709 4:0.402562 
32 1:-0.427785 2:0.518015 3:-0.490691 4:0.402569 
32 1:-0.42783 2:0.517966 3:-0.490735 4:0.402518 
32 1:-0.427839 2:0.517876 3:-0.4908 4:0.402315 
32 1:-0.42775 2:0.518039 3:-0.490614 4:0.402644 
32 1:-0.427753 2:0.518034 3:-0.490679 4:0.402577 
32 1:-0.42786 2:0.51784 3:-0.490734 4:0.402444 
32 1:-0.427739 2:0.518091 3:-0.490656 4:0.402595 
32 1:-0.427784 2:0.518023 3:-0.490666 4:0.402587 
32 1:-0.427743 2:0.518061 3:-0.490657 4:0.40259 
32 1:-0.427762 2:0.518027 3:-0.490621 4:0.402619 
32 1:-0.427774 2:0.517961 3:-0.490683 4:0.402492 
32 1:-0.427767 2:0.518007 3:-0.4907 4:0.402503 
32 1:-0.427856 2:0.517879 3:-0.490855 4:0.40228 
32 1:-0.427805 2:0.51798 3:-0.490691 4:0.402553 
32 1:-0.427715 2:0.518113 3:-0.490635 4:0.402638 
32 1:-0.427766 2:0.518017 3:-0.490628 4:0.402631 
32 1:-0.427857 2:0.517869 3:-0.490727 4:0.402473 
32 1:-0.42779 2:0.517974 3:-0.490723 4:0.402478 
32 1:-0.42774 2:0.518045 3:-0.490676 4:0.402572 
32 1:-0.427793 2:0.518016 3:-0.490714 4:0.402563 
32 1:-0.427774 2:0.517976 3:-0.490669 4:0.402555 
32 1:-0.427753 2:0.518034 3:-0.490656 4:0.402591 
32 1:-0.427792 2:0.517912 3:-0.490725 4:0.402365 
32 1:-0.427762 2:0.518018 3:-0.490667 4:0.402569 
32 1:-0.427643 2:0.518361 3:-0.490651 4:0.402609 
32 1:-0.427793 2:0.51799 3:-0.490725 4:0.402511 
32 1:-0.427747 2:0.518036 3:-0.490638 4:0.402599 
32 1:-0.427749 2:0.51807 3:-0.490659 4:0.402575 
32 1:-0.427943 2:0.517978 3:-0.49084 4:0.402535 
32 1:-0.42781 2:0.517973 3:-0.490708 4:0.402533 
32 1:-0.427817 2:0.517925 3:-0.490714 4:0.402489 
32 1:-0.427762 2:0.517964 3:-0.490654 4:0.402615 
32 1:-0.427781 2:0.518021 3:-0.49067 4:0.402584 
32 1:-0.427773 2:0.518015 3:-0.490672 4:0.402576 
32 1:-0.427885 2:0.517893 3:-0.490809 4:0.402422 
32 1:-0.42775 2:0.518041 3:-0.490659 4:0.402587 
32 1:-0.427804 2:0.517957 3:-0.490683 4:0.402549 
32 1:-0.427775 2:0.518003 3:-0.490671 4:0.402569 
32 1:-0.42777 2:0.517963 3:-0.490668 4:0.402542 
32 1:-0.427747 2:0.518043 3:-0.490647 4:0.402604 
32 1:-0.427802 2:0.517998 3:-0.490703 4:0.402555 
32 1:-0.427763 2:0.51801 3:-0.490665 4:0.402569 
32 1:-0.427854 2:0.51785 3:-0.490712 4:0.402486 
32 1:-0.427854 2:0.517889 3:-0.490769 4:0.402424 
32 1:-0.427728 2:0.518078 3:-0.490688 4:0.402535 
32 1:-0.427754 2:0.518032 3:-0.490662 4:0.402571 
32 1:-0.427702 2:0.518064 3:-0.490639 4:0.402601 
32 1:-0.427614 2:0.518177 3:-0.490664 4:0.402583 
32 1:-0.42812 2:0.517757 3:-0.49081 4:0.40247 
32 1:-0.427732 2:0.518073 3:-0.490654 4:0.402596 
32 1:-0.427764 2:0.518018 3:-0.490749 4:0.402449 
32 1:-0.427771 2:0.518025 3:-0.490662 4:0.402588 
32 1:-0.427749 2:0.518044 3:-0.490648 4:0.402611 
32 1:-0.427751 2:0.518041 3:-0.490654 4:0.402599 
32 1:-0.427776 2:0.517953 3:-0.490686 4:0.402481 
32 1:-0.427823 2:0.517993 3:-0.490734 4:0.402543 
32 1:-0.427814 2:0.518014 3:-0.490833 4:0.40253 
32 1:-0.765036 2:0.303798 3:-0.790771 4:0.204704 
32 1:-0.42776 2:0.518023 3:-0.490645 4:0.402611 
32 1:-0.427726 2:0.518048 3:-0.490662 4:0.402587 
32 1:-0.427713 2:0.518166 3:-0.490656 4:0.402593 
32 1:-0.427899 2:0.517914 3:-0.490766 4:0.402497 
32 1:-0.427747 2:0.518058 3:-0.490667 4:0.402551 
32 1:-0.427726 2:0.518065 3:-0.490645 4:0.402604 
32 1:-0.427748 2:0.518039 3:-0.49069 4:0.402556 
32 1:-0.427837 2:0.517905 3:-0.490739 4:0.402459 
32 1:-0.427774 2:0.518006 3:-0.490651 4:0.402598 
32 1:-0.427812 2:0.517905 3:-0.490708 4:0.402473 
32 1:-0.427769 2:0.517995 3:-0.490674 4:0.402547 
32 1:-0.427852 2:0.517972 3:-0.490713 4:0.402554 
32 1:-0.427747 2:0.518056 3:-0.490668 4:0.402551 
32 1:-0.427754 2:0.518034 3:-0.490651 4:0.402596 
32 1:-0.427861 2:0.517974 3:-0.490652 4:0.402593 
32 1:-0.427785 2:0.517941 3:-0.490689 4:0.402492 
32 1:-0.427752 2:0.518036 3:-0.490669 4:0.402574 
32 1:-0.427713 2:0.518119 3:-0.490667 4:0.402567 
32 1:-0.427749 2:0.518042 3:-0.49067 4:0.402565 
32 1:-0.427832 2:0.517425 3:-0.490752 4:0.401824 
32 1:-0.427791 2:0.517933 3:-0.490672 4:0.402549 
32 1:-0.427797 2:0.518002 3:-0.4907 4:0.402558 
32 1:-0.427875 2:0.517917 3:-0.490775 4:0.402472 
32 1:-0.427779 2:0.517995 3:-0.490693 4:0.402534 
32 1:-0.427695 2:0.518058 3:-0.4907 4:0.402571 
32 1:-0.427746 2:0.518065 3:-0.490653 4:0.402604 
32 1:-0.427811 2:0.517939 3:-0.490707 4:0.402504 
32 1:-0.427743 2:0.518055 3:-0.490694 4:0.402514 
32 1:-0.427769 2:0.518003 3:-0.490671 4:0.402562 
32 1:-0.441123 2:0.446267 3:-0.502565 4:0.336234 
32 1:-0.427758 2:0.518021 3:-0.490657 4:0.402591 
32 1:-0.427772 2:0.517974 3:-0.490661 4:0.402575 
32 1:-0.427777 2:0.518004 3:-0.490674 4:0.402568 
32 1:-0.427828 2:0.517964 3:-0.490677 4:0.402571 
32 1:-0.427789 2:0.518 3:-0.49066 4:0.402587 
32 1:-0.427787 2:0.517977 3:-0.49065 4:0.402602 
32 1:-0.427742 2:0.518047 3:-0.490696 4:0.402542 
32 1:-0.427804 2:0.517976 3:-0.4907 4:0.402539 
32 1:-0.427763 2:0.517931 3:-0.490661 4:0.402547 
32 1:-0.427786 2:0.518009 3:-0.490661 4:0.402587 
32 1:-0.427814 2:0.517937 3:-0.490699 4:0.402521 
32 1:-0.427756 2:0.518029 3:-0.490633 4:0.402644 
32 1:-0.42778 2:0.517976 3:-0.490683 4:0.402531 
32 1:-0.427625 2:0.518149 3:-0.490662 4:0.402585 
32 1:-0.42771 2:0.518077 3:-0.490658 4:0.402589 
32 1:-0.462509 2:0.459509 3:-0.521628 4:0.348452 
32 1:-0.427802 2:0.517901 3:-0.490672 4:0.402548 
32 1:-0.427774 2:0.518009 3:-0.490648 4:0.402601 
32 1:-0.427798 2:0.517823 3:-0.490697 4:0.402393 
32 1:-0.427749 2:0.518043 3:-0.49068 4:0.402538 
32 1:-0.427781 2:0.518009 3:-0.490754 4:0.402497 
32 1:-0.427737 2:0.518063 3:-0.490674 4:0.402558 
32 1:-0.427806 2:0.518 3:-0.490727 4:0.402544 
32 1:-0.427786 2:0.517965 3:-0.490671 4:0.402558 
32 1:-0.427768 2:0.517986 3:-0.490672 4:0.40254 
32 1:-0.427844 2:0.517892 3:-0.490732 4:0.402467 
32 1:-0.414776 2:0.577785 3:-0.490708 4:0.402345 
32 1:-0.427744 2:0.518062 3:-0.490665 4:0.402567 
32 1:-0.427798 2:0.517983 3:-0.49069 4:0.402551 
32 1:-0.427754 2:0.518033 3:-0.490721 4:0.402499 
32 1:-0.428049 2:0.517909 3:-0.490851 4:0.402505 
32 1:-0.561648 2:0.460053 3:-0.609822 4:0.349023 
32 1:-0.427725 2:0.518059 3:-0.490812 4:0.402447 
32 1:-0.488265 2:0.453099 3:-0.544561 4:0.342543 
32 1:-0.427698 2:0.518064 3:-0.490656 4:0.40259 
32 1:-0.427736 2:0.518113 3:-0.490676 4:0.402504 
32 1:-0.42794 2:0.517469 3:-0.490822 4:0.402069 
32 1:-0.427764 2:0.518019 3:-0.490678 4:0.402559 
32 1:-0.427799 2:0.517996 3:-0.490692 4:0.402561 
32 1:-0.427853 2:0.517937 3:-0.490781 4:0.402465 
32 1:-0.427852 2:0.517972 3:-0.490749 4:0.40253 
32 1:-0.427772 2:0.517914 3:-0.490674 4:0.40247 
32 1:-0.427749 2:0.518072 3:-0.490672 4:0.402476 
32 1:-0.427755 2:0.518031 3:-0.490705 4:0.402469 
32 1:-0.427763 2:0.518004 3:-0.490652 4:0.402608 
32 1:-0.427797 2:0.517922 3:-0.490739 4:0.402372 
32 1:-0.427689 2:0.518151 3:-0.490628 4:0.402644 
32 1:-0.427781 2:0.518 3:-0.490686 4:0.402552 
32 1:-0.427782 2:0.517979 3:-0.490681 4:0.402542 
32 1:-0.427754 2:0.518033 3:-0.490744 4:0.402535 
32 1:-0.427691 2:0.518279 3:-0.490659 4:0.402581 
32 1:-0.427947 2:0.51788 3:-0.49083 4:0.402447 
32 1:-0.427942 2:0.517882 3:-0.490844 4:0.402434 
32 1:-0.427721 2:0.51809 3:-0.490652 4:0.402599 
32 1:-0.427753 2:0.518035 3:-0.490651 4:0.402599 
32 1:-0.427742 2:0.518054 3:-0.490658 4:0.402589 
32 1:-0.427682 2:0.518402 3:-0.490656 4:0.402595 
32 1:-0.428156 2:0.517901 3:-0.491162 4:0.402417 
32 1:-0.427839 2:0.517963 3:-0.490784 4:0.402481 
32 1:-0.427829 2:0.517939 3:-0.490745 4:0.402476 
32 1:-0.427808 2:0.518003 3:-0.49058 4:0.402635 
32 1:-0.427873 2:0.517933 3:-0.490749 4:0.40251 
32 1:-0.428053 2:0.517788 3:-0.490864 4:0.402414 
32 1:-0.479719 2:0.440791 3:-0.5369 4:0.331235 
32 1:-0.427728 2:0.518051 3:-0.490657 4:0.40259 
32 1:-0.428016 2:0.517748 3:-0.490966 4:0.40224 
32 1:-0.427779 2:0.518007 3:-0.490698 4:0.402545 
32 1:-0.541132 2:0.430206 3:-0.591711 4:0.321328 
32 1:-0.427796 2:0.517972 3:-0.490667 4:0.402575 
32 1:-0.427841 2:0.517888 3:-0.490706 4:0.402505 
32 1:-0.427666 2:0.518141 3:-0.490636 4:0.402617 
32 1:-0.427749 2:0.51804 3:-0.490662 4:0.402583 
32 1:-0.427762 2:0.518001 3:-0.490671 4:0.402533 
32 1:-0.427738 2:0.518072 3:-0.490647 4:0.402614 
32 1:-0.427752 2:0.518042 3:-0.490663 4:0.402559 
32 1:-0.427749 2:0.518037 3:-0.490659 4:0.402589 
32 1:-0.427906 2:0.517854 3:-0.49077 4:0.402452 
32 1:-0.427731 2:0.518052 3:-0.490595 4:0.402642 
32 1:-0.427763 2:0.518027 3:-0.490631 4:0.402608 
32 1:-0.427773 2:0.51798 3:-0.490712 4:0.402429 
32 1:-0.427749 2:0.518062 3:-0.490656 4:0.402597 
32 1:-0.427818 2:0.517828 3:-0.490721 4:0.402378 
32 1:-0.427761 2:0.518016 3:-0.490669 4:0.402558 
32 1:-0.427784 2:0.517971 3:-0.490723 4:0.402449 
32 1:-0.42786 2:0.517911 3:-0.49074 4:0.40249 
32 1:-0.427751 2:0.518042 3:-0.490671 4:0.402546 
32 1:-0.42776 2:0.518026 3:-0.49064 4:0.402614 
32 1:-0.427776 2:0.51801 3:-0.490692 4:0.402552 
32 1:-0.427739 2:0.518041 3:-0.490753 4:0.40254 
32 1:-0.427778 2:0.517967 3:-0.490684 4:0.402513 
32 1:-0.427749 2:0.518046 3:-0.490729 4:0.402418 
32 1:-0.427937 2:0.517653 3:-0.490803 4:0.402275 
32 1:-0.427682 2:0.518083 3:-0.490646 4:0.402598 
32 1:-0.427657 2:0.518205 3:-0.490723 4:0.402468 
32 1:-0.427778 2:0.517956 3:-0.490672 4:0.402539 
32 1:-0.427751 2:0.51804 3:-0.490703 4:0.402469 
32 1:-0.427745 2:0.518047 3:-0.49061 4:0.402667 
32 1:-0.42776 2:0.518031 3:-0.49067 4:0.402585 
32 1:-0.427772 2:0.518008 3:-0.490739 4:0.402474 
32 1:-0.427827 2:0.517997 3:-0.490742 4:0.402545 
32 1:-0.427719 2:0.518066 3:-0.490654 4:0.402593 
32 1:-0.427895 2:0.517913 3:-0.490784 4:0.402477 
32 1:-0.593436 2:0.294549 3:-0.638212 4:0.195977 
32 1:-0.427738 2:0.518124 3:-0.490661 4:0.402565 
32 1:-0.427825 2:0.51794 3:-0.490756 4:0.402455 
32 1:-0.427724 2:0.518077 3:-0.490652 4:0.402598 
32 1:-0.427712 2:0.518136 3:-0.490649 4:0.402611 
32 1:-0.42808 2:0.517626 3:-0.490966 4:0.402189 
32 1:-0.427767 2:0.518 3:-0.490645 4:0.402622 
32 1:-0.42779 2:0.517983 3:-0.490744 4:0.402465 
32 1:-0.427732 2:0.518054 3:-0.49065 4:0.402596 
32 1:-0.426217 2:0.518135 3:-0.491927 4:0.402502 
32 1:-0.427747 2:0.518045 3:-0.490692 4:0.402531 
32 1:-0.427768 2:0.518012 3:-0.490661 4:0.402584 
32 1:-0.4277 2:0.518105 3:-0.490703 4:0.402526 
32 1:-0.427782 2:0.517944 3:-0.490686 4:0.402497 
32 1:-0.427771 2:0.518024 3:-0.490611 4:0.402617 
32 1:-0.427716 2:0.518067 3:-0.490657 4:0.40259 
32 1:-0.427635 2:0.51812 3:-0.49073 4:0.402534 
32 1:-0.428164 2:0.517787 3:-0.491001 4:0.402376 
32 1:-0.427764 2:0.517978 3:-0.490696 4:0.402374 
32 1:-0.427865 2:0.517844 3:-0.490745 4:0.402436 
32 1:-0.427751 2:0.518039 3:-0.490652 4:0.402599 
32 1:-0.427796 2:0.518001 3:-0.49068 4:0.402571 
32 1:-0.427701 2:0.518078 3:-0.490718 4:0.402537 
32 1:-0.515429 2:0.468507 3:-0.5688 4:0.356768 
32 1:-0.427737 2:0.518046 3:-0.490744 4:0.402526 
32 1:-0.427744 2:0.518056 3:-0.49066 4:0.402583 
32 1:-0.427711 2:0.518079 3:-0.490662 4:0.402585 
32 1:-0.427809 2:0.517856 3:-0.490694 4:0.402468 
32 1:-0.427812 2:0.517838 3:-0.490732 4:0.402329 
32 1:-0.427769 2:0.518002 3:-0.490696 4:0.402509 
32 1:-0.427608 2:0.51818 3:-0.490623 4:0.402625 
32 1:-0.427782 2:0.518008 3:-0.490689 4:0.40256 
32 1:-0.427694 2:0.51808 3:-0.49066 4:0.402587 
32 1:-0.4278 2:0.517909 3:-0.490664 4:0.40257 
32 1:-0.427751 2:0.518039 3:-0.490647 4:0.402609 
32 1:-0.572156 2:0.467777 3:-0.619197 4:0.35615 
32 1:-0.427774 2:0.517991 3:-0.490671 4:0.402558 
32 1:-0.37151 2:0.569276 3:-0.490674 4:0.402574 
32 1:-0.427852 2:0.517964 3:-0.490722 4:0.402542 
32 1:-0.427757 2:0.518016 3:-0.490677 4:0.40248 
32 1:-0.381128 2:0.565221 3:-0.490652 4:0.402595 
32 1:-0.427572 2:0.51812 3:-0.490691 4:0.402573 
32 1:-0.427833 2:0.517983 3:-0.490762 4:0.402522 
32 1:-0.427668 2:0.518203 3:-0.490654 4:0.402595 
32 1:-0.428589 2:0.516239 3:-0.491401 4:0.400932 
32 1:-0.427698 2:0.518049 3:-0.490657 4:0.40259 
32 1:-0.427756 2:0.518024 3:-0.490659 4:0.402579 
32 1:-0.427824 2:0.517997 3:-0.490709 4:0.402562 
32 1:-0.427801 2:0.518005 3:-0.490665 4:0.402585 
32 1:-0.427731 2:0.518096 3:-0.490649 4:0.402611 
32 1:-0.427741 2:0.518051 3:-0.490647 4:0.402604 
32 1:-0.427795 2:0.517998 3:-0.490687 4:0.402563 
32 1:-0.427733 2:0.518052 3:-0.490653 4:0.402594 
32 1:-0.427815 2:0.517951 3:-0.490708 4:0.402519 
32 1:-0.427771 2:0.518006 3:-0.490669 4:0.40257 
32 1:-0.427776 2:0.517947 3:-0.490675 4:0.402518 
32 1:-0.427757 2:0.51803 3:-0.490676 4:0.402571 
32 1:-0.427745 2:0.518062 3:-0.490658 4:0.402586 
32 1:-0.427722 2:0.518149 3:-0.490653 4:0.402606 
32 1:-0.427783 2:0.518021 3:-0.490731 4:0.402558 
32 1:-0.427655 2:0.518071 3:-0.49072 4:0.402565 
32 1:-0.427773 2:0.518003 3:-0.490663 4:0.40258 
32 1:-0.427748 2:0.518053 3:-0.490576 4:0.402843 
32 1:-0.427788 2:0.518 3:-0.490695 4:0.402552 
32 1:-0.427759 2:0.518025 3:-0.49069 4:0.402537 
32 1:-0.427752 2:0.518034 3:-0.490666 4:0.402585 
32 1:-0.427745 2:0.518053 3:-0.490659 4:0.402586 
32 1:-0.427753 2:0.518033 3:-0.490631 4:0.402602 
32 1:-0.427771 2:0.518022 3:-0.490683 4:0.402573 
32 1:-0.427776 2:0.518007 3:-0.490676 4:0.402567 
32 1:-0.427745 2:0.518044 3:-0.490657 4:0.40259 
32 1:-0.42779 2:0.517947 3:-0.490675 4:0.402546 
32 1:-0.427753 2:0.518035 3:-0.490659 4:0.402587 
32 1:-0.427755 2:0.518031 3:-0.490658 4:0.402587 
32 1:-0.427698 2:0.518059 3:-0.490649 4:0.402594 
32 1:-0.427754 2:0.518034 3:-0.490692 4:0.402534 
32 1:-0.427771 2:0.518008 3:-0.490666 4:0.402576 
32 1:-0.427789 2:0.517931 3:-0.490663 4:0.402574 
32 1:-0.427878 2:0.517885 3:-0.490744 4:0.402481 
32 1:-0.427742 2:0.518043 3:-0.490724 4:0.402532 
32 1:-0.427778 2:0.517994 3:-0.490682 4:0.402548 
32 1:-0.427899 2:0.517888 3:-0.490727 4:0.402518 
32 1:-0.427755 2:0.518031 3:-0.490648 4:0.402602 
32 1:-0.427813 2:0.517992 3:-0.490681 4:0.402572 
32 1:-0.427732 2:0.518068 3:-0.490665 4:0.402576 
32 1:-0.427761 2:0.518026 3:-0.490676 4:0.40257 
32 1:-0.42775 2:0.518043 3:-0.490642 4:0.402626 
32 1:-0.427756 2:0.51803 3:-0.490664 4:0.402581 
32 1:-0.427826 2:0.518008 3:-0.490729 4:0.402564 
32 1:-0.427757 2:0.518029 3:-0.490648 4:0.4026 
32 1:-0.427841 2:0.517964 3:-0.490712 4:0.402545 
32 1:-0.427744 2:0.518051 3:-0.490667 4:0.402571 
32 1:-0.427749 2:0.518046 3:-0.490657 4:0.402591 
32 1:-0.42767 2:0.518118 3:-0.490685 4:0.402561 
32 1:-0.427713 2:0.518106 3:-0.49068 4:0.402547 
32 1:-0.42776 2:0.51803 3:-0.490669 4:0.402584 
32 1:-0.427657 2:0.518208 3:-0.49063 4:0.40264 
32 1:-0.427753 2:0.518038 3:-0.490652 4:0.402611 
32 1:-0.427728 2:0.51806 3:-0.490635 4:0.402614 
32 1:-0.523573 2:0.447585 3:-0.575966 4:0.33748 
32 1:-0.427782 2:0.517894 3:-0.490685 4:0.402447 
32 1:-0.427775 2:0.518005 3:-0.490673 4:0.402568 
32 1:-0.427764 2:0.518011 3:-0.490656 4:0.402592 
32 1:-0.427773 2:0.51802 3:-0.490714 4:0.40255 
32 1:-0.427827 2:0.518007 3:-0.490686 4:0.402579 
32 1:-0.427773 2:0.518005 3:-0.490681 4:0.402553 
32 1:-0.427799 2:0.517971 3:-0.490702 4:0.402525 
32 1:-0.427714 2:0.518106 3:-0.490649 4:0.402606 
32 1:-0.427769 2:0.517984 3:-0.49066 4:0.402578 
32 1:-0.427764 2:0.518015 3:-0.490669 4:0.402568 
32 1:-0.427571 2:0.51811 3:-0.490633 4:0.4026 
14.61327636418767 1:-0.711943 2:0.402863 3:-0.743598 4:0.296179 
32 1:-0.427772 2:0.517998 3:-0.490648 4:0.402608 
32 1:-0.427796 2:0.517971 3:-0.490695 4:0.402531 
32 1:-0.427959 2:0.5179 3:-0.490809 4:0.402487 
32 1:-0.427729 2:0.518072 3:-0.490634 4:0.402626 
32 1:-0.427752 2:0.518037 3:-0.490691 4:0.402522 
32 1:-0.427758 2:0.518022 3:-0.490678 4:0.402533 
32 1:-0.427999 2:0.517922 3:-0.490942 4:0.402456 
32 1:-0.427734 2:0.518074 3:-0.490654 4:0.402597 
32 1:-0.427747 2:0.518043 3:-0.490649 4:0.402602 
32 1:-0.427719 2:0.518103 3:-0.490672 4:0.402558 
32 1:-0.427791 2:0.517972 3:-0.490701 4:0.402516 
32 1:-0.49017 2:0.470804 3:-0.546252 4:0.358921 
32 1:-0.428022 2:0.517725 3:-0.490838 4:0.402374 
32 1:-0.427782 2:0.518001 3:-0.490688 4:0.402553 
32 1:-0.427825 2:0.517938 3:-0.490698 4:0.402533 
32 1:-0.42775 2:0.518048 3:-0.490658 4:0.402588 
32 1:-0.427736 2:0.518085 3:-0.490665 4:0.402567 
32 1:-0.427732 2:0.518107 3:-0.490663 4:0.402568 
32 1:-0.877094 2:0.401734 3:-0.890934 4:0.295043 
32 1:-0.427791 2:0.51791 3:-0.490663 4:0.40257 
32 1:-0.427789 2:0.517862 3:-0.490677 4:0.40249 
32 1:-0.42774 2:0.51805 3:-0.490625 4:0.40263 
32 1:-0.427867 2:0.517942 3:-0.490739 4:0.402521 
32 1:-0.427878 2:0.517915 3:-0.490803 4:0.402445 
32 1:-0.427808 2:0.51798 3:-0.490703 4:0.402542 
32 1:-0.427824 2:0.517966 3:-0.490718 4:0.40253 
32 1:-0.427722 2:0.518076 3:-0.490679 4:0.402559 
32 1:-0.427729 2:0.518072 3:-0.490718 4:0.402492 
32 1:-0.427928 2:0.517683 3:-0.490771 4:0.402352 
32 1:-0.427768 2:0.518015 3:-0.490668 4:0.402575 
32 1:-0.427766 2:0.518025 3:-0.490741 4:0.402532 
32 1:-0.4278 2:0.518009 3:-0.49079 4:0.402517 
32 1:-0.427879 2:0.517908 3:-0.490762 4:0.402481 
32 1:-0.427805 2:0.517945 3:-0.490699 4:0.402515 
32 1:-0.427767 2:0.518007 3:-0.49067 4:0.402562 
32 1:-0.427679 2:0.518109 3:-0.490633 4:0.402615 
32 1:-0.427831 2:0.518001 3:-0.490732 4:0.402558 
32 1:-0.427792 2:0.51788 3:-0.490686 4:0.402469 
32 1:-0.42772 2:0.518199 3:-0.490656 4:0.402593 
32 1:-0.427788 2:0.517991 3:-0.490666 4:0.402578 
32 1:-0.427802 2:0.51794 3:-0.490722 4:0.402458 
32 1:-0.427793 2:0.518027 3:-0.490574 4:0.402603 
32 1:-0.427745 2:0.518067 3:-0.490653 4:0.402605 
32 1:-0.427761 2:0.518023 3:-0.490694 4:0.402534 
32 1:-0.427829 2:0.517911 3:-0.490741 4:0.402449 
32 1:-0.767011 2:0.205856 3:-0.792693 4:0.114077 
32 1:-0.427731 2:0.518092 3:-0.490665 4:0.402568 
32 1:-0.427789 2:0.518003 3:-0.490743 4:0.402514 
32 1:-0.427734 2:0.518133 3:-0.49064 4:0.402679 
32 1:-0.427565 2:0.51838 3:-0.490693 4:0.402522 
32 1:-0.427822 2:0.518001 3:-0.490909 4:0.402467 
32 1:-0.427795 2:0.517988 3:-0.490701 4:0.402541 
32 1:-0.427729 2:0.518069 3:-0.490678 4:0.402559 
32 1:-0.520368 2:0.43821 3:-0.57313 4:0.3288 
32 1:-0.427773 2:0.517968 3:-0.490674 4:0.402533 
32 1:-0.42777 2:0.518001 3:-0.490661 4:0.402581 
32 1:-0.427744 2:0.518054 3:-0.490673 4:0.402555 
32 1:-0.427825 2:0.51788 3:-0.490712 4:0.402466 
32 1:-0.427816 2:0.517892 3:-0.490702 4:0.402484 
32 1:-0.427802 2:0.517952 3:-0.490698 4:0.402518 
32 1:-0.427891 2:0.517799 3:-0.490762 4:0.402404 
32 1:-0.453757 2:0.454708 3:-0.513812 4:0.344054 
32 1:-0.483947 2:0.463285 3:-0.540658 4:0.352019 
32 1:-0.427777 2:0.517962 3:-0.490685 4:0.402497 
32 1:-0.427848 2:0.517907 3:-0.49073 4:0.402488 
32 1:-0.427755 2:0.518031 3:-0.490671 4:0.402562 
32 1:-0.427769 2:0.518028 3:-0.490597 4:0.402611 
32 1:-0.427852 2:0.517976 3:-0.490794 4:0.402506 
32 1:-0.427783 2:0.517912 3:-0.490679 4:0.402495 
32 1:-0.428181 2:0.516767 3:-0.491051 4:0.401378 
32 1:-0.427736 2:0.518058 3:-0.490766 4:0.402438 
32 1:-0.427857 2:0.517971 3:-0.490778 4:0.402515 
32 1:-0.427779 2:0.517998 3:-0.490687 4:0.402546 
32 1:-0.427785 2:0.518015 3:-0.490633 4:0.402605 
32 1:-0.42772 2:0.518076 3:-0.49068 4:0.40256 
32 1:-0.427728 2:0.51807 3:-0.490655 4:0.402593 
32 1:-0.427755 2:0.518033 3:-0.490675 4:0.40257 
32 1:-0.42776 2:0.518016 3:-0.490696 4:0.40247 
32 1:-0.427623 2:0.518085 3:-0.490714 4:0.402566 
32 1:-0.427714 2:0.518063 3:-0.490713 4:0.402547 
32 1:-0.427772 2:0.518013 3:-0.490714 4:0.402524 
32 1:-0.427707 2:0.518067 3:-0.490656 4:0.402591 
32 1:-0.427739 2:0.518146 3:-0.490664 4:0.402539 
32 1:-0.42784 2:0.517991 3:-0.490752 4:0.402542 
32 1:-0.427756 2:0.518025 3:-0.490659 4:0.402582 
32 1:-0.427654 2:0.518298 3:-0.490635 4:0.40265 
32 1:-0.667207 2:0.415147 3:-0.703848 4:0.307499 
32 1:-0.427767 2:0.518003 3:-0.490684 4:0.402527 
32 1:-0.427799 2:0.517958 3:-0.490821 4:0.402305 
32 1:-0.427717 2:0.518075 3:-0.490657 4:0.402589 
32 1:-0.427756 2:0.51803 3:-0.490682 4:0.402553 
32 1:-0.427778 2:0.517974 3:-0.490681 4:0.402527 
32 1:-0.427723 2:0.51809 3:-0.49064 4:0.402622 
32 1:-0.427741 2:0.518061 3:-0.490628 4:0.402654 
32 1:-0.428536 2:0.517051 3:-0.49135 4:0.401687 
32 1:-0.42777 2:0.518012 3:-0.490729 4:0.402487 
32 1:-0.427755 2:0.518025 3:-0.490649 4:0.40264 
32 1:-0.427766 2:0.518005 3:-0.490676 4:0.402545 
32 1:-0.427661 2:0.51821 3:-0.490738 4:0.402429 
32 1:-0.427771 2:0.518016 3:-0.490667 4:0.40258 
32 1:-0.427752 2:0.518036 3:-0.490671 4:0.402566 
32 1:-0.427738 2:0.518077 3:-0.490652 4:0.402604 
32 1:-0.427812 2:0.517973 3:-0.490694 4:0.40255 
32 1:-0.427712 2:0.51806 3:-0.490661 4:0.402587 
32 1:-0.427829 2:0.517796 3:-0.490734 4:0.402336 
32 1:-0.427752 2:0.518037 3:-0.490633 4:0.402633 
32 1:-0.427801 2:0.517996 3:-0.490689 4:0.402564 
32 1:-0.427766 2:0.518025 3:-0.490664 4:0.402585 
32 1:-0.427752 2:0.518037 3:-0.490657 4:0.402591 
32 1:-0.427745 2:0.518064 3:-0.490666 4:0.402558 
32 1:-0.427777 2:0.518014 3:-0.490669 4:0.402579 
32 1:-0.427721 2:0.518055 3:-0.490706 4:0.402557 
32 1:-0.427793 2:0.517989 3:-0.490698 4:0.402541 
32 1:-0.427778 2:0.518002 3:-0.490727 4:0.402494 
32 1:-0.42776 2:0.518025 3:-0.490665 4:0.402578 
32 1:-0.427805 2:0.517943 3:-0.49068 4:0.402546 
32 1:-0.42777 2:0.518023 3:-0.490685 4:0.402571 
32 1:-0.427858 2:0.517935 3:-0.490751 4:0.402498 
32 1:-0.427753 2:0.518034 3:-0.490728 4:0.402563 
32 1:-0.427756 2:0.518025 3:-0.490662 4:0.402567 
32 1:-0.427769 2:0.518003 3:-0.490672 4:0.402559 
32 1:-0.427776 2:0.518022 3:-0.49068 4:0.402578 
32 1:-0.427763 2:0.518023 3:-0.490655 4:0.402593 
32 1:-0.427775 2:0.517967 3:-0.490691 4:0.402476 
32 1:-0.427805 2:0.51796 3:-0.490703 4:0.40252 
32 1:-0.427765 2:0.518005 3:-0.490669 4:0.402557 
32 1:-0.427797 2:0.518003 3:-0.490705 4:0.402555 
32 1:-0.427807 2:0.517996 3:-0.490683 4:0.402571 
32 1:-0.427761 2:0.518013 3:-0.490649 4:0.402613 
32 1:-0.427786 2:0.517895 3:-0.490667 4:0.402547 
32 1:-0.427759 2:0.518029 3:-0.490666 4:0.402583 
32 1:-0.427755 2:0.51803 3:-0.49066 4:0.402584 
32 1:-0.427681 2:0.518097 3:-0.490679 4:0.40257 
32 1:-0.427782 2:0.517981 3:-0.490678 4:0.40255 
32 1:-0.427829 2:0.517957 3:-0.490713 4:0.402531 
32 1:-0.427766 2:0.518026 3:-0.490657 4:0.40259 
32 1:-0.427816 2:0.517968 3:-0.490714 4:0.402527 
32 1:-0.427696 2:0.518079 3:-0.490669 4:0.40258 
32 1:-0.427762 2:0.518029 3:-0.490653 4:0.402592 
32 1:-0.42776 2:0.518026 3:-0.490667 4:0.402577 
32 1:-0.427842 2:0.517922 3:-0.490755 4:0.40246 
32 1:-0.427792 2:0.518005 3:-0.490732 4:0.402532 
32 1:-0.427832 2:0.517946 3:-0.490732 4:0.402503 
32 1:-0.428096 2:0.517947 3:-0.491001 4:0.4025 
32 1:-0.427778 2:0.51801 3:-0.490698 4:0.402548 
32 1:-0.427758 2:0.518027 3:-0.490666 4:0.402574 
32 1:-0.427901 2:0.517956 3:-0.490846 4:0.402487 
32 1:-0.427754 2:0.518034 3:-0.490673 4:0.402515 
32 1:-0.427805 2:0.517998 3:-0.490723 4:0.402543 
32 1:-0.427783 2:0.517963 3:-0.490699 4:0.402484 
32 1:-0.427764 2:0.518001 3:-0.490651 4:0.402611 
32 1:-0.427746 2:0.518062 3:-0.490661 4:0.402573 
32 1:-0.427822 2:0.517825 3:-0.490699 4:0.402456 
32 1:-0.427654 2:0.518197 3:-0.490728 4:0.402469 
32 1:-0.427775 2:0.518015 3:-0.490681 4:0.402569 
32 1:-0.427783 2:0.518025 3:-0.490659 4:0.402589 
32 1:-0.604081 2:0.439533 3:-0.647663 4:0.330029 
32 1:-0.427712 2:0.518247 3:-0.490695 4:0.402389 
11.9769731236267 1:-0.427865 2:0.517964 3:-0.683572 4:0.277416 
32 1:-0.42792 2:0.517932 3:-0.490779 4:0.402513 
32 1:-0.42775 2:0.518038 3:-0.490642 4:0.402608 
32 1:-0.427729 2:0.518082 3:-0.490644 4:0.402617 
32 1:-0.427713 2:0.518112 3:-0.49063 4:0.402645 
32 1:-0.427589 2:0.518114 3:-0.490624 4:0.402607 
32 1:-0.427878 2:0.517993 3:-0.490957 4:0.402488 
32 1:-0.427782 2:0.517933 3:-0.49066 4:0.402577 
32 1:-0.42778 2:0.518014 3:-0.490686 4:0.402568 
32 1:-0.604576 2:0.421959 3:-0.648213 4:0.313723 
32 1:-0.427645 2:0.518116 3:-0.490644 4:0.402601 
32 1:-0.427727 2:0.518076 3:-0.490594 4:0.402694 
32 1:-0.427781 2:0.517758 3:-0.490684 4:0.402309 
32 1:-0.42776 2:0.518027 3:-0.490655 4:0.402592 
32 1:-0.427755 2:0.518031 3:-0.490657 4:0.402591 
32 1:-0.427733 2:0.518042 3:-0.49066 4:0.402589 
32 1:-0.427802 2:0.51799 3:-0.490703 4:0.402547 
32 1:-0.427747 2:0.518058 3:-0.490681 4:0.402501 
32 1:-0.427743 2:0.518071 3:-0.490667 4:0.402553 
32 1:-0.427749 2:0.518037 3:-0.490706 4:0.402548 
32 1:-0.427726 2:0.518158 3:-0.490659 4:0.402581 
32 1:-0.427833 2:0.518009 3:-0.490536 4:0.402629 
32 1:-0.427757 2:0.518028 3:-0.490644 4:0.402611 
32 1:-0.427709 2:0.51816 3:-0.490705 4:0.402449 
32 1:-0.42777 2:0.51801 3:-0.490679 4:0.402558 
32 1:-0.427892 2:0.517987 3:-0.49075 4:0.402558 
32 1:-0.427761 2:0.518006 3:-0.490699 4:0.402423 
32 1:-0.42775 2:0.518051 3:-0.49067 4:0.402528 
32 1:-0.427765 2:0.517999 3:-0.490666 4:0.402561 
32 1:-0.427863 2:0.517951 3:-0.490706 4:0.402552 
32 1:-0.427694 2:0.518047 3:-0.490691 4:0.402582 
32 1:-0.427751 2:0.518039 3:-0.490633 4:0.402636 
32 1:-0.427756 2:0.51803 3:-0.490689 4:0.402518 
32 1:-0.427761 2:0.518013 3:-0.490665 4:0.402565 
32 1:-0.427815 2:0.517903 3:-0.490713 4:0.402467 
32 1:-0.427758 2:0.518027 3:-0.49064 4:0.402619 
32 1:-0.427726 2:0.518067 3:-0.490643 4:0.402608 
32 1:-0.47069 2:0.45077 3:-0.528887 4:0.340419 
32 1:-0.42776 2:0.518028 3:-0.490686 4:0.402563 
32 1:-0.427904 2:0.517934 3:-0.490784 4:0.402503 
32 1:-0.427784 2:0.517998 3:-0.490667 4:0.402578 
32 1:-0.427718 2:0.518053 3:-0.490658 4:0.402589 
32 1:-0.427714 2:0.518101 3:-0.490686 4:0.402538 
32 1:-0.427756 2:0.518028 3:-0.490685 4:0.402504 
32 1:-0.427726 2:0.518098 3:-0.490661 4:0.40258 
32 1:-0.427757 2:0.51802 3:-0.490683 4:0.402468 
32 1:-0.427789 2:0.517979 3:-0.490675 4:0.402561 
32 1:-0.427722 2:0.518087 3:-0.490691 4:0.402531 
32 1:-0.427766 2:0.518011 3:-0.490687 4:0.402531 
32 1:-0.427787 2:0.517947 3:-0.490679 4:0.40253 
32 1:-0.427773 2:0.517981 3:-0.490681 4:0.402522 
32 1:-0.427748 2:0.518041 3:-0.490633 4:0.402623 
32 1:-0.427836 2:0.517995 3:-0.490684 4:0.402577 
32 1:-0.427665 2:0.518146 3:-0.490689 4:0.402548 
32 1:-0.427773 2:0.517992 3:-0.490707 4:0.402478 
32 1:-0.427719 2:0.518059 3:-0.490667 4:0.402582 
32 1:-0.427825 2:0.517911 3:-0.490713 4:0.402489 
32 1:-0.427774 2:0.518017 3:-0.490644 4:0.4026 
32 1:-0.427757 2:0.518029 3:-0.490667 4:0.402578 
32 1:-0.427774 2:0.51799 3:-0.49072 4:0.402453 
32 1:-0.427692 2:0.518084 3:-0.490628 4:0.402615 
32 1:-0.42837 2:0.506864 3:-0.491213 4:0.392127 
32 1:-0.427662 2:0.518074 3:-0.490697 4:0.402571 
32 1:-0.427672 2:0.518214 3:-0.490673 4:0.402554 
32 1:-0.427769 2:0.518013 3:-0.490691 4:0.402544 
32 1:-0.427813 2:0.517966 3:-0.490691 4:0.40255 
32 1:-0.427705 2:0.518084 3:-0.490679 4:0.402567 
32 1:-0.427712 2:0.518167 3:-0.490651 4:0.402612 
32 1:-0.427889 2:0.517301 3:-0.49078 4:0.401899 
32 1:-0.427804 2:0.517966 3:-0.490701 4:0.402527 
32 1:-0.475501 2:0.469888 3:-0.533194 4:0.358064 
32 1:-0.427779 2:0.518025 3:-0.490686 4:0.40258 
32 1:-0.427772 2:0.518023 3:-0.490557 4:0.402645 
32 1:-0.427709 2:0.518068 3:-0.490676 4:0.402574 
32 1:-0.370048 2:0.55199 3:-0.490687 4:0.402571 
32 1:-0.427763 2:0.518007 3:-0.490706 4:0.402445 
32 1:-0.427771 2:0.51801 3:-0.490665 4:0.40258 
32 1:-0.427863 2:0.517853 3:-0.490825 4:0.402303 
32 1:-0.427759 2:0.518026 3:-0.490644 4:0.402609 
32 1:-0.427953 2:0.517817 3:-0.490848 4:0.402374 
32 1:-0.427766 2:0.518023 3:-0.490658 4:0.402589 
32 1:-0.428075 2:0.517811 3:-0.49095 4:0.402379 
32 1:-0.355648 2:0.543391 3:-0.490694 4:0.402577 
32 1:-0.427774 2:0.517997 3:-0.490655 4:0.402595 
32 1:-0.564719 2:0.424252 3:-0.612582 4:0.315927 
32 1:-0.427817 2:0.51797 3:-0.490707 4:0.402538 
32 1:-0.525338 2:0.451977 3:-0.577723 4:0.341409 
32 1:-0.427754 2:0.518034 3:-0.490651 4:0.40261 
32 1:-0.470535 2:0.463569 3:-0.528725 4:0.35228 
32 1:-0.54031 2:0.430727 3:-0.590877 4:0.321892 
32 1:-0.427723 2:0.51808 3:-0.49065 4:0.402601 
32 1:-0.427777 2:0.517991 3:-0.490681 4:0.402544 
32 1:-0.42771 2:0.518058 3:-0.49073 4:0.402547 
32 1:-0.480365 2:0.452859 3:-0.537499 4:0.342351 
32 1:-0.429171 2:0.517759 3:-0.491929 4:0.402334 
32 1:-0.427744 2:0.518051 3:-0.490658 4:0.402589 
32 1:-0.427768 2:0.518009 3:-0.490663 4:0.402579 
32 1:-0.427867 2:0.517973 3:-0.490619 4:0.402611 
32 1:-0.528466 2:0.445474 3:-0.580311 4:0.335538 
32 1:-0.427928 2:0.517802 3:-0.490822 4:0.402364 
32 1:-0.427928 2:0.517726 3:-0.490792 4:0.402343 
32 1:-0.427963 2:0.517885 3:-0.490896 4:0.402414 
32 1:-0.427793 2:0.517641 3:-0.490673 4:0.402421 
32 1:-0.427769 2:0.51801 3:-0.490677 4:0.402558 
32 1:-0.427757 2:0.518025 3:-0.490685 4:0.402497 
32 1:-0.428146 2:0.517878 3:-0.491065 4:0.402422 
32 1:-0.427723 2:0.518063 3:-0.490673 4:0.402574 
32 1:-0.427719 2:0.518102 3:-0.490649 4:0.402606 
32 1:-0.427804 2:0.517979 3:-0.490737 4:0.402501 
32 1:-0.4278 2:0.517954 3:-0.490719 4:0.402478 
32 1:-0.42785 2:0.517958 3:-0.49075 4:0.402514 
32 1:-0.427709 2:0.518097 3:-0.49065 4:0.4026 
32 1:-0.427773 2:0.517986 3:-0.490685 4:0.402517 
32 1:-0.427616 2:0.518227 3:-0.490693 4:0.402538 
32 1:-0.42773 2:0.51808 3:-0.521286 4:0.339849 
32 1:-0.427775 2:0.51796 3:-0.490676 4:0.402522 
32 1:-0.486918 2:0.469978 3:-0.543353 4:0.358158 
32 1:-0.427793 2:0.517983 3:-0.490695 4:0.402538 
32 1:-0.427774 2:0.517991 3:-0.490683 4:0.402531 
32 1:-0.427826 2:0.517985 3:-0.490706 4:0.402556 
32 1:-0.427708 2:0.518094 3:-0.490656 4:0.402591 
32 1:-0.42779 2:0.517912 3:-0.490687 4:0.402486 
32 1:-0.427759 2:0.518024 3:-0.490662 4:0.40258 
32 1:-0.489342 2:0.443501 3:-0.545477 4:0.333721 
32 1:-0.427766 2:0.518017 3:-0.490673 4:0.402569 
32 1:-0.427777 2:0.517943 3:-0.490675 4:0.402514 
32 1:-0.427765 2:0.518007 3:-0.490666 4:0.402567 
32 1:-0.427923 2:0.517536 3:-0.490802 4:0.402149 
32 1:-0.448466 2:0.450453 3:-0.509106 4:0.340102 
32 1:-0.427754 2:0.518034 3:-0.490652 4:0.402599 
32 1:-0.477464 2:0.444934 3:-0.534922 4:0.335018 
32 1:-0.427594 2:0.518295 3:-0.490679 4:0.402553 
32 1:-0.427741 2:0.518052 3:-0.490665 4:0.402579 
32 1:-0.427788 2:0.517994 3:-0.490726 4:0.402508 
32 1:-0.427813 2:0.517985 3:-0.490707 4:0.402547 
32 1:-0.427772 2:0.518014 3:-0.490679 4:0.402565 
32 1:-0.516282 2:0.461884 3:-0.569479 4:0.350693 
32 1:-0.427769 2:0.518011 3:-0.490716 4:0.4025 
32 1:-0.487511 2:0.451519 3:-0.543851 4:0.341126 
32 1:-0.427745 2:0.518045 3:-0.490661 4:0.402584 
32 1:-0.427803 2:0.517804 3:-0.49072 4:0.402284 
32 1:-0.427765 2:0.518001 3:-0.490669 4:0.402552 
32 1:-0.427912 2:0.517799 3:-0.490747 4:0.402451 
32 1:-0.482414 2:0.44611 3:-0.539336 4:0.336097 
32 1:-0.49301 2:0.487109 3:-0.548748 4:0.374013 
32 1:-0.427751 2:0.518038 3:-0.490679 4:0.402549 
32 1:-0.41737 2:0.534027 3:-0.481421 4:0.417357 
32 1:-0.427941 2:0.517955 3:-0.490849 4:0.402506 
32 1:-0.42774 2:0.518071 3:-0.490659 4:0.402585 
32 1:-0.429257 2:0.517235 3:-0.492064 4:0.401815 
32 1:-0.42779 2:0.517791 3:-0.490699 4:0.4023 
32 1:-0.427747 2:0.518037 3:-0.490624 4:0.402611 
32 1:-0.427801 2:0.518008 3:-0.490664 4:0.402586 
32 1:-0.427771 2:0.518024 3:-0.490715 4:0.402559 
32 1:-0.427748 2:0.518039 3:-0.490641 4:0.402607 
32 1:-0.350614 2:0.598275 3:-0.490666 4:0.40258 
32 1:-0.427705 2:0.518165 3:-0.490673 4:0.402544 
32 1:-0.42774 2:0.518107 3:-0.490657 4:0.402589 
32 1:-0.427728 2:0.518079 3:-0.490657 4:0.402589 
32 1:-0.42755 2:0.518198 3:-0.490671 4:0.402578 
32 1:-0.427777 2:0.51799 3:-0.490666 4:0.402573 
32 1:-0.375309 2:0.573815 3:-0.490695 4:0.402548 
32 1:-0.427745 2:0.518045 3:-0.490665 4:0.402578 
32 1:-0.427752 2:0.518039 3:-0.490648 4:0.402616 
32 1:-0.427731 2:0.518098 3:-0.490641 4:0.402636 
32 1:-0.427803 2:0.517982 3:-0.490701 4:0.402542 
32 1:-0.427677 2:0.518147 3:-0.490629 4:0.402633 
32 1:-0.427755 2:0.518031 3:-0.490657 4:0.402589 
32 1:-0.42772 2:0.518077 3:-0.490654 4:0.402594 
32 1:-0.427721 2:0.518098 3:-0.490689 4:0.402525 
32 1:-0.427763 2:0.51802 3:-0.490649 4:0.402601 
32 1:-0.427744 2:0.518041 3:-0.490795 4:0.402478 
32 1:-0.427907 2:0.517948 3:-0.490806 4:0.402503 
32 1:-0.427743 2:0.518039 3:-0.490703 4:0.402563 
32 1:-0.42775 2:0.518041 3:-0.490646 4:0.40261 
32 1:-0.42774 2:0.51805 3:-0.490649 4:0.4026 
32 1:-0.427766 2:0.518015 3:-0.490724 4:0.402487 
32 1:-0.427807 2:0.517962 3:-0.490719 4:0.402504 
32 1:-0.427724 2:0.518049 3:-0.490664 4:0.402586 
32 1:-0.427751 2:0.518043 3:-0.490668 4:0.402555 
32 1:-0.427731 2:0.518074 3:-0.490645 4:0.402613 
32 1:-0.427864 2:0.517893 3:-0.490751 4:0.402465 
32 1:-0.427748 2:0.518039 3:-0.490658 4:0.402589 
32 1:-0.427881 2:0.517907 3:-0.490761 4:0.402482 
32 1:-0.427734 2:0.518064 3:-0.490683 4:0.402547 
32 1:-0.427663 2:0.51816 3:-0.490661 4:0.402584 
32 1:-0.427825 2:0.517974 3:-0.490717 4:0.402538 
32 1:-0.427778 2:0.51801 3:-0.490669 4:0.402577 
32 1:-0.427774 2:0.517975 3:-0.4907 4:0.402461 
32 1:-0.427736 2:0.518041 3:-0.490729 4:0.402558 
32 1:-0.427698 2:0.518143 3:-0.490667 4:0.40257 
32 1:-0.427754 2:0.518034 3:-0.490672 4:0.402446 
32 1:-0.427746 2:0.518084 3:-0.49066 4:0.402572 
32 1:-0.427734 2:0.51806 3:-0.490662 4:0.402584 
32 1:-0.45498 2:0.439407 3:-0.51491 4:0.32988 
32 1:-0.427933 2:0.517887 3:-0.490861 4:0.402417 
32 1:-0.491179 2:0.465838 3:-0.547105 4:0.354368 
32 1:-0.42777 2:0.518011 3:-0.503252 4:0.384451 
32 1:-0.427957 2:0.517821 3:-0.490876 4:0.402353 
32 1:-0.481097 2:0.475438 3:-0.538135 4:0.363234 
32 1:-0.427676 2:0.518116 3:-0.49064 4:0.402609 
32 1:-0.427831 2:0.51792 3:-0.490699 4:0.402526 
32 1:-0.427784 2:0.517977 3:-0.49068 4:0.402546 
32 1:-0.427993 2:0.517912 3:-0.490865 4:0.40248 
32 1:-0.427759 2:0.518022 3:-0.490621 4:0.402677 
32 1:-0.42784 2:0.517816 3:-0.490729 4:0.402402 
32 1:-0.427785 2:0.517956 3:-0.49069 4:0.402504 
32 1:-0.427755 2:0.518033 3:-0.49067 4:0.40258 
32 1:-0.427714 2:0.518188 3:-0.490664 4:0.402563 
32 1:-0.42777 2:0.517987 3:-0.49068 4:0.402522 
32 1:-0.427869 2:0.517956 3:-0.490747 4:0.402528 
32 1:-0.427802 2:0.517979 3:-0.490698 4:0.402542 
32 1:-0.427721 2:0.518157 3:-0.490659 4:0.402583 
32 1:-0.427764 2:0.518025 3:-0.490663 4:0.402585 
32 1:-0.427849 2:0.517897 3:-0.490736 4:0.402473 
32 1:-0.427714 2:0.518066 3:-0.490679 4:0.402571 
32 1:-0.427753 2:0.518035 3:-0.490667 4:0.402556 
32 1:-0.427795 2:0.517994 3:-0.490732 4:0.402516 
32 1:-0.427767 2:0.51801 3:-0.490629 4:0.402641 
32 1:-0.427803 2:0.517957 3:-0.490695 4:0.402529 
32 1:-0.427775 2:0.517969 3:-0.490661 4:0.402579 
32 1:-0.427839 2:0.51792 3:-0.490718 4:0.402506 
32 1:-0.427787 2:0.517962 3:-0.490696 4:0.402503 
32 1:-0.42776 2:0.518013 3:-0.490671 4:0.402545 
32 1:-0.427789 2:0.517895 3:-0.490691 4:0.402452 
32 1:-0.427729 2:0.518052 3:-0.490667 4:0.402582 
32 1:-0.388336 2:0.566916 3:-0.490648 4:0.402602 
32 1:-0.42777 2:0.517999 3:-0.49067 4:0.402561 
32 1:-0.42778 2:0.517973 3:-0.490674 4:0.402548 
32 1:-0.42776 2:0.518015 3:-0.490668 4:0.402557 
32 1:-0.427734 2:0.518075 3:-0.49066 4:0.402583 
32 1:-0.427752 2:0.51804 3:-0.490685 4:0.402512 
32 1:-0.427739 2:0.518069 3:-0.490656 4:0.402593 
32 1:-0.427933 2:0.517901 3:-0.490916 4:0.402392 
32 1:-0.427758 2:0.518028 3:-0.490641 4:0.402612 
32 1:-0.427757 2:0.518029 3:-0.490659 4:0.402587 
32 1:-0.427697 2:0.51809 3:-0.490656 4:0.402591 
32 1:-0.427668 2:0.518108 3:-0.490663 4:0.402585 
32 1:-0.427768 2:0.518016 3:-0.490679 4:0.402561 
32 1:-0.427736 2:0.51817 3:-0.490649 4:0.402652 
32 1:-0.427728 2:0.518086 3:-0.49066 4:0.402584 
32 1:-0.427615 2:0.518056 3:-0.490667 4:0.402588 
32 1:-0.42775 2:0.518036 3:-0.49072 4:0.402536 
32 1:-0.427775 2:0.518007 3:-0.490703 4:0.402532 
32 1:-0.427755 2:0.518032 3:-0.490716 4:0.402483 
32 1:-0.552715 2:0.476857 3:-0.601817 4:0.364567 
32 1:-0.427768 2:0.517996 3:-0.490661 4:0.40258 
32 1:-0.42841 2:0.517608 3:-0.491257 4:0.402186 
32 1:-0.398873 2:0.537385 3:-0.464968 4:0.420459 
32 1:-0.427787 2:0.518014 3:-0.490685 4:0.402573 
32 1:-0.427771 2:0.518033 3:-0.490676 4:0.40259 
32 1:-0.4279 2:0.517911 3:-0.490778 4:0.402485 
32 1:-0.428252 2:0.517743 3:-0.491116 4:0.402312 
32 1:-0.412781 2:0.5264 3:-0.477322 4:0.410326 
32 1:-0.42791 2:0.517473 3:-0.490794 4:0.402078 
32 1:-0.42783 2:0.518031 3:-0.490724 4:0.402587 
32 1:-0.427756 2:0.517643 3:-0.490659 4:0.40223 
32 1:-0.42875 2:0.516104 3:-0.491539 4:0.400817 
32 1:-0.430088 2:0.514528 3:-0.492727 4:0.399363 
32 1:-0.428871 2:0.517029 3:-0.491697 4:0.40162 
32 1:-0.429132 2:0.515164 3:-0.491906 4:0.39989 
32 1:-0.427993 2:0.517862 3:-0.421656 4:0.453817 
32 1:-0.427666 2:0.518172 3:-0.490624 4:0.402643 
32 1:-0.427714 2:0.518066 3:-0.490684 4:0.402567 
32 1:-0.427727 2:0.518072 3:-0.490657 4:0.40259 
32 1:-0.380429 2:0.573567 3:-0.490632 4:0.40262 
32 1:-0.427751 2:0.518048 3:-0.490659 4:0.402581 
32 1:-0.427661 2:0.518068 3:-0.490621 4:0.402604 
32 1:-0.427784 2:0.517995 3:-0.490692 4:0.402543 
32 1:-0.427739 2:0.51808 3:-0.490646 4:0.402625 
32 1:-0.42773 2:0.518096 3:-0.490654 4:0.402598 
32 1:-0.427763 2:0.518028 3:-0.490671 4:0.402582 
32 1:-0.427761 2:0.518024 3:-0.490656 4:0.402592 
32 1:-0.42774 2:0.518057 3:-0.490656 4:0.402592 
32 1:-0.427716 2:0.518107 3:-0.490647 4:0.40261 
32 1:-0.427788 2:0.517937 3:-0.490665 4:0.402566 
32 1:-0.427739 2:0.518075 3:-0.490663 4:0.402572 
32 1:-0.448288 2:0.468952 3:-0.508951 4:0.357196 
32 1:-0.42776 2:0.518025 3:-0.490671 4:0.402571 
32 1:-0.428509 2:0.517041 3:-0.49137 4:0.401618 
32 1:-0.428681 2:0.517491 3:-0.491376 4:0.402153 
32 1:-0.427724 2:0.518057 3:-0.490681 4:0.40257 
